tree
version=v3
num_class=1
num_tree_per_iteration=1
label_index=0
max_feature_idx=12
objective=regression
feature_names=index pickup_longitude pickup_latitude dropoff_longitude dropoff_latitude passenger_count year month weekday hour distance JFK_distance invalid
feature_infos=[70:43074299] [-2633.9088080000001:40.858181999999999] [-1757.23883:518.9041900000002] [-3386.1094450000005:2842.4740299999999] [-1375.550332:3345.9173530000007] [0:6] [2009:2015] [1:12] [1:7] [0:23] [3.0660847629710292e-05:16069.732608657883] [0.11030630189316176:15090.907457810112] [0:2]
tree_sizes=919 901 903 881 886 874 875 877 904 862 900 902 898 895 861 883 872 906 894 907 873 863 866 895 912 901 867 913 863 897 878 873 911 911 905 902 901 888 884 917 884 904 881 887 917 914 880 868 903 906 876 899 877 899 894 883 897 881 885 914 887 862 906 885 912 879 928 886 890 925 913 883 871 864 884 888 891 878 862 873 902 890 914 906 910 879 892 905 882 915 895 880 886 897 882 870 888 919 861 892 930 918 895 907 923 911 901 857 923 875 888 905 886 903 901 879 887 869 935 876 916 907 884 900 910 895 866 773 912 909 879 884 901 914 873 901 877 911 915 914 913 900 926 887 893 935 886 883 927 886 902 879 914 883 906 883 862 882 888 924 890 907 894 896 928 889 930 902 892 877 899 919 897 917 901 887 919 905 890 913 872 904 887 897 883 905 912 884 915 928 931 879 876 891 886 918 932 889 909 891 899 910 913 881 877 923 930 927 890 878 888 878 903 889 875 875 924 893 907 897 889 864 872 878 929 903 898 874 897 905 882 928 923 892 929 911 915 892 886 921 912 919 872 792 885 911 877 878 885 908 913 879 910 873 899 910 899 885 885 895 914 883 918 864 896 884 919 891 895 894 871 918 909 875 897 909 896 926 881 928 901 930 887 905 906 910 897 913 909 895 900 898 888 885 877 921 912 901 912 908

Tree=0
num_leaves=8
num_cat=0
split_feature=10 10 10 12 10 10 10
split_gain=3.53189e+08 6.33419e+07 3.29832e+07 1.97157e+07 9.60207e+06 9.02422e+06 3.33019e+06
threshold=8.0307929392107784 2.6717522407038135 16.657007346866703 1.0000000180025095e-35 4.3363589292272549 1.3860363370451005 11.067868258979198
decision_type=2 2 2 2 2 2 2
left_child=1 5 6 -4 -3 -1 -2
right_child=2 4 3 -5 -6 -7 -8
leaf_value=8.4729474900437829 21.183187039739849 12.657967425575583 37.10749112847877 14.679252966373241 16.047890777005193 10.161933062591846 25.491494330259989
leaf_weight=3426386 118086 1104690 163956 18420 518837 2191331 211693
leaf_count=3426386 118086 1104690 163956 18420 518837 2191331 211693
internal_value=0 -1.79495 25.3783 36.1696 3.70665 -3.38492 19.4105
internal_weight=0 7.24124e+06 512155 182376 1.62353e+06 5.61772e+06 329779
internal_count=7753399 7241244 512155 182376 1623527 5617717 329779
shrinkage=1


Tree=1
num_leaves=8
num_cat=0
split_feature=10 3 4 11 10 2 6
split_gain=4.64805e+07 1.05873e+07 1.00751e+07 6.41799e+06 4.97763e+06 4.00176e+06 1.35568e+06
threshold=6.0090614566965312 -74.023163999999994 40.699188000000007 4.336558124058068 2.0022723403363205 40.737981000000012 2012.5000000000002
decision_type=2 2 2 2 2 2 2
left_child=2 6 5 -3 -4 -1 -2
right_child=1 3 4 -5 -6 -7 -8
leaf_value=1.9802109352963861 16.045289371023912 8.3244848990645952 -1.0119066015624674 3.5867097491899202 0.16831665586971753 7.9498270853849045 27.504965180558827
leaf_weight=154574 10672 160887 4625024 484870 2241540 68456 7376
leaf_count=154574 10672 160887 4625024 484870 2241540 68456 7376
internal_value=0 8.00166 -0.749202 7.334 -0.964048 5.86539 31.8903
internal_weight=0 663805 7.08959e+06 645757 6.86656e+06 223030 18048
internal_count=7753399 663805 7089594 645757 6866564 223030 18048
shrinkage=0.65


Tree=2
num_leaves=8
num_cat=0
split_feature=11 3 6 6 10 4 10
split_gain=7.62362e+06 5.53888e+06 4.88348e+06 4.64551e+06 2.89122e+06 1.33071e+06 1.07814e+06
threshold=12.599050789759326 -74.023163999999994 2012.5000000000002 2012.5000000000002 0.027796401932843145 40.855207000000007 0.027796401932843145
decision_type=2 2 2 2 2 2 2
left_child=2 4 6 -3 -2 -4 -1
right_child=1 3 5 -5 -6 -7 -8
leaf_value=13.079098001235854 33.198607910005798 -0.60513115275553597 4.810744815677988 0.46997396522634638 7.0807486689031558 18.853817963290318 0.67146420919524763
leaf_weight=2990 1918 4524967 191579 2718095 26990 2894 283966
leaf_count=2990 1918 4524967 191579 2718095 26990 2894 283966
internal_value=0 -0.255138 3.85385 -0.310273 13.5594 7.72265 1.23192
internal_weight=0 7.27197e+06 481429 7.24306e+06 28908 194473 286956
internal_count=7753399 7271970 481429 7243062 28908 194473 286956
shrinkage=0.65


Tree=3
num_leaves=8
num_cat=0
split_feature=4 4 2 2 10 2 1
split_gain=2.9304e+06 2.59737e+06 4.4818e+06 3.89921e+06 1.36796e+06 882040 734785
threshold=40.82591200000001 40.723207500000008 40.741170500000003 40.721027500000005 0.027796401932843145 40.774353000000012 -73.783543999999992
decision_type=2 2 2 2 2 2 2
left_child=1 2 -1 -3 6 -6 -2
right_child=4 3 -4 -5 5 -7 -8
leaf_value=-0.20581461089198874 20.530820704317211 1.6044142954490506 2.4443003588695937 -0.33870697296451979 5.0732033130582819 0.82123868073547535 69.830868453825673
leaf_weight=662204 726 470063 454786 6077860 54427 33178 155
leaf_count=662204 726 470063 454786 6077860 54427 33178 155
internal_value=0 -0.0660543 1.34337 -0.306483 5.72182 5.32752 44.93
internal_weight=0 7.66491e+06 1.11699e+06 6.54792e+06 88486 87605 881
internal_count=7753399 7664913 1116990 6547923 88486 87605 881
shrinkage=0.65


Tree=4
num_leaves=8
num_cat=0
split_feature=10 10 6 11 3 10 1
split_gain=1.60387e+06 1.85902e+06 1.71954e+06 368225 271938 162860 143586
threshold=0.027796401932843145 0.74347375496222612 2011.5000000000002 25.959604224601978 -74.009133999999975 0.50222165595708879 -73.801013499999982
decision_type=2 2 2 2 2 2 2
left_child=3 5 -3 6 -5 -2 -1
right_child=1 2 -4 4 -6 -7 -8
leaf_value=3.4772343399083425 -0.87873026873049465 -0.23181156220383833 0.4534304092942209 10.301099108610668 37.246631225141194 -0.44962458194623678 8.1272191361900479
leaf_weight=24712 765740 2869239 3358003 2486 169 729885 3165
leaf_count=24712 765740 2869239 3358003 2486 169 729885 3165
internal_value=0 -0.0285974 0.211848 7.23353 18.4866 -1.02972 6.1618
internal_weight=0 7.72287e+06 6.22724e+06 30532 2655 1.49562e+06 27877
internal_count=7753399 7722867 6227242 30532 2655 1495625 27877
shrinkage=0.65


Tree=5
num_leaves=8
num_cat=0
split_feature=4 3 11 9 2 10 3
split_gain=917799 990894 1.03412e+06 821977 563209 1.13575e+06 178316
threshold=40.663604215231011 -74.023163999999994 14.035154107776487 7.5000000000000009 40.695017000000007 8.0307929392107784 -73.819681999999986
decision_type=2 2 2 2 2 2 2
left_child=4 2 -2 -3 6 -6 -1
right_child=1 3 -4 -5 5 -7 -8
leaf_value=-1.7927909627959946 26.586409032057109 -0.49427469726369322 3.4458300435736633 0.059055692479005717 5.4780617445739725 0.84339768785185654 1.1908849691349568
leaf_weight=20238 849 1387649 20943 6211981 34798 62396 14545
leaf_count=20238 849 1387649 20943 6211981 34798 62396 14545
internal_value=0 -0.045275 6.68826 -0.0645835 2.61455 3.85035 -0.838654
internal_weight=0 7.62142e+06 21792 7.59963e+06 131977 97194 34783
internal_count=7753399 7621422 21792 7599630 131977 97194 34783
shrinkage=0.65


Tree=6
num_leaves=8
num_cat=0
split_feature=4 3 2 10 3 3 2
split_gain=651808 849144 695539 581050 397037 329304 246791
threshold=40.805168500000001 -73.966041782470697 40.731134500000003 3.4670127646968711 -73.789472999999987 -73.782267499999975 40.797784500000006
decision_type=2 2 2 2 2 2 2
left_child=1 3 4 -1 -2 -4 -3
right_child=2 6 5 -5 -6 -7 -8
leaf_value=0.015700673107761305 4.3458057392716958 -0.46499535437789985 0.66956577666892902 0.66496862627684084 25.610240746999072 10.861503900080985 1.0017953132040389
leaf_weight=5106514 19975 1729825 188173 657324 378 1349 49861
leaf_count=5106514 19975 1729825 188173 657324 378 1349 49861
internal_value=0 -0.0483623 1.73828 0.138069 7.29344 1.14171 -0.652155
internal_weight=0 7.54352e+06 209875 5.76384e+06 20353 189522 1.77969e+06
internal_count=7753399 7543524 209875 5763838 20353 189522 1779686
shrinkage=0.65


Tree=7
num_leaves=8
num_cat=0
split_feature=12 7 11 6 6 4 11
split_gain=605720 372709 310802 284395 275436 120396 78113
threshold=1.0000000180025095e-35 8.5000000000000018 16.329216745303778 2011.5000000000002 2012.5000000000002 40.724271000000009 1.3645076344886444
decision_type=2 2 2 2 2 2 2
left_child=1 4 6 -3 -1 -4 -2
right_child=2 3 5 -5 -6 -7 -8
leaf_value=-0.20542677630263984 10.47510077382303 0.0020538232532338789 -2.7645798168645666 0.45032648931573765 0.096183379210424733 -5.8443287124198413 1.7710057782673261
leaf_weight=3208378 566 1209860 14337 1182252 2127547 8568 1891
leaf_count=3208378 566 1209860 14337 1182252 2127547 8568 1891
internal_value=0 0.0160121 -4.87902 0.344005 -0.131028 -6.02556 5.80939
internal_weight=0 7.72804e+06 25362 2.39211e+06 5.33592e+06 22905 2457
internal_count=7753399 7728037 25362 2392112 5335925 22905 2457
shrinkage=0.65


Tree=8
num_leaves=8
num_cat=0
split_feature=9 9 10 10 4 4 4
split_gain=354886 257174 565628 194693 173548 142335 140009
threshold=18.500000000000004 8.5000000000000018 3.3725301197289106 8.0307929392107784 40.754796000000006 40.678182500000013 40.782316000000002
decision_type=2 2 2 2 2 2 2
left_child=1 6 -3 5 -5 -2 -1
right_child=3 2 -4 4 -6 -7 -8
leaf_value=-0.17913662964490201 0.99356566924517986 0.07073707340620658 0.74473339439241804 -1.7164451085987735 -0.13516323707578853 -0.19940825725987749 0.40751265299079975
leaf_weight=1591643 43150 3137488 632045 67401 51908 2037075 192689
leaf_count=1591643 43150 3137488 632045 67401 51908 2037075 192689
internal_value=0 0.134638 0.282688 -0.339962 -1.58227 -0.268711 -0.17813
internal_weight=0 5.55386e+06 3.76953e+06 2.19953e+06 119309 2.08022e+06 1.78433e+06
internal_count=7753399 5553865 3769533 2199534 119309 2080225 1784332
shrinkage=0.65


Tree=9
num_leaves=8
num_cat=0
split_feature=10 11 4 4 4 6 1
split_gain=268984 224526 356494 341015 88375.4 91556 40790.5
threshold=0.10902013762215258 21.612969318416184 40.637150000000013 40.75361250000001 40.855207000000007 2011.5000000000002 -1.0000000180025095e-35
decision_type=2 2 2 2 2 2 2
left_child=4 2 -2 -3 6 -6 -1
right_child=1 3 -4 -5 5 -7 -8
leaf_value=1.2869458607961146 2.6332833115655272 -0.048134699126035421 -0.15820658032662896 0.3286746802241719 2.4642976985189571 17.610795629748576 -13.492581050833451
leaf_weight=60990 19446 2902022 3209817 1560346 415 284 79
leaf_count=60990 19446 2902022 3209817 1560346 415 284 79
internal_value=0 -0.0166913 -0.217533 0.128651 2.07847 13.2588 1.9505
internal_weight=0 7.69163e+06 3.22926e+06 4.46237e+06 61768 699 61069
internal_count=7753399 7691631 3229263 4462368 61768 699 61069
shrinkage=0.65


Tree=10
num_leaves=8
num_cat=0
split_feature=10 10 6 6 6 3 3
split_gain=231223 277408 342702 218601 160679 153767 67498.3
threshold=0.88989084003208252 1.3860363370451005 2013.5000000000002 2012.5000000000002 2011.5000000000002 -74.023163999999994 -74.023163999999994
decision_type=2 2 2 2 2 2 2
left_child=3 4 -3 6 -2 -5 -1
right_child=1 2 -4 5 -6 -7 -8
leaf_value=-2.638275137005214 0.5453218601746449 -0.11352126171917624 0.32804408023547782 8.7396773415628601 0.11007392518028676 -0.48047235359369417 -0.016259765549126427
leaf_weight=4162 671369 3374922 952091 765 768617 739761 1241712
leaf_count=4162 671369 3374922 952091 765 768617 739761 1241712
internal_value=0 0.101351 -0.025172 -0.294246 0.48154 -0.724535 -0.0384907
internal_weight=0 5.767e+06 4.32701e+06 1.9864e+06 1.43999e+06 740526 1.24587e+06
internal_count=7753399 5766999 4327013 1986400 1439986 740526 1245874
shrinkage=0.65


Tree=11
num_leaves=8
num_cat=0
split_feature=2 4 4 2 4 10 10
split_gain=157235 2.37779e+06 1.15747e+06 456725 379289 370958 130044
threshold=40.738605749633798 40.747619000000007 40.733127500000009 40.778099500000003 40.778260500000009 12.26033906986634 4.3363589292272549
decision_type=2 2 2 2 2 2 2
left_child=1 6 3 -2 -3 -4 -1
right_child=2 4 5 -5 -6 -7 -8
leaf_value=-0.28392283054433004 0.51921017582101925 0.8925954966986468 -0.20601720217548466 2.432776777829492 2.2040165608826645 1.0865866749701529 -0.9134559086210251
leaf_weight=1224068 780075 638805 4692783 56516 109090 95717 156345
leaf_count=1224068 780075 638805 4692783 56516 109090 95717 156345
internal_value=0 0.231513 -0.0875953 0.997664 1.66751 -0.277199 -0.546498
internal_weight=0 2.12831e+06 5.62509e+06 836591 747895 4.7885e+06 1.38041e+06
internal_count=7753399 2128308 5625091 836591 747895 4788500 1380413
shrinkage=0.65


Tree=12
num_leaves=8
num_cat=0
split_feature=10 6 10 7 4 2 2
split_gain=242253 603361 287919 198502 178001 624901 336269
threshold=2.6717522407038135 2012.5000000000002 3.1628996707503467 9.5000000000000018 40.720773500000007 40.702806500000008 40.755835500000011
decision_type=2 2 2 2 2 2 2
left_child=4 3 -3 -2 6 -6 -1
right_child=1 2 -4 -5 5 -7 -8
leaf_value=0.30013790293300951 -0.60665526417404858 -0.50375519980761485 0.44638015238363365 -0.024999237796791557 3.4947089182702231 0.020673859016530679 2.4312239509995361
leaf_weight=445119 981566 169808 652662 331646 21970 5116980 33648
leaf_count=445119 981566 169808 652662 331646 21970 5116980 33648
internal_value=0 -0.286682 0.384945 -0.707324 0.108987 0.0546554 0.692172
internal_weight=0 2.13568e+06 822470 1.31321e+06 5.61772e+06 5.13895e+06 478767
internal_count=7753399 2135682 822470 1313212 5617717 5138950 478767
shrinkage=0.65


Tree=13
num_leaves=8
num_cat=0
split_feature=1 3 11 11 4 2 3
split_gain=129025 199231 264983 191710 118005 110461 67089.2
threshold=-73.998352025390616 -73.998371499999976 22.839532563424985 14.035154107776487 40.683589500000004 40.709158000000009 -74.023163999999994
decision_type=2 2 2 2 2 2 2
left_child=4 3 -3 -2 6 -6 -1
right_child=1 2 -4 -5 5 -7 -8
leaf_value=-1.75480094712906 1.3794404826748519 0.0085713001181185085 0.35735846646341102 -0.32510004572078011 0.34673361252932677 -0.30304479826593878 1.2228936791256138
leaf_weight=3531 28901 4593732 1150845 787323 123804 1031484 33779
leaf_count=3531 28901 4593732 1150845 787323 123804 1031484 33779
internal_value=0 0.0549996 0.120686 -0.407301 -0.302568 -0.359096 1.44782
internal_weight=0 6.5608e+06 5.74458e+06 816224 1.1926e+06 1.15529e+06 37310
internal_count=7753399 6560801 5744577 816224 1192598 1155288 37310
shrinkage=0.65


Tree=14
num_leaves=8
num_cat=0
split_feature=12 2 10 2 10 1 1
split_gain=145328 127753 125251 667050 133308 56926.4 56323.8
threshold=1.0000000180025095e-35 40.734511000000005 24.94719467321309 40.819246500000013 6.0090614566965312 -74.016137084716789 -74.009062499999985
decision_type=2 2 2 2 2 2 2
left_child=2 5 4 -4 -1 -2 -3
right_child=1 6 3 -5 -6 -7 -8
leaf_value=0.027406370457852217 3.3264025199950944 2.3217414362208859 3.5353829970461863 -14.918213401740649 -0.28397014848874125 -0.89881225229019879 -4.1177311683508027
leaf_weight=7083489 1475 620 10842 896 632810 15553 7714
leaf_count=7083489 1475 620 10842 896 632810 15553 7714
internal_value=0 -2.38986 0.00784307 3.27194 0.00287774 -0.819716 -5.59796
internal_weight=0 25362 7.72804e+06 11738 7.7163e+06 17028 8334
internal_count=7753399 25362 7728037 11738 7716299 17028 8334
shrinkage=0.65


Tree=15
num_leaves=8
num_cat=0
split_feature=4 2 2 4 10 4 3
split_gain=119645 825624 489252 780946 338483 133578 95208.7
threshold=40.791371500000004 40.776775180053718 40.78869032983399 40.768118500000007 4.3363589292272549 40.672482000000009 -74.023163999999994
decision_type=2 2 2 2 2 2 2
left_child=2 4 5 -4 -2 -1 -3
right_child=1 6 3 -5 -6 -7 -8
leaf_value=0.53681323678017434 1.8791134184765572 -6.0193605661540737 2.2119302765867022 -0.1639890717996999 0.32954410861810335 -0.064400922326367988 -0.57709300548982723
leaf_weight=159747 126930 1367 105840 130541 112209 6907289 209476
leaf_count=159747 126930 1367 105840 130541 112209 6907289 209476
internal_value=0 0.500458 -0.0308345 1.38436 1.77234 -0.0781704 -0.94212
internal_weight=0 449982 7.30342e+06 236381 239139 7.06704e+06 210843
internal_count=7753399 449982 7303417 236381 239139 7067036 210843
shrinkage=0.65


Tree=16
num_leaves=8
num_cat=0
split_feature=4 1 10 3 8 9 11
split_gain=120472 281478 166956 155076 112580 169755 139855
threshold=40.855207000000007 -73.888719999999992 19.379837484262151 -73.870225999999988 5.5000000000000009 6.5000000000000009 22.580198072518648
decision_type=2 2 2 2 2 2 2
left_child=4 3 -3 -2 5 -1 -6
right_child=1 2 -4 -5 6 -7 -8
leaf_value=-0.27682930494772762 1.0290691183821978 4.622000754332408 18.862107072075208 -3.6647180992522275 -0.26681685883175993 0.08449325703029037 0.067869344707049611
leaf_weight=618401 22154 4806 375 3435 1291567 4920957 891704
leaf_count=618401 22154 4806 375 3435 1291567 4920957 891704
internal_value=0 1.97477 8.69646 0.613827 -0.00786825 0.0679324 -0.200188
internal_weight=0 30770 5181 25589 7.72263e+06 5.53936e+06 2.18327e+06
internal_count=7753399 30770 5181 25589 7722629 5539358 2183271
shrinkage=0.65


Tree=17
num_leaves=8
num_cat=0
split_feature=9 10 10 10 8 4 3
split_gain=126137 88963.7 372177 161580 63830.1 31564.3 26037.2
threshold=19.500000000000004 16.657007346866703 19.379837484262151 12.755761298852841 3.5000000000000004 40.781790500000007 -73.89634199999999
decision_type=2 2 2 2 2 2 2
left_child=1 3 -3 -1 5 -2 -6
right_child=4 2 -4 -5 6 -7 -8
leaf_value=0.042756526259484937 -0.35647445777381209 -2.910772977544994 -0.022907534079023982 0.88517166165532424 -0.034803203037033395 0.056849354290314728 -0.76776330419161687
leaf_weight=5790848 621678 22141 127036 97822 983690 89272 20912
leaf_count=5790848 621678 22141 127036 97822 983690 89272 20912
internal_value=0 0.0679887 -0.694658 0.0873087 -0.239285 -0.468576 -0.0770164
internal_weight=0 6.03785e+06 149177 5.88867e+06 1.71555e+06 710950 1.0046e+06
internal_count=7753399 6037847 149177 5888670 1715552 710950 1004602
shrinkage=0.65


Tree=18
num_leaves=8
num_cat=0
split_feature=8 7 8 10 11 6 10
split_gain=75738.1 62310.8 46488.3 36455.4 34052.5 30895.9 12420.7
threshold=1.5000000000000002 3.5000000000000004 6.5000000000000009 0.10902013762215258 19.682382265302703 2011.5000000000002 22.106354032143589
decision_type=2 2 2 2 2 2 2
left_child=3 5 -3 4 -1 -2 -5
right_child=1 2 -4 6 -6 -7 -8
leaf_value=-1.2609160235790231 0.021478104965293954 0.088770629906719689 -0.088176266041223264 -0.18727383120744329 1.952376153108625 -0.15060452097775939 0.43345631211147806
leaf_weight=1804 758617 4210467 737138 973194 6122 1052244 13813
leaf_count=1804 758617 4210467 737138 973194 6122 1052244 13813
internal_value=0 0.0379214 0.0960116 -0.257596 1.87848 -0.120792 -0.274749
internal_weight=0 6.75847e+06 4.9476e+06 994933 7926 1.81086e+06 987007
internal_count=7753399 6758466 4947605 994933 7926 1810861 987007
shrinkage=0.65


Tree=19
num_leaves=8
num_cat=0
split_feature=5 10 6 10 4 2 2
split_gain=62967.4 54650.6 256102 183681 22488.1 168151 128183
threshold=1.5000000000000002 4.3363589292272549 2010.5000000000002 3.7861252570760846 40.712600354003918 40.719022500000008 40.695017000000007
decision_type=2 2 2 2 2 2 2
left_child=1 3 -3 -1 5 -2 -6
right_child=4 2 -4 -5 6 -7 -8
leaf_value=-0.038448346682406237 -0.60381819292835703 -0.84569472539692403 0.033679345846589208 0.64937919506786912 1.1737019199284919 0.69564913610017698 0.046623872741962058
leaf_weight=4516102 60621 192925 509328 170216 43507 137500 2123200
leaf_count=4516102 60621 192925 509328 170216 43507 137500 2123200
internal_value=0 -0.0597001 -0.319854 -0.0207156 0.136034 0.458521 0.106547
internal_weight=0 5.38857e+06 702253 4.68632e+06 2.36483e+06 198121 2.16671e+06
internal_count=7753399 5388571 702253 4686318 2364828 198121 2166707
shrinkage=0.65


Tree=20
num_leaves=8
num_cat=0
split_feature=10 10 11 11 11 1 4
split_gain=45097.7 60057.6 51818.8 43482.5 34173.9 99487.1 48288
threshold=0.10902013762215258 0.36138433025230826 18.244832641308488 22.628312279902261 0.49750961682881217 -73.783543999999992 40.644500000000008
decision_type=2 2 2 2 2 2 2
left_child=4 2 -2 -3 6 -6 -1
right_child=1 3 -4 -5 5 -7 -8
leaf_value=10.488610202369498 1.3178632044577097 -0.02913377448288814 -0.29767709860901459 0.075200141452848049 0.49882153015166342 6.4284487978952223 -4.4306319942071992
leaf_weight=101 8588 4683812 360903 2638328 59456 1220 991
leaf_count=101 8588 4683812 360903 2638328 59456 1220 991
internal_value=0 -0.00683445 -0.400196 0.0130154 0.851056 0.950842 -4.69344
internal_weight=0 7.69163e+06 369491 7.32214e+06 61768 60676 1092
internal_count=7753399 7691631 369491 7322140 61768 60676 1092
shrinkage=0.65


Tree=21
num_leaves=8
num_cat=0
split_feature=12 4 4 3 3 1 1
split_gain=45973.2 67577.3 64700.8 535810 168988 40460.3 13593.8
threshold=1.0000000180025095e-35 40.855207000000007 40.644500000000008 -74.023163999999994 -74.023163999999994 -74.009062499999985 -73.976097553466772
decision_type=2 2 2 2 2 2 2
left_child=2 5 3 -1 -4 -2 -3
right_child=1 6 4 -5 -6 -7 -8
leaf_value=-4.2670751470048049 1.9761919380797299 -10.890217471144418 1.8366250512748368 1.4724687436637427 -0.0073719793658734017 -0.96006004842495007 -4.8701103287932019
leaf_weight=7963 2174 275 21055 50157 7648862 22539 374
leaf_count=7963 2174 275 21055 50157 7648862 22539 374
internal_value=0 -1.34415 0.00441127 1.05553 -0.00355377 -1.07963 -11.4169
internal_weight=0 25362 7.72804e+06 58120 7.66992e+06 24713 649
internal_count=7753399 25362 7728037 58120 7669917 24713 649
shrinkage=0.65


Tree=22
num_leaves=8
num_cat=0
split_feature=10 6 10 4 4 3 10
split_gain=56283.9 250132 193656 137472 109332 188519 82309.1
threshold=16.657007346866703 2010.5000000000002 21.16596486739374 40.855207000000007 40.637150000000013 -74.023163999999994 14.979215953729334
decision_type=2 2 2 2 2 2 2
left_child=4 3 -3 -2 5 -1 -6
right_child=1 2 -4 -5 6 -7 -8
leaf_value=-1.8462847400634019 -1.572885527656559 -1.0246796014894199 0.6069768326351741 -10.861343745722801 -0.00048111615650074917 2.1193711711314509 1.1078656671572626
leaf_weight=6479 42701 45872 93119 684 7512927 23201 28416
leaf_count=6479 42701 45872 93119 684 7512927 23201 28416
internal_value=0 -0.548959 0.105341 -2.64512 0.0132237 1.92875 0.00568487
internal_weight=0 182376 138991 43385 7.57102e+06 29680 7.54134e+06
internal_count=7753399 182376 138991 43385 7571023 29680 7541343
shrinkage=0.65


Tree=23
num_leaves=8
num_cat=0
split_feature=2 4 4 2 10 3 2
split_gain=46524.9 892379 322883 371400 322704 165989 60319.2
threshold=40.776775180053718 40.766435500000007 40.779077500000014 40.759760500000006 2.6717522407038135 -73.967915999999988 40.768167500000011
decision_type=2 2 2 2 2 2 2
left_child=2 4 6 -4 -2 -3 -1
right_child=1 5 3 -5 -6 -7 -8
leaf_value=-0.087950683990477591 1.467089723215923 -0.76048047165320698 0.95478758921325524 -0.051071401423729762 0.2556724567570009 -0.079738782525933333 0.1172240018683309
leaf_weight=5426840 207909 241230 295320 326631 167961 406105 681403
leaf_count=5426840 207909 241230 295320 326631 167961 406105 681403
internal_value=0 0.198669 -0.030204 0.656214 1.42424 -0.51295 -0.100096
internal_weight=0 1.0232e+06 6.73019e+06 621951 375870 647335 6.10824e+06
internal_count=7753399 1023205 6730194 621951 375870 647335 6108243
shrinkage=0.65


Tree=24
num_leaves=8
num_cat=0
split_feature=10 10 10 2 2 6 4
split_gain=74859.3 105344 85401.7 70364.8 69779.8 54281.9 13700.5
threshold=1.3860363370451005 1.1493338496037293 1.6189033505275197 40.695017000000007 40.695017000000007 2012.5000000000002 40.787439500000005
decision_type=2 2 2 2 2 2 2
left_child=1 4 5 -4 -1 -2 -3
right_child=2 6 3 -5 -6 -7 -8
leaf_value=-0.93230533526459924 -0.13824983176623279 0.28303141539977145 0.37384587406548309 -0.041841120903237577 0.02787268246272169 -0.55989930713725611 0.67096095913031162
leaf_weight=32355 345091 607785 180695 3595226 2745183 206001 41063
leaf_count=32355 345091 607785 180695 3595226 2745183 206001 41063
internal_value=0 0.110421 -0.0874381 -0.0337671 0.0256735 -0.455176 0.473203
internal_weight=0 3.42639e+06 4.32701e+06 3.77592e+06 2.77754e+06 551092 648848
internal_count=7753399 3426386 4327013 3775921 2777538 551092 648848
shrinkage=0.65


Tree=25
num_leaves=8
num_cat=0
split_feature=10 4 11 4 2 2 11
split_gain=65763.7 183583 287066 135997 414402 313784 84883.4
threshold=4.3363589292272549 40.754217500000003 14.035154107776487 40.714548000000008 40.688601223754894 40.721462500000008 12.599050789759326
decision_type=2 2 2 2 2 2 2
left_child=3 6 -3 5 -5 -1 -2
right_child=1 2 -4 4 -6 -7 -8
leaf_value=-0.29617522631968679 -0.73905268516142475 0.64417938180492851 -0.32349893612737168 3.1962409356804953 -0.0099141558949431899 0.81671596557406156 -0.20214748098055085
leaf_weight=178708 216611 238170 283932 17079 6259700 266920 292279
leaf_count=178708 216611 238170 283932 17079 6259700 266920 292279
internal_value=0 -0.23517 0.181434 0.0360672 -0.00183118 0.569875 -0.66259
internal_weight=0 1.03099e+06 522102 6.72241e+06 6.27678e+06 445628 508890
internal_count=7753399 1030992 522102 6722407 6276779 445628 508890
shrinkage=0.65


Tree=26
num_leaves=8
num_cat=0
split_feature=2 4 10 3 4 4 11
split_gain=49957.4 162224 91173.1 50646.3 281641 58969.5 40797.8
threshold=40.802826500000002 40.786615500000018 11.067868258979198 -73.782267499999975 40.779418972656252 40.672482000000009 12.599050789759326
decision_type=2 2 2 2 2 2 2
left_child=3 2 -2 5 -5 -1 -3
right_child=1 6 -4 4 -6 -7 -8
leaf_value=0.41627535997874204 1.4293547448140693 -2.964335743858276 -2.1986113411206283 0.35234896515622782 8.7759577228137147 -0.017974126506861865 -0.18889673090190801
leaf_weight=134504 52615 2322 3099 36385 1758 7461088 61628
leaf_count=134504 52615 2322 3099 36385 1758 7461088 61628
internal_value=0 0.641122 1.88855 -0.01005 1.13937 -0.0158221 -0.445649
internal_weight=0 119664 55714 7.63374e+06 38143 7.59559e+06 63950
internal_count=7753399 119664 55714 7633735 38143 7595592 63950
shrinkage=0.65


Tree=27
num_leaves=8
num_cat=0
split_feature=10 10 9 6 3 9 3
split_gain=37558.2 105490 79060.9 77617.9 67691.4 60271.4 28867.3
threshold=2.6717522407038135 2.9812464955335241 6.5000000000000009 2012.5000000000002 -74.023163999999994 4.5000000000000009 -74.023163999999994
decision_type=2 2 2 2 2 2 2
left_child=3 6 -3 5 -5 -1 -2
right_child=1 2 -4 4 -6 -7 -8
leaf_value=0.33701002214199716 5.3973912445055241 -0.27731018281247477 0.054900110622156835 5.2359171515666691 -0.073565044069350424 0.057978453868631513 -0.43471461243732995
leaf_weight=364916 359 382585 1448891 1015 2098817 3152969 303847
leaf_count=364916 359 382585 1448891 1015 2098817 3152969 303847
internal_value=0 -0.11288 -0.0223027 0.0429135 -0.109229 0.133727 -0.658203
internal_weight=0 2.13568e+06 1.83148e+06 5.61772e+06 2.09983e+06 3.51788e+06 304206
internal_count=7753399 2135682 1831476 5617717 2099832 3517885 304206
shrinkage=0.65


Tree=28
num_leaves=8
num_cat=0
split_feature=12 11 10 11 10 3 12
split_gain=36899.8 40068.3 37855.2 50728.8 43827 32632.5 23361.7
threshold=1.0000000180025095e-35 17.8723879727462 22.998892667400579 8.6743419785386955 6.0090614566965312 -74.016101499999976 1.5000000000000002
decision_type=2 2 2 2 2 2 2
left_child=2 5 4 -4 -1 -2 -3
right_child=1 6 3 -5 -6 -7 -8
leaf_value=0.013505124509861839 18.356464489797752 -0.93460916723078646 0.38280989501442708 2.7908061404758131 -0.16914568929710758 1.2589873866515695 -4.3397204167581673
leaf_weight=7083489 48 21719 38226 4092 602230 2709 886
leaf_count=7083489 48 21719 38226 4092 602230 2709 886
internal_value=0 -1.20423 0.00395206 0.947161 -0.0012413 2.39486 -1.64319
internal_weight=0 25362 7.72804e+06 42318 7.68572e+06 2757 22605
internal_count=7753399 25362 7728037 42318 7685719 2757 22605
shrinkage=0.65


Tree=29
num_leaves=8
num_cat=0
split_feature=2 4 10 4 10 3 4
split_gain=37986.7 739694 212573 165234 164359 133984 66249.4
threshold=40.730708537963871 40.739238500000013 2.6717522407038135 40.730292500000012 9.4523471910122918 -73.966041782470697 40.723207500000008
decision_type=2 2 2 2 2 2 2
left_child=1 6 -3 5 -5 -2 -1
right_child=3 2 -4 4 -6 -7 -8
leaf_value=-0.16681632190549556 0.12486469321150873 0.98496768176408944 0.24525362496077407 -0.088537073908428673 0.51114375345465612 0.80532295653388841 -0.54300112313046167
leaf_weight=502593 778647 322684 334063 5143612 200631 145029 326140
leaf_count=502593 778647 322684 334063 5143612 200631 145029 326140
internal_value=0 0.14378 0.936465 -0.0340754 -0.101576 0.35647 -0.4844
internal_weight=0 1.48548e+06 656747 6.26792e+06 5.34424e+06 923676 828733
internal_count=7753399 1485480 656747 6267919 5344243 923676 828733
shrinkage=0.65


Tree=30
num_leaves=8
num_cat=0
split_feature=10 9 6 4 11 3 4
split_gain=88001.2 134694 117562 111377 85382.2 83940.6 57948.7
threshold=8.0307929392107784 4.5000000000000009 2011.5000000000002 40.810949000000008 1.3645076344886444 -73.96425664331052 40.663604215231011
decision_type=2 2 2 2 2 2 2
left_child=3 6 -3 4 -1 -5 -2
right_child=1 2 -4 5 -6 -7 -8
leaf_value=1.4549059648870268 0.88896169307999451 -0.52485684166383784 0.14785042699347609 4.5414381502179104 0.0045192330718966788 0.56666173218580951 -1.3483147211558892
leaf_weight=17190 5351 190046 259812 2289 7105574 116191 56946
leaf_count=17190 5351 190046 259812 2289 7105574 116191 56946
internal_value=0 -0.400594 -0.209754 0.028333 0.0123378 0.989928 -1.77868
internal_weight=0 512155 449858 7.24124e+06 7.12276e+06 118480 62297
internal_count=7753399 512155 449858 7241244 7122764 118480 62297
shrinkage=0.65


Tree=31
num_leaves=8
num_cat=0
split_feature=4 2 2 10 2 11 3
split_gain=43080.9 212322 298985 125751 125491 247672 181718
threshold=40.699188000000007 40.702806500000008 40.737981000000012 22.998892667400579 40.695017000000007 4.336558124058068 -73.819681999999986
decision_type=2 2 2 2 2 2 2
left_child=1 3 -3 -1 6 -6 -2
right_child=4 2 -4 -5 5 -7 -8
leaf_value=-1.2654933342263368 0.480478312614317 0.88546041149920929 -0.52753651117108724 1.9006087014379616 -4.0332241655019665 0.0023482283822306329 4.5582713650699738
leaf_weight=86293 135532 110886 147337 5647 6431 7256493 4780
leaf_count=86293 135532 110886 147337 5647 6431 7256493 4780
internal_value=0 -0.342746 0.121895 -1.64774 0.0162114 -0.00188476 0.952917
internal_weight=0 350163 258223 91940 7.40324e+06 7.26292e+06 140312
internal_count=7753399 350163 258223 91940 7403236 7262924 140312
shrinkage=0.65


Tree=32
num_leaves=8
num_cat=0
split_feature=2 4 4 10 11 11 10
split_gain=51581.8 924935 669578 539950 323027 283141 135055
threshold=40.758432500000005 40.754796000000006 40.762135500000007 4.3363589292272549 20.595419543289058 17.306955394217081 0.74347375496222612
decision_type=2 2 2 2 2 2 2
left_child=2 3 6 -2 -4 -3 -1
right_child=1 5 4 -5 -6 -7 -8
leaf_value=0.057125296254610089 0.85831350700124365 0.60144049403922728 0.0064100395289063798 -0.25867960540415086 0.76646919361368404 -0.24121389544093808 -0.2421372478514171
leaf_weight=827622 748002 183790 416801 241998 545378 2021555 2768253
leaf_count=827622 748002 183790 416801 241998 545378 2021555 2768253
internal_value=0 0.0974166 -0.0682923 0.90042 0.672651 -0.263059 -0.266553
internal_weight=0 3.19534e+06 4.55805e+06 990000 962179 2.20534e+06 3.59588e+06
internal_count=7753399 3195345 4558054 990000 962179 2205345 3595875
shrinkage=0.65


Tree=33
num_leaves=8
num_cat=0
split_feature=10 9 3 8 4 3 3
split_gain=60519.4 55690.2 97501.5 58448.9 51569.2 70787.6 30867.3
threshold=1.3860363370451005 19.500000000000004 -74.023163999999994 5.5000000000000009 40.712600354003918 -74.023163999999994 -74.023163999999994
decision_type=2 2 2 2 2 2 2
left_child=4 3 -3 -2 6 -6 -1
right_child=1 2 -4 -5 5 -7 -8
leaf_value=3.0190520182886167 0.046792927615604628 2.5427814621528837 -0.19920027837899912 -0.1409137976862854 -2.8035631331100954 0.052710106309965865 0.4446325497491625
leaf_weight=2002 2305008 5509 1009386 1007110 3670 3305747 114967
leaf_count=2002 2305008 5509 1009386 1007110 3670 3305747 114967
internal_value=0 -0.0786186 -0.283564 -0.0158196 0.0992835 0.0762194 0.751839
internal_weight=0 4.32701e+06 1.0149e+06 3.31212e+06 3.42639e+06 3.30942e+06 116969
internal_count=7753399 4327013 1014895 3312118 3426386 3309417 116969
shrinkage=0.65


Tree=34
num_leaves=8
num_cat=0
split_feature=3 11 4 6 11 4 10
split_gain=47916.8 124144 247395 61549.2 48511.8 82322 63071.1
threshold=-73.966041782470697 12.599050789759326 40.748257500000008 2012.5000000000002 14.035154107776487 40.817045500000006 6.0090614566965312
decision_type=2 2 2 2 2 2 2
left_child=4 3 -3 -2 5 -1 -6
right_child=1 2 -4 -5 6 -7 -8
leaf_value=0.29236314948065689 -0.055727987686757463 0.77765114780947875 0.056628883143108245 -0.64556306798443119 -0.03310123630372333 12.706027899858897 -0.68797751739132473
leaf_weight=173280 189268 233766 1436963 123531 5533524 226 62841
leaf_count=173280 189268 233766 1436963 123531 5533524 226 62841
internal_value=0 0.134079 0.242328 -0.444102 -0.0460929 0.474665 -0.0622381
internal_weight=0 1.98353e+06 1.67073e+06 312799 5.76987e+06 173506 5.59636e+06
internal_count=7753399 1983528 1670729 312799 5769871 173506 5596365
shrinkage=0.65


Tree=35
num_leaves=8
num_cat=0
split_feature=2 4 10 4 2 2 10
split_gain=47853.7 173096 78291.1 54392.4 181478 54408.2 48666.8
threshold=40.781290500000019 40.774576000000003 2.0022723403363205 40.772861740356454 40.767197500000009 40.765109500000008 0.027796401932843145
decision_type=2 2 2 2 2 2 2
left_child=3 2 -2 5 -5 -1 -3
right_child=1 6 -4 4 -6 -7 -8
leaf_value=-0.069487663901934171 0.87089990828305275 2.2656146811488624 0.22434734175714052 0.31019423324136192 -0.2244140244786493 0.095901083569327972 -0.16396982031187002
leaf_weight=4898422 142974 3517 177197 728131 424781 1014423 363954
leaf_count=4898422 142974 3517 177197 728131 424781 1014423 363954
internal_value=0 0.251831 0.789336 -0.0245083 0.174188 -0.063251 -0.216487
internal_weight=0 687642 320171 7.06576e+06 1.15291e+06 5.91284e+06 367471
internal_count=7753399 687642 320171 7065757 1152912 5912845 367471
shrinkage=0.65


Tree=36
num_leaves=8
num_cat=0
split_feature=10 4 11 11 4 2 4
split_gain=53667 69048.2 74707 74380.7 67765.1 170537 78042.9
threshold=2.6717522407038135 40.779077500000014 25.959604224601978 24.588744436306751 40.786615500000018 40.768167500000011 40.739238500000013
decision_type=2 2 2 2 2 2 2
left_child=4 3 -3 -2 6 -6 -1
right_child=1 2 -4 -5 5 -7 -8
leaf_value=0.14017488915552304 -0.046931343548980389 -0.3391611110394202 -7.8194677791573044 1.5554742095699825 1.164003746378691 0.073781696465658561 -0.035372912499695826
leaf_weight=1495633 1772248 350545 565 12324 76946 285707 3759431
leaf_count=1495633 1772248 350545 565 12324 76946 285707 3759431
internal_value=0 -0.134933 -0.540305 -0.0551775 0.0512975 0.469384 0.0224452
internal_weight=0 2.13568e+06 351110 1.78457e+06 5.61772e+06 362653 5.25506e+06
internal_count=7753399 2135682 351110 1784572 5617717 362653 5255064
shrinkage=0.65


Tree=37
num_leaves=8
num_cat=0
split_feature=4 2 4 3 2 4 10
split_gain=27075.6 115102 86353.8 78788.5 69292.9 67953.1 38780.9
threshold=40.683589500000004 40.688601223754894 40.699188000000007 -73.819681999999986 40.711696000000011 1.0000000180025095e-35 22.106354032143589
decision_type=2 2 2 2 2 2 2
left_child=1 3 6 -1 -4 -3 -2
right_child=2 5 4 -5 -6 -7 -8
leaf_value=-1.1089414489553138 -0.62696832913837175 -1.6630574566317655 0.29414390431696308 0.55123722095913197 -0.011207431487984523 0.56578949395722911 1.0674960152746273
leaf_weight=38396 117858 5990 328573 17620 7074663 164302 5997
leaf_count=38396 117858 5990 328573 17620 7074663 164302 5997
internal_value=0 0.340805 -0.0102466 -0.902657 0.00360735 0.749831 -0.838343
internal_weight=0 226308 7.52709e+06 56016 7.40324e+06 170292 123855
internal_count=7753399 226308 7527091 56016 7403236 170292 123855
shrinkage=0.65


Tree=38
num_leaves=8
num_cat=0
split_feature=1 3 10 2 6 10 10
split_gain=30231.6 35526.9 62131.6 53604.8 25324.4 29413.2 24715.4
threshold=-73.783543999999992 -73.819681999999986 13.299442737651466 40.800197300659185 2014.5000000000002 2.0022723403363205 4.9551844094004336
decision_type=2 2 2 2 2 2 2
left_child=4 3 -3 -2 5 -1 -6
right_child=1 2 -4 -5 6 -7 -8
leaf_value=0.026934277809019708 -0.58129993711673633 0.057270413457365277 4.7619725783428191 -5.6833038612268867 0.091466040094668591 -0.058629051270428591 0.54025952364946295
leaf_weight=4368780 55171 14328 1293 884 478780 2776023 58140
leaf_count=4368780 55171 14328 1293 884 478780 2776023 58140
internal_value=0 -0.646438 0.687221 -1.01809 0.00603173 -0.00970811 0.215482
internal_weight=0 71676 15621 56055 7.68172e+06 7.1448e+06 536920
internal_count=7753399 71676 15621 56055 7681723 7144803 536920
shrinkage=0.65


Tree=39
num_leaves=8
num_cat=0
split_feature=1 4 3 11 3 10 11
split_gain=23181.9 111703 57368.8 83392.7 42047.5 38899.8 37721.3
threshold=-73.986937499999982 40.82591200000001 -73.987929499999993 22.296216081788128 -73.789472999999987 1.1920795055702949 23.241785693064639
decision_type=2 2 2 2 2 2 2
left_child=1 6 5 -4 -3 -2 -1
right_child=2 4 3 -5 -6 -7 -8
leaf_value=-0.11515660070842847 -0.38103704914092618 -1.3390635501591059 0.024755706433140484 0.29150939789216379 -10.664192120506682 -0.047634707918582465 0.032503460096402821
leaf_weight=1320347 173893 24682 3017019 592364 206 987446 1637442
leaf_count=1320347 173893 24682 3017019 592364 206 987446 1637442
internal_value=0 -0.0691541 0.0432354 0.105438 -2.17884 -0.150087 -0.0514023
internal_weight=0 2.98268e+06 4.77072e+06 3.60938e+06 24888 1.16134e+06 2.95779e+06
internal_count=7753399 2982677 4770722 3609383 24888 1161339 2957789
shrinkage=0.65


Tree=40
num_leaves=8
num_cat=0
split_feature=4 3 3 1 2 4 4
split_gain=33620.6 73893.5 162691 47082.5 36287.7 237180 127766
threshold=40.840704000000009 -73.94575399999998 -74.023163999999994 -73.979532499999962 40.741170500000003 40.755500396728522 40.742166000000005
decision_type=2 2 2 2 2 2 2
left_child=4 2 -2 -3 5 -1 -6
right_child=1 3 -4 -5 6 -7 -8
leaf_value=-0.05251488754539383 -1.1086871441666504 -0.34072401143072817 9.754036369233658 0.86089288189527857 0.15356206562550237 0.42564861641343615 -0.088159524882127305
leaf_weight=1820237 1221 24249 1114 31902 1192168 577280 4105228
leaf_count=1820237 1221 24249 1114 31902 1192168 577280 4105228
internal_value=0 0.755323 6.26736 0.526109 -0.00574091 0.0963361 -0.0519394
internal_weight=0 58486 2335 56151 7.69491e+06 2.39752e+06 5.2974e+06
internal_count=7753399 58486 2335 56151 7694913 2397517 5297396
shrinkage=0.65


Tree=41
num_leaves=8
num_cat=0
split_feature=1 3 11 4 11 3 9
split_gain=25719.8 41535.1 38960.5 36363.7 30187.9 27256 23947.9
threshold=-73.994709499999985 -73.994999499999977 23.2006004492196 40.775725659179692 24.470609691170182 -73.959393999999989 5.5000000000000009
decision_type=2 2 2 2 2 2 2
left_child=4 3 -3 -2 5 -1 -6
right_child=1 2 -4 -5 6 -7 -8
leaf_value=-0.17163472204504754 -0.11315333997107768 0.023896707203574195 0.22239333740675085 3.0781571506376442 0.42896577193744051 0.12867628064605688 0.0053506844385066673
leaf_weight=965638 926988 4806826 457544 1511 66159 147144 381589
leaf_count=965638 926988 4806826 457544 1511 66159 147144 381589
internal_value=0 0.028912 0.0633057 -0.166092 -0.114736 -0.202961 0.104529
internal_weight=0 6.19287e+06 5.26437e+06 928499 1.56053e+06 1.11278e+06 447748
internal_count=7753399 6192869 5264370 928499 1560530 1112782 447748
shrinkage=0.65


Tree=42
num_leaves=8
num_cat=0
split_feature=12 1 3 10 7 9 11
split_gain=17898.4 33317.4 103258 42920.1 17008.5 17990.4 14591.8
threshold=1.0000000180025095e-35 -74.016137084716789 -74.007358499999981 0.027796401932843145 1.5000000000000002 7.5000000000000009 12.599050789759326
decision_type=2 2 2 2 2 2 2
left_child=4 2 -2 -3 6 -6 -1
right_child=1 3 -4 -5 5 -7 -8
leaf_value=-0.48763437122334885 -2.0700176308083331 -15.892652800113341 7.1705460747815692 -0.71627752336759964 -0.057569926479296755 0.027002315140285085 -0.072847651257532967
leaf_weight=37920 1175 79 904 23204 1304432 5734558 651127
leaf_count=37920 1175 79 904 23204 1304432 5734558 651127
internal_value=0 -0.838694 2.99693 -1.18119 0.00275244 0.0174304 -0.147191
internal_weight=0 25362 2079 23283 7.72804e+06 7.03899e+06 689047
internal_count=7753399 25362 2079 23283 7728037 7038990 689047
shrinkage=0.65


Tree=43
num_leaves=8
num_cat=0
split_feature=9 3 4 8 2 4 4
split_gain=23408.7 31901 34596.8 22881 15312.2 168982 53332.4
threshold=1.0000000180025095e-35 -74.023163999999994 40.713838742309569 5.5000000000000009 40.768167500000011 40.759887347656253 40.768118500000007
decision_type=2 2 2 2 2 2 2
left_child=1 2 -1 -3 6 -6 -2
right_child=4 3 -4 -5 5 -7 -8
leaf_value=0.10716910226667513 -0.053279619255363495 0.0022794256418486153 6.2402997995816598 0.3606005273841939 0.32863296693085609 -0.092785798915005741 0.11333973281328734
leaf_weight=793 4631385 169953 762 135183 595976 1235236 984111
leaf_count=793 4631385 169953 762 135183 595976 1235236 984111
internal_value=0 0.270754 4.78862 0.24773 -0.0111509 0.0682566 -0.0370457
internal_weight=0 306691 1555 305136 7.44671e+06 1.83121e+06 5.6155e+06
internal_count=7753399 306691 1555 305136 7446708 1831212 5615496
shrinkage=0.65


Tree=44
num_leaves=8
num_cat=0
split_feature=2 4 3 10 11 3 1
split_gain=26984.3 62228.4 181209 104158 50372.7 55915.9 48708.3
threshold=40.741746500000005 40.744018277343756 -73.979319499999974 1.7833359609781894 8.6743419785386955 -73.966041782470697 -73.938821499999975
decision_type=2 2 2 2 2 2 2
left_child=1 3 -3 -1 6 -6 -2
right_child=4 2 -4 -5 5 -7 -8
leaf_value=-0.16365663732871352 -0.30400010179077741 0.46268466436901656 -0.081536208420799783 0.20080797499199279 -0.061295041726139726 0.088441563128448239 -1.6969540929863398
leaf_weight=914517 48662 493161 543246 519471 3756313 1464467 13562
leaf_count=914517 48662 493161 543246 519471 3756313 1464467 13562
internal_value=0 0.0862714 0.272961 -0.0486571 -0.0403415 -0.0296813 -0.93477
internal_weight=0 2.4704e+06 1.03641e+06 1.43399e+06 5.283e+06 5.22078e+06 62224
internal_count=7753399 2470395 1036407 1433988 5283004 5220780 62224
shrinkage=0.65


Tree=45
num_leaves=8
num_cat=0
split_feature=4 2 10 2 2 10 1
split_gain=22032.7 194459 397518 101251 44746.8 160865 56128.5
threshold=40.738863000000002 40.749848500000006 2.0022723403363205 40.741170500000003 40.726780500000011 6.0090614566965312 -73.981177499999987
decision_type=2 2 2 2 2 2 2
left_child=1 3 -3 -1 5 -2 -6
right_child=4 2 -4 -5 6 -7 -8
leaf_value=0.0082417843037287507 0.35153365714458973 1.108687322441902 0.024212113377194002 -0.41357531821918014 -0.11874870924713093 -0.5202792813322219 0.019657686713051202
leaf_weight=1203644 406172 201601 489657 300435 2190511 114666 2846713
leaf_count=1203644 406172 201601 489657 300435 2190511 114666 2846713
internal_value=0 0.0848202 0.523834 -0.116946 -0.0335025 0.245536 -0.0623544
internal_weight=0 2.19534e+06 691258 1.50408e+06 5.55806e+06 520838 5.03722e+06
internal_count=7753399 2195337 691258 1504079 5558062 520838 5037224
shrinkage=0.65


Tree=46
num_leaves=8
num_cat=0
split_feature=1 11 9 3 6 3 4
split_gain=22937.1 24182.8 23266.4 23145.6 25097.3 20292.2 17109.2
threshold=-74.00819749999998 24.812272287996418 20.500000000000004 -1.0000000180025095e-35 2012.5000000000002 -74.023163999999994 40.778260500000009
decision_type=2 2 2 2 2 2 2
left_child=3 2 -2 6 -5 -3 -1
right_child=1 5 -4 4 -6 -7 -8
leaf_value=-0.15595453724934394 0.01669594196649949 1.7970585675842632 -0.083013247047792421 -1.4873737272097391 8.5332528095127955 0.19996722815000323 -0.90932463466967728
leaf_weight=257848 6095803 3418 1180173 176 264 202319 13398
leaf_count=257848 6095803 3418 1180173 176 264 202319 13398
internal_value=0 0.0103647 0.000804583 -0.285424 6.96154 0.348462 -0.29718
internal_weight=0 7.48171e+06 7.27598e+06 271686 440 205737 271246
internal_count=7753399 7481713 7275976 271686 440 205737 271246
shrinkage=0.65


Tree=47
num_leaves=8
num_cat=0
split_feature=4 3 6 3 6 2 2
split_gain=19731.8 59669.8 237913 58378.5 53222.1 57641.1 52978
threshold=40.710268500000005 -74.023163999999994 2011.5000000000002 -73.782267499999975 2011.5000000000002 40.819246500000013 40.741170500000003
decision_type=2 2 2 2 2 2 2
left_child=4 2 -2 -3 6 -6 -1
right_child=1 3 -4 -5 5 -7 -8
leaf_value=0.14180869489056161 -1.192841475419673 -0.013541193335269099 5.032939265228209 1.6593759813612181 0.28056319795488011 7.1828319641932472 -0.4695979959530947
leaf_weight=145464 5915 7166585 4618 8824 319713 512 101768
leaf_count=145464 5915 7166585 4618 8824 319713 512 101768
internal_value=0 -0.0141763 2.36421 -0.0176676 0.17952 0.448614 -0.169022
internal_weight=0 7.18594e+06 10533 7.17541e+06 567457 320225 247232
internal_count=7753399 7185942 10533 7175409 567457 320225 247232
shrinkage=0.65


Tree=48
num_leaves=8
num_cat=0
split_feature=2 2 4 4 1 2 1
split_gain=24770.7 43844.6 39672.4 25163 79395 71155.9 16820.7
threshold=40.721027500000005 40.715107500000009 40.729907500000003 40.727993005737311 -73.888719999999992 40.724759000000013 -73.987256499999987
decision_type=2 2 2 2 2 2 2
left_child=1 2 -1 4 -2 -5 -3
right_child=3 6 -4 5 -6 -7 -8
leaf_value=-0.1707459183932771 0.1418014856848514 -0.38278358583442856 0.18605443641551087 0.42507416589832647 -0.77665957175342104 -0.015829106502839561 0.069462356234754455
leaf_weight=271504 1004373 237576 255627 158930 41404 5743285 40700
leaf_count=271504 1004373 237576 255627 158930 41404 5743285 40700
internal_value=0 -0.166014 0.00350909 0.0192442 0.162213 -0.00608742 -0.487137
internal_weight=0 805407 527131 6.94799e+06 1.04578e+06 5.90222e+06 278276
internal_count=7753399 805407 527131 6947992 1045777 5902215 278276
shrinkage=0.65


Tree=49
num_leaves=8
num_cat=0
split_feature=10 4 1 10 9 8 8
split_gain=18421.8 34743.8 36026.7 28463.4 24348.7 49240.8 33204.8
threshold=0.74347375496222612 40.82591200000001 -73.979326499999985 0.027796401932843145 7.5000000000000009 6.5000000000000009 5.5000000000000009
decision_type=2 2 2 2 2 2 2
left_child=1 2 -1 -3 6 -6 -2
right_child=4 3 -4 -5 5 -7 -8
leaf_value=-0.011007565925860982 -0.18653858307703899 -5.0078349284159609 0.193741964077496 -0.93032451696274943 0.027604686800715733 -0.17172623914630208 0.035426919457544261
leaf_weight=922499 723471 881 598736 4041 4440623 593596 469552
leaf_count=922499 723471 881 598736 4041 4440623 593596 469552
internal_value=0 0.098462 0.107044 -2.5541 -0.0241308 0.00630943 -0.15258
internal_weight=0 1.52616e+06 1.52124e+06 4922 6.22724e+06 5.03422e+06 1.19302e+06
internal_count=7753399 1526157 1521235 4922 6227242 5034219 1193023
shrinkage=0.65


Tree=50
num_leaves=8
num_cat=0
split_feature=4 10 2 2 11 3 11
split_gain=20199.1 101637 78664.4 59965.3 44276.3 36412.6 23216.4
threshold=40.797390992065438 11.067868258979198 40.790982500000005 40.805247537597658 19.466497036195719 -73.977834499999986 17.8723879727462
decision_type=2 2 2 2 2 2 2
left_child=3 2 -2 6 -3 -5 -1
right_child=1 4 -4 5 -6 -7 -8
leaf_value=0.1076179479344679 0.44801930829181602 -1.08747867724861 -0.27160233279513718 0.073139540686868482 -5.2274449710132691 1.1839257987830103 -0.02299715434203941
leaf_weight=628556 224287 16453 89906 22174 1169 28487 6742367
leaf_count=628556 224287 16453 89906 22174 1169 28487 6742367
internal_value=0 0.241391 0.372462 -0.0107924 -2.09556 1.07345 -0.0182445
internal_weight=0 331815 314193 7.42158e+06 17622 50661 7.37092e+06
internal_count=7753399 331815 314193 7421584 17622 50661 7370923
shrinkage=0.65


Tree=51
num_leaves=8
num_cat=0
split_feature=10 10 10 4 3 4 9
split_gain=19710.1 46369.5 27138.5 26720.4 29732.8 26436.7 9844
threshold=2.6717522407038135 2.4125132263395273 2.0022723403363205 40.855207000000007 -73.939688500000003 40.82591200000001 7.5000000000000009
decision_type=2 2 2 2 2 2 2
left_child=1 2 -1 5 -5 -2 -3
right_child=3 6 -4 4 -6 -7 -8
leaf_value=0.022688255288152607 -0.050583121860341064 0.022724982772468885 -0.12359225644996961 3.891252724237598 0.44418465328963108 -0.54753599027078226 0.32213063003967862
leaf_weight=4707173 2061755 57029 604681 1101 26584 46242 248834
leaf_count=4707173 2061755 57029 604681 1101 26584 46242 248834
internal_value=0 0.0310876 0.00928653 -0.081773 0.894262 -0.0945916 0.409701
internal_weight=0 5.61772e+06 5.31185e+06 2.13568e+06 27685 2.108e+06 305863
internal_count=7753399 5617717 5311854 2135682 27685 2107997 305863
shrinkage=0.65


Tree=52
num_leaves=8
num_cat=0
split_feature=3 1 2 2 8 9 8
split_gain=16796.4 27688.4 24883.4 20425 15951.2 25411.5 19665.3
threshold=-1.0000000180025095e-35 -74.016137084716789 40.651560500000009 40.819246500000013 2.5000000000000004 15.500000000000002 5.5000000000000009
decision_type=2 2 2 2 2 2 2
left_child=4 2 -2 -3 5 -1 -6
right_child=1 3 -4 -5 6 -7 -8
leaf_value=0.017054128133319923 -11.214765841730181 -1.0557726429181316 8.4781100592127565 6.7912838527696655 0.049438942663098083 -0.12749233330944829 -0.029208923399240364
leaf_weight=1149686 31 10724 216 142 3473061 929138 2190401
leaf_count=1149686 31 10724 216 142 3473061 929138 2190401
internal_value=0 -1.22852 9.24082 -1.4665 0.00176337 -0.0731561 0.0292632
internal_weight=0 11113 247 10866 7.74229e+06 2.07882e+06 5.66346e+06
internal_count=7753399 11113 247 10866 7742286 2078824 5663462
shrinkage=0.65


Tree=53
num_leaves=8
num_cat=0
split_feature=4 10 1 4 2 10 11
split_gain=9700.01 33805.4 49500.8 34814 16349.3 35377.6 33238.1
threshold=40.709199000000005 3.284998018727046 -73.998352025390616 40.699188000000007 40.706226500000007 6.0090614566965312 8.6743419785386955
decision_type=2 2 2 2 2 2 2
left_child=1 3 -3 -1 5 -2 -6
right_child=4 2 -4 -5 6 -7 -8
leaf_value=0.052026127753370385 0.4456201012672954 -0.73821644010717358 0.040151149170390553 0.53506235805175395 -0.71067837044659654 -0.097709124475776996 -0.008653769736081408
leaf_weight=151681 101959 40457 235226 107875 28611 100580 6987010
leaf_count=151681 101959 40457 235226 107875 28611 100580 6987010
internal_value=0 0.129891 -0.113963 0.388896 -0.00963165 0.270469 -0.0177181
internal_weight=0 535239 275683 259556 7.21816e+06 202539 7.01562e+06
internal_count=7753399 535239 275683 259556 7218160 202539 7015621
shrinkage=0.65


Tree=54
num_leaves=8
num_cat=0
split_feature=11 4 10 3 11 10 4
split_gain=16333.8 42556.7 82037.1 43607.7 27721.1 36729.1 25460.8
threshold=17.8723879727462 40.765500500000009 24.94719467321309 -73.971177499999996 19.790076510697521 0.027796401932843145 40.807597500000007
decision_type=2 2 2 2 2 2 2
left_child=1 3 -3 -1 6 -6 -2
right_child=4 2 -4 -5 5 -7 -8
leaf_value=0.2494328584171123 -0.18114292963514178 0.2826618270161918 5.3993691202865532 -0.17596579315291488 0.84439106626257232 0.00090088954644208319 0.21870799519359227
leaf_weight=157613 590121 248247 1331 287571 21886 6370689 75941
leaf_count=157613 590121 248247 1331 287571 21886 6370689 75941
internal_value=0 0.146298 0.476845 -0.0390117 -0.0143998 0.00582879 -0.208545
internal_weight=0 694762 249578 445184 7.05864e+06 6.39258e+06 666062
internal_count=7753399 694762 249578 445184 7058637 6392575 666062
shrinkage=0.65


Tree=55
num_leaves=8
num_cat=0
split_feature=4 3 1 2 4 2 1
split_gain=17908.5 29589.6 67562.1 35212.3 22125.5 40326.7 23436.4
threshold=40.687695000000012 -74.023163999999994 -73.982659499999983 40.714282494750982 40.699188000000007 40.737981000000012 -74.016137084716789
decision_type=2 2 2 2 2 2 2
left_child=1 2 -1 -3 5 -2 -6
right_child=4 3 -4 -5 6 -7 -8
leaf_value=0.28547211309843606 0.024869245742292732 -0.13624171360682447 -3.338032410150328 0.38547103230570784 -0.60726714018902572 -0.84735466463085141 0.00040444562490225193
leaf_weight=6402 56704 81729 3292 165021 26913 37015 7376323
leaf_count=6402 56704 81729 3292 165021 26913 37015 7376323
internal_value=0 0.259854 -1.45391 0.327182 -0.00888868 -0.491726 -0.00277634
internal_weight=0 256444 9694 246750 7.49696e+06 93719 7.40324e+06
internal_count=7753399 256444 9694 246750 7496955 93719 7403236
shrinkage=0.65


Tree=56
num_leaves=8
num_cat=0
split_feature=11 10 10 7 10 10 6
split_gain=12222.6 49040.7 67602.4 40591.8 40324.2 39002.8 33540.6
threshold=12.599050789759326 5.0911515463243697 4.3363589292272549 9.5000000000000018 6.0090614566965312 4.25385919500334 2012.5000000000002
decision_type=2 2 2 2 2 2 2
left_child=3 2 -2 5 -3 -1 -5
right_child=1 4 -4 6 -6 -7 -8
leaf_value=0.50518525096388744 0.0056413869614299894 0.50625534155889063 -0.36695328146838996 0.49245484541326029 0.068131672378071856 -0.26956952686016233 -0.2425906153095708
leaf_weight=29895 6683438 143438 212273 75118 232821 336117 40299
leaf_count=29895 6683438 143438 212273 75118 232821 336117 40299
internal_value=0 0.0102159 -0.00896665 -0.154311 0.361775 -0.317368 0.362779
internal_weight=0 7.27197e+06 6.89571e+06 481429 376259 366012 115417
internal_count=7753399 7271970 6895711 481429 376259 366012 115417
shrinkage=0.65


Tree=57
num_leaves=8
num_cat=0
split_feature=10 1 6 10 10 10 4
split_gain=16216.6 52570.2 54669.1 46485.7 33119.3 94631.2 43958.1
threshold=13.911242152583489 1.0000000180025095e-35 2012.5000000000002 16.657007346866703 11.067868258979198 10.265404745768146 40.749932500000007
decision_type=2 2 2 2 2 2 2
left_child=4 3 -3 -2 5 -1 -6
right_child=1 2 -4 -5 6 -7 -8
leaf_value=-0.0038309477331616927 0.65731778326366352 -14.722740670486735 17.357428752210804 -0.0048562518840082978 -0.89943465509599518 1.1553537526460733 -0.10006769785289554
leaf_weight=7329454 59388 27 133 182251 39111 29876 113159
leaf_count=7329454 59388 27 133 182251 39111 29876 113159
internal_value=0 0.254902 18.3752 0.242904 -0.00820531 0.00134598 -0.469827
internal_weight=0 241799 160 241639 7.5116e+06 7.35933e+06 152270
internal_count=7753399 241799 160 241639 7511600 7359330 152270
shrinkage=0.65


Tree=58
num_leaves=8
num_cat=0
split_feature=1 4 2 11 3 2 11
split_gain=9288.21 18211.3 26436.8 19307 12417 27450.7 23676
threshold=-74.00175849999998 40.739238500000013 40.795355500000014 21.204580617625812 -74.003257499999975 40.78869032983399 24.118870426430217
decision_type=2 2 2 2 2 2 2
left_child=1 2 -1 -3 5 -2 -6
right_child=4 3 -4 -5 6 -7 -8
leaf_value=0.038598900582440088 -0.06472672047937808 0.15266627122079926 -9.6510008748839891 -0.20826223548925257 0.00970341351340041 -1.1445640137285593 0.25421532376008155
leaf_weight=418595 557560 74480 119 393175 6127331 10127 172012
leaf_count=418595 557560 74480 119 393175 6127331 10127 172012
internal_value=0 -0.0963379 0.0551463 -0.231969 0.0124349 -0.129215 0.0252002
internal_weight=0 886369 418714 467655 6.86703e+06 567687 6.29934e+06
internal_count=7753399 886369 418714 467655 6867030 567687 6299343
shrinkage=0.65


Tree=59
num_leaves=8
num_cat=0
split_feature=4 2 10 2 1 10 11
split_gain=9196.01 129408 232300 96304.2 139306 67910.8 46435.5
threshold=40.762135500000007 40.752587500000011 2.0022723403363205 40.763510500000002 -73.962168999999989 8.70933921558089 20.844218660348648
decision_type=2 2 2 2 2 2 2
left_child=3 2 -2 6 -5 -3 -1
right_child=1 5 -4 4 -6 -7 -8
leaf_value=0.15785376475784618 0.81751305249941564 -0.14297094546038544 -0.020125278142323191 0.42236697893500569 -0.064220442556132323 0.40383114387234426 -0.054190204259958873
leaf_weight=497322 192523 1892616 511595 536818 462977 101089 3558459
leaf_count=497322 192523 1892616 511595 536818 462977 101089 3558459
internal_value=0 -0.0471446 0.321393 0.0251579 0.303142 -0.177301 -0.0433681
internal_weight=0 2.69782e+06 704118 5.05558e+06 999795 1.9937e+06 4.05578e+06
internal_count=7753399 2697823 704118 5055576 999795 1993705 4055781
shrinkage=0.65


Tree=60
num_leaves=8
num_cat=0
split_feature=11 3 3 9 1 10 2
split_gain=25510.8 32004.3 50048.7 46514.4 27952.8 94327.9 22554.2
threshold=12.599050789759326 -73.94575399999998 -73.880967499999983 9.5000000000000018 -73.888719999999992 0.027796401932843145 40.783981000000004
decision_type=2 2 2 2 2 2 2
left_child=1 3 -3 -1 6 -6 -2
right_child=4 2 -4 -5 5 -7 -8
leaf_value=0.70904688904120694 -0.0025901980033154297 -0.9641432318756622 -0.17613111969598258 -0.09554649020640138 10.973461892057685 0.58921182978101649 0.13745840230076076
leaf_weight=36930 6729145 39850 234084 170565 377 18796 523652
leaf_count=36930 6729145 39850 234084 170565 377 18796 523652
internal_value=0 -0.222934 -0.447332 0.0733157 0.014759 1.22061 0.0115712
internal_weight=0 481429 273934 207495 7.27197e+06 19173 7.2528e+06
internal_count=7753399 481429 273934 207495 7271970 19173 7252797
shrinkage=0.65


Tree=61
num_leaves=8
num_cat=0
split_feature=3 10 4 2 9 4 5
split_gain=13370.6 26116.7 17228.1 59283.5 12763.2 11399.1 749.088
threshold=-1.0000000180025095e-35 0.027796401932843145 40.637150000000013 40.651560500000009 10.500000000000002 40.807597500000007 3.5000000000000004
decision_type=2 2 2 2 2 2 2
left_child=2 6 3 -1 -4 -3 -2
right_child=1 5 4 -5 -6 -7 -8
leaf_value=-0.82031214093148297 -13.545308910246716 -0.60202564452009488 -0.03932856503600525 1.0913419159453275 0.01727853384664705 -10.069055563335617 -18.791339322795039
leaf_weight=10072 23 11013 2481356 21452 5229406 54 23
leaf_count=10072 23 11013 2481356 21452 5229406 54 23
internal_value=0 -1.09609 0.00157329 0.739328 -0.00144288 -0.99726 -24.8743
internal_weight=0 11113 7.74229e+06 31524 7.71076e+06 11067 46
internal_count=7753399 11113 7742286 31524 7710762 11067 46
shrinkage=0.65


Tree=62
num_leaves=8
num_cat=0
split_feature=4 10 1 1 4 10 2
split_gain=10295.5 63272.2 70329.8 44327.3 22072.8 37824 22640.4
threshold=40.774576000000003 8.0307929392107784 -73.930226499999989 -73.930226499999989 40.762135500000007 21.16596486739374 40.67991150000001
decision_type=2 2 2 2 2 2 2
left_child=4 2 -2 -3 6 -6 -1
right_child=1 3 -4 -5 5 -7 -8
leaf_value=0.27689852106162927 0.063100935686168771 -1.1674662598288701 1.2520711588646225 -0.088356398854284229 -0.076031559360649592 -1.3876281943482636 0.001655596959039724
leaf_weight=129585 1274762 29276 21372 35689 1327369 9355 4925991
leaf_count=129585 1274762 29276 21372 35689 1327369 9355 4925991
internal_value=0 0.0789699 0.12724 -0.884076 -0.0168149 -0.131093 0.013401
internal_weight=0 1.3611e+06 1.29613e+06 64965 6.3923e+06 1.33672e+06 5.05558e+06
internal_count=7753399 1361099 1296134 64965 6392300 1336724 5055576
shrinkage=0.65


Tree=63
num_leaves=8
num_cat=0
split_feature=1 4 3 10 9 8 8
split_gain=11391.7 31972.5 11877.5 11731.2 8447.75 37252.3 33337
threshold=-73.781088499999981 40.855207000000007 -73.789472999999987 0.027796401932843145 17.500000000000004 5.5000000000000009 5.5000000000000009
decision_type=2 2 2 2 2 2 2
left_child=4 3 -3 -2 6 -6 -1
right_child=1 2 -4 -5 5 -7 -8
leaf_value=0.051686123139043944 2.0637746836269786 -1.4807892430414649 -5.9419545559464906 -0.30334372519956437 -0.073120402788368302 0.10326878525390201 -0.063794209726494383
leaf_weight=3557041 905 458 561 39173 1972712 680322 1502227
leaf_count=3557041 905 458 561 39173 1972712 680322 1502227
internal_value=0 -0.525092 -6.05667 -0.384449 0.00279809 -0.0429056 0.0267647
internal_weight=0 41097 1019 40078 7.7123e+06 2.65303e+06 5.05927e+06
internal_count=7753399 41097 1019 40078 7712302 2653034 5059268
shrinkage=0.65


Tree=64
num_leaves=8
num_cat=0
split_feature=9 8 10 9 8 2 8
split_gain=7863.71 12609.5 18463.3 11892.3 29252.5 9545.46 8915.2
threshold=1.5000000000000002 4.5000000000000009 0.027796401932843145 11.500000000000002 5.5000000000000009 40.741170500000003 1.5000000000000002
decision_type=2 2 2 2 2 2 2
left_child=1 2 -1 4 -2 -3 -5
right_child=3 5 -4 6 -6 -7 -8
leaf_value=2.5798617359506419 -0.0003764451018446229 0.26575524313630694 -0.070373471201525359 -0.058665793308435056 -0.16604335568303555 0.047205936515374733 0.023354356720927134
leaf_weight=1117 1713537 162335 194503 644859 610846 175955 4250247
leaf_count=1117 1713537 162335 194503 644859 610846 175955 4250247
internal_value=0 0.117108 -0.0849854 -0.00866061 -0.0675593 0.233971 0.0193068
internal_weight=0 533910 195620 7.21949e+06 2.32438e+06 338290 4.89511e+06
internal_count=7753399 533910 195620 7219489 2324383 338290 4895106
shrinkage=0.65


Tree=65
num_leaves=8
num_cat=0
split_feature=10 11 1 4 3 2 4
split_gain=9073.45 96877.6 55711 50846.9 10364.9 24496 11436.8
threshold=0.027796401932843145 19.32264318701797 -73.949603999999979 40.82591200000001 -73.959785730712881 40.724759000000013 40.770997500000007
decision_type=2 2 2 2 2 2 2
left_child=1 3 -3 -1 6 -6 -2
right_child=4 2 -4 -5 5 -7 -8
leaf_value=-1.8939725024184446 -0.021260507860394299 0.17575819246135618 7.260798694967197 -8.6567010364625094 -0.15962624839410561 0.082445460489737873 0.060884325937317282
leaf_weight=7307 5387049 22244 479 502 204245 1305697 825876
leaf_count=7307 5387049 22244 479 502 204245 1305697 825876
internal_value=0 -0.544066 0.50017 -3.58264 0.00215094 0.0764634 -0.0159094
internal_weight=0 30532 22723 7809 7.72287e+06 1.50994e+06 6.21292e+06
internal_count=7753399 30532 22723 7809 7722867 1509942 6212925
shrinkage=0.65


Tree=66
num_leaves=8
num_cat=0
split_feature=2 4 1 4 10 11 10
split_gain=11841.6 127573 116086 114811 83444.4 67401.8 59878.6
threshold=40.750727500000018 40.749251500000007 -73.976534499999985 40.751611000000004 8.0307929392107784 22.680069995127536 13.299442737651466
decision_type=2 2 2 2 2 2 2
left_child=3 2 -2 6 -5 -3 -1
right_child=1 5 -4 4 -6 -7 -8
leaf_value=-0.078615083229344643 0.38670661752295038 -0.050222297464761832 -0.035504786122320248 0.24502933234053198 -0.33924799896926439 -0.31818130363653052 0.45406139158149084
leaf_weight=2214810 528794 2666956 573563 1096473 114011 465892 92900
leaf_count=2214810 528794 2666956 573563 1096473 114011 465892 92900
internal_value=0 -0.035619 0.256965 0.0428782 0.292305 -0.138571 -0.0879561
internal_weight=0 4.2352e+06 1.10236e+06 3.51819e+06 1.21048e+06 3.13285e+06 2.30771e+06
internal_count=7753399 4235205 1102357 3518194 1210484 3132848 2307710
shrinkage=0.65


Tree=67
num_leaves=8
num_cat=0
split_feature=10 3 9 4 2 2 12
split_gain=16792.7 16004.2 43220.2 12134.8 33169.8 23663.8 7702.69
threshold=0.88989084003208252 -73.819681999999986 19.500000000000004 40.840704000000009 40.819246500000013 40.819246500000013 1.0000000180025095e-35
decision_type=2 2 2 2 2 2 2
left_child=1 6 -3 5 -5 -2 -1
right_child=3 2 -4 4 -6 -7 -8
leaf_value=0.046720177434242664 -0.023025710814698841 1.5482668511850592 -2.0121408700717716 0.40825467862245124 -1.7849731009526657 0.72686537481403113 2.2002109465378994
leaf_weight=1976135 5693983 7796 1767 52095 3086 17835 702
leaf_count=1976135 5693983 7796 1767 52095 3086 17835 702
internal_value=0 0.0792967 1.36984 -0.0273132 0.439382 -0.0318218 0.0730537
internal_weight=0 1.9864e+06 9563 5.767e+06 55181 5.71182e+06 1.97684e+06
internal_count=7753399 1986400 9563 5766999 55181 5711818 1976837
shrinkage=0.65


Tree=68
num_leaves=8
num_cat=0
split_feature=10 10 6 4 2 2 3
split_gain=8507.3 28737.1 30720 22566.7 78025.9 22407.1 22030.4
threshold=4.3363589292272549 4.7188728970127967 2011.5000000000002 40.817045500000006 40.800197300659185 40.819246500000013 -74.023163999999994
decision_type=2 2 2 2 2 2 2
left_child=3 6 -3 5 -5 -1 -2
right_child=1 2 -4 4 -6 -7 -8
leaf_value=0.0038996139083397655 3.1023938605295758 -0.15153718968015206 0.089910934950715893 1.2348748748849059 -0.47619107792041032 1.0011953596623722 -0.36956508614797001
leaf_weight=6667383 777 393055 513500 25015 20477 9532 123660
leaf_count=6667383 777 393055 513500 25015 20477 9532 123660
internal_value=0 -0.0845833 -0.0227288 0.0129722 0.714899 0.00818978 -0.535209
internal_weight=0 1.03099e+06 906555 6.72241e+06 45492 6.67692e+06 124437
internal_count=7753399 1030992 906555 6722407 45492 6676915 124437
shrinkage=0.65


Tree=69
num_leaves=8
num_cat=0
split_feature=6 7 6 6 7 10 3
split_gain=7135.34 52813.5 202179 98104.1 40703.6 33170.4 25014.9
threshold=2011.5000000000002 8.5000000000000018 2012.5000000000002 2012.5000000000002 9.5000000000000018 2.6717522407038135 -74.023163999999994
decision_type=2 2 2 2 2 2 2
left_child=4 3 -3 -2 6 -6 -1
right_child=1 2 -4 -5 5 -7 -8
leaf_value=-0.89075369229614587 -0.25277555266187857 0.47301495348273975 -0.094278843256217215 0.0094305798317197501 -0.021837881949344988 -0.30043498504087268 0.065923313081631102
leaf_weight=11598 839633 401216 784262 2138040 669945 247180 2661525
leaf_count=11598 839633 401216 784262 2138040 669945 247180 2661525
internal_value=0 -0.0281717 0.150334 -0.0992389 0.0326671 -0.149114 0.0950347
internal_weight=0 4.16315e+06 1.18548e+06 2.97767e+06 3.59025e+06 917125 2.67312e+06
internal_count=7753399 4163151 1185478 2977673 3590248 917125 2673123
shrinkage=0.65


Tree=70
num_leaves=8
num_cat=0
split_feature=2 4 4 3 1 4 4
split_gain=7205.15 42199 128898 69951 17060.9 60403.1 31719.7
threshold=40.742240452880871 40.723207500000008 40.728541000000007 -73.969314787597654 -73.976764499999987 40.732271000000004 40.723207500000008
decision_type=2 2 2 2 2 2 2
left_child=4 3 -3 -2 6 -6 -1
right_child=1 2 -4 -5 5 -7 -8
leaf_value=0.14437334167152677 -0.35529972467649856 0.61887381623921933 -0.014647025803491639 0.24914471052717471 -0.10858587869278673 0.50521166738607415 -0.034139501948764375
leaf_weight=558508 329967 139775 4643763 107164 142911 128778 1702533
leaf_count=558508 329967 139775 4643763 107164 142911 128778 1702533
internal_value=0 -0.0212328 0.00594532 -0.318644 0.0437667 0.280536 0.0153163
internal_weight=0 5.22067e+06 4.78354e+06 437131 2.53273e+06 271689 2.26104e+06
internal_count=7753399 5220669 4783538 437131 2532730 271689 2261041
shrinkage=0.65


Tree=71
num_leaves=8
num_cat=0
split_feature=11 9 9 4 11 3 10
split_gain=22142.3 17411.3 26555 9957.11 40949.4 28151.3 6197.24
threshold=1.2165932087812494 7.5000000000000009 18.500000000000004 40.707006000000007 16.821365940356937 -74.023163999999994 24.94719467321309
decision_type=2 2 2 2 2 2 2
left_child=1 6 -3 4 -2 -5 -1
right_child=3 2 -4 5 -6 -7 -8
leaf_value=0.27946228294636044 0.54766662421097512 -0.63071154989640632 0.12980640047407893 1.0546996922497973 0.0088845138994848357 -0.0028687195247581051 -1.1183462147483796
leaf_weight=23809 72054 66134 27449 10650 344830 7207053 1420
leaf_count=23809 72054 66134 27449 10650 344830 7207053 1420
internal_value=0 -0.428379 -0.627143 0.00666658 0.156934 -0.00201267 0.308904
internal_weight=0 118812 93583 7.63459e+06 416884 7.2177e+06 25229
internal_count=7753399 118812 93583 7634587 416884 7217703 25229
shrinkage=0.65


Tree=72
num_leaves=8
num_cat=0
split_feature=10 10 2 1 4 3 2
split_gain=12328.6 33341 25684.9 21087 17967.3 10953.7 7984.11
threshold=16.657007346866703 14.979215953729334 40.78869032983399 1.0000000180025095e-35 40.855207000000007 -74.010223194335921 40.772750927246101
decision_type=2 2 2 2 2 2 2
left_child=1 6 3 -2 -4 -3 -1
right_child=2 5 4 -5 -6 -7 -8
leaf_value=-0.0087600066017059965 -0.1315454556845618 1.9074180384744397 -1.8609453316282019 8.8302571747149976 4.5505943315084245 0.56710255524426478 0.045607037547312018
leaf_weight=6140155 177239 2857 4834 111 192 26209 1401802
leaf_count=6140155 177239 2857 4834 111 192 26209 1401802
internal_value=0 0.00618897 -0.256924 -0.193748 -2.48618 1.07515 0.00206929
internal_weight=0 7.57102e+06 182376 177350 5026 29066 7.54196e+06
internal_count=7753399 7571023 182376 177350 5026 29066 7541957
shrinkage=0.65


Tree=73
num_leaves=8
num_cat=0
split_feature=4 1 3 11 12 3 9
split_gain=7853.16 27470.9 45315.2 25279.3 6156.28 5985.04 5942.64
threshold=40.82591200000001 -73.957504636230453 -74.023163999999994 12.599050789759326 1.5000000000000002 -74.023163999999994 21.500000000000004
decision_type=2 2 2 2 2 2 2
left_child=4 3 -3 -2 6 -6 -1
right_child=1 2 -4 -5 5 -7 -8
leaf_value=0.0086529310436497635 -1.8274119314783281 -10.436331332479519 0.4354926772503207 -0.30451489107972884 -3.0495785924916468 -0.23692508168209311 -0.050473946094746001
leaf_weight=6861451 5007 163 25926 57390 546 771 802145
leaf_count=6861451 5007 163 25926 57390 546 771 802145
internal_value=0 -0.296205 0.565488 -0.65649 0.00341948 -2.15845 0.003791
internal_weight=0 88486 26089 62397 7.66491e+06 1317 7.6636e+06
internal_count=7753399 88486 26089 62397 7664913 1317 7663596
shrinkage=0.65


Tree=74
num_leaves=8
num_cat=0
split_feature=11 10 11 10 6 10 7
split_gain=4763.15 34033.6 51852.9 20702.3 16698.3 40613.8 21678.2
threshold=12.599050789759326 9.4523471910122918 17.8723879727462 8.0307929392107784 2009.5000000000002 0.027796401932843145 9.5000000000000018
decision_type=2 2 2 2 2 2 2
left_child=4 3 -3 -2 5 -1 -6
right_child=1 2 -4 -5 6 -7 -8
leaf_value=-3.9074281908435671 0.0025129307582129707 1.0889276505742076 -0.1145888715520724 -0.49688834732402726 -0.19380577275771574 0.29939257510161277 0.1569225729863504
leaf_weight=984 7176226 30374 30127 35243 316860 66257 97328
leaf_count=984 7176226 30374 30127 35243 316860 66257 97328
internal_value=0 0.00637736 0.753271 0.000111259 -0.0963299 0.365893 -0.171369
internal_weight=0 7.27197e+06 60501 7.21147e+06 481429 67241 414188
internal_count=7753399 7271970 60501 7211469 481429 67241 414188
shrinkage=0.65


Tree=75
num_leaves=8
num_cat=0
split_feature=1 3 10 3 4 11 11
split_gain=5769.79 29499.5 55348.6 31761 12912.8 12037.6 10522.4
threshold=-73.870698999999988 -73.856998499999989 13.911242152583489 -73.942951499999978 1.0000000180025095e-35 10.125019715982239 21.588766258285059
decision_type=2 2 2 2 2 2 2
left_child=4 3 -3 -2 6 -6 -1
right_child=1 2 -4 -5 5 -7 -8
leaf_value=-2.3330473761234902 0.10876447451369031 0.40498041309917371 3.5385066207488762 -0.63151329882426677 -0.22523556337745709 0.00073272864669525451 -0.41178249276026718
leaf_weight=1695 151703 39354 2535 29200 100957 7423794 4161
leaf_count=1695 151703 39354 2535 29200 100957 7423794 4161
internal_value=0 0.158599 0.914788 -0.0165009 -0.00469212 -0.00353694 -1.48906
internal_weight=0 222792 41889 180903 7.53061e+06 7.52475e+06 5856
internal_count=7753399 222792 41889 180903 7530607 7524751 5856
shrinkage=0.65


Tree=76
num_leaves=8
num_cat=0
split_feature=10 6 7 7 10 3 3
split_gain=7290.91 15468.9 65139.1 42721.7 9423.56 168306 61276
threshold=13.299442737651466 2011.5000000000002 7.5000000000000009 8.5000000000000018 6.0090614566965312 -74.023163999999994 -74.023163999999994
decision_type=2 2 2 2 2 2 2
left_child=4 2 -2 -3 6 -6 -1
right_child=1 3 -4 -5 5 -7 -8
leaf_value=1.4240956912577585 0.35329535418828484 0.018050061796276187 -0.65607082662065086 0.75577574179127371 -4.1177725996582657 -0.056702316427967595 -0.00092282851746301969
leaf_weight=12772 62528 113473 47559 46862 4360 389023 7076822
leaf_count=12772 62528 113473 47559 46862 4360 389023 7076822
internal_value=0 0.16131 -0.127329 0.359491 -0.00582946 -0.156481 0.00252979
internal_weight=0 270422 110087 160335 7.48298e+06 393383 7.08959e+06
internal_count=7753399 270422 110087 160335 7482977 393383 7089594
shrinkage=0.65


Tree=77
num_leaves=8
num_cat=0
split_feature=2 4 11 3 10 4 1
split_gain=8518.33 15055.8 12988.3 11249 6992.76 30223.8 15396.7
threshold=1.0000000180025095e-35 40.747619000000007 4.336558124058068 -73.819681999999986 2.2367425322913914 40.778260500000009 -73.874483499999982
decision_type=2 2 2 2 2 2 2
left_child=1 2 -1 -3 6 -6 -2
right_child=4 3 -4 -5 5 -7 -8
leaf_value=-5.4539568414568373 -0.015806460957694047 -1.4432251232360225 0.15597677848013372 -11.065328024700284 0.058652698043316222 -0.12679694353415255 0.51290363751726653
leaf_weight=179 5047248 4004 6737 52 2226176 445624 23379
leaf_count=179 5047248 4004 6737 52 2226176 445624 23379
internal_value=0 -0.880495 0.0165852 -2.41013 0.00124777 0.0426491 -0.0205673
internal_weight=0 10972 6916 4056 7.74243e+06 2.6718e+06 5.07063e+06
internal_count=7753399 10972 6916 4056 7742427 2671800 5070627
shrinkage=0.65


Tree=78
num_leaves=8
num_cat=0
split_feature=11 3 0 10 10 11 10
split_gain=7239.62 37645.2 43948.7 25281.2 15414.7 50444 14585.2
threshold=4.336558124058068 -74.023163999999994 42899301.000000007 24.94719467321309 21.16596486739374 17.8723879727462 16.657007346866703
decision_type=2 2 2 2 2 2 2
left_child=1 2 -1 -3 6 -6 -2
right_child=4 3 -4 -5 5 -7 -8
leaf_value=3.0544173013799685 0.0025717504250606987 -0.10100759774969738 33.070491679970708 -1.3131475783604649 2.5572604077298458 0.11629787047773829 -0.63118043767221887
leaf_weight=1108 7530201 171258 21 7592 4215 23630 15374
leaf_count=1108 7530201 171258 21 7592 4215 23630 15374
internal_value=0 -0.19822 5.55805 -0.234556 0.0047106 0.747377 0.00196998
internal_weight=0 179979 1129 178850 7.57342e+06 27845 7.54558e+06
internal_count=7753399 179979 1129 178850 7573420 27845 7545575
shrinkage=0.65


Tree=79
num_leaves=8
num_cat=0
split_feature=4 11 1 6 10 4 7
split_gain=7903.14 10441 5639.59 4917.17 15513.8 5961.01 2846.56
threshold=1.0000000180025095e-35 0.49750961682881217 -74.016137084716789 2014.5000000000002 11.741582323389602 40.766435500000007 7.5000000000000009
decision_type=2 2 2 2 2 2 2
left_child=1 6 -3 5 -5 -2 -1
right_child=3 2 -4 4 -6 -7 -8
leaf_value=-8.4330044941468394 -0.015205513830240807 2.5757007514757495 -0.56114554218070145 0.034302082996466643 0.52267992276865105 0.026752261696697966 -2.0774731226099865
leaf_weight=88 5230408 248 10269 514077 29033 1969231 45
leaf_count=88 5230408 248 10269 514077 29033 1969231 45
internal_value=0 -0.860848 -0.749502 0.00118408 0.0929373 -0.00573739 -9.66559
internal_weight=0 10650 10517 7.74275e+06 543110 7.19964e+06 133
internal_count=7753399 10650 10517 7742749 543110 7199639 133
shrinkage=0.65


Tree=80
num_leaves=8
num_cat=0
split_feature=1 6 10 10 10 2 4
split_gain=6505.44 21396.8 30298.5 23876 10466.4 38043.6 13567.8
threshold=-73.947711999999996 2012.5000000000002 0.027796401932843145 11.741582323389602 3.9726689372478838 40.733500500000005 40.762135500000007
decision_type=2 2 2 2 2 2 2
left_child=4 2 -2 -3 6 -6 -1
right_child=1 3 -4 -5 5 -7 -8
leaf_value=0.017120518537068089 -1.471493634011011 -0.40803559838641695 0.065095066132032073 0.037936611634677771 -0.14323334458981937 0.16142751800951188 -0.046586322708682716
leaf_weight=4279010 5519 126834 307432 84516 243762 597985 2108341
leaf_count=4279010 5519 126834 307432 84516 243762 597985 2108341
internal_value=0 -0.107558 0.0584566 -0.353381 0.00780083 0.112616 -0.00601212
internal_weight=0 524301 312951 211350 7.2291e+06 841747 6.38735e+06
internal_count=7753399 524301 312951 211350 7229098 841747 6387351
shrinkage=0.65


Tree=81
num_leaves=8
num_cat=0
split_feature=11 10 4 4 10 10 9
split_gain=7225.63 23147 27227.6 22892.5 14604.9 18316.9 10233.4
threshold=11.48978924420271 6.9530648929629644 40.663604215231011 40.683589500000004 4.3363589292272549 11.741582323389602 3.5000000000000004
decision_type=2 2 2 2 2 2 2
left_child=4 2 -2 -3 6 -6 -1
right_child=1 3 -4 -5 5 -7 -8
leaf_value=-0.67130745032021566 -0.48871582076280429 0.95856746347845945 0.0025519138894128067 0.16219006216568979 -0.35724257971816353 -0.037432989808650251 0.44606912390989656
leaf_weight=3894 47988 16910 7081554 155390 99389 316990 31284
leaf_count=3894 47988 16910 7081554 155390 99389 316990 31284
internal_value=0 0.00759157 -0.00116114 0.369767 -0.122759 -0.175032 0.495972
internal_weight=0 7.30184e+06 7.12954e+06 172300 451557 416379 35178
internal_count=7753399 7301842 7129542 172300 451557 416379 35178
shrinkage=0.65


Tree=82
num_leaves=8
num_cat=0
split_feature=4 2 10 6 3 3 4
split_gain=5682.3 33102.2 69571.2 48507.6 17328.5 37555.8 34229.9
threshold=40.766435500000007 40.761587500000012 1.3860363370451005 2012.5000000000002 -73.920244840087889 -73.959785730712881 40.704558500000012
decision_type=2 2 2 2 2 2 2
left_child=4 2 -2 -3 5 -1 -6
right_child=1 3 -4 -5 6 -7 -8
leaf_value=-0.016549000322865076 0.51637392061447984 0.062722941796256926 0.037934099725053815 -0.1952992160903812 0.079692883958176725 0.22589669362587608 -0.45328045678188245
leaf_weight=5140424 159448 807502 659687 497495 98133 284906 105804
leaf_count=5140424 159448 807502 659687 497495 98133 284906 105804
internal_value=0 0.0440708 0.201638 -0.0548324 -0.0166296 -0.00587261 -0.302796
internal_weight=0 2.12413e+06 819135 1.305e+06 5.62927e+06 5.42533e+06 203937
internal_count=7753399 2124132 819135 1304997 5629267 5425330 203937
shrinkage=0.65


Tree=83
num_leaves=8
num_cat=0
split_feature=2 3 11 11 3 4 9
split_gain=6192.02 39857.2 39488.9 33058.5 11803.4 39357 13973.5
threshold=40.768721000000006 -74.023163999999994 15.294721390211281 25.704969763412354 -73.972423999999975 40.776142500000006 17.500000000000004
decision_type=2 2 2 2 2 2 2
left_child=4 2 -2 -3 5 -1 -6
right_child=1 3 -4 -5 6 -7 -8
leaf_value=-0.0044209932069778591 -6.2531542877717801 0.035989867445579478 -1.048965709530254 3.7212732016175001 -0.013253441224336698 0.32393480412320091 -0.13870404129637881
leaf_weight=4121548 732 1809909 3888 1029 1081794 160222 574277
leaf_count=4121548 732 1809909 3888 1029 1081794 160222 574277
internal_value=0 0.0511069 -2.88235 0.0585906 -0.0156265 0.0121014 -0.087317
internal_weight=0 1.81556e+06 4620 1.81094e+06 5.93784e+06 4.28177e+06 1.65607e+06
internal_count=7753399 1815558 4620 1810938 5937841 4281770 1656071
shrinkage=0.65


Tree=84
num_leaves=8
num_cat=0
split_feature=2 10 9 4 6 4 3
split_gain=6342.84 15132.4 16117 14838.9 37841 25821.5 11109.9
threshold=40.74200860461427 0.50222165595708879 6.5000000000000009 40.736072770141611 2012.5000000000002 40.724271000000009 -73.819681999999986
decision_type=2 2 2 2 2 2 2
left_child=3 6 -3 5 -5 -1 -2
right_child=1 2 -4 4 -6 -7 -8
leaf_value=0.048118490459947455 0.085286042981584237 -0.12811853782367669 -0.010801676846863657 -0.010801461061046312 0.21345116806355177 -0.15374926553649129 2.7239293110431202
leaf_weight=712829 556160 562028 4133434 852586 506952 428735 675
leaf_count=712829 556160 562028 4133434 852586 506952 428735 675
internal_value=0 -0.0197373 -0.0382216 0.0414481 0.112029 -0.0426101 0.13613
internal_weight=0 5.2523e+06 4.69546e+06 2.5011e+06 1.35954e+06 1.14156e+06 556835
internal_count=7753399 5252297 4695462 2501102 1359538 1141564 556835
shrinkage=0.65


Tree=85
num_leaves=8
num_cat=0
split_feature=12 2 4 1 3 11 4
split_gain=6754.9 9193.34 20278.6 16116.4 7836.99 61052.8 12311.6
threshold=1.0000000180025095e-35 40.67991150000001 40.731230500000002 -73.888719999999992 -73.870225999999988 12.599050789759326 40.648695500000009
decision_type=2 2 2 2 2 2 2
left_child=4 2 -2 -3 6 -6 -1
right_child=1 3 -4 -5 5 -7 -8
leaf_value=0.36468116891753144 0.62996204045095061 -1.1747230404952558 -0.91525441408975372 0.92097239366682626 0.099514705103960321 4.0509413838834893 -0.0039247864880810283
leaf_weight=38480 8733 8649 6091 1889 172828 1668 7515061
leaf_count=38480 8733 8649 6091 1889 172828 1668 7515061
internal_value=0 -0.515236 -0.00761303 -1.22932 0.00169091 0.21121 -0.00314923
internal_weight=0 25362 14824 10538 7.72804e+06 174496 7.55354e+06
internal_count=7753399 25362 14824 10538 7728037 174496 7553541
shrinkage=0.65


Tree=86
num_leaves=8
num_cat=0
split_feature=4 1 10 2 4 3 11
split_gain=7154.98 29654.6 28558.7 23803.3 12026.3 21355.7 9092.4
threshold=40.699188000000007 -73.991122499999989 0.10902013762215258 40.709158000000009 40.707006000000007 -74.010223194335921 25.959604224601978
decision_type=2 2 2 2 2 2 2
left_child=1 2 -1 -3 5 -2 -6
right_child=4 3 -4 -5 6 -7 -8
leaf_value=2.9968584790379169 -0.13454663655072058 -0.26432089651045665 -0.39780627593648449 0.17860469824757277 0.0018912039863030214 0.41652749874087974 -0.50891136452640884
leaf_weight=1057 48378 74789 111354 162963 7263104 77001 14753
leaf_count=1057 48378 74789 111354 162963 7263104 77001 14753
internal_value=0 -0.13968 -0.562902 0.0604228 0.00660667 0.313682 0.00131654
internal_weight=0 350163 112411 237752 7.40324e+06 125379 7.27786e+06
internal_count=7753399 350163 112411 237752 7403236 125379 7277857
shrinkage=0.65


Tree=87
num_leaves=8
num_cat=0
split_feature=4 11 2 2 11 3 2
split_gain=5376.87 33172.8 39040.8 34016.1 16877.5 61375.1 12849.1
threshold=40.762135500000007 17.8723879727462 40.695017000000007 40.805247537597658 19.419205685319806 -73.958548499999992 40.741746500000005
decision_type=2 2 2 2 2 2 2
left_child=4 3 -3 -2 6 -6 -1
right_child=1 2 -4 -5 5 -7 -8
leaf_value=0.024288492670905344 0.2338004966663467 1.451537686342276 -0.052584701037807893 -0.92093076789903727 0.01589094921818009 0.62866779508327642 -0.18097457138516548
leaf_weight=218214 270255 7313 2409029 11226 4452592 70146 314624
leaf_count=218214 270255 7313 2409029 11226 4452592 70146 314624
internal_value=0 -0.0360493 -0.0738962 0.288842 0.0192371 0.0390691 -0.149097
internal_weight=0 2.69782e+06 2.41634e+06 281481 5.05558e+06 4.52274e+06 532838
internal_count=7753399 2697823 2416342 281481 5055576 4522738 532838
shrinkage=0.65


Tree=88
num_leaves=8
num_cat=0
split_feature=1 4 3 4 2 3 12
split_gain=9331.14 37359.4 33398.2 32183.9 17026.1 21066.4 8893.51
threshold=-73.801013499999982 40.755500396728522 -73.966041782470697 40.687695000000012 40.67991150000001 -73.819681999999986 1.0000000180025095e-35
decision_type=2 2 2 2 2 2 2
left_child=4 3 -3 -2 5 -1 -6
right_child=1 2 -4 -5 6 -7 -8
leaf_value=0.36259014910719728 -0.42850415312594353 -1.1242756774360867 -0.037427976725969238 0.39941547729402949 0.0016579412025663741 3.2045615472033058 -0.64265613467203642
leaf_weight=33916 31727 26160 21985 52937 7576473 1139 9062
leaf_count=33916 31727 26160 21985 52937 7576473 1139 9062
internal_value=0 -0.262786 -0.966117 0.13717 0.00457974 0.699894 0.00136649
internal_weight=0 132809 48145 84664 7.62059e+06 35055 7.58554e+06
internal_count=7753399 132809 48145 84664 7620590 35055 7585535
shrinkage=0.65


Tree=89
num_leaves=8
num_cat=0
split_feature=2 4 1 1 4 10 10
split_gain=7791.88 21508.2 28016.4 21032.3 11960.5 73181.1 9437.98
threshold=40.770667500000009 40.775725659179692 -73.957504636230453 -73.968148499999984 40.781193500000008 1.6189033505275197 1.7373511988012649
decision_type=2 2 2 2 2 2 2
left_child=4 2 -2 -3 6 -6 -1
right_child=1 3 -4 -5 5 -7 -8
leaf_value=-0.040889061895706298 0.19691795281887109 -0.20330421229551948 -0.024606413108556466 0.041383837904971792 0.59940572445582152 -0.054065968867449327 0.012397360932334487
leaf_weight=3292610 553302 243268 427639 380662 94201 312942 2448775
leaf_count=3292610 553302 243268 427639 380662 94201 312942 2448775
internal_value=0 0.0620498 0.154377 -0.0831064 -0.0161961 0.149428 -0.0279411
internal_weight=0 1.60487e+06 980941 623930 6.14853e+06 407143 5.74138e+06
internal_count=7753399 1604871 980941 623930 6148528 407143 5741385
shrinkage=0.65


Tree=90
num_leaves=8
num_cat=0
split_feature=4 10 3 1 3 3 1
split_gain=6189.16 24279.7 22328.8 60640 19482 16779.2 12032.7
threshold=40.723207500000008 3.1628996707503467 -74.011043999999984 -74.016137084716789 -74.002159559326159 -74.012133999999975 -73.957504636230453
decision_type=2 2 2 2 2 2 2
left_child=1 4 3 -2 -1 -3 -4
right_child=2 5 6 -5 -6 -7 -8
leaf_value=-0.10723198926292268 -1.0190560234105017 0.12304118582387405 -0.0053388020635091304 1.9524797653434476 0.11924233206987565 -0.22028793521943876 0.074224231886345429
leaf_weight=260509 4555 71945 5688758 7993 417948 366588 935103
leaf_count=260509 4555 71945 5688758 7993 417948 366588 935103
internal_value=0 -0.0688671 0.0115912 1.3443 0.0496652 -0.252249 0.00906656
internal_weight=0 1.11699e+06 6.63641e+06 12548 678457 438533 6.62386e+06
internal_count=7753399 1116990 6636409 12548 678457 438533 6623861
shrinkage=0.65


Tree=91
num_leaves=8
num_cat=0
split_feature=11 4 3 2 1 2 2
split_gain=6886.7 22392.5 54244.5 19686.1 9251.34 13274.3 12060.6
threshold=23.36925615633545 40.781193500000008 -73.782267499999975 40.786764000000012 -74.013270999999975 40.720552500000018 40.721027500000005
decision_type=2 2 2 2 2 2 2
left_child=4 3 -3 -2 5 -1 -6
right_child=1 2 -4 -5 6 -7 -8
leaf_value=0.4045224166792325 0.035352949913923432 2.4040155748677061 -4.9463033491317772 -3.4887318625331707 -0.11269659283702704 -2.3431513224222971 -0.0034948091580099382
leaf_weight=31168 1610575 3649 480 670 462305 761 5643791
leaf_count=31168 1610575 3649 480 670 462305 761 5643791
internal_value=0 0.0580948 2.3839 0.0521347 -0.0152891 0.521591 -0.0180965
internal_weight=0 1.61537e+06 4129 1.61124e+06 6.13802e+06 31929 6.1061e+06
internal_count=7753399 1615374 4129 1611245 6138025 31929 6106096
shrinkage=0.65


Tree=92
num_leaves=8
num_cat=0
split_feature=10 5 2 10 4 10 3
split_gain=4961.99 9554.35 9504.61 8838.2 20412.1 11878.4 8521.18
threshold=13.299442737651466 4.5000000000000009 40.819246500000013 11.067868258979198 40.663604215231011 9.4523471910122918 -73.782267499999975
decision_type=2 2 2 2 2 2 2
left_child=3 6 -3 5 -5 -1 -2
right_child=1 2 -4 4 -6 -7 -8
leaf_value=-0.0026141170197950614 0.087234462128811932 -0.26414829412234248 -6.5510598994554119 1.8145600215862392 -0.21051431608150048 0.28585058384187845 0.5035146113734662
leaf_weight=7298516 221597 25798 102 2140 121507 60814 22925
leaf_count=7298516 221597 25798 102 2140 121507 60814 22925
internal_value=0 0.133076 -0.444473 -0.00480912 -0.269947 -0.000354434 0.19425
internal_weight=0 270422 25900 7.48298e+06 123647 7.35933e+06 244522
internal_count=7753399 270422 25900 7482977 123647 7359330 244522
shrinkage=0.65


Tree=93
num_leaves=8
num_cat=0
split_feature=5 10 3 4 1 4 4
split_gain=3792.26 10230.9 20528.3 19861.7 5366.73 10753 8063.01
threshold=1.5000000000000002 19.379837484262151 -74.023163999999994 40.774576000000003 -73.870698999999988 -1.0000000180025095e-35 40.637150000000013
decision_type=2 2 2 2 2 2 2
left_child=4 2 -2 -3 5 -1 -6
right_child=1 3 -4 -5 6 -7 -8
leaf_value=-12.529333696180052 -1.1746196916665343 -0.15166087970129541 0.031354666241277578 -1.7195492748114143 -0.55162733855888968 -0.012907773525388916 0.14684406905812375
leaf_weight=29 5979 50324 2304863 3662 7346 5239984 141212
leaf_count=29 5979 50324 2304863 3662 7346 5239984 141212
internal_value=0 0.0333841 0.0434375 -0.396945 -0.0146509 -0.0199647 0.172778
internal_weight=0 2.36483e+06 2.31084e+06 53986 5.38857e+06 5.24001e+06 148558
internal_count=7753399 2364828 2310842 53986 5388571 5240013 148558
shrinkage=0.65


Tree=94
num_leaves=8
num_cat=0
split_feature=5 3 10 3 10 10 4
split_gain=3624.33 24058.8 70703.1 6843.33 30904.9 5180.74 4314.19
threshold=4.5000000000000009 -74.023163999999994 0.027796401932843145 -74.023163999999994 6.0090614566965312 0.027796401932843145 40.648695500000009
decision_type=2 2 2 2 2 2 2
left_child=3 2 -2 4 -1 -3 -5
right_child=1 5 -4 6 -6 -7 -8
leaf_value=1.1474892253172024 -22.642586423281362 -0.96750167618434424 -1.4264186229870019 0.14981830315451689 -0.24203375394122292 -0.033305623428658358 0.0014210164870395302
leaf_weight=11428 68 2517 2758 83771 16566 708296 6927995
leaf_count=11428 68 2517 2758 83771 16566 708296 6927995
internal_value=0 -0.0679059 -2.97989 0.0068838 0.500326 -0.0563287 0.00491377
internal_weight=0 713639 2826 7.03976e+06 27994 710813 7.01177e+06
internal_count=7753399 713639 2826 7039760 27994 710813 7011766
shrinkage=0.65


Tree=95
num_leaves=8
num_cat=0
split_feature=12 11 1 3 3 2 4
split_gain=3810.56 7502.82 9759.58 4145.24 3290.47 21019.7 7121.12
threshold=1.5000000000000002 16.821365940356937 -73.999697499999982 -73.782267499999975 -73.992538726074216 40.78869032983399 40.762135500000007
decision_type=2 2 2 2 2 2 2
left_child=4 3 -3 -2 5 -1 -6
right_child=1 2 -4 -5 6 -7 -8
leaf_value=-0.015299715751852874 -1.4530808883366695 -1.2154519142040943 3.4878730514460021 -4.9660976036967384 0.027514777309915521 -0.57606085668048057 -0.017656318032723255
leaf_weight=1747532 363 646 262 233 3328172 28706 2647485
leaf_count=1747532 363 646 262 233 3328172 28706 2647485
internal_value=0 -1.59158 0.217961 -4.3484 0.000308794 -0.0374804 0.0115415
internal_weight=0 1504 908 596 7.7519e+06 1.77624e+06 5.97566e+06
internal_count=7753399 1504 908 596 7751895 1776238 5975657
shrinkage=0.65


Tree=96
num_leaves=8
num_cat=0
split_feature=4 10 2 2 1 4 10
split_gain=4280.98 25607.2 47263.2 20059.1 18997 17431 4672.18
threshold=40.799239500000006 6.0090614566965312 40.785966000000009 40.793881000000006 -73.930226499999989 40.782316000000002 3.908761613271702
decision_type=2 2 2 2 2 2 2
left_child=3 2 -2 6 -3 -5 -1
right_child=1 4 -4 5 -6 -7 -8
leaf_value=-0.014955432272967455 0.41864955036996304 -0.46958980690195173 -0.1709015346408716 0.37210536354271245 0.38755799965779325 -0.07173669481552189 0.031741919044755096
leaf_weight=6226243 138999 50979 97929 109284 13904 56823 1059238
leaf_count=6226243 138999 50979 97929 109284 13904 56823 1059238
internal_value=0 0.116757 0.269187 -0.004729 -0.439859 0.338881 -0.0125632
internal_weight=0 301811 236928 7.45159e+06 64883 166107 7.28548e+06
internal_count=7753399 301811 236928 7451588 64883 166107 7285481
shrinkage=0.65


Tree=97
num_leaves=8
num_cat=0
split_feature=10 10 7 9 9 3 10
split_gain=5890.57 12325.2 11932.4 12257.7 8340.88 5091.2 4819.66
threshold=1.3860363370451005 1.5228244523952852 9.5000000000000018 7.5000000000000009 7.5000000000000009 -74.023163999999994 1.0381860837523165
decision_type=2 2 2 2 2 2 2
left_child=2 5 3 -1 -3 -2 -4
right_child=1 4 6 -5 -6 -7 -8
leaf_value=0.14375718650600838 -3.8014019079413268 -0.063613158255229799 -0.081309500757677164 0.022062921767160026 0.0094020860369728836 -0.13392676045046453 0.030168576007137154
leaf_weight=415431 160 836161 571030 2210128 3155754 334938 229797
leaf_count=415431 160 836161 571030 2210128 3155754 334938 229797
internal_value=0 -0.0245277 0.0309748 0.0635663 -0.00906454 -0.208735 -0.0758783
internal_weight=0 4.32701e+06 3.42639e+06 2.62556e+06 3.99192e+06 335098 800827
internal_count=7753399 4327013 3426386 2625559 3991915 335098 800827
shrinkage=0.65


Tree=98
num_leaves=8
num_cat=0
split_feature=4 10 6 11 4 10 4
split_gain=4599.65 25740.5 302196 22940.2 8402.98 13910.3 9325.39
threshold=40.840704000000009 24.94719467321309 2009.5000000000002 19.513267795855715 40.82591200000001 0.027796401932843145 40.817045500000006
decision_type=2 2 2 2 2 2 2
left_child=4 3 -3 -2 6 -6 -1
right_child=1 2 -4 -5 5 -7 -8
leaf_value=-0.0014609493052478253 0.15407596723632522 -22.967908599334979 3.5509030895848559 2.2610866620537839 -6.1229057241209919 -0.31081373309953447 0.36080764233185969
leaf_weight=7634773 55252 243 718 2273 175 29825 30140
leaf_count=7634773 55252 243 718 2273 175 29825 30140
internal_value=0 0.279378 -4.85336 0.365124 -0.00212344 -0.530335 -5.60544e-05
internal_weight=0 58486 961 57525 7.69491e+06 30000 7.66491e+06
internal_count=7753399 58486 961 57525 7694913 30000 7664913
shrinkage=0.65


Tree=99
num_leaves=8
num_cat=0
split_feature=11 10 10 4 9 3 9
split_gain=3359.54 15343.8 18810.1 15081 11036 7370.36 6657.58
threshold=11.327808927995322 6.9530648929629644 8.0307929392107784 40.663604215231011 8.5000000000000018 -73.998371499999976 5.5000000000000009
decision_type=2 2 2 2 2 2 2
left_child=4 3 -3 -2 6 -6 -1
right_child=1 2 -4 -5 5 -7 -8
leaf_value=-0.041467804312871809 -0.3646790474005297 0.50670085246984919 0.0591326573687153 0.00071253928139631596 -0.50119201307360839 -0.089777032953826802 0.29639798346267887
leaf_weight=47544 48048 54425 146373 7084082 19590 302186 51151
leaf_count=47544 48048 54425 146373 7084082 19590 302186 51151
internal_value=0 0.00498451 0.277605 -0.00269084 -0.0869289 -0.176653 0.205599
internal_weight=0 7.33293e+06 200798 7.13213e+06 420471 321776 98695
internal_count=7753399 7332928 200798 7132130 420471 321776 98695
shrinkage=0.65


Tree=100
num_leaves=8
num_cat=0
split_feature=11 2 4 4 9 6 11
split_gain=3587.55 12502.2 30323.5 18224.4 6650.93 18733.2 7552.11
threshold=23.100596583484553 40.735690500000011 40.731717500000009 40.732711000000002 17.500000000000004 2011.5000000000002 22.296216081788128
decision_type=2 2 2 2 2 2 2
left_child=4 3 -3 -2 6 -6 -1
right_child=1 2 -4 -5 5 -7 -8
leaf_value=0.024128256426376747 -0.0090625135859971288 0.14863352643692643 -0.088489176569959457 0.17687350560202342 0.029998156069427899 -0.098640749507058686 -0.042773119704892455
leaf_weight=2858325 459406 316819 811448 432287 886146 1039190 949778
leaf_count=2858325 459406 316819 811448 432287 886146 1039190 949778
internal_value=0 0.0362401 -0.0336997 0.124735 -0.0127678 -0.0606677 0.0114498
internal_weight=0 2.01996e+06 1.12827e+06 891693 5.73344e+06 1.92534e+06 3.8081e+06
internal_count=7753399 2019960 1128267 891693 5733439 1925336 3808103
shrinkage=0.65


Tree=101
num_leaves=8
num_cat=0
split_feature=9 6 9 4 11 1 7
split_gain=4374.36 10056.5 20779.3 9110.57 14836 8427.17 6599.15
threshold=10.500000000000002 2013.5000000000002 18.500000000000004 40.766435500000007 24.359758756965828 -73.888719999999992 4.5000000000000009
decision_type=2 2 2 2 2 2 2
left_child=3 6 -3 5 -5 -1 -2
right_child=1 2 -4 4 -6 -7 -8
leaf_value=-0.052563978984411612 -0.041023975279943878 0.13863908523157617 -0.037964028468258741 0.041574578546450157 1.8738028734995473 0.18896248823761316 0.014140427749043174
leaf_weight=1832431 1381639 668099 486439 599956 1873 63138 2719824
leaf_count=1832431 1381639 668099 486439 599956 1873 63138 2719824
internal_value=0 0.016373 0.0988173 -0.0344584 0.0727335 -0.068491 -0.00683465
internal_weight=0 5.256e+06 1.15454e+06 2.4974e+06 601829 1.89557e+06 4.10146e+06
internal_count=7753399 5256001 1154538 2497398 601829 1895569 4101463
shrinkage=0.65


Tree=102
num_leaves=8
num_cat=0
split_feature=3 2 10 4 9 8 9
split_gain=5498.82 21736.7 24863.2 17572.6 5549.68 10256.8 9835.7
threshold=-73.94575399999998 40.774353000000012 19.379837484262151 40.694468500000006 3.5000000000000004 6.5000000000000009 6.5000000000000009
decision_type=2 2 2 2 2 2 2
left_child=4 3 -3 -2 5 -1 -6
right_child=1 2 -4 -5 6 -7 -8
leaf_value=0.011466300240977993 0.13014424343695336 0.25269594819080948 -1.0413425281662292 -0.17545272684949584 -0.12480837017584238 0.18683315767414971 0.0044015053025631213
leaf_weight=509619 98304 119097 6622 415597 259408 194762 6149990
leaf_count=509619 98304 119097 6622 415597 259408 194762 6149990
internal_value=0 -0.0888132 0.2839 -0.179993 0.00798545 0.0922391 -0.00127387
internal_weight=0 639620 125719 513901 7.11378e+06 704381 6.4094e+06
internal_count=7753399 639620 125719 513901 7113779 704381 6409398
shrinkage=0.65


Tree=103
num_leaves=8
num_cat=0
split_feature=4 3 3 11 2 4 11
split_gain=3854.15 29881.4 71588.5 23748.2 8259.57 57640.1 32320
threshold=40.762135500000007 -74.023163999999994 -74.001747565673796 21.742047758464512 40.754910500000008 40.757918500000009 21.742047758464512
decision_type=2 2 2 2 2 2 2
left_child=4 3 -3 -2 5 -1 -6
right_child=1 2 -4 -5 6 -7 -8
leaf_value=-0.035532297899839076 -6.7320953162372863 4.1481240803665136 -0.020103717197639086 -1.3291200713635887 -0.040801861094239666 0.27217680073812434 0.13347602550109056
leaf_weight=2975657 388 1742 2692682 3011 903244 281534 895141
leaf_count=2975657 388 1742 2692682 3011 903244 281534 895141
internal_value=0 -0.0305209 -0.0267829 -2.99366 0.0162869 -0.0137471 0.0706838
internal_weight=0 2.69782e+06 2.69442e+06 3399 5.05558e+06 3.25719e+06 1.79838e+06
internal_count=7753399 2697823 2694424 3399 5055576 3257191 1798385
shrinkage=0.65


Tree=104
num_leaves=8
num_cat=0
split_feature=2 4 10 10 4 10 6
split_gain=5320.72 20075.9 39054.9 38122.8 18368.7 63355.3 14677.3
threshold=40.750510500000011 40.750789321167005 8.70933921558089 1.3860363370451005 40.75680950000001 1.3860363370451005 2012.5000000000002
decision_type=2 2 2 2 2 2 2
left_child=4 3 -3 -2 6 -6 -1
right_child=1 2 -4 -5 5 -7 -8
leaf_value=0.029642291085901391 0.23698120255292068 -0.060865804488946712 0.2809333975458671 -0.016578007060175603 0.43558970366839106 0.010298185068638624 -0.071005185062573986
leaf_weight=1597969 347105 2870881 148549 900392 187018 709185 992300
leaf_count=1597969 347105 2870881 148549 900392 187018 709185 992300
internal_value=0 -0.0236796 -0.0677693 0.0830348 0.0289803 0.15238 -0.0137146
internal_weight=0 4.26693e+06 3.01943e+06 1.2475e+06 3.48647e+06 896203 2.59027e+06
internal_count=7753399 4266927 3019430 1247497 3486472 896203 2590269
shrinkage=0.65


Tree=105
num_leaves=8
num_cat=0
split_feature=11 4 6 10 11 1 10
split_gain=8894.36 13649 20805.7 17513.3 7909.51 12433.7 11369.9
threshold=21.612969318416184 40.707006000000007 2012.5000000000002 6.0090614566965312 12.599050789759326 -73.888719999999992 13.299442737651466
decision_type=2 2 2 2 2 2 2
left_child=4 2 -2 -3 6 -6 -1
right_child=1 3 -4 -5 5 -7 -8
leaf_value=-0.15024855986278479 -0.01926346638210618 -0.024944722694312291 0.38513278328185108 -0.88726786532760948 0.036913827619020574 0.84496140599202763 0.049537560155768379
leaf_weight=242260 139427 4264817 87476 9974 2762207 8069 239169
leaf_count=242260 139427 4264817 87476 9974 2762207 8069 239169
internal_value=0 -0.0287858 0.210215 -0.0414719 0.0398514 0.0604114 -0.0784567
internal_weight=0 4.50169e+06 226903 4.27479e+06 3.2517e+06 2.77028e+06 481429
internal_count=7753399 4501694 226903 4274791 3251705 2770276 481429
shrinkage=0.65


Tree=106
num_leaves=8
num_cat=0
split_feature=10 4 1 2 4 3 2
split_gain=5662.13 10408.4 12673.9 9488.2 6205.61 20853.2 20700.8
threshold=0.50222165595708879 40.840704000000009 -73.781088499999981 40.758432500000005 40.747619000000007 -73.856998499999989 40.774353000000012
decision_type=2 2 2 2 2 2 2
left_child=1 3 -3 -1 6 -6 -2
right_child=4 2 -4 -5 5 -7 -8
leaf_value=-0.0037247425361222192 0.0044009182008719226 -0.82605556436587546 -6.0038394996445543 0.14054859037296585 -0.024722142857575506 0.65887687709294829 0.25080028277056399
leaf_weight=465259 2598804 2168 220 328625 4186873 18939 152511
leaf_count=465259 2598804 2168 220 328625 4186873 18939 152511
internal_value=0 0.0798782 -2.00472 0.0861486 -0.00914239 -0.0332982 0.0277836
internal_weight=0 796272 2388 793884 6.95713e+06 4.20581e+06 2.75132e+06
internal_count=7753399 796272 2388 793884 6957127 4205812 2751315
shrinkage=0.65


Tree=107
num_leaves=8
num_cat=0
split_feature=4 6 2 10 3 3 2
split_gain=4638.52 7369 7649.67 5553.49 40690 9242.91 4310.93
threshold=1.0000000180025095e-35 2014.5000000000002 40.645063500000006 24.94719467321309 -73.782267499999975 -73.782267499999975 40.809176000000015
decision_type=2 2 2 2 2 2 2
left_child=1 6 -3 5 -5 -2 -1
right_child=3 2 -4 4 -6 -7 -8
leaf_value=-0.32236484257404402 0.00088637909124305182 9.5511045787645426 -2.4495256882781113 -0.13128657054386586 1.9625963933024153 -0.40417287442679894 2.7344750048190209
leaf_weight=9503 7695591 23 925 18292 4991 23875 199
leaf_count=9503 7695591 23 925 18292 4991 23875 199
internal_value=0 -0.659503 -3.32057 0.000907133 0.488559 -0.000563693 -0.399485
internal_weight=0 10650 948 7.74275e+06 23283 7.71947e+06 9702
internal_count=7753399 10650 948 7742749 23283 7719466 9702
shrinkage=0.65


Tree=108
num_leaves=8
num_cat=0
split_feature=2 3 4 2 3 1 2
split_gain=3712.53 20628.4 19391.2 18710.3 11843.4 26175.3 19673.5
threshold=40.742513500000008 -73.984357499999973 40.736948500000004 40.78869032983399 -73.972873999999976 -73.967208931152314 40.738605749633798
decision_type=2 2 2 2 2 2 2
left_child=4 3 -3 -2 5 -1 -6
right_child=1 2 -4 -5 6 -7 -8
leaf_value=0.027943182250206734 -0.054609571674483083 0.20133075743862996 0.0062940723466257042 -0.42759584905966663 -0.10731342087268807 0.37935141361294539 0.22612481183389554
leaf_weight=1861177 1709092 230951 3193939 58777 518009 94083 87371
leaf_count=1861177 1709092 230951 3193939 58777 518009 94083 87371
internal_value=0 -0.0153661 0.0299169 -0.103093 0.0311612 0.0690034 -0.0910619
internal_weight=0 5.19276e+06 3.42489e+06 1.76787e+06 2.56064e+06 1.95526e+06 605380
internal_count=7753399 5192759 3424890 1767869 2560640 1955260 605380
shrinkage=0.65


Tree=109
num_leaves=8
num_cat=0
split_feature=10 9 3 4 3 3 4
split_gain=7893.37 33650.8 19637.1 8898.83 46153 11373.4 7327.49
threshold=19.379837484262151 19.500000000000004 -74.016101499999976 40.648695500000009 -74.014654499999992 -74.023163999999994 40.82591200000001
decision_type=2 2 2 2 2 2 2
left_child=3 2 -2 4 -1 -5 -3
right_child=1 6 -4 5 -6 -7 -8
leaf_value=-1.0164405526589197 0.55701500076158872 0.47818790347150963 -0.36221617352023339 0.62886958309011065 0.55700021900848584 7.357922358655172e-05 3.1621963391438532
leaf_weight=9640 10724 25897 116312 12173 43052 7535164 437
leaf_count=9640 10724 25897 116312 12173 43052 7535164 437
internal_value=0 -0.224607 -0.437873 0.0045326 0.41406 0.00167347 0.804197
internal_weight=0 153370 127036 7.60003e+06 52692 7.54734e+06 26334
internal_count=7753399 153370 127036 7600029 52692 7547337 26334
shrinkage=0.65


Tree=110
num_leaves=8
num_cat=0
split_feature=4 2 2 2 11 3 2
