tree
version=v3
num_class=1
num_tree_per_iteration=1
label_index=0
max_feature_idx=12
objective=regression
feature_names=index pickup_longitude pickup_latitude dropoff_longitude dropoff_latitude passenger_count year month weekday hour distance JFK_distance invalid
feature_infos=[49:43074419] [-736.25:40.804845] [-74.011918000000023:405.316667] [-736.02999999999997:40.822811999999999] [-74.033011999999999:404.58333199999998] [0:6] [2009:2015] [1:12] [1:7] [0:23] [3.0638090132660105e-05:10657.244293533575] [0.11033749050208178:15086.619257510025] [0:2]
tree_sizes=918 902 901 884 884 884 870 856 913 870 892 874 911 907 904 856 860 903 898 879 878 886 899 894 897 872 892 880 874 901 923 864 877 901 900 891 891 911 889 862 905 881 875 918 883 903 913 921 883 887 920 886 869 895 799 891 877 917 884 875 895 888 919 888 900 877 916 884 921 910 903 911 879 911 891 882 866 899 908 933 889 915 898 913 909 884 886 907 869 902 912 890 882 801 862 897 918 929 910 891 901 896 922 893 901 914 921 861 924 891 893 877 894 871 873 910 899 902 917 909 798 893 902 890 881 881 859 918 881 914 889 885 884 926 930 913 901 902 878 896 893 897 905 882 871 896 876 910 889 913 889 874 895 886 882 886 888 924 910 889 929 904 890 912 873 914 885 887 927 898 922 910 925 902 906 908 876 886 886 795 895 873 918 888 899 911 878 911 886 879 888 870 879 885 893 874 886 913 895 881 892 898 884 900 906 878 917 909 897 894 901 888 862 928 925 906 918 924 910 891 926 917 899 925 944 917 903 932 922 905 921 889 904 883 918 873 927 914 889 884 914 888 891 918 889 912 905 908 939 899 888 917 911 895 902 889 874 794 896 890 921 930 908 909 923 912 905 924 868 905 892 915 918 890 895 862 908 941 856 929 936 899 899 876 898 853 932 890 916 886 882 887 874 884 944 896 930 932 911 916

Tree=0
num_leaves=8
num_cat=0
split_feature=10 10 10 12 10 10 10
split_gain=3.53102e+08 6.25066e+07 3.37899e+07 1.9431e+07 9.23376e+06 9.08211e+06 3.50071e+06
threshold=7.8820878669015437 2.6944162428714038 16.314848236616069 1.0000000180025095e-35 1.3934533102923334 4.3185950943692921 10.927487250633716
decision_type=2 2 2 2 2 2 2
left_child=1 4 6 -4 -1 -3 -2
right_child=2 5 3 -5 -6 -7 -8
leaf_value=8.4781379782090234 20.950382593132687 12.675122170532106 36.908653470755738 14.682795456766893 10.183244630788176 15.98832197444478 25.353281330867304
leaf_weight=3445643 118694 1072672 168118 18442 2197699 518535 213597
leaf_count=3445643 118694 1072672 168118 18442 2197699 518535 213597
internal_value=0 -1.80726 25.1993 35.9695 -3.36807 3.72831 19.1526
internal_weight=0 7.23455e+06 518851 186560 5.64334e+06 1.59121e+06 332291
internal_count=7753400 7234549 518851 186560 5643342 1591207 332291
shrinkage=1


Tree=1
num_leaves=8
num_cat=0
split_feature=10 3 4 11 10 2 6
split_gain=4.63157e+07 1.07501e+07 1.00326e+07 6.45297e+06 4.98484e+06 3.98061e+06 1.33627e+06
threshold=5.9551077591082864 -74.022767499999972 40.699993500000012 5.3587869456782391 2.0129353702901409 40.736447500000004 2012.5000000000002
decision_type=2 2 2 2 2 2 2
left_child=2 6 5 -3 -4 -1 -2
right_child=1 3 4 -5 -6 -7 -8
leaf_value=1.9006732178300467 16.155473056593237 8.239213405110231 -1.0116830892381339 3.5384414436930411 0.17328692401973186 7.7562487527297526 27.509365414023687
leaf_weight=152505 10800 165243 4642336 487025 2215819 72305 7367
leaf_count=152505 10800 165243 4642336 487025 2215819 72305 7367
internal_value=0 7.94415 -0.75195 7.27587 -0.967428 5.82152 31.9379
internal_weight=0 670435 7.08296e+06 652268 6.85816e+06 224810 18167
internal_count=7753400 670435 7082965 652268 6858155 224810 18167
shrinkage=0.65


Tree=2
num_leaves=8
num_cat=0
split_feature=11 3 6 6 10 4 10
split_gain=7.8928e+06 5.44742e+06 4.98077e+06 4.61171e+06 2.83234e+06 1.25752e+06 1.0922e+06
threshold=12.663568185376077 -74.022767499999972 2012.5000000000002 2012.5000000000002 0.028671006058198775 40.855020000000003 0.028671006058198775
decision_type=2 2 2 2 2 2 2
left_child=2 4 6 -3 -2 -4 -1
right_child=1 3 5 -5 -6 -7 -8
leaf_value=13.045184621716793 32.898715149986963 -0.60816812384541952 4.8453590557882533 0.46369118199807952 7.0135397610646493 18.460388514370781 0.69230009641733581
leaf_weight=3056 1912 4519893 194696 2714468 27091 2909 289375
leaf_count=3056 1912 4519893 194696 2714468 27091 2909 289375
internal_value=0 -0.262068 3.8844 -0.316902 13.4154 7.76275 1.26368
internal_weight=0 7.26336e+06 490036 7.23436e+06 29003 197605 292431
internal_count=7753400 7263364 490036 7234361 29003 197605 292431
shrinkage=0.65


Tree=3
num_leaves=8
num_cat=0
split_feature=4 4 2 2 10 2 1
split_gain=2.87765e+06 2.55623e+06 4.48336e+06 3.89378e+06 1.31919e+06 865048 663599
threshold=40.825446500000005 40.723300966918949 40.741340500000007 40.721062500000009 0.028671006058198775 40.77452250000001 -73.783844497070291
decision_type=2 2 2 2 2 2 2
left_child=1 2 -1 -3 6 -6 -2
right_child=4 3 -4 -5 5 -7 -8
leaf_value=-0.20929037410082357 20.547775760590621 1.6024789394338519 2.4367585740413067 -0.33810116569522514 4.9823097126927696 0.80745438187614782 67.778365464116405
leaf_weight=667398 726 470729 454973 6070208 55517 33697 152
leaf_count=667398 726 470729 454973 6070208 55517 33697 152
internal_value=0 -0.0660554 1.3282 -0.305299 5.61873 5.23912 44.1913
internal_weight=0 7.66331e+06 1.12237e+06 6.54094e+06 90092 89214 878
internal_count=7753400 7663308 1122371 6540937 90092 89214 878
shrinkage=0.65


Tree=4
num_leaves=8
num_cat=0
split_feature=10 10 6 11 1 10 3
split_gain=1.63051e+06 1.86749e+06 1.72571e+06 352928 266090 164587 128260
threshold=0.028671006058198775 0.74276465014476634 2011.5000000000002 25.91532057352094 -74.009081999999992 0.50106937918363537 -73.790063499999988
decision_type=2 2 2 2 2 2 2
left_child=3 5 -3 6 -5 -2 -1
right_child=1 2 -4 4 -6 -7 -8
leaf_value=3.587875100248501 -0.88292546093070801 -0.23236731199102281 0.4539548625486115 10.127940049099051 36.616699185767018 -0.45117990850268819 8.3475481721729299
leaf_weight=25464 762783 2871109 3358562 2543 171 730128 2640
leaf_count=25464 762783 2871109 3358562 2543 171 730128 2640
internal_value=0 -0.0289692 0.211762 7.25929 18.1491 -1.0335 6.20767
internal_weight=0 7.72258e+06 6.22967e+06 30818 2714 1.49291e+06 28104
internal_count=7753400 7722582 6229671 30818 2714 1492911 28104
shrinkage=0.65


Tree=5
num_leaves=8
num_cat=0
split_feature=4 3 11 9 2 10 3
split_gain=1.02019e+06 1.01832e+06 1.04207e+06 842031 603770 1.00479e+06 216275
threshold=40.664981000000004 -74.022767499999972 14.343606665313578 7.5000000000000009 40.688775054443362 16.314848236616069 -73.826219499999993
decision_type=2 2 2 2 2 2 2
left_child=4 2 -2 -3 6 -6 -1
right_child=1 3 -4 -5 5 -7 -8
leaf_value=-2.0003312041585333 26.750083039654317 -0.50226045766332184 3.505853579350231 0.058043383539296473 4.7983143330290314 0.69689931108828618 1.3097126127665679
leaf_weight=19709 848 1386170 20863 6209535 46204 55613 14458
leaf_count=19709 848 1386170 20863 6209535 46204 55613 14458
internal_value=0 -0.0484657 6.79037 -0.0680133 2.7149 3.93554 -0.922559
internal_weight=0 7.61742e+06 21711 7.5957e+06 135984 101817 34167
internal_count=7753400 7617416 21711 7595705 135984 101817 34167
shrinkage=0.65


Tree=6
num_leaves=8
num_cat=0
split_feature=4 3 2 10 3 3 2
split_gain=640445 902003 676482 545766 334452 318473 252110
threshold=40.805173000000003 -73.965295499999982 40.73304550000001 3.4514757372276743 -73.790063499999988 -73.782494999999969 40.797933000000015
decision_type=2 2 2 2 2 2 2
left_child=1 3 4 -1 -2 -4 -3
right_child=2 6 5 -5 -6 -7 -8
leaf_value=0.01961125627756953 4.1601883690069048 -0.48491768712118394 0.64373074923722218 0.64335500118348887 23.41113398585507 10.612226395621619 1.0279255157115408
leaf_weight=5143126 22050 1682794 185939 669875 388 1364 47864
leaf_count=5143126 22050 1682794 185939 669875 388 1364 47864
internal_value=0 -0.0479232 1.72363 0.140754 6.91243 1.10204 -0.681658
internal_weight=0 7.54366e+06 209741 5.813e+06 22438 187303 1.73066e+06
internal_count=7753400 7543659 209741 5813001 22438 187303 1730658
shrinkage=0.65


Tree=7
num_leaves=8
num_cat=0
split_feature=12 4 3 7 11 4 11
split_gain=589199 400868 645819 368920 311075 118208 100406
threshold=1.0000000180025095e-35 40.648752500000008 -74.022767499999972 8.5000000000000018 16.458767547323941 40.721403500000008 1.4046697459734176
decision_type=2 2 2 2 2 2 2
left_child=1 2 -1 -3 6 -6 -2
right_child=4 3 -4 -5 5 -7 -8
leaf_value=-4.1188041254683982 11.08169524138189 -0.10140472787239059 1.9321783142945403 0.20759424808464783 -2.7090639502922667 -5.7457227987031922 1.439544902702629
leaf_weight=8204 601 5274288 81324 2364236 14031 8821 1895
leaf_count=8204 601 5274288 81324 2364236 14031 8821 1895
internal_value=0 0.0157878 2.11952 -0.0088692 -4.81336 -5.97113 5.78651
internal_weight=0 7.72805e+06 89528 7.63852e+06 25348 22852 2496
internal_count=7753400 7728052 89528 7638524 25348 22852 2496
shrinkage=0.65


Tree=8
num_leaves=8
num_cat=0
split_feature=9 9 10 10 4 10 11
split_gain=338266 260694 439044 240693 208408 177404 125712
threshold=18.500000000000004 8.5000000000000018 3.3139029769043993 7.8820878669015437 40.754683297890509 5.9551077591082864 21.995486987876074
decision_type=2 2 2 2 2 2 2
left_child=1 5 -3 6 -5 -1 -2
right_child=3 2 -4 4 -6 -7 -8
leaf_value=-0.046390479717819073 -0.34629583982468043 0.081162500140564295 0.66871981937898106 -1.8592700807847724 -0.14253991305453215 -0.69594635991735698 -0.023778388540857606
leaf_weight=1584336 902249 3119927 649113 68061 53254 200081 1176379
leaf_count=1584336 902249 3119927 649113 68061 53254 200081 1176379
internal_value=0 0.131464 0.280543 -0.331863 -1.70103 -0.18342 -0.251954
internal_weight=0 5.55346e+06 3.76904e+06 2.19994e+06 121315 1.78442e+06 2.07863e+06
internal_count=7753400 5553457 3769040 2199943 121315 1784417 2078628
shrinkage=0.65


Tree=9
num_leaves=8
num_cat=0
split_feature=10 10 6 4 6 2 1
split_gain=240889 244430 434618 91629.5 83210.8 80825.5 42298.1
threshold=0.10996361417743916 0.8904900427622785 2012.5000000000002 40.855020000000003 2011.5000000000002 40.721062500000009 -1.0000000180025095e-35
decision_type=2 2 2 2 2 2 2
left_child=3 5 -3 6 -5 -2 -1
right_child=1 2 -4 4 -6 -7 -8
leaf_value=1.2113448494578491 -0.70770749488485607 -0.082505282810432679 0.28552549320067566 3.0707174045017971 17.89719076848721 -0.17508705525532053 -13.744519363456657
leaf_weight=61398 129017 3584683 2180281 413 261 1797267 80
leaf_count=61398 129017 3584683 2180281 413 261 1797267 80
internal_value=0 -0.015845 0.0872033 1.9608 13.5571 -0.324247 1.83367
internal_weight=0 7.69125e+06 5.76496e+06 62152 674 1.92628e+06 61478
internal_count=7753400 7691248 5764964 62152 674 1926284 61478
shrinkage=0.65


Tree=10
num_leaves=8
num_cat=0
split_feature=4 2 2 4 11 3 3
split_gain=181548 1.26502e+06 495950 917819 385839 269568 111434
threshold=40.789149000000002 40.774212500000012 40.786659000000007 40.768099000000007 22.574232201302085 -73.953006499999987 -74.022767499999972
decision_type=2 2 2 2 2 2 2
left_child=2 5 4 -4 -1 -2 -3
right_child=1 6 3 -5 -6 -7 -8
leaf_value=-0.19198104811436034 2.0586280246618185 -6.3973183247262728 2.0939145499824514 -0.28042284955803382 0.11746957148322279 0.72071579916685669 -0.60911694221659529
leaf_weight=4001996 129582 1413 128962 147413 2962562 125007 256465
leaf_count=4001996 129582 1413 128962 147413 2962562 125007 256465
internal_value=0 0.575194 -0.0407085 1.27306 -0.0928429 2.15645 -0.985896
internal_weight=0 512467 7.24093e+06 276375 6.96456e+06 254589 257878
internal_count=7753400 512467 7240933 276375 6964558 254589 257878
shrinkage=0.65


Tree=11
num_leaves=8
num_cat=0
split_feature=2 4 4 11 3 3 10
split_gain=174250 885336 360611 495831 418567 343625 229682
threshold=40.708008500000012 40.702783500000002 40.684196000000007 5.3587869456782391 -73.826219499999993 -73.826219499999993 24.960043102170829
decision_type=2 2 2 2 2 2 2
left_child=1 6 4 -4 -2 -3 -1
right_child=2 5 3 -5 -6 -7 -8
leaf_value=-1.3282040758886651 1.7154953567020965 0.99217031988880411 -4.4093843532763888 -0.036116637588643398 -0.47779199829060726 6.1323135893831884 3.9309659361192111
leaf_weight=100802 104106 244971 10970 7226465 56830 5621 3635
leaf_count=100802 104106 244971 10970 7226465 56830 5621 3635
internal_value=0 0.684348 -0.0328401 -0.065762 1.44769 1.7038 -1.76178
internal_weight=0 355029 7.39837e+06 7.23744e+06 160936 250592 104437
internal_count=7753400 355029 7398371 7237435 160936 250592 104437
shrinkage=0.65


Tree=12
num_leaves=8
num_cat=0
split_feature=10 6 10 10 10 6 6
split_gain=207137 298962 359057 282688 173457 131083 95665.4
threshold=1.3934533102923334 2013.5000000000002 3.234377390530851 1.0575669088597019 2.6944162428714038 2012.5000000000002 2012.5000000000002
decision_type=2 2 2 2 2 2 2
left_child=3 4 -3 5 -2 -1 -5
right_child=1 2 -4 6 -6 -7 -8
leaf_value=0.11942143293547845 -0.041949404620255516 -0.091913440284499701 0.72869610326297751 0.58287861170323862 -0.33741302610301804 -0.18804430820940318 0.15501528336111753
leaf_weight=1568807 1722353 578928 368780 588476 1637696 934999 353361
leaf_count=1568807 1722353 578928 368780 588476 1637696 934999 353361
internal_value=0 -0.146182 0.34986 0.182757 -0.286091 0.00708333 0.649772
internal_weight=0 4.30776e+06 947708 3.44564e+06 3.36005e+06 2.50381e+06 941837
internal_count=7753400 4307757 947708 3445643 3360049 2503806 941837
shrinkage=0.65


Tree=13
num_leaves=8
num_cat=0
split_feature=4 2 2 10 10 10 4
split_gain=138276 1.97989e+06 1.65994e+06 691408 549714 496107 206590
threshold=40.753261783081058 40.742411000000011 40.758525424194339 4.3185950943692921 9.3899388135032797 2.6944162428714038 40.721403500000008
decision_type=2 2 2 2 2 2 2
left_child=2 5 6 -4 -3 -2 -1
right_child=1 4 3 -5 -6 -7 -8
leaf_value=-0.049683453707241886 1.7064216354878439 -0.18671509998252991 1.0099681393685229 -0.28092171958798989 1.10923267281245 0.60122518369758216 -0.43669324779620328
leaf_weight=807709 301149 3094682 677143 236535 144758 398913 2092511
leaf_count=807709 301149 3094682 677143 236535 144758 398913 2092511
internal_value=0 0.131399 -0.135726 1.03966 -0.19816 1.65639 -0.506017
internal_weight=0 3.9395e+06 3.8139e+06 913678 3.23944e+06 700062 2.90022e+06
internal_count=7753400 3939502 3813898 913678 3239440 700062 2900220
shrinkage=0.65


Tree=14
num_leaves=8
num_cat=0
split_feature=10 6 10 7 3 3 2
split_gain=233568 141679 421089 201086 82246 54337.2 41643.6
threshold=1.3934533102923334 2010.5000000000002 5.9551077591082864 8.5000000000000018 -73.826219499999993 -73.994558999999967 40.717092500000007
decision_type=2 2 2 2 2 2 2
left_child=4 2 -2 -3 5 -1 -6
right_child=1 3 -4 -5 6 -7 -8
leaf_value=-0.046060464902781727 -0.13009441379303061 -0.13316962278690969 -1.1947206169007702 0.23354236836008135 1.3455940664228223 0.16039433327154992 4.9025929834836388
leaf_weight=668935 1103148 2121999 183006 899604 10539 2764567 1602
leaf_count=668935 1103148 2121999 183006 899604 10539 2764567 1602
internal_value=0 -0.155228 -0.433199 -0.0369087 0.194067 0.184879 2.79221
internal_weight=0 4.30776e+06 1.28615e+06 3.0216e+06 3.44564e+06 3.4335e+06 12141
internal_count=7753400 4307757 1286154 3021603 3445643 3433502 12141
shrinkage=0.65


Tree=15
num_leaves=8
num_cat=0
split_feature=4 1 2 11 4 10 3
split_gain=127847 226334 161204 143169 107770 160221 123002
threshold=40.855020000000003 -73.89260849999998 40.819575500000006 12.663568185376077 40.636024500000012 16.314848236616069 -74.022767499999972
decision_type=2 2 2 2 2 2 2
left_child=4 3 -3 -2 5 -1 -6
right_child=1 2 -4 -5 6 -7 -8
leaf_value=1.8914688358807421 -3.9673398675370719 7.2687265818760345 -1.0022296985512587 1.0447976649539559 1.5303815032763539 -0.89872532448715547 -0.015296820483158771
leaf_weight=28634 2689 3960 1330 23029 21814 12487 7659457
leaf_count=28634 2689 3960 1330 23029 21814 12487 7659457
internal_value=0 2.02646 7.98348 0.801143 -0.00813691 1.60644 -0.0167804
internal_weight=0 31008 5290 25718 7.72239e+06 41121 7.68127e+06
internal_count=7753400 31008 5290 25718 7722392 41121 7681271
shrinkage=0.65


Tree=16
num_leaves=8
num_cat=0
split_feature=12 10 2 10 1 3 4
split_gain=112831 195990 515451 318907 93221 182032 41628.3
threshold=1.0000000180025095e-35 22.010261633952897 40.819575500000006 16.314848236616069 -74.009081999999992 -74.022767499999972 40.727532500000002
decision_type=2 2 2 2 2 2 2
left_child=1 3 -3 -1 5 -2 -6
right_child=4 2 -4 -5 6 -7 -8
leaf_value=0.0088160616708451642 -3.3874990363211333 1.2309647521833005 -14.182468294032855 -1.2082191201257175 -1.0984671473651788 8.1263168049027037 -2.9109795310746556
leaf_weight=7559934 1124 75115 928 92075 14557 1199 8468
leaf_count=7559934 1124 75115 928 92075 14557 1199 8468
internal_value=0 0.00690883 1.60441 -0.00896656 -2.10635 3.93119 -2.71548
internal_weight=0 7.72805e+06 76043 7.65201e+06 25348 2323 23025
internal_count=7753400 7728052 76043 7652009 25348 2323 23025
shrinkage=0.65


Tree=17
num_leaves=8
num_cat=0
split_feature=8 9 9 4 2 2 4
split_gain=102902 168206 234666 90035 432566 278992 73669.8
threshold=5.5000000000000009 6.5000000000000009 19.500000000000004 40.730452500000006 40.730206000000003 40.728959500000009 40.768099000000007
decision_type=2 2 2 2 2 2 2
left_child=1 6 -3 5 -5 -2 -1
right_child=3 2 -4 4 -6 -7 -8
leaf_value=-0.394410982887825 -0.45319542337125068 0.17082525489824082 -0.15288819558799271 0.57046052205208064 -0.33452277110201895 0.52127766442669599 0.13478428841242196
leaf_weight=477846 211269 3661636 1275795 264890 1416178 300956 144830
leaf_count=477846 211269 3661636 1275795 264890 1416178 300956 144830
internal_value=0 0.0723558 0.134123 -0.183426 -0.295265 0.18362 -0.417421
internal_weight=0 5.56011e+06 4.93743e+06 2.19329e+06 1.68107e+06 512225 622676
internal_count=7753400 5560107 4937431 2193293 1681068 512225 622676
shrinkage=0.65


Tree=18
num_leaves=8
num_cat=0
split_feature=1 3 11 11 11 4 9
split_gain=108335 150772 154736 146824 86298.6 109403 40909.1
threshold=-73.999392499999999 -73.998709499999975 12.663568185376077 22.921513431838179 24.514603724862436 40.768099000000007 5.5000000000000009
decision_type=2 2 2 2 2 2 2
left_child=4 2 -2 -3 5 -1 -6
right_child=1 3 -4 -5 6 -7 -8
leaf_value=-0.42441929472404583 1.2708264813429562 0.018173361691817966 -0.28346683623265789 0.28179765074239066 0.5972302213810281 0.2591101751872979 -0.019254017566623288
leaf_weight=622780 28022 4736456 789529 1099865 53426 117617 305705
leaf_count=622780 28022 4736456 789529 1099865 53426 117617 305705
internal_value=0 0.0480513 -0.354142 0.10439 -0.290786 -0.485902 0.111472
internal_weight=0 6.65387e+06 817551 5.83632e+06 1.09953e+06 740397 359131
internal_count=7753400 6653872 817551 5836321 1099528 740397 359131
shrinkage=0.65


Tree=19
num_leaves=8
num_cat=0
split_feature=8 4 2 2 10 11 10
split_gain=94808.7 77091.6 219370 189294 26947.6 34153 19110.9
threshold=1.5000000000000002 40.712751000000004 40.72149550000001 40.703265500000008 0.10996361417743916 19.341279953574261 12.178128759922382
decision_type=2 2 2 2 2 2 2
left_child=4 2 -2 -3 5 -1 -6
right_child=1 3 -4 -5 6 -7 -8
leaf_value=-1.5967206852462399 -0.29176342416401208 0.7888997879044588 0.56499664449122688 -0.0095829366157867083 -0.21821044668095957 1.7016324441626391 0.18720771591769225
leaf_weight=1682 195867 128082 355326 6079008 935314 6273 51848
leaf_count=1682 195867 128082 355326 6079008 935314 6273 51848
internal_value=0 0.0424323 0.40084 0.0106055 -0.288177 1.54497 -0.302949
internal_weight=0 6.75828e+06 551193 6.20709e+06 995117 7955 987162
internal_count=7753400 6758283 551193 6207090 995117 7955 987162
shrinkage=0.65


Tree=20
num_leaves=8
num_cat=0
split_feature=10 10 10 6 10 4 2
split_gain=112449 352031 208060 175339 147288 128007 47218.6
threshold=16.314848236616069 19.185745677899558 12.652663605401223 2011.5000000000002 7.8820878669015437 40.730919500000013 40.77452250000001
decision_type=2 2 2 2 2 2 2
left_child=2 6 4 -3 -1 -4 -2
right_child=1 3 5 -5 -6 -7 -8
leaf_value=0.014182808360802431 -2.7732692003072197 -0.96385905661183591 -0.30687251041154306 0.44661709627262208 -0.53627021884531723 1.2420496042787694 0.15801221847345084
leaf_weight=7234549 27726 61200 29972 95100 211378 90941 2534
leaf_count=7234549 27726 61200 29972 95100 211378 90941 2534
internal_value=0 -0.766972 0.0189097 -0.162556 -0.00222104 1.32016 -3.88892
internal_weight=0 186560 7.56684e+06 156300 7.44593e+06 120913 30260
internal_count=7753400 186560 7566840 156300 7445927 120913 30260
shrinkage=0.65


Tree=21
num_leaves=8
num_cat=0
split_feature=4 2 2 10 4 1 4
split_gain=65521.7 706070 387165 339623 312593 107119 72353.9
threshold=40.780200479125988 40.760082122436529 40.779770500000005 4.3185950943692921 40.760480500000007 -73.930018911376933 40.7280618380127
decision_type=2 2 2 2 2 2 2
left_child=2 3 6 -2 -4 -3 -1
right_child=1 5 4 -5 -6 -7 -8
leaf_value=0.066684625730733624 1.6711332458994568 -0.25395761816859125 1.1931271461683846 0.19780505744250584 0.11169375256708432 1.0225808545301951 -0.10106319611547049
leaf_weight=1391403 155916 637582 189152 114757 280241 29038 4955311
leaf_count=1391403 155916 637582 189152 114757 280241 29038 4955311
internal_value=0 0.2479 -0.0340891 1.60998 0.842278 -0.305156 -0.0989038
internal_weight=0 937293 6.81611e+06 270673 469393 666620 6.34671e+06
internal_count=7753400 937293 6816107 270673 469393 666620 6346714
shrinkage=0.65


Tree=22
num_leaves=8
num_cat=0
split_feature=10 10 6 4 2 2 2
split_gain=106344 189009 154688 100912 274626 90689.7 55002.6
threshold=2.6944162428714038 3.0421744202364289 2011.5000000000002 40.712751000000004 40.695314657348639 40.750997500000004 40.72943750000001
decision_type=2 2 2 2 2 2 2
left_child=3 6 -3 5 -5 -1 -2
right_child=1 2 -4 4 -6 -7 -8
leaf_value=0.32642695224275153 -0.02113665134267723 -0.25342563084708336 0.13221524141374305 2.4282183690461099 0.018525589336133109 1.7122185208511833 -0.70055052335548107
leaf_weight=236789 61842 795332 982132 20057 5364708 21788 270752
leaf_count=236789 61842 795332 982132 20057 5364708 21788 270752
internal_value=0 -0.191528 -0.0620631 0.0716126 0.0423094 0.681839 -0.883418
internal_weight=0 2.11006e+06 1.77746e+06 5.64334e+06 5.38476e+06 258577 332594
internal_count=7753400 2110058 1777464 5643342 5384765 258577 332594
shrinkage=0.65


Tree=23
num_leaves=8
num_cat=0
split_feature=5 4 3 2 1 6 7
split_gain=58758.8 43346.9 136117 90829.7 25345.5 47219.4 19522.4
threshold=1.5000000000000002 40.797349000000004 -73.973675999999983 40.802855500000007 -74.016147499999988 2011.5000000000002 3.5000000000000004
decision_type=2 2 2 2 2 2 2
left_child=1 3 -3 -1 5 -2 -6
right_child=4 2 -4 -5 6 -7 -8
leaf_value=-0.058315934435255998 -2.2288999940184433 4.9910166103038218 0.18567981593658828 0.82589987812136667 -0.0093801430196797445 0.71830369600739474 0.12501937679514161
leaf_weight=5108107 5418 2518 228284 49560 619621 3987 1735905
leaf_count=5108107 5418 2518 228284 49560 619621 3987 1735905
internal_value=0 -0.0576722 0.366315 -0.0766454 0.131406 -1.50694 0.137947
internal_weight=0 5.38847e+06 230802 5.15767e+06 2.36493e+06 9405 2.35553e+06
internal_count=7753400 5388469 230802 5157667 2364931 9405 2355526
shrinkage=0.65


Tree=24
num_leaves=8
num_cat=0
split_feature=8 10 12 10 4 4 10
split_gain=54041.6 47004.3 44018.9 80965.5 43819.7 38411.5 34807.9
threshold=6.5000000000000009 1.3934533102923334 1.0000000180025095e-35 24.960043102170829 40.825446500000005 40.765808500000006 0.028671006058198775
decision_type=2 2 2 2 2 2 2
left_child=2 6 3 -1 -4 -3 -2
right_child=1 5 4 -5 -6 -7 -8
leaf_value=0.021347154902993572 1.8345944585359046 -0.36912813919198295 -0.72601975320938761 1.8764367330109404 -5.9019979246308649 -0.012165122351176588 0.0066366724901832427
leaf_weight=6705062 4448 408189 21502 9955 714 185125 418405
leaf_count=6705062 4448 408189 21502 9955 714 185125 418405
internal_value=0 -0.214969 0.0324235 0.0370728 -1.37288 -0.396537 0.0397923
internal_weight=0 1.01617e+06 6.73723e+06 6.71502e+06 22216 593314 422853
internal_count=7753400 1016167 6737233 6715017 22216 593314 422853
shrinkage=0.65


Tree=25
num_leaves=8
num_cat=0
split_feature=11 4 3 3 10 10 10
split_gain=43869.2 58725.8 166780 110549 29096.9 61672.8 45065.3
threshold=0.52997194769622202 40.673377500000008 -74.022767499999972 -73.782494999999969 5.9551077591082864 19.185745677899558 0.10996361417743916
decision_type=2 2 2 2 2 2 2
left_child=4 2 -2 -3 6 -6 -1
right_child=1 3 -4 -5 5 -7 -8
leaf_value=-2.7899354727827905 -2.3030722023194898 -0.0061913094365509671 0.59550001824560661 2.2024485050872822 -1.9286338926428475 -0.3200928067137741 1.5470857398026716
leaf_weight=1242 8942 7535664 135112 9587 13029 44352 5472
leaf_count=1242 8942 7535664 135112 9587 13029 44352 5472
internal_value=0 0.00686756 0.639345 -0.00520771 -0.823882 -1.05435 1.14584
internal_weight=0 7.6893e+06 144054 7.54525e+06 64095 57381 6714
internal_count=7753400 7689305 144054 7545251 64095 57381 6714
shrinkage=0.65


Tree=26
num_leaves=8
num_cat=0
split_feature=10 10 10 4 4 3 3
split_gain=41696.2 149357 130372 94386.3 74863.7 49153.2 45900.6
threshold=4.3185950943692921 3.8927295768180374 4.7986433086890719 40.723300966918949 40.816790000000005 -74.022767499999972 -74.022767499999972
decision_type=2 2 2 2 2 2 2
left_child=1 4 5 -4 -1 -2 -3
right_child=2 6 3 -5 -6 -7 -8
leaf_value=-0.0030682296246697708 3.9046211459158116 5.5772013602931239 -0.35497604342391009 0.11150849906409484 0.88311432120754274 -0.70420109412054221 0.57398997723012279
leaf_weight=6490728 984 778 259325 624748 40528 152329 183980
leaf_count=6490728 984 778 259325 624748 40528 152329 183980
internal_value=0 0.0288215 -0.18659 -0.0389621 0.00373961 -1.03788 0.915474
internal_weight=0 6.71601e+06 1.03739e+06 884073 6.53126e+06 153313 184758
internal_count=7753400 6716014 1037386 884073 6531256 153313 184758
shrinkage=0.65


Tree=27
num_leaves=8
num_cat=0
split_feature=4 11 1 1 4 4 3
split_gain=49155.6 92615.6 121980 46754.6 30375.3 51908.9 41177.1
threshold=40.636024500000012 20.352705193727171 -73.961198999999979 -74.009081999999992 40.699993500000012 40.707049500000004 -73.943641499999998
decision_type=2 2 2 2 2 2 2
left_child=1 2 -1 -3 6 -6 -2
right_child=4 3 -4 -5 5 -7 -8
leaf_value=4.8716077796813186 -0.3611274220887713 2.4369653029319287 0.80846379984023164 -0.34541307430806056 0.42400042872773624 -0.0024598020630467489 0.14781210229168992
leaf_weight=4392 215087 2869 10793 23067 122622 7276906 97664
leaf_count=4392 215087 2869 10793 23067 122622 7276906 97664
internal_value=0 1.09044 3.05178 -0.0578934 -0.00581408 0.00708819 -0.311075
internal_weight=0 41121 15185 25936 7.71228e+06 7.39953e+06 312751
internal_count=7753400 41121 15185 25936 7712279 7399528 312751
shrinkage=0.65


Tree=28
num_leaves=8
num_cat=0
split_feature=11 3 0 11 3 10 7
split_gain=31240.7 86985.3 103242 38852.7 379706 95875.1 36691.3
threshold=9.4380010578139881 -74.022767499999972 42902172.000000007 18.001653180567754 -73.826219499999993 7.8820878669015437 9.5000000000000018
decision_type=2 2 2 2 2 2 2
left_child=1 2 -1 4 -2 -5 -3
right_child=3 6 -4 5 -6 -7 -8
leaf_value=4.3566698773652757 0.14860116598025169 -0.42226855647590222 45.761967194080349 0.00014113293721980784 9.3266024805229861 -1.0691848437531704 0.21102319469459813
leaf_weight=1188 484494 165212 26 7014505 1912 35605 50458
leaf_count=1188 484494 165212 26 7014505 1912 35605 50458
internal_value=0 -0.374184 8.06683 0.0107682 0.284121 -0.00809117 -0.421699
internal_weight=0 216884 1214 7.53652e+06 486406 7.05011e+06 215670
internal_count=7753400 216884 1214 7536516 486406 7050110 215670
shrinkage=0.65


Tree=29
num_leaves=8
num_cat=0
split_feature=2 4 4 2 10 10 4
split_gain=38700 984888 427838 258432 205365 107445 104333
threshold=40.73304550000001 40.741962216430672 40.733631567016609 40.749249252319345 4.3185950943692921 9.3899388135032797 40.702783500000002
decision_type=2 2 2 2 2 2 2
left_child=1 6 3 -2 -3 -4 -1
right_child=2 4 5 -5 -6 -7 -8
leaf_value=0.085849303479764327 -0.0026911179486213549 0.91830154704040912 -0.12004077991551233 0.65537236313033265 0.12761727225039851 0.372354276153115 -0.43648882224113067
leaf_weight=203923 457094 482582 4880168 562317 194813 194704 777799
leaf_count=203923 457094 482582 4880168 562317 194813 194704 777799
internal_value=0 0.135404 -0.0368626 0.554312 1.06293 -0.155614 -0.504598
internal_weight=0 1.65912e+06 6.09428e+06 1.01941e+06 677395 5.07487e+06 981722
internal_count=7753400 1659117 6094283 1019411 677395 5074872 981722
shrinkage=0.65


Tree=30
num_leaves=8
num_cat=0
split_feature=10 2 9 4 1 3 3
split_gain=141761 62611.9 66277 59830.7 45047.8 86941.9 44962.5
threshold=2.6944162428714038 40.741626869750981 6.5000000000000009 40.774545500000009 -73.985901499999983 -73.989075999999997 -73.984611755615234
decision_type=2 2 2 2 2 2 2
left_child=4 3 -3 -2 6 -6 -1
right_child=1 2 -4 -5 5 -7 -8
leaf_value=0.043505472200128868 -0.080566763761322699 -0.54823944014870762 -0.1628183328066023 0.39175717397035098 -0.14263959887199701 0.14893030665073032 -0.15257732939702806
leaf_weight=1672933 611068 226093 1133792 139105 512395 2756853 701161
leaf_count=1672933 611068 226093 1133792 139105 512395 2756853 701161
internal_value=0 -0.221133 -0.349074 0.0107947 0.0826819 0.158819 -0.022162
internal_weight=0 2.11006e+06 1.35988e+06 750173 5.64334e+06 3.26925e+06 2.37409e+06
internal_count=7753400 2110058 1359885 750173 5643342 3269248 2374094
shrinkage=0.65


Tree=31
num_leaves=8
num_cat=0
split_feature=10 3 6 1 4 4 10
split_gain=30558 85525.3 462109 83737.2 66982.9 62354.4 31948.7
threshold=5.9551077591082864 -74.022767499999972 2012.5000000000002 1.0000000180025095e-35 40.789149000000002 40.840524500000008 16.314848236616069
decision_type=2 2 2 2 2 2 2
left_child=1 2 -1 4 -2 -3 -5
right_child=3 5 -4 6 -6 -7 -8
leaf_value=-0.56018828964634015 -0.065460931694945101 0.005968287869790396 8.4737502162991376 5.1291678408365051 -0.71075270114745726 1.0593174262503546 16.822369646784363
leaf_weight=9594 593093 7046360 3187 456 76760 23824 126
leaf_count=9594 593093 7046360 3187 456 76760 23824 126
internal_value=0 0.0193147 2.60379 -0.204054 -0.214471 0.0146426 11.7857
internal_weight=0 7.08296e+06 12781 670435 669853 7.07018e+06 582
internal_count=7753400 7082965 12781 670435 669853 7070184 582
shrinkage=0.65


Tree=32
num_leaves=8
num_cat=0
split_feature=2 4 10 10 3 1 11
split_gain=29963.1 111828 187607 48560.7 37958.9 62367.6 55362.5
threshold=40.688775054443362 40.694839000000009 5.9551077591082864 21.00971820332494 -73.859741105468729 -73.803785503906241 25.91532057352094
decision_type=2 2 2 2 2 2 2
left_child=1 3 -3 -1 5 -2 -6
right_child=4 2 -4 -5 6 -7 -8
leaf_value=-0.60008168252670868 -0.00013014453596713686 2.0791473554345297 0.18646082522360585 1.0130759526951167 -0.44258712000083583 -3.6946503918026434 4.5978751839174157
leaf_weight=62613 7451340 28735 96215 9020 102617 1931 929
leaf_count=62613 7451340 28735 96215 9020 102617 1931 929
internal_value=0 0.385429 0.956501 -0.610698 -0.0100265 -0.00167281 -0.61133
internal_weight=0 196583 124950 71633 7.55682e+06 7.45327e+06 103546
internal_count=7753400 196583 124950 71633 7556817 7453271 103546
shrinkage=0.65


Tree=33
num_leaves=8
num_cat=0
split_feature=7 6 1 6 10 6 3
split_gain=28295.4 34301.1 27004.5 25641.1 24491.9 14286 13826.8
threshold=1.5000000000000002 2014.5000000000002 -73.994729499999991 2011.5000000000002 1.7597820539418301 2012.5000000000002 -74.022767499999972
decision_type=2 2 2 2 2 2 2
left_child=3 2 -2 6 -3 -5 -1
right_child=1 4 -4 5 -6 -7 -8
leaf_value=-2.2803737325260762 -0.082203343050835709 0.048831688338555793 0.021302431052196341 -0.44089304196315132 0.35220017586447078 -0.16010836046195703 0.027374780573001186
leaf_weight=1101 1334435 250486 5273677 103995 204013 290181 295512
leaf_count=1101 1334435 250486 5273677 103995 204013 290181 295512
internal_value=0 0.018893 0.000616287 -0.193162 0.284625 -0.360288 0.0289364
internal_weight=0 7.06261e+06 6.60811e+06 690789 454499 394176 296613
internal_count=7753400 7062611 6608112 690789 454499 394176 296613
shrinkage=0.65


Tree=34
num_leaves=8
num_cat=0
split_feature=1 4 2 2 4 10 3
split_gain=29841.1 44134.4 310321 80182.4 43277.7 69902.3 33865.1
threshold=-73.970888999999985 40.797349000000004 40.790866000000001 40.805428500000012 40.825446500000005 24.960043102170829 -74.000557499999985
decision_type=2 2 2 2 2 2 2
left_child=4 3 -3 -2 6 -6 -1
right_child=1 2 -4 -5 5 -7 -8
leaf_value=-0.086830077966344427 -0.11065217365017975 1.1608587831022996 -0.66576755296455337 0.73529020423144498 -0.49222000483713424 -7.9475947779344889 0.052738355954958641
leaf_weight=872225 1971851 80315 76938 48504 50487 537 4652543
leaf_count=872225 1971851 80315 76938 48504 50487 537 4652543
internal_value=0 -0.0992716 0.411014 -0.138989 0.0387702 -0.877975 0.0472368
internal_weight=0 2.17761e+06 157253 2.02036e+06 5.57579e+06 51024 5.52477e+06
internal_count=7753400 2177608 157253 2020355 5575792 51024 5524768
shrinkage=0.65


Tree=35
num_leaves=8
num_cat=0
split_feature=9 10 11 4 10 2 3
split_gain=29017.6 29272.6 43468.6 27688.5 22002.2 62329.6 32084.3
threshold=20.500000000000004 21.00971820332494 12.663568185376077 40.825446500000005 12.178128759922382 40.797933000000015 -74.022767499999972
decision_type=2 2 2 2 2 2 2
left_child=4 2 -2 -3 6 -6 -1
right_child=1 3 -4 -5 5 -7 -8
leaf_value=-1.0279753490951304 -0.66698529141043972 0.69024121816431216 -0.075132720276605156 7.2963965682745249 0.22463604010888563 -2.4985942917303423 0.011379893509386046
leaf_weight=12574 54848 14808 1189000 273 290207 3595 6188095
leaf_count=12574 54848 14808 1189000 273 290207 3595 6188095
internal_value=0 -0.138949 -0.15574 1.24589 0.0269348 0.29433 0.014265
internal_weight=0 1.25893e+06 1.24385e+06 15081 6.49447e+06 293802 6.20067e+06
internal_count=7753400 1258929 1243848 15081 6494471 293802 6200669
shrinkage=0.65


Tree=36
num_leaves=8
num_cat=0
split_feature=10 11 4 1 8 8 9
split_gain=28481.8 27520.6 69223 57509.2 22441.3 31140.9 24281.1
threshold=0.10996361417743916 19.341279953574261 40.825446500000005 -73.949743499999983 2.5000000000000004 5.5000000000000009 15.500000000000002
decision_type=2 2 2 2 2 2 2
left_child=1 2 -1 -3 6 -6 -2
right_child=4 3 -4 -5 5 -7 -8
leaf_value=-0.026650507397427775 0.0019103363785636963 0.56184827017765782 -6.241737725705752 6.2519267281320614 0.056115755347082734 -0.043183229748451284 -0.13986403604420777
leaf_weight=11022 1141028 49555 813 762 3451414 2175354 923452
leaf_count=11022 1141028 49555 813 762 3451414 2175354 923452
internal_value=0 0.67423 -0.697836 0.996952 -0.00544837 0.0272707 -0.0946247
internal_weight=0 62152 11835 50317 7.69125e+06 5.62677e+06 2.06448e+06
internal_count=7753400 62152 11835 50317 7691248 5626768 2064480
shrinkage=0.65


Tree=37
num_leaves=8
num_cat=0
split_feature=10 10 9 4 2 3 6
split_gain=22445.3 63976.1 37061.1 31950.4 105869 37641.6 26596
threshold=1.3934533102923334 1.6004121326096514 7.5000000000000009 40.725298917602551 40.735505500000009 -74.022767499999972 2012.5000000000002
decision_type=2 2 2 2 2 2 2
left_child=3 6 -3 4 -1 -5 -2
right_child=1 2 -4 5 -6 -7 -8
leaf_value=0.013329765809263495 -0.13517874478536274 -0.12655447978275519 0.030312356601678025 -2.2531770329239964 0.79009730799783828 0.019196068968287548 -0.4477387825859695
leaf_weight=284686 307619 806956 3009470 3083 100235 3057639 183712
leaf_count=284686 307619 806956 3009470 3083 100235 3057639 183712
internal_value=0 -0.0481201 -0.00439387 0.0601599 0.331697 0.026011 -0.387765
internal_weight=0 4.30776e+06 3.81643e+06 3.44564e+06 384921 3.06072e+06 491331
internal_count=7753400 4307757 3816426 3445643 384921 3060722 491331
shrinkage=0.65


Tree=38
num_leaves=8
num_cat=0
split_feature=9 11 4 3 3 8 1
split_gain=33892.7 22161.8 19550.5 60554.2 58917.2 18136.2 16611.2
threshold=1.0000000180025095e-35 12.663568185376077 40.673377500000008 -74.022767499999972 -74.022767499999972 5.5000000000000009 -73.89260849999998
decision_type=2 2 2 2 2 2 2
left_child=1 6 3 -2 -4 -3 -1
right_child=2 5 4 -5 -6 -7 -8
leaf_value=-1.5399161582217893 -1.4583255388052134 0.10464527842202627 1.0795659756098168 0.31338807387762679 -0.016750184802896945 0.43063902240735324 -0.080437387544846597
leaf_weight=4910 8619 160020 20770 149944 7267884 131237 10016
leaf_count=4910 8619 160020 20770 149944 7267884 131237 10016
internal_value=0 0.326072 -0.013406 0.333974 -0.0209632 0.386976 -0.862372
internal_weight=0 306183 7.44722e+06 158563 7.28865e+06 291257 14926
internal_count=7753400 306183 7447217 158563 7288654 291257 14926
shrinkage=0.65


Tree=39
num_leaves=8
num_cat=0
split_feature=3 1 6 10 4 3 4
split_gain=21885.7 64529.2 56160.4 41228.3 21534.3 56425.6 16793.7
threshold=-1.0000000180025095e-35 -74.016147499999988 2012.5000000000002 0.028671006058198775 40.636024500000012 -74.010126499999984 40.855020000000003
decision_type=2 2 2 2 2 2 2
left_child=4 2 -2 -3 5 -1 -6
right_child=1 3 -4 -5 6 -7 -8
leaf_value=-0.72486977291474441 -0.77364641938890744 -19.776350254535771 18.768989277482035 -1.0679462978604255 -0.0027804041702240694 1.1603262591475265 0.47688559058640073
leaf_weight=9950 119 50 130 10716 7680885 20587 30963
leaf_count=9950 119 50 130 10716 7680885 20587 30963
internal_value=0 -1.40857 14.5067 -1.77667 0.00200396 0.8401 -0.00131469
internal_weight=0 11015 249 10766 7.74238e+06 30537 7.71185e+06
internal_count=7753400 11015 249 10766 7742385 30537 7711848
shrinkage=0.65


Tree=40
num_leaves=8
num_cat=0
split_feature=10 1 11 12 10 10 10
split_gain=14171.9 21617.7 24055.5 20771.7 19697.6 47631.3 35949.9
threshold=0.3597156857372566 -73.978841499999987 22.885383958400407 1.0000000180025095e-35 2.0129353702901409 2.2304665069365424 1.8238291827552582
decision_type=2 2 2 2 2 2 2
left_child=1 3 -3 -1 6 -6 -2
right_child=4 2 -4 -5 5 -7 -8
leaf_value=-0.24527774502809521 0.01770069534154985 0.044592422369850088 4.6763930235501183 5.7427156560906036 -0.26342296343468341 -0.004544989465444624 0.23929176846879027
leaf_weight=247792 3963308 178878 475 245 338027 2689160 335515
leaf_count=247792 3963308 178878 475 245 338027 2689160 335515
internal_value=0 -0.177006 0.0874759 -0.368251 0.0103263 -0.051465 0.0538392
internal_weight=0 427390 179353 248037 7.32601e+06 3.02719e+06 4.29882e+06
internal_count=7753400 427390 179353 248037 7326010 3027187 4298823
shrinkage=0.65


Tree=41
num_leaves=8
num_cat=0
split_feature=11 2 10 1 3 10 10
split_gain=15645.8 30498 23490.2 21538.3 18690.7 18209.7 15010.6
threshold=24.98507249135864 40.819575500000006 2.1080727563517505 -74.001391499999997 -74.002794499999979 5.0495878631924827 2.1275717279501949
decision_type=2 2 2 2 2 2 2
left_child=3 6 -3 5 -5 -1 -2
right_child=1 2 -4 4 -6 -7 -8
leaf_value=-0.15944047879033529 0.14362403888434686 -0.56516832495282876 -5.5627905314365149 -0.10521744429686199 0.016176227216271495 0.1390193508981751 0.88896512567280261
leaf_weight=582883 231568 960 678 586232 6237678 101393 12008
leaf_count=582883 231568 960 678 586232 6237678 101393 12008
internal_value=0 0.24857 -4.05197 -0.00811817 0.00884227 -0.177255 0.27749
internal_weight=0 245214 1638 7.50819e+06 6.82391e+06 684276 243576
internal_count=7753400 245214 1638 7508186 6823910 684276 243576
shrinkage=0.65


Tree=42
num_leaves=8
num_cat=0
split_feature=12 11 4 3 2 10 3
split_gain=15807.8 14301.7 49638.8 28189.1 8040.66 4565.84 3216.23
threshold=1.5000000000000002 21.888538143933214 40.762079000000007 -73.965295499999982 40.680506000000008 0.10996361417743916 -74.022767499999972
decision_type=2 2 2 2 2 2 2
left_child=1 3 -3 -1 5 -2 -6
right_child=4 2 -4 -5 6 -7 -8
leaf_value=-0.090862454109839896 -6.7191994300075599 -0.005882740098674428 0.18290615974737848 0.024325981579096791 -5.5960714794182058 -0.37383471903348947 -2.6673312749828693
leaf_weight=1685765 51 3436207 710017 1919894 254 791 421
leaf_count=1685765 51 3436207 710017 1919894 254 791 421
internal_value=0 0.000631654 0.0406866 -0.0454283 -3.22776 -1.16642 -5.79909
internal_weight=0 7.75188e+06 4.14622e+06 3.60566e+06 1517 842 675
internal_count=7753400 7751883 4146224 3605659 1517 842 675
shrinkage=0.65


Tree=43
num_leaves=8
num_cat=0
split_feature=4 2 10 2 4 10 11
split_gain=15771.3 373537 328101 154953 237225 152963 44069.2
threshold=40.741962216430672 40.750800500000004 2.0129353702901409 40.751160500000005 40.760480500000007 8.5967695313163208 24.195564126363148
decision_type=2 2 2 2 2 2 2
left_child=1 6 -3 4 -2 -5 -1
right_child=3 2 -4 5 -6 -7 -8
leaf_value=-0.18388934076348751 -0.059678810461949165 1.0485543312037733 0.13312509391174221 -0.13345175722824118 0.41703708394527156 0.50348477953009563 0.056051737755734805
leaf_weight=1308089 1096338 240672 529034 3244262 737847 167528 429630
leaf_count=1308089 1096338 240672 529034 3244262 737847 167528 429630
internal_value=0 0.0652359 0.645172 -0.0311809 0.203219 -0.157195 -0.191641
internal_weight=0 2.50742e+06 769706 5.24598e+06 1.83418e+06 3.41179e+06 1.73772e+06
internal_count=7753400 2507425 769706 5245975 1834185 3411790 1737719
shrinkage=0.65


Tree=44
num_leaves=8
num_cat=0
split_feature=10 4 3 10 4 2 2
split_gain=66202.6 86879.7 65426.6 64941.7 38730.8 63844.2 61496.3
threshold=7.8820878669015437 40.790119000000011 -73.782494999999969 8.5967695313163208 40.810591500000008 40.802855500000007 40.819575500000006
decision_type=2 2 2 2 2 2 2
left_child=4 3 -3 -2 6 -6 -1
right_child=1 2 -4 -5 5 -7 -8
leaf_value=0.0073684802615982242 -1.1994747771208314 -1.2551152267043248 3.5218945639091546 -0.090222131868165759 0.63858054352678006 -0.49718889588974235 1.4445212478830269
leaf_weight=7102165 23454 41246 1248 452903 92788 26994 12602
leaf_count=7102165 23454 41246 1248 452903 92788 26994 12602
internal_value=0 -0.345045 -1.71511 -0.222827 0.0247461 0.588653 0.0152524
internal_weight=0 518851 42494 476357 7.23455e+06 119782 7.11477e+06
internal_count=7753400 518851 42494 476357 7234549 119782 7114767
shrinkage=0.65


Tree=45
num_leaves=8
num_cat=0
split_feature=2 4 10 3 4 10 2
split_gain=28193.3 485877 213263 111751 71627 160997 35174.8
threshold=40.774212500000012 40.766750167846688 2.6944162428714038 -73.971266499999984 40.775658500000013 2.6944162428714038 40.736447500000004
decision_type=2 2 2 2 2 2 2
left_child=4 2 -2 -3 6 -6 -1
right_child=1 3 -4 -5 5 -7 -8
leaf_value=0.033539547683833451 0.9678819965986859 -0.61755196690544256 0.095695428446887359 -0.071346195372663831 0.4543365377773429 -0.15299166670017347 -0.075618365135785293
leaf_weight=1818488 278118 229740 206312 508633 398399 343347 3970363
leaf_count=1818488 278118 229740 206312 508633 398399 343347 3970363
internal_value=0 0.139356 0.917584 -0.371222 -0.0260933 0.266477 -0.0635814
internal_weight=0 1.2228e+06 484430 738373 6.5306e+06 741746 5.78885e+06
internal_count=7753400 1222803 484430 738373 6530597 741746 5788851
shrinkage=0.65


Tree=46
num_leaves=8
num_cat=0
split_feature=10 3 10 4 2 2 10
split_gain=26361.2 21540.2 27521.4 16229.6 119485 113268 15608.6
threshold=0.74276465014476634 -73.936112499999993 0.028671006058198775 40.731889000000002 40.725872019897473 40.721952500000008 0.028671006058198775
decision_type=2 2 2 2 2 2 2
left_child=1 6 -3 5 -5 -2 -1
right_child=3 2 -4 4 -6 -7 -8
leaf_value=0.57993051574909116 -0.2857167238796281 -0.57196884819734517 0.96727437370856639 0.2488397911524296 -0.073488112681144427 0.14525456481078705 0.057315201024996064
leaf_weight=24548 338447 6270 22589 548398 4263478 1079348 1470322
leaf_count=24548 338447 6270 22589 548398 4263478 1079348 1470322
internal_value=0 0.1179 0.973621 -0.0288375 -0.0565433 0.0651936 0.101381
internal_weight=0 1.52373e+06 28859 6.22967e+06 4.81188e+06 1.4178e+06 1.49487e+06
internal_count=7753400 1523729 28859 6229671 4811876 1417795 1494870
shrinkage=0.65


Tree=47
num_leaves=8
num_cat=0
split_feature=1 4 6 3 4 11 3
split_gain=21504.2 32181.6 30431.8 26732.4 70636.6 29518.5 16814.9
threshold=-73.994293606445297 40.753261783081058 2012.5000000000002 -73.993013999999988 40.77610007934571 23.228037483137474 -74.022767499999972
decision_type=2 2 2 2 2 2 2
left_child=1 6 -3 4 -2 -5 -1
right_child=3 2 -4 5 -6 -7 -8
leaf_value=0.77143131095374373 -0.08214474752576964 -0.3239559554589887 0.0070189883724950898 0.023686520848092876 4.2589410109611014 0.21805559378749204 -0.013092935676346827
leaf_weight=11665 1069470 320237 185280 4709205 1586 355002 1100955
leaf_count=11665 1069470 320237 185280 4709205 1586 355002 1100955
internal_value=0 -0.102547 -0.311767 0.0270462 -0.116487 0.0574028 -0.00748889
internal_weight=0 1.61814e+06 505517 6.13526e+06 1.07106e+06 5.06421e+06 1.11262e+06
internal_count=7753400 1618137 505517 6135263 1071056 5064207 1112620
shrinkage=0.65


Tree=48
num_leaves=8
num_cat=0
split_feature=2 4 10 1 4 3 3
split_gain=12920.7 63063.3 66931.9 27205.8 15259.1 142092 12758.2
threshold=40.795389041381846 40.784456500000012 3.4514757372276743 -73.783844497070291 40.855020000000003 -73.940344499999981 -73.909376525878898
decision_type=2 2 2 2 2 2 2
left_child=4 2 -2 -3 6 -6 -1
right_child=1 3 -4 -5 5 -7 -8
leaf_value=-0.00076718469676390468 0.92641181174869613 -0.15712001539149981 -0.17339463586969781 -3.9199478144950999 9.0867191928952309 0.22280313031214313 -0.14035612370760819
leaf_weight=7231266 64556 107470 36653 818 789 24205 287643
leaf_count=7231266 64556 107470 36653 818 789 24205 287643
internal_value=0 0.244966 0.812485 -0.285453 -0.0068028 0.773255 -0.00939583
internal_weight=0 209497 101209 108288 7.5439e+06 24994 7.51891e+06
internal_count=7753400 209497 101209 108288 7543903 24994 7518909
shrinkage=0.65


Tree=49
num_leaves=8
num_cat=0
split_feature=11 2 10 3 10 4 4
split_gain=13343.4 65898.7 41637.9 53714 40322.9 36713.2 24415.1
threshold=18.001653180567754 40.77452250000001 5.9551077591082864 -74.022767499999972 4.3185950943692921 40.793872000000007 40.855020000000003
decision_type=2 2 2 2 2 2 2
left_child=1 4 3 -2 -1 -3 -4
right_child=2 5 6 -5 -6 -7 -8
leaf_value=0.43181228895942786 1.3293093146532033 1.1051866472405267 -0.33894311210099198 -0.0044439418535934952 -0.041270042375478357 0.059116059868998504 -2.0777748663576454
leaf_weight=88258 12781 39330 115008 6918805 553539 22163 3516
leaf_count=88258 12781 39330 115008 6918805 553539 22163 3516
internal_value=0 0.131346 -0.0131026 -0.00305333 0.0365951 1.12026 -0.600808
internal_weight=0 703290 7.05011e+06 6.93159e+06 641797 61493 118524
internal_count=7753400 703290 7050110 6931586 641797 61493 118524
shrinkage=0.65


Tree=50
num_leaves=8
num_cat=0
split_feature=7 6 6 3 10 6 6
split_gain=12754.5 27379.3 39608.4 20505.4 14841 41782.8 38832.2
threshold=3.5000000000000004 2011.5000000000002 2012.5000000000002 -74.022767499999972 2.3393735626991883 2012.5000000000002 2011.5000000000002
decision_type=2 2 2 2 2 2 2
left_child=1 3 -3 -1 5 -2 -6
right_child=4 2 -4 -5 6 -7 -8
leaf_value=-1.5046390486961558 0.043162894809928215 -0.30306494885804991 -0.036115786823558198 0.05052335230294408 -0.036487976298308453 -0.099219638959021417 0.1506985832474366
leaf_weight=3597 2449691 320186 880913 867187 879707 1351030 1001089
leaf_count=3597 2449691 320186 880913 867187 879707 1351030 1001089
internal_value=0 -0.0671637 -0.165044 0.0678452 0.0244926 -0.0114606 0.0971471
internal_weight=0 2.07188e+06 1.2011e+06 870784 5.68152e+06 3.80072e+06 1.8808e+06
internal_count=7753400 2071883 1201099 870784 5681517 3800721 1880796
shrinkage=0.65


Tree=51
num_leaves=8
num_cat=0
split_feature=3 1 10 2 10 11 7
split_gain=13085.9 36444.7 154341 54023.7 15216.8 36222.9 31243.5
threshold=-73.884144000000006 -73.870759028320307 13.791859217811927 40.703265500000008 5.2004941034588947 12.663568185376077 9.5000000000000018
decision_type=2 2 2 2 2 2 2
left_child=4 3 -3 -2 5 -1 -6
right_child=1 2 -4 -5 6 -7 -8
leaf_value=-1.4039650345972279 -2.5973551080482129 0.066999952761991111 4.9363549447201347 -0.2217144066065066 0.022799569247172163 -0.0019863800758817703 0.37957747000711639
leaf_weight=7795 4129 48929 2914 197288 444264 6912800 135281
leaf_count=7795 4129 48929 2914 197288 444264 6912800 135281
internal_value=0 -0.223566 0.52415 -0.416022 0.00754925 -0.00548538 0.163201
internal_weight=0 253260 51843 201417 7.50014e+06 6.9206e+06 579545
internal_count=7753400 253260 51843 201417 7500140 6920595 579545
shrinkage=0.65


Tree=52
num_leaves=8
num_cat=0
split_feature=1 2 6 2 2 4 1
split_gain=16298.4 23339.1 42529.3 31050.4 15034.3 33752.2 33100.4
threshold=-73.783844497070291 40.819575500000006 2013.5000000000002 40.779090500000002 40.712119000000008 40.735219000000008 -74.016147499999988
decision_type=2 2 2 2 2 2 2
left_child=4 3 -3 -2 5 -1 -6
right_child=1 2 -4 -5 6 -7 -8
leaf_value=-0.041298980134916716 -0.27606496487658222 -3.4365127709046441 13.928340735406646 6.1709426091073158 -1.2042253044656501 0.3532842012031952 -0.0019581158344086328
leaf_weight=210624 73009 1533 62 317 9688 162066 7296101
leaf_count=210624 73009 1533 62 317 9688 162066 7296101
internal_value=0 -0.464154 -4.24849 -0.381836 0.00452887 0.200442 -0.00546524
internal_weight=0 74921 1595 73326 7.67848e+06 372690 7.30579e+06
internal_count=7753400 74921 1595 73326 7678479 372690 7305789
shrinkage=0.65


Tree=53
num_leaves=8
num_cat=0
split_feature=2 10 4 2 4 10 3
split_gain=9949.77 37337.3 43750.6 30127.1 42161 22970.9 21108.8
threshold=40.721062500000009 4.3185950943692921 40.771411000000008 40.723289744873064 40.735219000000008 13.791859217811927 -73.942186499999977
decision_type=2 2 2 2 2 2 2
left_child=1 2 -1 4 -2 -5 -3
right_child=3 6 -4 5 -6 -7 -8
leaf_value=-0.0075811834233350398 -0.047957605039979243 -0.16572627180820901 1.1659335311587693 -0.0036513568434419132 0.63579792052512729 0.27734366267690508 -0.60169953419191702
leaf_weight=561876 76240 166773 13751 6668081 76164 125224 65291
leaf_count=561876 76240 166773 13751 6668081 76164 125224 65291
internal_value=0 -0.10505 0.0314655 0.0122159 0.451923 0.00235131 -0.443672
internal_weight=0 807691 575627 6.94571e+06 152404 6.7933e+06 232064
internal_count=7753400 807691 575627 6945709 152404 6793305 232064
shrinkage=0.65


Tree=54
num_leaves=7
num_cat=0
split_feature=4 2 6 2 2 2
split_gain=9712.24 58965.6 73761.5 62624.2 16390.7 15603.6
threshold=40.716105000000006 40.741340500000007 2012.5000000000002 40.726663500000008 -1.0000000180025095e-35 40.711019000000007
decision_type=2 2 2 2 2 2
left_child=1 3 -3 -1 -2 -6
right_child=4 2 -4 -5 5 -7
leaf_value=0.064842594688093724 -17.749426060440438 -0.40832012127841399 0.2423195835727423 0.6003538351027734 0.14878848096077602 -0.01352353836934287
leaf_weight=317001 22 184837 122343 130142 259886 6739169
leaf_count=317001 22 184837 122343 130142 259886 6739169
internal_value=0 0.107809 -0.229515 0.339545 -0.0116191 -0.0115333
internal_weight=0 754323 307180 447143 6.99908e+06 6.99906e+06
internal_count=7753400 754323 307180 447143 6999077 6999055
shrinkage=0.65


Tree=55
num_leaves=8
num_cat=0
split_feature=1 4 2 3 12 10 10
split_gain=10471.4 25874.8 16704.5 13733.2 12160.8 42339.8 26145.3
threshold=-74.004757499999982 40.723300966918949 40.737847500000008 -74.010126499999984 1.0000000180025095e-35 24.960043102170829 0.028671006058198775
decision_type=2 2 2 2 2 2 2
left_child=1 3 -3 -1 5 -2 -6
right_child=4 2 -4 -5 6 -7 -8
leaf_value=-0.15928178969248522 0.0066819886850622932 -0.24115939291046862 0.037934037961156263 0.25866733055310326 -11.780917255129925 1.393152656433398 -0.42587127494286747
leaf_weight=46412 7110668 321397 126179 116828 86 9318 22512
leaf_count=46412 7110668 321397 126179 116828 86 9318 22512
internal_value=0 -0.125669 -0.249967 0.215134 0.0107469 0.0130715 -0.721669
internal_weight=0 610816 447576 163240 7.14258e+06 7.11999e+06 22598
internal_count=7753400 610816 447576 163240 7142584 7119986 22598
shrinkage=0.65


Tree=56
num_leaves=8
num_cat=0
split_feature=10 10 4 6 9 10 3
split_gain=11687.6 84536.5 41248.1 108970 29541.1 16900.1 11693.4
threshold=16.314848236616069 14.770402469298286 40.805173000000003 2009.5000000000002 8.5000000000000018 10.927487250633716 -74.010878999999989
decision_type=2 2 2 2 2 2 2
left_child=1 5 4 -4 -2 -1 -3
right_child=2 6 3 -5 -6 -7 -8
leaf_value=0.0044903772605529094 0.35921571882332753 2.5966307098193924 -8.7171031536236239 -0.71600375453113674 -0.25413196939670363 -0.19517286771003861 0.98320685981778588
leaf_weight=7353243 43794 2036 838 5072 136856 183582 27979
leaf_count=7353243 43794 2036 838 5072 136856 183582 27979
internal_value=0 0.00609634 -0.247266 -2.84694 -0.162218 -0.000573878 1.681
internal_weight=0 7.56684e+06 186560 5910 180650 7.53682e+06 30015
internal_count=7753400 7566840 186560 5910 180650 7536825 30015
shrinkage=0.65


Tree=57
num_leaves=8
num_cat=0
split_feature=9 9 8 1 2 4 6
split_gain=11408.8 27027.6 26939.5 25876.2 34826.8 19672 17703.9
threshold=10.500000000000002 17.500000000000004 5.5000000000000009 -73.89260849999998 40.765437500000012 40.855020000000003 2012.5000000000002
decision_type=2 2 2 2 2 2 2
left_child=3 2 -2 5 -5 -1 -3
right_child=1 6 -4 4 -6 -7 -8
leaf_value=-0.052181521536514328 0.10659524204189919 0.012643043488553336 -0.03992370625908951 -0.044260777704893527 0.82236060803109745 0.81829730141807555 -0.096505876605463128
leaf_weight=2405973 1845112 1656164 743962 45662 34316 11019 1011192
leaf_count=2405973 1845112 1656164 743962 45662 34316 11019 1011192
internal_value=0 0.0264384 0.0992208 -0.055656 0.503967 -0.0741739 -0.044208
internal_weight=0 5.25643e+06 2.58907e+06 2.49697e+06 79978 2.41699e+06 2.66736e+06
internal_count=7753400 5256430 2589074 2496970 79978 2416992 2667356
shrinkage=0.65


Tree=58
num_leaves=8
num_cat=0
split_feature=6 3 9 9 11 3 1
split_gain=9418.44 23346.6 20628.1 10539.9 26546.6 7741.3 7126.53
threshold=2014.5000000000002 -1.0000000180025095e-35 7.5000000000000009 1.5000000000000002 12.663568185376077 -74.009637999999981 -73.973744499999981
decision_type=2 2 2 2 2 2 2
left_child=3 2 -2 4 -1 -5 -3
right_child=1 6 -4 5 -6 -7 -8
leaf_value=-0.61610586725644723 -0.18000733979344316 -1.7162358325201224 0.14784102748228106 -0.13407994231139625 0.11713749822736583 -0.0089695196864446481 -5.4217944943951695
leaf_weight=21817 99198 547 444065 215901 476176 6495330 366
leaf_count=21817 99198 547 444065 215901 476176 6495330 366
internal_value=0 0.126858 0.135349 -0.00957566 0.130791 -0.0199913 -4.9257
internal_weight=0 544176 543263 7.20922e+06 497993 6.71123e+06 913
internal_count=7753400 544176 543263 7209224 497993 6711231 913
shrinkage=0.65


Tree=59
num_leaves=8
num_cat=0
split_feature=2 9 9 11 2 4 3
split_gain=9749.18 20935.7 17394 14267 48443.9 13639.3 13628.5
threshold=40.680506000000008 7.5000000000000009 18.500000000000004 9.4380010578139881 40.75758050000001 40.774912500000006 -73.826219499999993
decision_type=2 2 2 2 2 2 2
left_child=1 5 -3 4 -2 -1 -5
right_child=3 2 -4 6 -6 -7 -8
leaf_value=0.46629112149060803 0.15421201471041482 -0.1517395862130114 0.33655870103978425 -0.0011721057320403531 -0.77567913603018579 1.8118211398602551 0.79616888649107831
leaf_weight=31480 54170 80081 50107 7482913 42040 3541 9068
leaf_count=31480 54170 80081 50107 7482913 42040 3541 9068
internal_value=0 0.24032 0.0556886 -0.00523222 -0.387868 0.926675 -0.000318516
internal_weight=0 165209 130188 7.58819e+06 96210 35021 7.49198e+06
internal_count=7753400 165209 130188 7588191 96210 35021 7491981
shrinkage=0.65


Tree=60
num_leaves=8
num_cat=0
split_feature=1 4 3 4 10 2 3
split_gain=8466.66 31195.7 47612.6 16696.8 11240.8 48030.3 12254.5
threshold=-73.950495999999973 40.783285500000005 -73.859741105468729 40.730452500000006 5.2004941034588947 40.73304550000001 -73.951172499999984
decision_type=2 2 2 2 2 2 2
left_child=4 3 -3 -2 6 -6 -1
right_child=1 2 -4 -5 5 -7 -8
leaf_value=0.0054227203010268413 -0.32428653038906019 0.1509664273083639 2.1073185753790682 -0.064479208784896214 -0.22849131440499554 0.2339728771808762 -0.13161706548508148
leaf_weight=6374952 144594 94368 5566 376993 132119 336651 288157
leaf_count=6374952 144594 94368 5566 376993 132119 336651 288157
internal_value=0 -0.11194 0.399891 -0.210004 0.00975519 0.159432 -0.000775059
internal_weight=0 621521 99934 521587 7.13188e+06 468770 6.66311e+06
internal_count=7753400 621521 99934 521587 7131879 468770 6663109
shrinkage=0.65


Tree=61
num_leaves=8
num_cat=0
split_feature=4 2 11 2 4 2 4
split_gain=9080.47 26963.6 29215.3 23681.3 19439.6 69314.3 18461.4
threshold=40.67886450000001 40.736447500000004 19.703491409883753 40.695314657348639 40.699993500000012 40.736447500000004 40.710275500000009
decision_type=2 2 2 2 2 2 2
left_child=1 3 -3 -1 5 -2 -6
right_child=4 2 -4 -5 6 -7 -8
leaf_value=0.061117511189949361 0.11449493658143023 0.16933155653587145 -0.57735635367134197 0.67543935933464838 0.18947543861981309 -0.78012277120475215 -0.0044538547355070929
leaf_weight=54288 94462 57628 35950 51817 213562 59727 7185966
leaf_count=54288 94462 57628 35950 51817 213562 59727 7185966
internal_value=0 0.210483 -0.180807 0.555577 -0.00556414 -0.356994 0.00175885
internal_weight=0 199683 93578 106105 7.55372e+06 154189 7.39953e+06
internal_count=7753400 199683 93578 106105 7553717 154189 7399528
shrinkage=0.65


Tree=62
num_leaves=8
num_cat=0
split_feature=1 3 4 10 4 10 9
split_gain=6928.29 21660.6 53068.9 37677.2 19559.8 46542.1 15729.4
threshold=-73.986446499999985 -73.986874499999985 40.736657500000007 1.16928444561307 40.825446500000005 24.960043102170829 8.5000000000000018
decision_type=2 2 2 2 2 2 2
left_child=4 3 -3 -2 6 -6 -1
right_child=1 2 -4 -5 5 -7 -8
leaf_value=-0.09860165614470795 -0.32432999843295013 0.27261910476451656 0.013915168940517151 -0.0097000480183852718 -0.4891315681337281 -8.5397519377864146 0.0083506858773237467
leaf_weight=782819 190377 375754 3089738 1035315 25865 307 2253225
leaf_count=782819 190377 375754 3089738 1035315 25865 307 2253225
internal_value=0 0.0241515 0.0645627 -0.0901062 -0.036999 -0.897794 -0.0295786
internal_weight=0 4.69118e+06 3.46549e+06 1.22569e+06 3.06222e+06 26172 3.03604e+06
internal_count=7753400 4691184 3465492 1225692 3062216 26172 3036044
shrinkage=0.65


Tree=63
num_leaves=8
num_cat=0
split_feature=11 10 10 4 10 4 11
split_gain=15113.8 27481.5 58381.6 25685.4 9908.6 44050.3 33744.4
threshold=10.1950652547059 5.9551077591082864 12.178128759922382 40.644576500000007 6.8630415331261441 40.756358500000012 12.663568185376077
decision_type=2 2 2 2 2 2 2
left_child=1 3 -3 -1 6 -6 -2
right_child=4 2 -4 -5 5 -7 -8
leaf_value=2.292248776973592 -0.80720411852220109 -1.1741780858520157 -0.11893782813663449 0.22355267073851254 -0.14415833653001522 0.30918563198936244 0.0023240905433637433
leaf_weight=2775 21822 25078 189811 29422 161964 205397 7117131
leaf_count=2775 21822 25078 189811 29422 161964 205397 7117131
internal_value=0 -0.24335 -0.372441 0.61823 0.00801036 0.168174 -0.000231439
internal_weight=0 247086 214889 32197 7.50631e+06 367361 7.13895e+06
internal_count=7753400 247086 214889 32197 7506314 367361 7138953
shrinkage=0.65


Tree=64
num_leaves=8
num_cat=0
split_feature=10 9 4 11 2 8 4
split_gain=6138.16 13644.6 12565.9 9526.63 17854.3 14363.3 8304.5
threshold=0.30398287427344611 7.5000000000000009 40.648752500000008 22.832477485828608 40.73304550000001 3.5000000000000004 40.764382500000004
decision_type=2 2 2 2 2 2 2
left_child=1 6 -3 4 -2 -5 -1
right_child=3 2 -4 5 -6 -7 -8
leaf_value=0.070524439940664332 -0.10411310069840195 -1.2367266527246878 -0.13419487899046828 -0.024888921691917237 0.0039816718636262755 0.078619815463183862 0.68529092072728626
leaf_weight=41705 759071 4446 247550 936240 4318590 1433856 11942
leaf_count=41705 759071 4446 247550 936240 4318590 1433856 11942
internal_value=0 -0.138892 -0.23638 0.0056999 -0.0187349 0.0580486 0.319036
internal_weight=0 305643 251996 7.44776e+06 5.07766e+06 2.3701e+06 53647
internal_count=7753400 305643 251996 7447757 5077661 2370096 53647
shrinkage=0.65


Tree=65
num_leaves=8
num_cat=0
split_feature=2 4 1 3 4 2 4
split_gain=13098.1 13376.5 35464.5 16785.6 11970.2 27213.6 18881.3
threshold=40.680506000000008 40.68807850000001 -73.803785503906241 -73.864202999999989 1.0000000180025095e-35 40.819575500000006 40.636024500000012
decision_type=2 2 2 2 2 2 2
left_child=1 3 -3 -1 5 -2 -6
right_child=4 2 -4 -5 6 -7 -8
leaf_value=-0.37986991984387519 -1.1506931522437627 1.2105851461165895 0.15989791213723667 0.38993445037746294 0.62947985357039959 7.4417072256631212 -0.0048786463869270793
leaf_weight=32287 5841 15751 98155 19016 19876 160 7562314
leaf_count=32287 5841 15751 98155 19016 19876 160 7562314
internal_value=0 0.278555 0.469519 -0.145437 -0.00606465 -1.41785 -0.00494728
internal_weight=0 165209 113906 51303 7.58819e+06 6001 7.58219e+06
internal_count=7753400 165209 113906 51303 7588191 6001 7582190
shrinkage=0.65


Tree=66
num_leaves=8
num_cat=0
split_feature=2 4 2 4 10 11 11
split_gain=6177.88 171643 154941 147560 251147 90283.4 40273.5
threshold=40.758525424194339 40.759831500000011 40.764316279418956 40.763997500000009 2.0129353702901409 17.442469622288225 20.917832956616749
decision_type=2 2 2 2 2 2 2
left_child=3 2 -2 6 -5 -3 -1
right_child=1 5 -4 4 -6 -7 -8
leaf_value=0.13808177441842276 -0.12892654359902878 0.3283532094177512 0.33491858619522968 0.78094015869818512 0.015905270014533391 -0.18957715647710566 -0.06521203285017052
leaf_weight=470992 488176 154914 807627 268103 559951 1732267 3271370
leaf_count=470992 488176 154914 807627 268103 559951 1732267 3271370
internal_value=0 -0.0338247 0.246417 0.0235566 0.405545 -0.226249 -0.0609641
internal_weight=0 3.18298e+06 1.2958e+06 4.57042e+06 828054 1.88718e+06 3.74236e+06
internal_count=7753400 3182984 1295803 4570416 828054 1887181 3742362
shrinkage=0.65


Tree=67
num_leaves=8
num_cat=0
split_feature=11 2 4 10 10 10 1
split_gain=42303.4 27179.5 20945.9 26688.9 20281.2 19734 16225.4
threshold=11.537681934358966 40.786659000000007 40.801172500000007 0.028671006058198775 0.028671006058198775 4.3185950943692921 -73.89260849999998
decision_type=2 2 2 2 2 2 2
left_child=1 5 6 -4 -3 -1 -2
right_child=2 4 3 -5 -6 -7 -8
leaf_value=0.31125218738788113 0.0035032140197517347 -8.3698926990414844 2.8690514896432364 0.17980809128521505 -1.0486393156739113 -0.20421545269515246 0.49827316748296502
leaf_weight=33957 7014899 162 1569 249253 12120 413324 28116
leaf_count=33957 7014899 162 1569 249253 12120 413324 28116
internal_value=0 -0.294271 0.0185411 0.302508 -1.76186 -0.253972 0.00842824
internal_weight=0 459563 7.29384e+06 250822 12282 447281 7.04302e+06
internal_count=7753400 459563 7293837 250822 12282 447281 7043015
shrinkage=0.65


Tree=68
num_leaves=8
num_cat=0
split_feature=10 10 8 9 3 4 4
split_gain=17369.3 46113.2 31030.5 42625.8 24261.5 19684.5 15023.3
threshold=2.6944162428714038 2.4311429512422884 5.5000000000000009 6.5000000000000009 -73.965295499999982 40.784456500000012 40.752012500000006
decision_type=2 2 2 2 2 2 2
left_child=1 5 3 -2 -4 -1 -3
right_child=2 6 4 -5 -6 -7 -8
leaf_value=-0.0066339396064040461 -0.25198487694402205 0.41779217548674358 -0.29633358169671331 0.049458554433173159 -0.04188066429887316 0.14190878242080976 0.12942164094724079
leaf_weight=4928504 235867 143034 320578 1240825 312788 408132 163672
leaf_count=4928504 235867 143034 320578 1240825 312788 408132 163672
internal_value=0 0.0289417 -0.0774046 0.00201541 -0.262572 0.00727111 0.406007
internal_weight=0 5.64334e+06 2.11006e+06 1.47669e+06 633366 5.33664e+06 306706
internal_count=7753400 5643342 2110058 1476692 633366 5336636 306706
shrinkage=0.65


Tree=69
num_leaves=8
num_cat=0
split_feature=10 3 9 10 2 10 10
split_gain=11829.6 22910.8 22841.8 24439.5 22804.7 16786.6 13364.2
threshold=1.3934533102923334 -73.782494999999969 19.500000000000004 14.770402469298286 40.779770500000005 0.028671006058198775 1.2665785210600389
decision_type=2 2 2 2 2 2 2
left_child=1 6 4 -4 -2 -3 -1
right_child=2 5 3 -5 -6 -7 -8
leaf_value=0.017151661931790355 0.022316033933738676 0.55810017225179176 -0.12876580429287474 0.3884360945841302 -0.15180247790391765 -2.0499581781697187 0.1538293956299395
leaf_weight=3105574 2940737 1439 970508 40200 356312 3786 334844
leaf_count=3105574 2940737 1439 970508 40200 356312 3786 334844
internal_value=0 0.0436746 -0.034934 -0.166453 0.00538316 -2.04874 0.0468524
internal_weight=0 3.44564e+06 4.30776e+06 1.01071e+06 3.29705e+06 5225 3.44042e+06
internal_count=7753400 3445643 4307757 1010708 3297049 5225 3440418
shrinkage=0.65


Tree=70
num_leaves=8
num_cat=0
split_feature=1 2 2 4 2 4 4
split_gain=8889.18 22959.4 70861 44886.8 12534.7 116870 19829.5
threshold=-73.951159999999973 40.741903500000006 40.724756500000005 40.723300966918949 40.773741000000008 40.746241000000005 40.825446500000005
decision_type=2 2 2 2 2 2 2
left_child=4 2 -2 -3 6 -6 -1
right_child=1 3 -4 -5 5 -7 -8
leaf_value=-0.0014181342219946886 0.027462893248940023 -0.70642622489618578 1.8084120333074205 -0.075059672999041718 0.67406399848082765 -0.0062380638236185157 -0.43078270936924906
leaf_weight=6014179 160479 53542 10029 426918 120655 921807 45791
leaf_count=6014179 160479 53542 10029 426918 120655 921807 45791
internal_value=0 -0.111843 0.203408 -0.223721 0.0102509 0.111539 -0.00717315
internal_weight=0 650968 170508 480460 7.10243e+06 1.04246e+06 6.05997e+06
internal_count=7753400 650968 170508 480460 7102432 1042462 6059970
shrinkage=0.65


Tree=71
num_leaves=8
num_cat=0
split_feature=10 6 11 6 7 7 3
split_gain=6268.88 25619.5 15085.7 13184 43873.2 40726.2 12537.9
threshold=0.74276465014476634 2011.5000000000002 10.272258219385682 2011.5000000000002 8.5000000000000018 8.5000000000000018 -74.022767499999972
decision_type=2 2 2 2 2 2 2
left_child=1 2 -1 5 -5 -2 -3
right_child=3 6 -4 4 -6 -7 -8
leaf_value=-1.0166723350084372 0.078497012360021712 2.0725030929899879 -0.042567532084635602 -0.083709984622279063 0.080836231842175338 -0.085180329855252923 0.11371298292685789
leaf_weight=6781 1901136 1383 712613 2400836 957726 969973 802952
leaf_count=6781 1901136 1383 712613 2400836 957726 969973 802952
internal_value=0 0.0574947 -0.0796145 -0.0140628 -0.056597 0.0356929 0.180125
internal_weight=0 1.52373e+06 719394 6.22967e+06 3.35856e+06 2.87111e+06 804335
internal_count=7753400 1523729 719394 6229671 3358562 2871109 804335
shrinkage=0.65


Tree=72
num_leaves=8
num_cat=0
split_feature=4 3 3 11 10 2 10
split_gain=5925.76 33756.8 122411 29349.8 8838.85 22054.3 17070.3
threshold=40.810591500000008 -73.964376499999986 -74.022767499999972 12.663568185376077 13.158625717702416 40.786659000000007 10.927487250633716
decision_type=2 2 2 2 2 2 2
left_child=4 2 -2 -3 6 -6 -1
right_child=1 3 -4 -5 5 -7 -8
leaf_value=-0.0027811586664832789 -1.7598643653916741 -0.66636476713080106 6.184448244391934 0.19350007814927628 0.14098228944470773 -1.144786791517505 -0.25299822047500559
leaf_weight=7216650 1648 19279 1630 128946 262423 5760 117064
leaf_count=7216650 1648 19279 1630 128946 262423 5760 117064
internal_value=0 0.195829 3.36997 0.125632 -0.00390279 0.17441 -0.0104234
internal_weight=0 151503 3278 148225 7.6019e+06 268183 7.33371e+06
internal_count=7753400 151503 3278 148225 7601897 268183 7333714
shrinkage=0.65


Tree=73
num_leaves=8
num_cat=0
split_feature=5 5 3 10 3 6 4
split_gain=5562.02 11140.1 35746.6 11818.9 6146.63 18857.9 11391.4
threshold=1.5000000000000002 4.5000000000000009 -74.022767499999972 5.0495878631924827 -73.940344499999981 2013.5000000000002 40.855020000000003
decision_type=2 2 2 2 2 2 2
left_child=4 3 -3 -2 6 -6 -1
right_child=1 2 -4 -5 5 -7 -8
leaf_value=-0.0061395419358218723 0.035987456510063624 -2.3541302900259162 -0.032443643304595163 0.20976736046276925 -0.01017280431522169 -0.35739367861998111 1.8773826346878861
leaf_weight=5023838 1465140 2813 710593 186385 276425 86849 1357
leaf_count=5023838 1465140 2813 710593 186385 276425 86849 1357
internal_value=0 0.0404291 -0.0639972 0.0855379 -0.0177438 -0.14336 -0.00866295
internal_weight=0 2.36493e+06 713406 1.65152e+06 5.38847e+06 363274 5.0252e+06
internal_count=7753400 2364931 713406 1651525 5388469 363274 5025195
shrinkage=0.65


Tree=74
num_leaves=8
num_cat=0
split_feature=6 2 10 11 3 4 2
split_gain=6709.37 10088.2 13720 8678.39 7827.41 39727.3 15463.7
threshold=2014.5000000000002 1.0000000180025095e-35 11.62780053607589 25.91532057352094 -73.965295499999982 40.746241000000005 40.786659000000007
decision_type=2 2 2 2 2 2 2
left_child=4 3 -3 -2 6 -6 -1
right_child=1 2 -4 -5 5 -7 -8
leaf_value=-0.010451607696045525 -2.188494435401017 0.049124906667287006 0.50746023691466002 6.5607194101214414 0.23518234130854995 -0.014215401491032745 -0.18746524144036372
leaf_weight=5206977 1140 513826 29160 50 331370 1453669 217208
leaf_count=5206977 1140 513826 29160 50 331370 1453669 217208
internal_value=0 0.10707 0.113444 -2.80135 -0.00808203 0.0493571 -0.0269846
internal_weight=0 544176 542986 1190 7.20922e+06 1.78504e+06 5.42418e+06
internal_count=7753400 544176 542986 1190 7209224 1785039 5424185
shrinkage=0.65


Tree=75
num_leaves=8
num_cat=0
split_feature=11 4 10 3 10 6 4
split_gain=16052.2 18000.8 37708 12983.1 9770.91 27620.4 8766.04
threshold=9.4380010578139881 40.77693750000001 24.960043102170829 -73.946058999999977 13.791859217811927 2010.5000000000002 40.664981000000004
decision_type=2 2 2 2 2 2 2
left_child=1 3 -3 -1 6 -6 -2
right_child=4 2 -4 -5 5 -7 -8
leaf_value=-0.017254900448474185 -0.24805370991763734 0.30942693627030621 7.2177182594610052 -0.36086346637273098 -0.43826669357704617 0.44097646957452385 0.0045419271247473811
leaf_weight=74373 58506 18382 340 123789 19924 62284 7395802
leaf_count=74373 58506 18382 340 123789 19924 62284 7395802
internal_value=0 -0.268221 0.669053 -0.356773 0.00771879 0.350588 0.00393754
internal_weight=0 216884 18722 198162 7.53652e+06 82208 7.45431e+06
internal_count=7753400 216884 18722 198162 7536516 82208 7454308
shrinkage=0.65


Tree=76
num_leaves=8
num_cat=0
split_feature=10 3 4 9 10 4 10
split_gain=9550.1 40967.9 60745.9 23492.5 14156.2 14737.7 10590.2
threshold=22.010261633952897 -74.022767499999972 40.727532500000002 6.5000000000000009 21.00971820332494 40.759600500000012 16.314848236616069
decision_type=2 2 2 2 2 2 2
left_child=4 2 -2 -3 6 -6 -1
right_child=1 3 -4 -5 5 -7 -8
leaf_value=0.0029523777675600892 2.168285347654002 0.47848300537252236 -3.8543383748986271 -0.46150421063174002 0.67894915118876387 -0.42641763725268855 -0.26733975312895802
leaf_weight=7566840 5502 13219 812 74787 24028 6468 61744
leaf_count=7566840 5502 13219 812 74787 24028 6468 61744
internal_value=0 -0.31626 2.14424 -0.492789 0.00389468 0.683859 0.00117645
internal_weight=0 94320 6314 88006 7.65908e+06 30496 7.62858e+06
internal_count=7753400 94320 6314 88006 7659080 30496 7628584
shrinkage=0.65


Tree=77
num_leaves=8
num_cat=0
split_feature=2 4 3 6 4 10 10
split_gain=6181.04 36897.1 81525.5 9020.93 8278.05 24867.7 6347.11
threshold=40.790866000000001 40.781114000000009 -73.975736499999982 2012.5000000000002 40.795266598876957 2.0129353702901409 1.7453420560348121
decision_type=2 2 2 2 2 2 2
left_child=4 2 -2 -3 6 -6 -1
right_child=1 3 -4 -5 5 -7 -8
leaf_value=-0.025018367669666097 -0.078699047206716014 0.0035809006143381287 0.9288116933046916 -0.30953375451161647 0.43502499211744217 -0.011788345712251555 0.013904816685769164
leaf_weight=4020633 82531 99114 57626 63963 72037 195320 3162176
leaf_count=4020633 82531 99114 57626 63963 72037 195320 3162176
internal_value=0 0.139952 0.516219 -0.183432 -0.00569627 0.167079 -0.0121273
internal_weight=0 303234 140157 163077 7.45017e+06 267357 7.18281e+06
internal_count=7753400 303234 140157 163077 7450166 267357 7182809
shrinkage=0.65


Tree=78
num_leaves=8
num_cat=0
split_feature=10 10 3 7 6 6 11
split_gain=5707.72 16817.1 28880.1 16308.9 64295 55962.4 13626.8
threshold=4.3185950943692921 3.6575751278408135 -73.965295499999982 9.5000000000000018 2012.5000000000002 2012.5000000000002 5.3587869456782391
decision_type=2 2 2 2 2 2 2
left_child=1 6 -3 4 -2 -5 -1
right_child=3 2 -4 5 -6 -7 -8
leaf_value=0.63436372457118229 -0.24550932360706063 -0.0050051499854787997 0.40124413925265895 0.32921854556389535 0.1298258084590985 -0.32696926749530209 -0.0016376596097940751
leaf_weight=14265 465195 187902 121895 158960 329339 83892 6391952
leaf_count=14265 465195 187902 121895 158960 329339 83892 6391952
internal_value=0 0.0106635 0.238216 -0.0690353 -0.138355 0.157757 -0.000340689
internal_weight=0 6.71601e+06 309797 1.03739e+06 794534 242852 6.40622e+06
internal_count=7753400 6716014 309797 1037386 794534 242852 6406217
shrinkage=0.65


Tree=79
num_leaves=8
num_cat=0
split_feature=11 6 7 4 2 2 3
split_gain=6631.02 14725.7 37523.9 12893.1 173383 127985 12671.8
threshold=21.629579412575158 2012.5000000000002 8.5000000000000018 40.746241000000005 40.755512500000009 40.738794500000004 -73.965295499999982
decision_type=2 2 2 2 2 2 2
left_child=1 6 -3 4 -2 -5 -1
right_child=3 2 -4 5 -6 -7 -8
leaf_value=-0.048598849932474306 -0.10393711441854409 -0.0088488373125688944 -0.26168457894470876 0.3393719506203407 0.36990140890453971 -0.031979163225163143 0.055800467116545967
leaf_weight=844831 1820007 911792 340662 504478 397531 1760530 1173569
leaf_count=844831 1820007 911792 340662 504478 397531 1760530 1173569
internal_value=0 -0.0342354 -0.119414 0.0249811 -0.0292209 0.0780472 0.0186194
internal_weight=0 3.27085e+06 1.25245e+06 4.48255e+06 2.21754e+06 2.26501e+06 2.0184e+06
internal_count=7753400 3270854 1252454 4482546 2217538 2265008 2018400
shrinkage=0.65


Tree=80
num_leaves=8
num_cat=0
split_feature=10 4 11 11 4 6 2
split_gain=12848.9 20339.1 10951.2 10588 7465.89 17597.5 7984.2
threshold=0.74276465014476634 40.825446500000005 20.581057686801103 24.350615776800716 40.840524500000008 2011.5000000000002 40.819575500000006
decision_type=2 2 2 2 2 2 2
left_child=1 3 -3 -1 6 -6 -2
right_child=4 2 -4 -5 5 -7 -8
leaf_value=0.034565255365993919 -0.016514303674853219 -1.707179648929702 0.79699490910106241 0.18452780200290628 -0.17791495185482001 0.55373893748548142 0.41053254966780961
leaf_weight=1283326 6155046 4095 900 235408 25345 30727 18553
leaf_count=1283326 6155046 4095 900 235408 25345 30727 18553
internal_value=0 0.0823124 -1.93227 0.0889383 -0.020133 0.343116 -0.0234322
internal_weight=0 1.52373e+06 4995 1.51873e+06 6.22967e+06 56072 6.1736e+06
internal_count=7753400 1523729 4995 1518734 6229671 56072 6173599
shrinkage=0.65


Tree=81
num_leaves=8
num_cat=0
split_feature=10 2 4 4 10 2 4
split_gain=5692.08 13243.5 90114.1 49216.1 9936.2 15413.3 8761.33
threshold=1.3934533102923334 40.781708500000008 40.773574500000009 40.785857077148449 1.6862695603802098 40.786659000000007 40.727050390625003
decision_type=2 2 2 2 2 2 2
left_child=1 3 -3 -1 6 -6 -2
right_child=4 2 -4 -5 5 -7 -8
leaf_value=-0.0065797187467978658 0.092622470296667564 0.75419326541429244 -0.062887476002923035 0.48049777064426419 0.0079254230951729954 -0.1774575192936734 -0.11860204974661641
leaf_weight=3060716 96898 77309 217387 90231 3433194 200558 577107
leaf_count=3060716 96898 77309 217387 90231 3433194 200558 577107
internal_value=0 0.0302956 0.233017 0.0113359 -0.0242325 -0.00354836 -0.135747
internal_weight=0 3.44564e+06 294696 3.15095e+06 4.30776e+06 3.63375e+06 674005
internal_count=7753400 3445643 294696 3150947 4307757 3633752 674005
shrinkage=0.65


Tree=82
num_leaves=8
num_cat=0
split_feature=2 4 3 10 2 4 4
split_gain=7386.01 22766.1 24734.6 16779 8899.44 40024.2 39833.7
threshold=40.792322033081057 40.737055866088873 -73.990358999999984 4.3185950943692921 40.753168500000008 40.762504788818369 40.758107500000008
decision_type=2 2 2 2 2 2 2
left_child=4 3 -3 -2 6 -6 -1
right_child=1 2 -4 -5 5 -7 -8
leaf_value=-0.020484139458695805 1.7155246833701894 -0.67390990227008662 0.11131151250856977 0.37773985018170847 0.038372995861703819 -0.098418396598843105 0.13154056949304666
leaf_weight=2884740 5843 18260 236089 12299 1891899 1730183 974087
leaf_count=2884740 5843 18260 236089 12299 1891899 1730183 974087
internal_value=0 0.161719 0.0845224 1.244 -0.00589058 -0.0414908 0.0275255
internal_weight=0 272491 254349 18142 7.48091e+06 3.62208e+06 3.85883e+06
internal_count=7753400 272491 254349 18142 7480909 3622082 3858827
shrinkage=0.65


Tree=83
num_leaves=8
num_cat=0
split_feature=10 11 2 6 4 2 2
split_gain=8463.19 18345.4 16819.2 16196.7 12693 97455.4 49182.7
threshold=2.6944162428714038 21.383331411017892 40.695314657348639 2009.5000000000002 40.72953900000001 40.765187500000003 40.728477500000018
decision_type=2 2 2 2 2 2 2
left_child=4 3 -3 -2 5 -1 -6
right_child=1 2 -4 -5 6 -7 -8
leaf_value=0.049265933450445276 0.16273206642984162 0.50057506699723264 -0.15546484989263648 -0.025987020328703956 0.21474125103926889 1.4122156310293341 -0.020986249227520154
leaf_weight=903045 224803 17026 545739 1322490 409500 22723 4308074
leaf_count=903045 224803 17026 545739 1322490 409500 22723 4308074
internal_value=0 -0.0540309 -0.208641 0.00220244 0.0202023 0.127261 -0.000806729
internal_weight=0 2.11006e+06 562765 1.54729e+06 5.64334e+06 925768 4.71757e+06
internal_count=7753400 2110058 562765 1547293 5643342 925768 4717574
shrinkage=0.65


Tree=84
num_leaves=8
num_cat=0
split_feature=2 3 4 4 3 4 4
split_gain=12438.6 33258.3 35587.9 24630.3 112353 88964 24391
threshold=40.742411000000011 -73.975959888915995 40.745524500000009 40.723300966918949 -73.969426499999983 40.735703998017506 40.782779000000012
decision_type=2 2 2 2 2 2 2
left_child=1 2 -1 4 -2 -5 -3
right_child=3 6 -4 5 -6 -7 -8
leaf_value=-0.051891160512949508 -0.31685788527905651 -0.20144244150426602 0.14337578618576857 0.3377207492514816 0.44995506436425231 0.0059927429724316748 0.16361961064622679
leaf_weight=1262926 330305 625205 573373 370342 106843 4396167 88239
leaf_count=1262926 330305 625205 573373 370342 106843 4396167 88239
internal_value=0 -0.0572197 0.0139688 0.0280371 -0.199141 0.0488722 -0.240448
internal_weight=0 2.54974e+06 1.8363e+06 5.20366e+06 437148 4.76651e+06 713444
internal_count=7753400 2549743 1836299 5203657 437148 4766509 713444
shrinkage=0.65


Tree=85
num_leaves=8
num_cat=0
split_feature=4 3 1 10 2 1 2
split_gain=13089.8 44161 110567 25957.2 53282 16796.4 16265.2
threshold=40.719200067138679 -74.011889499999981 -74.016147499999988 3.8927295768180374 40.717092500000007 -73.979431499999976 40.645001000000015
decision_type=2 2 2 2 2 2 2
left_child=3 2 -2 4 -1 -3 -5
right_child=1 5 -4 6 -6 -7 -8
leaf_value=-0.15532598250622268 -1.1600050761045226 -0.040677576803735099 2.8758377374181903 0.53824757880223406 0.28536671821652915 0.023982535606387162 -0.11093394699037104
leaf_weight=162999 4820 3788994 7082 17256 401270 3074706 296273
leaf_count=162999 4820 3788994 7082 17256 401270 3074706 296273
internal_value=0 -0.0146812 1.90989 0.114995 0.243177 -0.0180185 -0.115699
internal_weight=0 6.8756e+06 11902 877798 564269 6.8637e+06 313529
internal_count=7753400 6875602 11902 877798 564269 6863700 313529
shrinkage=0.65


Tree=86
num_leaves=8
num_cat=0
split_feature=2 2 4 11 10 1 4
split_gain=7027.17 25002.8 23573.5 13672.8 11133.5 17628.6 10810
threshold=40.715291500000006 40.721062500000009 40.723300966918949 9.4380010578139881 24.960043102170829 -74.016147499999988 40.664981000000004
decision_type=2 2 2 2 2 2 2
left_child=4 2 -2 -3 6 -6 -1
right_child=1 3 -4 -5 5 -7 -8
leaf_value=0.41347518588791488 0.069442533239459259 -0.25739896607577728 -0.33485519088437743 0.0054531355235648699 2.8785870314878412 -0.60351486753380568 0.061236443942120522
leaf_weight=39873 91959 84642 180595 6861067 640 15281 479343
leaf_count=39873 91959 84642 180595 6861067 640 15281 479343
internal_value=0 -0.0081971 -0.305302 0.00346148 0.110568 -0.713138 0.135825
internal_weight=0 7.21826e+06 272554 6.94571e+06 535137 15921 519216
internal_count=7753400 7218263 272554 6945709 535137 15921 519216
shrinkage=0.65


Tree=87
num_leaves=8
num_cat=0
split_feature=10 6 2 1 4 3 4
split_gain=5091.13 10851.5 8929.34 7700.99 6796.23 32927.3 13343.4
threshold=0.74276465014476634 2009.5000000000002 40.688775054443362 -73.981113499999978 40.68807850000001 -74.022767499999972 40.699993500000012
decision_type=2 2 2 2 2 2 2
left_child=1 2 -1 -3 5 -2 -6
right_child=4 3 -4 -5 6 -7 -8
leaf_value=-1.1550381800701592 -1.0273713530277699 0.013253105918886836 -0.076670539803562018 0.1150073220771578 -0.26608815152234938 0.14859835359384929 -0.0088601913495666273
leaf_weight=3288 10512 717682 243742 559017 86452 233862 5898845
leaf_count=3288 10512 717682 243742 559017 86452 233862 5898845
internal_value=0 0.0518131 -0.140037 0.0889344 -0.0126731 0.150789 -0.0193471
internal_weight=0 1.52373e+06 247030 1.2767e+06 6.22967e+06 244374 5.9853e+06
internal_count=7753400 1523729 247030 1276699 6229671 244374 5985297
shrinkage=0.65


Tree=88
num_leaves=8
num_cat=0
split_feature=4 2 9 10 4 10 11
split_gain=5683.78 12131.1 9194.14 7566.34 24082.8 14199.9 4118.54
threshold=1.0000000180025095e-35 40.747855500000007 1.5000000000000002 22.942090822620862 40.749027126098646 22.010261633952897 0.52997194769622202
decision_type=2 2 2 2 2 2 2
left_child=1 6 -3 5 -5 -2 -1
right_child=3 2 -4 4 -6 -7 -8
leaf_value=-3.3600783979811717 0.00073328534329034892 3.108364196739144 -1.6396988281185496 0.49994155632497422 -0.46424868145900983 -0.43205419806132578 0.11837994739368736
leaf_weight=147 7655146 181 3588 40550 14991 32165 6632
leaf_count=147 7655146 181 3588 40550 14991 32165 6632
internal_value=0 -0.733564 -2.17182 0.000999326 0.368766 -0.0016578 0.0660783
internal_weight=0 10548 3769 7.74285e+06 55541 7.68731e+06 6779
internal_count=7753400 10548 3769 7742852 55541 7687311 6779
shrinkage=0.65


Tree=89
num_leaves=8
num_cat=0
split_feature=2 11 10 10 4 10 2
split_gain=5358.19 21797.9 34920.3 15779 15579.3 75502.6 16250.2
threshold=40.750800500000004 5.3587869456782391 11.62780053607589 0.10996361417743916 40.774545500000009 2.3163723430393159 40.747855500000007
decision_type=2 2 2 2 2 2 2
left_child=4 3 -3 -2 6 -6 -1
right_child=1 2 -4 -5 5 -7 -8
leaf_value=-0.0096835737700255893 14.918364651342536 -0.022570041467384692 0.29794955123156897 -0.51762062250217489 0.9654461174935729 0.01709965685502688 0.13610553922030627
leaf_weight=2905155 28 4038384 148909 37891 42392 217206 363435
leaf_count=2905155 28 4038384 148909 37891 42392 217206 363435
internal_value=0 -0.0240223 -0.0171872 -0.778804 0.0287681 0.264559 0.0100411
internal_weight=0 4.22521e+06 4.18729e+06 37919 3.52819e+06 259598 3.26859e+06
internal_count=7753400 4225212 4187293 37919 3528188 259598 3268590
shrinkage=0.65


Tree=90
num_leaves=8
num_cat=0
split_feature=8 9 9 8 9 1 10
split_gain=4024.32 8681.45 4924.42 18489.6 12475 4293.9 3640.04
threshold=1.5000000000000002 10.500000000000002 11.500000000000002 5.5000000000000009 15.500000000000002 -73.89260849999998 1.3934533102923334
decision_type=2 2 2 2 2 2 2
left_child=1 5 3 -2 -4 -1 -3
right_child=2 6 4 -5 -6 -7 -8
leaf_value=0.035472693351993607 0.02338735647956133 -0.027250199807549839 0.071594148918502701 -0.093981369790173269 -0.004489580338636231 0.39100323642138085 -0.12188305032333181
leaf_weight=287693 1641514 315607 1321175 866394 2929200 15106 376711
leaf_count=287693 1641514 315607 1321175 866394 2929200 15106 376711
internal_value=0 -0.0593719 0.00874216 -0.0263991 0.029477 0.0818606 -0.121143
internal_weight=0 995117 6.75828e+06 2.50791e+06 4.25038e+06 302799 692318
internal_count=7753400 995117 6758283 2507908 4250375 302799 692318
shrinkage=0.65


Tree=91
num_leaves=8
num_cat=0
split_feature=4 6 2 7 4 11 10
split_gain=4456.23 24471.7 31796.3 25459.9 7782.77 27379.8 7387.19
threshold=40.691597500000007 2011.5000000000002 40.695314657348639 8.5000000000000018 40.699993500000012 9.4380010578139881 5.9551077591082864
decision_type=2 2 2 2 2 2 2
left_child=1 3 -3 -1 5 -2 -6
right_child=4 2 -4 -5 6 -7 -8
leaf_value=0.071462368668078702 1.2974608441485762 -0.23980394032428534 0.40892133299308736 -0.54980427958648592 0.0046263672741787268 -0.3514783127714794 -0.07424205347177551
leaf_weight=82106 4590 43016 123766 42190 6858155 58204 541373
leaf_count=82106 4590 43016 123766 42190 6858155 58204 541373
internal_value=0 0.121386 0.371698 -0.214485 -0.00473484 -0.355303 -0.00175984
internal_weight=0 291078 166782 124296 7.46232e+06 62794 7.39953e+06
internal_count=7753400 291078 166782 124296 7462322 62794 7399528
shrinkage=0.65


Tree=92
num_leaves=8
num_cat=0
split_feature=10 3 6 10 3 10 4
split_gain=6199.45 21694.6 48651 15955.6 35408 20455.8 7333.59
threshold=5.0495878631924827 -74.022767499999972 2010.5000000000002 5.9551077591082864 -74.022767499999972 6.517174928725896 40.807424500000003
decision_type=2 2 2 2 2 2 2
left_child=1 2 -1 4 -2 -5 -3
right_child=3 6 -4 5 -6 -7 -8
leaf_value=-0.75499856672424304 2.9848058685578929 -0.010370175531901723 2.0525122719865512 -0.34582834598521012 0.20759917279779216 0.046452077557380254 0.16436411646918817
leaf_weight=4388 1965 6817141 6428 61873 150028 608562 103015
leaf_count=4388 1965 6817141 6428 61873 150028 608562 103015
internal_value=0 -0.00974053 1.40541 0.0820878 0.374621 0.0157683 -0.0119524
internal_weight=0 6.93097e+06 10816 822428 151993 670435 6.92016e+06
internal_count=7753400 6930972 10816 822428 151993 670435 6920156
shrinkage=0.65


Tree=93
num_leaves=7
num_cat=0
split_feature=2 4 10 10 4 4
split_gain=4248.01 10914.6 16783 10680 8809.45 5220.77
threshold=40.717092500000007 40.720889500000006 22.010261633952897 22.010261633952897 -1.0000000180025095e-35 40.664981000000004
decision_type=2 2 2 2 2 2
left_child=1 3 -3 -1 -2 -6
right_child=4 2 -4 -5 5 -7
leaf_value=-0.092940175499196392 -11.745386884389101 0.17305606411299748 -0.28814173107369606 0.43878263610517276 -0.15906342252042632 -0.0023515341295001538
leaf_weight=221841 27 319001 37227 17197 90973 7067134
leaf_count=221841 27 319001 37227 17197 90973 7067134
internal_value=0 0.0811692 0.192091 -0.0841334 -0.00674998 -0.00668184
internal_weight=0 595266 356228 239038 7.15813e+06 7.15811e+06
internal_count=7753400 595266 356228 239038 7158134 7158107
shrinkage=0.65


Tree=94
num_leaves=8
num_cat=0
split_feature=4 2 10 1 3 6 3
split_gain=5010.5 20093.9 12376.4 8154.61 7373.5 84818.1 9430.34
threshold=40.710275500000009 40.819575500000006 3.4514757372276743 -74.0024035 -73.782494999999969 2010.5000000000002 -73.940344499999981
decision_type=2 2 2 2 2 2 2
left_child=1 2 -1 -3 6 -6 -2
right_child=4 3 -4 -5 5 -7 -8
leaf_value=0.14696973176572292 0.00030029411794946828 -4.2569651394105348 -0.045273402256319713 3.5070092275593163 -2.3750248201973205 1.9583745633872047 -0.10321575382380745
leaf_weight=291771 6783750 61 274695 907 2790 6039 393387
leaf_count=291771 6783750 61 274695 907 2790 6039 393387
internal_value=0 0.0904648 0.0826857 4.64269 -0.00714348 0.906158 -0.00826698
internal_weight=0 567434 566466 968 7.18597e+06 8829 7.17714e+06
internal_count=7753400 567434 566466 968 7185966 8829 7177137
shrinkage=0.65


Tree=95
num_leaves=8
num_cat=0
split_feature=10 10 3 10 10 4 10
split_gain=6313.01 12936.1 54893.2 35808.9 7992.6 26731.2 7912.5
threshold=5.3596244421004036 10.927487250633716 -74.022767499999972 11.62780053607589 4.3185950943692921 40.704661161499025 4.090834928288877
decision_type=2 2 2 2 2 2 2
left_child=4 2 -2 -3 6 -6 -1
right_child=1 3 -4 -5 5 -7 -8
leaf_value=-0.004288130662245389 -1.9308138384179376 -0.6882201891358567 0.17661808878725158 0.032747401625708633 -0.68838757653298921 -0.043298064876440452 0.18723728877006471
leaf_weight=6623607 5300 31602 354902 368555 30497 246530 92407
leaf_count=6623607 5300 31602 354902 368555 30497 246530 92407
internal_value=0 0.0865358 0.224014 -0.0372158 -0.00940911 -0.175867 -0.00254291
internal_weight=0 760359 360202 400157 6.99304e+06 277027 6.71601e+06
internal_count=7753400 760359 360202 400157 6993041 277027 6716014
shrinkage=0.65


Tree=96
num_leaves=8
num_cat=0
split_feature=7 9 11 7 6 6 4
split_gain=3754.26 9653.84 11246.5 9205.76 23217.3 15609 5107.93
threshold=4.5000000000000009 4.5000000000000009 14.343606665313578 6.5000000000000009 2012.5000000000002 2012.5000000000002 40.855020000000003
decision_type=2 2 2 2 2 2 2
left_child=1 2 -1 5 -5 -2 -3
right_child=3 6 -4 4 -6 -7 -8
leaf_value=-0.40680015305985157 -0.0021597167266396906 -0.031133319742405133 0.11777472546904054 0.029499915951626009 -0.082885582397693766 0.13584111151083375 -0.549750908983209
leaf_weight=18324 839842 2460549 299504 2386591 1151284 589256 8050
leaf_count=18324 839842 2460549 299504 2386591 1151284 589256 8050
internal_value=0 -0.0293791 0.134663 0.0164814 -0.0108803 0.0842181 -0.0504992
internal_weight=0 2.78643e+06 317828 4.96697e+06 3.53788e+06 1.4291e+06 2.4686e+06
internal_count=7753400 2786427 317828 4966973 3537875 1429098 2468599
shrinkage=0.65


Tree=97
num_leaves=8
num_cat=0
split_feature=7 6 6 10 6 6 11
split_gain=3977.36 38331 164526 86548 17772.1 92068.4 40555.3
threshold=8.5000000000000018 2011.5000000000002 2012.5000000000002 4.3185950943692921 2011.5000000000002 2012.5000000000002 18.338535394496219
decision_type=2 2 2 2 2 2 2
left_child=4 3 -3 -2 6 -6 -1
right_child=1 2 -4 -5 5 -7 -8
leaf_value=0.3051660434643767 0.0072685563729765219 0.44350360278447948 -0.068134005410660503 -0.51253715998846316 -0.22569657954635219 0.028323530903849637 0.0056636245612152877
leaf_weight=209469 1057319 401474 784290 155197 839645 2137488 2168518
leaf_count=209469 1057319 401474 784290 155197 839645 2137488 2168518
internal_value=0 0.0338443 0.161685 -0.091176 -0.0151571 -0.0666433 0.0493012
internal_weight=0 2.39828e+06 1.18576e+06 1.21252e+06 5.35512e+06 2.97713e+06 2.37799e+06
internal_count=7753400 2398280 1185764 1212516 5355120 2977133 2377987
shrinkage=0.65


Tree=98
num_leaves=8
num_cat=0
split_feature=10 7 6 11 7 3 4
split_gain=3533.17 35763.3 23225.3 16995.6 6815.5 12114.9 6883.94
threshold=4.5909034956571375 9.5000000000000018 2011.5000000000002 11.342593530361409 9.5000000000000018 -74.022767499999972 40.636024500000012
decision_type=2 2 2 2 2 2 2
left_child=4 3 -3 -2 6 -6 -1
right_child=1 2 -4 -5 5 -7 -8
leaf_value=-0.50385301388132053 -0.15124988379832499 0.047271309866677068 0.46871626178374798 0.051094742772395563 1.4447057058353794 -0.044621769604600951 0.0072666822421459647
leaf_weight=11157 299445 106498 114800 423297 2311 1585728 5210164
leaf_count=11157 299445 106498 114800 423297 2311 1585728 5210164
internal_value=0 0.0573316 0.409075 -0.0503697 -0.00794837 -0.0653145 0.00949925
internal_weight=0 944040 221298 722742 6.80936e+06 1.58804e+06 5.22132e+06
internal_count=7753400 944040 221298 722742 6809360 1588039 5221321
shrinkage=0.65


Tree=99
num_leaves=8
num_cat=0
split_feature=10 10 4 10 4 10 3
split_gain=4552.55 34121.3 20721.6 18788.3 23855.4 23321.8 16702.2
threshold=10.103109143218957 10.927487250633716 40.788242500000003 7.8820878669015437 40.764815500000019 7.3315732352682339 -73.971266499999984
decision_type=2 2 2 2 2 2 2
left_child=3 6 -3 5 -5 -1 -2
right_child=1 2 -4 4 -6 -7 -8
leaf_value=-0.0025079949461916783 2.0738434567011499 0.050936262620822001 -0.59306074861188984 -0.65176668530145465 0.022585061980539427 0.58219885853805708 0.55856448223946042
leaf_weight=7205612 3478 377798 22359 42608 46191 28937 26417
leaf_count=7205612 3478 377798 22359 42608 46191 28937 26417
internal_value=0 0.0999943 0.0230039 -0.00587201 -0.463055 -0.000260406 1.13054
internal_weight=0 430052 400157 7.32335e+06 88799 7.23455e+06 29895
internal_count=7753400 430052 400157 7323348 88799 7234549 29895
shrinkage=0.65


Tree=100
num_leaves=8
num_cat=0
split_feature=1 4 3 2 4 1 2
split_gain=3635.79 18546 25724.4 22594.3 7526.17 26237.5 12709
threshold=-73.947841499999996 40.748260749023451 -73.859741105468729 40.688775054443362 40.789149000000002 -73.980956499999976 40.793861000000007
decision_type=2 2 2 2 2 2 2
left_child=4 3 -3 -2 6 -6 -1
right_child=1 2 -4 -5 5 -7 -8
leaf_value=0.0055551717023090428 0.072817159318122424 0.0085996013691299663 0.98413713634205158 -0.37471792145102872 -0.27756879533711992 0.046195625877353104 0.22670526893309725
leaf_weight=6665753 76445 313667 11852 126585 171426 276043 111629
leaf_count=6665753 76445 313667 11852 126585 171426 276043 111629
internal_value=0 -0.0800617 0.0678746 -0.317249 0.00585708 -0.119752 0.0141503
internal_weight=0 528549 325519 203030 7.22485e+06 447469 6.77738e+06
internal_count=7753400 528549 325519 203030 7224851 447469 6777382
shrinkage=0.65


Tree=101
num_leaves=8
num_cat=0
split_feature=2 1 3 3 4 3 10
split_gain=4252.05 18790.6 18653.9 14748.9 6544.95 19149.6 8270.16
threshold=40.786659000000007 -73.919695999999973 -73.957417499999991 -73.995293999999987 40.799273500000005 -1.0000000180025095e-35 3.6014746325298197
decision_type=2 2 2 2 2 2 2
left_child=4 3 -3 -2 6 -6 -1
right_child=1 2 -4 -5 5 -7 -8
leaf_value=-0.0095252861070710109 -0.52335991881528776 -3.4688279028071003 -0.63988058151724214 -0.014389719703287595 0.12139248332247678 -15.780646169558167 0.049835545508769785
leaf_weight=5934673 25623 1187 5781 393038 202533 32 1190533
leaf_count=5934673 25623 1187 5781 393038 202533 32 1190533
internal_value=0 -0.0971681 -1.72583 -0.0700613 0.00564395 0.182893 0.000604874
internal_weight=0 425629 6968 418661 7.32777e+06 202565 7.12521e+06
internal_count=7753400 425629 6968 418661 7327771 202565 7125206
shrinkage=0.65


Tree=102
num_leaves=8
num_cat=0
split_feature=10 9 6 8 8 3 11
split_gain=4259.93 10837.8 29885.9 18581.5 7714.34 9420.24 5313.92
threshold=1.0575669088597019 7.5000000000000009 2012.5000000000002 6.5000000000000009 5.5000000000000009 -74.022767499999972 24.117057527089006
decision_type=2 2 2 2 2 2 2
left_child=4 2 -2 -3 6 -6 -1
right_child=1 3 -4 -5 5 -7 -8
leaf_value=-0.015495998328445334 0.016510250345287945 0.02005859328834772 -0.21035187119016796 -0.11314815304333871 -1.571144135268207 0.085127410104506612 0.078423989817985748
leaf_weight=1524984 643881 3706936 396372 502405 1454 671855 305513
leaf_count=1524984 643881 3706936 396372 502405 1454 671855 305513
internal_value=0 -0.016188 -0.107588 0.00639959 0.0339405 0.125463 0.000276006
internal_weight=0 5.24959e+06 1.04025e+06 4.20934e+06 2.50381e+06 673309 1.8305e+06
internal_count=7753400 5249594 1040253 4209341 2503806 673309 1830497
shrinkage=0.65


Tree=103
num_leaves=8
num_cat=0
split_feature=9 8 3 8 11 4 3
split_gain=3536.81 8745.28 6854.56 5083.51 3769.76 19700.6 5278.25
threshold=22.500000000000004 4.5000000000000009 -74.022767499999972 6.5000000000000009 24.98507249135864 40.771411000000008 -1.0000000180025095e-35
decision_type=2 2 2 2 2 2 2
left_child=4 2 -2 -3 6 -6 -1
right_child=1 3 -4 -5 5 -7 -8
leaf_value=0.0063147844913656976 1.4101466386424053 0.098550222172228905 -0.16166549606149394 -0.1766136646603722 -0.099670715237499638 1.5888370680238986 -0.62827611025934382
leaf_weight=7131532 1179 143477 203488 35357 229868 2957 5542
leaf_count=7131532 1179 143477 203488 35357 229868 2957 5542
internal_value=0 -0.0936283 -0.234786 0.06792 0.00487206 -0.120347 0.00895695
internal_weight=0 383501 204667 178834 7.3699e+06 232825 7.13707e+06
internal_count=7753400 383501 204667 178834 7369899 232825 7137074
shrinkage=0.65


Tree=104
num_leaves=8
num_cat=0
split_feature=4 2 10 10 3 4 1
split_gain=4408.9 18100.4 28109 12548.1 6581.96 51085.2 8156.7
threshold=40.715292500000011 40.756390500000009 9.3899388135032797 6.8630415331261441 -73.942186499999977 40.76554500000001 -74.008529831542972
decision_type=2 2 2 2 2 2 2
left_child=1 3 -3 -1 6 -6 -2
right_child=4 2 -4 -5 5 -7 -8
leaf_value=-0.049021473257182265 -0.13320780568503221 0.43039561661012371 -0.13732023411389194 0.22104441147172882 -0.40243304034725108 0.076768840387569162 0.0039690874241400144
leaf_weight=472492 188516 108670 55752 85904 141298 280733 6420035
leaf_count=472492 188516 108670 55752 85904 141298 280733 6420035
internal_value=0 0.0743704 0.365993 -0.011499 -0.00764606 -0.128723 8.6107e-05
internal_weight=0 722818 164422 558396 7.03058e+06 422031 6.60855e+06
internal_count=7753400 722818 164422 558396 7030582 422031 6608551
shrinkage=0.65


Tree=105
num_leaves=8
num_cat=0
split_feature=4 2 10 2 1 10 2
split_gain=4633.53 73106.8 84018.4 34348.5 35729.4 23469.6 16594.3
threshold=40.775658500000013 40.767310500000008 1.3934533102923334 40.768269292602547 -73.961565999999991 0.028671006058198775 40.758525424194339
decision_type=2 2 2 2 2 2 2
left_child=3 2 -2 6 -5 -3 -1
right_child=1 5 -4 4 -6 -7 -8
leaf_value=0.0031461795688688663 0.62991674340521453 1.2769979513998431 0.010748966079012923 0.22775905211103203 0.0011504908822059657 -0.18484091179570405 -0.087051158247185664
leaf_weight=4215606 116581 4671 450032 553060 627504 702725 1083221
leaf_count=4215606 116581 4671 450032 553060 627504 702725 1083221
internal_value=0 -0.0551304 0.212528 0.01084 0.165092 -0.26952 -0.023527
internal_weight=0 1.27401e+06 566613 6.47939e+06 1.18056e+06 707396 5.29883e+06
internal_count=7753400 1274009 566613 6479391 1180564 707396 5298827
shrinkage=0.65


Tree=106
num_leaves=8
num_cat=0
split_feature=3 4 11 1 6 4 2
split_gain=4585.98 38772.4 96112.6 22914.3 10875 31232.9 8660.09
threshold=-73.965295499999982 40.748260749023451 19.442863864328867 -73.962327499999986 2013.5000000000002 40.810591500000008 40.779770500000005
decision_type=2 2 2 2 2 2 2
left_child=4 2 -2 -3 6 -6 -1
right_child=1 3 -4 -5 5 -7 -8
leaf_value=-0.015511452286118227 0.011334952795843371 -0.074937144153828808 0.74956964946478166 0.090619589282269472 0.042574533843155432 5.7305750866164908 -0.11999749513788836
leaf_weight=4200713 268662 1018527 103106 540738 1257044 408 364202
leaf_count=4200713 268662 1018527 103106 540738 1257044 408 364202
internal_value=0 0.0422304 0.332426 -0.0269595 -0.014006 0.0683386 -0.0366887
internal_weight=0 1.93103e+06 371768 1.55926e+06 5.82237e+06 1.25745e+06 4.56492e+06
internal_count=7753400 1931033 371768 1559265 5822367 1257452 4564915
shrinkage=0.65


Tree=107
num_leaves=8
num_cat=0
split_feature=3 1 2 1 2 4 4
split_gain=6564.98 8254.23 17317.4 14109.9 4130.46 12168.4 10879.1
threshold=-1.0000000180025095e-35 -74.016147499999988 40.654205000000012 -74.01156349999998 40.643697500000009 40.636024500000012 40.636024500000012
decision_type=2 2 2 2 2 2 2
left_child=4 2 -2 -3 5 -1 -6
right_child=1 3 -4 -5 6 -7 -8
leaf_value=-1.0830985758193963 -10.669920135718403 -8.9784331767331995 5.3171974666071717 -0.52103638305420141 0.43193800611749783 -0.053279745150199127 0.00035040022363282472
leaf_weight=5781 33 84 216 10682 24756 30028 7681820
leaf_count=5781 33 84 216 10682 24756 30028 7681820
internal_value=0 -0.771464 4.92065 -0.903114 0.00109755 -0.337744 0.002672
internal_weight=0 11015 249 10766 7.74238e+06 35809 7.70658e+06
internal_count=7753400 11015 249 10766 7742385 35809 7706576
shrinkage=0.65


Tree=108
num_leaves=8
num_cat=0
split_feature=4 1 2 3 2 10 11
split_gain=4311.6 31188.2 39041 19866.5 13233.4 50403.3 28760.2
threshold=40.735703998017506 -73.977307499999981 40.745678500000018 -73.979765499999985 40.727092371459968 1.3934533102923334 22.574232201302085
decision_type=2 2 2 2 2 2 2
left_child=1 2 -1 -3 5 -2 -6
right_child=4 3 -4 -5 6 -7 -8
leaf_value=-0.040965627042904053 0.47600021738989767 -0.26455569500738507 0.20268876801246533 0.0034574238807793737 0.029729567136561656 0.0036780900706151441 -0.07610373997137361
leaf_weight=1076489 120615 317672 374502 184845 3683939 457655 1537683
leaf_count=1076489 120615 317672 374502 184845 3683939 457655 1537683
internal_value=0 -0.0406327 0.0337258 -0.255339 0.0136858 0.157222 -0.00221019
internal_weight=0 1.95351e+06 1.45099e+06 502517 5.79989e+06 578270 5.22162e+06
internal_count=7753400 1953508 1450991 502517 5799892 578270 5221622
shrinkage=0.65


Tree=109
num_leaves=8
num_cat=0
split_feature=10 2 10 2 10 3 11
split_gain=3956.04 7191.32 16212.8 6838.15 4070.49 3813.8 1763.7
threshold=0.50106937918363537 40.819575500000006 0.028671006058198775 40.786659000000007 0.58561576976303287 -73.972985499999979 0.52997194769622202
decision_type=2 2 2 2 2 2 2
left_child=1 3 -3 -1 6 -6 -2
right_child=4 2 -4 -5 5 -7 -8
leaf_value=0.034757495101150164 4.2286006715892563 -3.1197512353028829 -0.14959292850334685 0.31832442536693417 0.0095230369534444748 -0.022864457953866886 -0.087892857003197156
leaf_weight=751034 40 972 3860 37735 4335280 2379154 245325
leaf_count=751034 40 972 3860 37735 4335280 2379154 245325
internal_value=0 0.0668931 -1.14933 0.0743438 -0.00762759 -0.00300456 -0.134137
internal_weight=0 793601 4832 788769 6.9598e+06 6.71443e+06 245365
internal_count=7753400 793601 4832 788769 6959799 6714434 245365
shrinkage=0.65


Tree=110
num_leaves=8
num_cat=0
