tree
version=v3
num_class=1
num_tree_per_iteration=1
label_index=0
max_feature_idx=11
objective=regression
feature_names=pickup_longitude pickup_latitude dropoff_longitude dropoff_latitude passenger_count year month weekday hour distance JFK_distance invalid
feature_infos=[-740.133332:2439.8158969999999] [-3243.406665:1993.8806649999999] [-555.93240000000003:2054.0064769999999] [-2487.0200930000001:405.066667] [0:6] [2009:2015] [1:12] [1:7] [0:23] [2.9854343115168706e-05:17579.308423164726] [0.11127397429872375:15088.387610050158] [0:2]
tree_sizes=3206 3234 3243 3173

Tree=0
num_leaves=31
num_cat=0
split_feature=9 9 9 11 9 9 2 9 3 9 2 3 3 5 5 9 2 5 0 5 1 5 1 10 1 5 5 3 9 3
split_gain=1.41259e+09 2.50503e+08 1.34795e+08 7.92972e+07 3.79719e+07 3.58377e+07 2.52292e+07 1.78336e+07 1.48688e+07 1.39986e+07 1.39972e+07 1.3871e+07 1.13465e+07 1.04049e+07 9.8826e+06 7.28289e+06 7.04192e+06 6.52471e+06 6.4935e+06 6.28522e+06 5.53091e+06 5.4054e+06 4.41304e+06 3.91071e+06 3.18154e+06 3.16328e+06 3.10613e+06 2.59099e+06 2.53599e+06 2.44318e+06
threshold=7.8996982616165905 2.6548068359005312 16.462070866195013 1.0000000180025095e-35 4.320422882278165 1.3916066438811716 -74.025022499999977 0.028919073827979914 40.648741000000008 11.091391144488789 -74.025022499999977 40.698098500000008 40.704199500000009 2012.5000000000002 2012.5000000000002 0.81655956261356299 -74.025022499999977 2012.5000000000002 -73.793950999999979 2012.5000000000002 40.738145500000009 2012.5000000000002 40.754642243286135 4.9446872512782916 40.711750500000008 2012.5000000000002 2012.5000000000002 40.816317000000005 3.4263285361644926 40.816317000000005
decision_type=2 2 2 2 2 2 2 2 2 2 2 2 2 2 2 2 2 2 2 2 2 2 2 2 2 2 2 2 2 2
left_child=1 5 9 6 11 7 26 10 -6 25 -1 20 24 23 -11 -9 -10 28 -12 27 -3 -14 -20 -8 -7 -2 -4 -18 -13 -21
right_child=2 4 3 -5 8 12 13 15 16 14 18 17 21 -15 -16 -17 19 -19 22 29 -22 -23 -24 -25 -26 -27 -28 -29 -30 -31
leaf_value=43.290714889218087 19.773391734243297 14.516757821991124 46.689666529794337 14.547736816266188 25.849184984266738 10.538251660791124 34.286639438437732 7.9396118848603097 33.212020245491189 23.63879557857523 12.758713335118479 11.200817358379021 9.6144092102397742 38.942905926142778 28.207057796724346 8.8897976070045477 14.410814245360047 13.40016805962858 24.776850632185482 16.699594728161888 20.435585914321571 10.69899810126463 70.210225567018739 27.127324920991601 15.069607521048644 23.120116022610169 57.108652949631562 17.747749530768953 12.500510149824139 20.696248272495321
leaf_weight=7595 300187 149869 28192 73711 62812 89041 313309 6899863 9648 502612 102835 1579618 5211331 266498 332393 6734574 1127567 1557916 11968 695506 120205 3094141 977 35933 247242 198045 21165 107700 1059901 71243
leaf_count=7595 300187 149869 28192 73711 62812 89041 313309 6899863 9648 502612 102835 1579618 5211331 266498 332393 6734574 1127567 1557916 11968 695506 120205 3094141 977 35933 247242 198045 21165 107700 1059901 71243
internal_value=0 -1.80581 25.2228 36.0578 3.6381 -3.39575 39.5067 -4.39823 7.17363 19.2187 7.57055 1.99638 -1.79978 37.763 21.7217 -4.50653 6.70056 1.54942 4.84249 6.57067 8.94297 -2.03035 25.9502 34.1721 3.89478 15.0239 61.2604 5.17471 0.591569 8.81962
internal_weight=0 2.89416e+07 2.07204e+06 738808 6.54198e+06 2.23996e+07 665097 1.37578e+07 2.07448e+06 1.33324e+06 123375 4.46751e+06 8.64176e+06 615740 835005 1.36344e+07 2.01166e+06 4.19744e+06 115780 2.00202e+06 270074 8.30547e+06 12945 349242 336283 498232 49357 1.23527e+06 2.63952e+06 766749
internal_count=31013597 28941552 2072045 738808 6541985 22399567 665097 13757812 2074476 1333237 123375 4467509 8641755 615740 835005 13634437 2011664 4197435 115780 2002016 270074 8305472 12945 349242 336283 498232 49357 1235267 2639519 766749
shrinkage=1


Tree=1
num_leaves=31
num_cat=0
split_feature=9 9 10 2 3 1 1 3 10 1 9 3 1 1 3 2 3 2 3 3 3 5 3 10 10 10 5 5 3 1
split_gain=1.8209e+08 2.93271e+07 2.63378e+07 1.34151e+07 8.7047e+06 1.04512e+07 8.362e+06 5.67757e+06 5.55475e+06 3.53897e+06 3.3042e+06 3.11498e+06 4.85708e+06 3.04201e+06 2.91335e+06 2.79882e+06 2.75275e+06 3.01962e+06 2.54257e+06 2.46271e+06 2.27252e+06 2.23168e+06 2.2163e+06 2.05579e+06 1.89978e+06 1.8901e+06 1.69544e+06 1.63623e+06 1.62693e+06 1.51729e+06
threshold=5.9778830787422903 2.0289603233680169 4.9446872512782916 -74.025022499999977 40.723518500000004 40.723165500000007 40.747920494995128 40.855806500000014 12.614197940627164 40.693843000000008 19.273551995185613 40.723518500000004 40.744859500000011 40.723165500000007 40.745290500000003 -73.790005499999992 40.806955500000008 -74.016063499999987 40.672457500000007 40.672457500000007 40.774900500000008 2012.5000000000002 40.803065000000011 4.9446872512782916 12.614197940627164 25.926321690387304 2011.5000000000002 2011.5000000000002 40.756332198730476 40.794914000000013
decision_type=2 2 2 2 2 2 2 2 2 2 2 2 2 2 2 2 2 2 2 2 2 2 2 2 2 2 2 2 2 2
left_child=1 11 7 -4 6 9 18 10 15 -6 20 12 23 14 -13 26 17 -7 -3 -8 -2 -15 -10 -1 -18 -23 -5 -12 -11 -19
right_child=2 4 3 8 5 16 19 -9 22 28 27 13 -14 21 -16 -17 24 29 -20 -21 -22 25 -24 -25 -26 -27 -28 -29 -30 -31
leaf_value=4.0260676655104364 4.9107356641872588 2.9245106622581893 13.02970934488652 3.604611694582966 6.5722304712740245 11.483522883521479 7.3447876740428679 27.368216926679047 1.9096905142550133 0.99312385180662732 7.8685343393310392 -0.57445876220896719 2.3477931454079153 -1.2858854311588799 2.0854273084289749 15.190970017355303 10.931450563127292 -0.31129256986696718 0.023344669247838765 2.9550100461244941 11.848018122746536 -0.79414879324365528 4.5130698852359172 -0.70070922844305938 1.4820538985209055 16.954812588893489 5.2560838851391907 10.288350058358919 2.7828743814462302 1.3613977431672286
leaf_weight=39832 136183 150469 66633 467619 71717 9284 58077 6807 695725 464303 195521 652667 278178 10151224 237209 10511 9271 6026556 840889 768265 23375 6029387 172394 1618863 295742 2536 599180 298004 399001 238175
leaf_count=39832 136183 150469 66633 467619 71717 9284 58077 6807 695725 464303 195521 652667 278178 10151224 237209 10511 9271 6026556 840889 768265 23375 6029387 172394 1618863 295742 2536 599180 298004 399001 238175
internal_value=0 -0.743993 7.8916 6.0936 0.707887 0.232859 2.67157 13.3739 5.61572 3.36121 13.0744 -1.4567 -0.254877 -1.59305 0.207033 7.13258 -0.211747 -0.35437 0.713363 5.02082 9.11852 -1.69203 3.73335 -0.903385 2.72196 -1.21029 6.97258 14.3534 2.80048 -0.381076
internal_weight=0 2.83416e+07 2.67195e+06 2.01206e+06 9.33175e+06 7.51405e+06 1.8177e+06 659890 1.94543e+06 935021 653083 1.90099e+07 1.93687e+06 1.7073e+07 889876 1.07731e+06 6.57903e+06 6.27402e+06 991358 826342 159558 1.61831e+07 868119 1.6587e+06 305013 6.03192e+06 1.0668e+06 493525 863304 6.26473e+06
internal_count=31013597 28341645 2671952 2012062 9331749 7514049 1817700 659890 1945429 935021 653083 19009896 1936873 17073023 889876 1077310 6579028 6274015 991358 826342 159558 16183147 868119 1658695 305013 6031923 1066799 493525 863304 6264731
shrinkage=0.65


Tree=2
num_leaves=31
num_cat=0
split_feature=9 9 9 5 11 8 2 3 3 2 1 1 3 1 3 9 9 9 10 8 9 2 3 1 10 8 9 10 5 2
split_gain=2.34596e+07 4.46323e+06 3.54267e+06 2.80979e+06 2.42835e+06 2.11538e+06 2.0337e+06 1.88608e+06 1.84397e+06 2.43207e+06 1.63761e+06 1.56806e+06 1.22453e+06 1.34382e+06 1.22396e+06 2.23578e+06 1.24186e+06 1.25773e+06 1.24143e+06 1.21389e+06 1.16302e+06 1.1882e+06 1.28292e+06 1.13836e+06 1.62912e+06 1.07835e+06 1.03896e+06 1.02546e+06 1.00284e+06 963652
threshold=5.3610945802201924 13.251894015023867 1.7883431529645584 2011.5000000000002 1.0000000180025095e-35 6.5000000000000009 -74.025022499999977 40.855806500000014 40.711237930541998 -74.025022499999977 40.727972500000007 40.710671500000011 40.672457500000007 40.723165500000007 40.855806500000014 0.028919073827979914 0.54608281260844926 0.11218436826609637 21.324138088358684 18.500000000000004 21.080275507250992 -74.025022499999977 40.711237930541998 40.816020482788097 10.157272047979761 7.5000000000000009 3.3355390221085686 15.952413121193372 2011.5000000000002 -74.025022499999977
decision_type=2 2 2 2 2 2 2 2 2 2 2 2 2 2 2 2 2 2 2 2 2 2 2 2 2 2 2 2 2 2
left_child=2 5 6 -4 7 -2 -1 20 10 -10 -5 -11 13 -7 16 -16 17 -8 -18 -14 -3 22 -22 24 -23 -13 -27 29 -20 -6
right_child=1 4 3 8 27 12 14 -9 9 11 -12 25 19 -15 15 -17 18 -19 28 -21 21 23 -24 -25 -26 26 -28 -29 -30 -31
leaf_value=5.6516837478929238 0.014616473474595919 2.3210929183100206 -0.25077770155795115 0.076151065546544397 58.045578344553711 -0.3959088056180291 0.72028746457514536 9.7747346164972289 14.619046988720399 1.9067916666086058 2.3109180074078921 -0.43355291629816306 1.8868357130988276 6.256798757382823 28.71019583685398 2.0928701241224577 -0.66134078717421707 -0.81680171927479661 -0.39885665598672271 0.62063876208322921 6.5532124543324439 3.4257473884626073 24.040204188316444 -8.2595040621206586 19.574283384357596 0.14816054712118013 0.90600559964569194 -1.6245044221165985 0.001405964222378052 5.4038526554824529
leaf_weight=23677 528805 585918 4950691 217814 150 17996 240710 17205 5001 238087 380645 924609 845497 44674 1681 6446 2968589 3427357 4970347 514585 28985 378371 1888 3487 2658 2927271 1034378 66862 5652053 7160
leaf_count=23677 528805 585918 4950691 217814 150 17996 240710 17205 5001 238087 380645 924609 845497 44674 1681 6446 2968589 3427357 4970347 514585 28985 378371 1888 3487 2658 2927271 1034378 66862 5652053 7160
internal_value=0 2.63625 -0.286935 0.165939 4.25443 1.73022 -0.566621 4.65673 0.642832 0.449025 2.30393 0.427514 2.36495 6.68683 -0.57932 11.6899 -0.585097 -1.10144 -0.445743 2.1658 4.47835 5.75832 11.7271 5.27909 5.44369 0.305406 0.532357 -1.2698 -0.285972 9.97546
internal_weight=0 3.04424e+06 2.79694e+07 1.06785e+07 1.09268e+06 1.95156e+06 1.72909e+07 1.01851e+06 5.7278e+06 5.12935e+06 598459 5.12434e+06 1.42275e+06 62670 1.72672e+07 8127 1.72591e+07 3.66807e+06 1.3591e+07 1.36008e+06 1.00131e+06 415389 30873 384516 381029 4.88626e+06 3.96165e+06 74172 1.06224e+07 7310
internal_count=31013597 3044241 27969356 10678496 1092684 1951557 17290860 1018512 5727805 5129346 598459 5124345 1422752 62670 17267183 8127 17259056 3668067 13590989 1360082 1001307 415389 30873 384516 381029 4886258 3961649 74172 10622400 7310
shrinkage=0.65


Tree=3
num_leaves=31
num_cat=0
split_feature=3 0 2 3 1 8 3 1 8 9 3 1 2 5 5 2 3 1 10 2 3 1 1 1 2 9 9 5 9 7
split_gain=3.29201e+06 3.13838e+06 2.43091e+06 2.05863e+06 1.58815e+06 1.49885e+06 1.41001e+06 1.75048e+06 1.34034e+06 1.60694e+06 1.06286e+06 908734 807431 1.27182e+06 780185 726345 693786 1.79981e+06 691862 655672 621483 2.72828e+06 1.2922e+06 899892 592067 575884 573819 568627 730724 550890
threshold=40.66400500000001 -73.885502499999987 -74.025022499999977 40.825611000000002 40.693843000000008 7.5000000000000009 40.782169671020519 40.74905900000001 18.500000000000004 3.1317174353324342 40.751932500000002 40.783788000000008 -73.825900999999973 2012.5000000000002 2012.5000000000002 -73.953672499999982 40.788902500000013 40.767681560913097 12.614197940627164 -73.963731499999994 40.732900500000007 40.758592500000006 40.731316500000005 40.735428500000019 -74.003652499999987 11.091391144488789 2.0289603233680169 2012.5000000000002 19.273551995185613 5.5000000000000009
decision_type=2 2 2 2 2 2 2 2 2 2 2 2 2 2 2 2 2 2 2 2 2 2 2 2 2 2 2 2 2 2
left_child=4 5 -3 10 26 6 11 -8 9 19 24 -2 15 -14 -11 -5 18 -18 -10 29 21 23 -22 -20 -4 -15 -1 -6 -29 -7
right_child=1 2 3 12 27 8 7 -9 16 14 -12 -13 13 25 -16 -17 17 -19 20 -21 22 -23 -24 -25 -26 -27 -28 28 -30 -31
leaf_value=1.1100255490971356 -0.5569889073307408 18.293235790711613 1.9110073905802014 30.400320047126758 1.6020363821771171 0.17487247758117355 2.2204280360427711 -0.15438469761647841 -2.3080998719808901 0.32389813347010221 1.4494680777087174 0.8751126656136603 6.5147496519483434 17.483779978046293 1.1073418679882503 3.9891278515532527 1.6709376140669416 -0.57663147542629978 -0.68082835792401164 -0.30241028776386042 0.39087853070608608 1.7081584104857341 -0.48803882380848845 0.26330445305229666 -0.09877570761874678 41.404051746538165 -1.5152245484367401 4.6802814361046012 1.9418042215593645 -0.15627352775273476
leaf_weight=66821 4591702 3437 71356 446 227459 8282427 184081 455946 69192 1444534 551604 195161 4346 1045 854858 32381 279500 326230 993109 2145484 830638 352286 4738134 747633 468803 717 74282 75345 90758 2853882
leaf_count=66821 4591702 3437 71356 446 227459 8282427 184081 455946 69192 1444534 551604 195161 4346 1045 854858 32381 279500 326230 993109 2145484 830638 352286 4738134 747633 468803 717 74282 75345 90758 2853882
internal_value=0 -0.0431515 1.5891 1.50838 2.45988 -0.106236 -0.580696 0.813301 0.00141781 0.174576 1.25357 -0.76708 8.65351 19.2107 0.946405 6.68917 -0.322212 0.708395 -0.402961 0.0409544 -0.374533 0.0900268 -0.549138 -0.423587 0.256493 41.8731 -0.418471 3.49185 4.89844 0.138477
internal_weight=0 3.04789e+07 1.13414e+06 1.1307e+06 534665 2.93448e+07 5.42689e+06 640027 2.39179e+07 1.55812e+07 1.09176e+06 4.78686e+06 38935 6108 2.29939e+06 32827 8.33672e+06 605730 7.73099e+06 1.32818e+07 7.6618e+06 2.09303e+06 5.56877e+06 1.74074e+06 540159 1762 141103 393562 166103 1.11363e+07
internal_count=31013597 30478932 1134135 1130698 534665 29344797 5426890 640027 23917907 15581185 1091763 4786863 38935 6108 2299392 32827 8336722 605730 7730992 13281793 7661800 2093028 5568772 1740742 540159 1762 141103 393562 166103 11136309
shrinkage=0.65


end of trees

feature importances:
dropoff_latitude=26
distance=24
pickup_latitude=20
dropoff_longitude=15
year=15
JFK_distance=10
hour=5
pickup_longitude=2
invalid=2
weekday=1

parameters:
[boosting: gbdt]
[objective: regression]
[metric: rmse]
[tree_learner: serial]
[device_type: cpu]
[data: ]
[valid: ]
[num_iterations: 100]
[learning_rate: 0.65]
[num_leaves: 31]
[num_threads: 0]
[max_depth: -1]
[min_data_in_leaf: 20]
[min_sum_hessian_in_leaf: 0.001]
[bagging_fraction: 1]
[pos_bagging_fraction: 1]
[neg_bagging_fraction: 1]
[bagging_freq: 0]
[bagging_seed: 3]
[feature_fraction: 1]
[feature_fraction_bynode: 1]
[feature_fraction_seed: 2]
[early_stopping_round: 0]
[first_metric_only: 0]
[max_delta_step: 0]
[lambda_l1: 0]
[lambda_l2: 0]
[min_gain_to_split: 0]
[drop_rate: 0.1]
[max_drop: 50]
[skip_drop: 0.5]
[xgboost_dart_mode: 0]
[uniform_drop: 0]
[drop_seed: 4]
[top_rate: 0.2]
[other_rate: 0.1]
[min_data_per_group: 100]
[max_cat_threshold: 32]
[cat_l2: 10]
[cat_smooth: 10]
[max_cat_to_onehot: 4]
[top_k: 20]
[monotone_constraints: ]
[feature_contri: ]
[forcedsplits_filename: ]
[forcedbins_filename: ]
[refit_decay_rate: 0.9]
[cegb_tradeoff: 1]
[cegb_penalty_split: 0]
[cegb_penalty_feature_lazy: ]
[cegb_penalty_feature_coupled: ]
[verbosity: -1]
[max_bin: 255]
[max_bin_by_feature: ]
[min_data_in_bin: 3]
[bin_construct_sample_cnt: 200000]
[histogram_pool_size: -1]
[data_random_seed: 1]
[output_model: LightGBM_model.txt]
[snapshot_freq: -1]
[input_model: ]
[output_result: LightGBM_predict_result.txt]
[initscore_filename: ]
[valid_data_initscores: ]
[pre_partition: 0]
[enable_bundle: 1]
[max_conflict_rate: 0]
[is_enable_sparse: 1]
[sparse_threshold: 0.8]
[use_missing: 1]
[zero_as_missing: 0]
[two_round: 0]
[save_binary: 0]
[header: 0]
[label_column: ]
[weight_column: ]
[group_column: ]
[ignore_column: ]
[categorical_feature: ]
[predict_raw_score: 0]
[predict_leaf_index: 0]
[predict_contrib: 0]
[num_iteration_predict: -1]
[pred_early_stop: 0]
[pred_early_stop_freq: 10]
[pred_early_stop_margin: 10]
[convert_model_language: ]
[convert_model: gbdt_prediction.cpp]
[num_class: 1]
[is_unbalance: 0]
[scale_pos_weight: 1]
[sigmoid: 1]
[boost_from_average: 1]
[reg_sqrt: 0]
[alpha: 0.9]
[fair_c: 1]
[poisson_max_delta_step: 0.7]
[tweedie_variance_power: 1.5]
[max_position: 20]
[lambdamart_norm: 1]
[label_gain: ]
[metric_freq: 1]
[is_provide_training_metric: 0]
[eval_at: ]
[multi_error_top_k: 1]
[num_machines: 1]
[local_listen_port: 12400]
[time_out: 120]
[machine_list_filename: ]
[machines: ]
[gpu_platform_id: -1]
[gpu_device_id: -1]
[gpu_use_dp: 0]

end of parameters

pandas_categorical:[]
