tree
version=v3
num_class=1
num_tree_per_iteration=1
label_index=0
max_feature_idx=12
objective=regression
feature_names=pickup_longitude pickup_latitude dropoff_longitude dropoff_latitude year month weekday hour distance jfk_dist ewr_dist lga_dist invalid
feature_infos=[-736.54999999999995:40.803277000000001] [-74.013625000000005:403.23333200000002] [-1715.0333829999995:40.843530000000001] [-74.015159999999995:63.733331999999997] [2009:2015] [1:12] [1:7] [0:23] [0:17779.615828558755] [0.29275916548648845:15066.027398587898] [0.68700354565768318:15083.282374712182] [0.28999031478630749:15083.135756344565] [0:2]
tree_sizes=3209 3218

Tree=0
num_leaves=31
num_cat=0
split_feature=8 8 8 12 3 8 8 2 3 8 11 3 4 8 4 1 2 9 4 4 8 8 4 1 9 8 8 10 4 11
split_gain=1.56014e+09 2.67072e+08 1.52793e+08 8.70361e+07 4.29576e+07 3.86181e+07 3.48163e+07 2.83912e+07 1.65148e+07 1.64031e+07 1.52888e+07 1.44535e+07 1.1683e+07 1.13171e+07 1.11601e+07 8.2796e+06 7.49418e+06 6.98483e+06 6.92582e+06 6.86232e+06 6.16064e+06 7.65901e+06 5.85507e+06 5.71133e+06 5.58608e+06 4.13003e+06 8.80483e+06 3.70155e+06 3.50981e+06 3.36832e+06
threshold=7.7964295089501867 2.7173499106744767 16.35886494040782 1.0000000180025095e-35 40.704066500000003 4.2972439063417651 1.3787633036381119 -74.0268655 40.648299000000002 10.87654537831091 14.275572823006891 40.69787250000001 2012.5000000000002 0.026858979123262884 2012.5000000000002 40.721999500000003 -74.0268655 19.163384166453042 2012.5000000000002 2012.5000000000002 0.026858979123262884 0.78036294994252409 2012.5000000000002 40.738971000000006 8.7170598655479843 0.026858979123262884 1.0000000180025095e-35 12.853357321109275 2012.5000000000002 14.275572823006891
decision_type=10 8 10 2 8 10 10 10 10 10 2 8 2 10 2 2 10 2 2 2 8 10 2 2 2 10 10 2 2 2
left_child=1 4 9 7 13 11 10 28 -7 -2 20 23 24 27 -11 -15 -10 -8 -18 -13 -6 -22 -19 -3 -9 26 -12 -1 -4 -5
right_child=2 5 3 29 6 8 17 12 16 14 25 19 -14 15 -16 -17 18 22 -20 -21 21 -23 -24 -25 -26 -27 -28 -29 -30 -31
leaf_value=37.635735427485585 20.853936340488175 14.657191117387779 46.707398405480617 13.177432930036336 10.906649019260731 25.824528064014522 12.980419649486867 34.417499910778503 33.272586380068645 23.544617531396199 19.005584665735572 11.795475486244003 38.897136645151001 10.400128502614296 28.071918606189453 15.137396686701361 14.677437545541224 9.5663487623132326 17.026685542246103 13.486598062170769 7.8965492643477546 8.8343915937348374 10.632838099215048 20.571150751894642 26.919091389768035 12.200923271865033 46.694530020055581 17.426492614414649 57.256360743496053 26.125873236195702
leaf_weight=3898 535116 158293 30750 72699 421624 69569 335671 343753 10157 578597 17511 2738417 299102 371572 381880 268523 1385167 5856508 859001 1609725 7038903 7707775 3459795 122298 47814 12686 6712 217028 23517 9610
leaf_count=3898 535116 158293 30750 72699 421624 69569 335671 343753 10157 578597 17511 2738417 299102 371572 381880 268523 1385167 5856508 859001 1609725 7038903 7707775 3459795 122298 47814 12686 6712 217028 23517 9610
internal_value=0 -1.7804 25.0414 35.9465 -3.26698 3.71855 -3.50751 39.3561 7.04472 19.0095 -4.45044 2.04862 37.6256 3.67717 21.4814 1.54726 6.57642 -2.02208 6.45375 1.59973 -4.4999 -4.60766 -2.18355 9.0048 34.031 15.8774 23.5327 9.84822 61.3802 5.08848
internal_weight=0 3.26708e+07 2.32284e+06 827245 2.57182e+07 6.95263e+06 2.48572e+07 744936 2.32389e+06 1.49559e+06 1.52052e+07 4.62873e+06 690669 861021 960477 640095 2.25432e+06 9.65197e+06 2.24417e+06 4.34814e+06 1.51683e+07 1.47467e+07 9.3163e+06 280591 391567 36909 24223 220926 54267 82309
internal_count=34993671 32670833 2322838 827245 25718206 6952627 24857185 744936 2323894 1495593 15205211 4628733 690669 861021 960477 640095 2254325 9651974 2244168 4348142 15168302 14746678 9316303 280591 391567 36909 24223 220926 54267 82309
shrinkage=1


Tree=1
num_leaves=31
num_cat=0
split_feature=8 8 9 2 3 1 1 11 10 3 3 3 2 4 8 2 3 1 3 9 9 3 4 3 4 4 11 4 9 1
split_gain=2.02752e+08 3.19631e+07 3.07593e+07 1.4664e+07 8.89551e+06 1.0241e+07 9.06019e+06 7.78638e+06 7.7365e+06 6.18078e+06 5.91426e+06 5.0401e+06 4.16197e+06 3.40086e+06 3.35678e+06 3.268e+06 3.14683e+06 3.01126e+06 3.00677e+06 2.95079e+06 2.93049e+06 2.64008e+06 2.57653e+06 1.86379e+06 1.8038e+06 1.71246e+06 1.61284e+06 1.60953e+06 1.74474e+06 1.498e+06
threshold=5.8857277031055268 2.0276218626558915 8.7170598655479843 -74.0268655 40.723172500000011 40.72330487426759 40.748027900756846 1.4043280267033607 26.67380724068358 40.85926700000001 40.818276000000004 40.818276000000004 -74.0268655 2012.5000000000002 19.312255802854363 -74.016154214111296 40.671440124511726 40.694019000000004 40.85926700000001 18.568575688350816 21.919305988495289 40.774751500000008 2011.5000000000002 40.747324500000005 2011.5000000000002 2011.5000000000002 5.9606092200568428 2011.5000000000002 1.2464431839267751 40.694019000000004
decision_type=10 8 2 10 10 2 2 2 2 10 10 8 8 2 10 10 10 2 10 2 2 10 2 10 2 2 2 2 2 2
left_child=1 8 9 25 6 17 16 18 12 14 26 15 -1 -14 21 -7 29 -6 22 -8 -13 -2 -5 -19 -16 -4 -9 28 -10 -3
right_child=2 4 3 7 5 11 19 10 27 -11 -12 20 13 -15 24 -17 -18 23 -20 -21 -22 -23 -24 -25 -26 -27 -28 -29 -30 -31
leaf_value=6.2480500332373756 5.1638397904130642 -0.31109636536636504 9.4103488353596596 3.7165333991341347 5.8687217098034292 11.538635699517798 5.4529733257764086 0.96032834544560763 6.4791887899046019 28.189658327918906 5.8021277656997601 6.0135750247337567 -1.187865555901978 -0.65075695203125972 7.9327940053596189 -0.21364557326170658 -0.014108740719251523 0.37217741080536526 23.975750470793493 2.6044398080067568 0.98298282450787688 12.192087775958196 5.8152207828856728 2.3381889390717223 10.369069129327672 15.738120362901659 2.6091499450054889 3.8943486579698567 0.079483466464861957 4.328991215029963
leaf_weight=33639 156011 39419 32184 440605 81141 10011 197286 445447 20659 6863 194209 84681 13365352 7939395 212039 7093653 929722 291460 3501 694608 115868 26403 562916 676821 325511 41202 573174 144519 139764 115608
leaf_count=33639 156011 39419 32184 440605 81141 10011 197286 445447 20659 6863 194209 84681 13365352 7939395 212039 7093653 929722 291460 3501 694608 115868 26403 562916 676821 325511 41202 573174 144519 139764 115608
internal_value=0 -0.739776 7.83205 6.03537 0.707445 0.256051 2.61511 5.57559 -1.43053 13.5008 3.86902 -0.163632 -1.502 -1.51955 13.2161 -0.303205 0.673797 3.17714 7.63094 4.9762 4.7802 9.50942 7.52888 2.68678 14.474 19.9431 2.90479 3.57077 1.39019 4.84484
internal_weight=0 3.19736e+07 3.02006e+06 2.29324e+06 1.03303e+07 8.35364e+06 1.97664e+06 2.21985e+06 2.16433e+07 726827 1.21283e+06 7.30421e+06 2.13384e+07 2.13047e+07 719964 7.10366e+06 1.08475e+06 1.04942e+06 1.00702e+06 891894 200549 182414 1.00352e+06 968281 537550 73386 1.01862e+06 304942 160423 155027
internal_count=34993671 31973606 3020065 2293238 10330278 8353635 1976643 2219852 21643328 726827 1212830 7304213 21338386 21304747 719964 7103664 1084749 1049422 1007022 891894 200549 182414 1003521 968281 537550 73386 1018621 304942 160423 155027
shrinkage=0.65


end of trees

feature importances:
distance=14
dropoff_latitude=11
year=11
pickup_latitude=6
jfk_dist=6
dropoff_longitude=5
lga_dist=4
ewr_dist=2
invalid=1

parameters:
[boosting: gbdt]
[objective: regression]
[metric: rmse]
[tree_learner: serial]
[device_type: cpu]
[data: ]
[valid: ]
[num_iterations: 100]
[learning_rate: 0.65]
[num_leaves: 31]
[num_threads: 0]
[max_depth: -1]
[min_data_in_leaf: 20]
[min_sum_hessian_in_leaf: 0.001]
[bagging_fraction: 1]
[pos_bagging_fraction: 1]
[neg_bagging_fraction: 1]
[bagging_freq: 0]
[bagging_seed: 3]
[feature_fraction: 1]
[feature_fraction_bynode: 1]
[feature_fraction_seed: 2]
[early_stopping_round: 0]
[first_metric_only: 0]
[max_delta_step: 0]
[lambda_l1: 0]
[lambda_l2: 0]
[min_gain_to_split: 0]
[drop_rate: 0.1]
[max_drop: 50]
[skip_drop: 0.5]
[xgboost_dart_mode: 0]
[uniform_drop: 0]
[drop_seed: 4]
[top_rate: 0.2]
[other_rate: 0.1]
[min_data_per_group: 100]
[max_cat_threshold: 32]
[cat_l2: 10]
[cat_smooth: 10]
[max_cat_to_onehot: 4]
[top_k: 20]
[monotone_constraints: ]
[feature_contri: ]
[forcedsplits_filename: ]
[forcedbins_filename: ]
[refit_decay_rate: 0.9]
[cegb_tradeoff: 1]
[cegb_penalty_split: 0]
[cegb_penalty_feature_lazy: ]
[cegb_penalty_feature_coupled: ]
[verbosity: -1]
[max_bin: 255]
[max_bin_by_feature: ]
[min_data_in_bin: 3]
[bin_construct_sample_cnt: 200000]
[histogram_pool_size: -1]
[data_random_seed: 1]
[output_model: LightGBM_model.txt]
[snapshot_freq: -1]
[input_model: ]
[output_result: LightGBM_predict_result.txt]
[initscore_filename: ]
[valid_data_initscores: ]
[pre_partition: 0]
[enable_bundle: 1]
[max_conflict_rate: 0]
[is_enable_sparse: 1]
[sparse_threshold: 0.8]
[use_missing: 1]
[zero_as_missing: 0]
[two_round: 0]
[save_binary: 0]
[header: 0]
[label_column: ]
[weight_column: ]
[group_column: ]
[ignore_column: ]
[categorical_feature: ]
[predict_raw_score: 0]
[predict_leaf_index: 0]
[predict_contrib: 0]
[num_iteration_predict: -1]
[pred_early_stop: 0]
[pred_early_stop_freq: 10]
[pred_early_stop_margin: 10]
[convert_model_language: ]
[convert_model: gbdt_prediction.cpp]
[num_class: 1]
[is_unbalance: 0]
[scale_pos_weight: 1]
[sigmoid: 1]
[boost_from_average: 1]
[reg_sqrt: 0]
[alpha: 0.9]
[fair_c: 1]
[poisson_max_delta_step: 0.7]
[tweedie_variance_power: 1.5]
[max_position: 20]
[lambdamart_norm: 1]
[label_gain: ]
[metric_freq: 1]
[is_provide_training_metric: 0]
[eval_at: ]
[multi_error_top_k: 1]
[num_machines: 1]
[local_listen_port: 12400]
[time_out: 120]
[machine_list_filename: ]
[machines: ]
[gpu_platform_id: -1]
[gpu_device_id: -1]
[gpu_use_dp: 0]

end of parameters

pandas_categorical:[]
