tree
version=v3
num_class=1
num_tree_per_iteration=1
label_index=0
max_feature_idx=11
objective=regression
feature_names=pickup_longitude pickup_latitude dropoff_longitude dropoff_latitude passenger_count year month weekday hour distance JFK_distance invalid
feature_infos=[-2577.993688:469.86985199999998] [-3050.4625620000002:2603.4833120000008] [-787.98333200000002:2161.5491149999998] [-3240.5988280000001:53.855201000000001] [0:6] [2009:2015] [1:12] [1:7] [0:23] [3.0650132350374427e-05:9524.1251289798129] [0.10737414454650474:16151.939919171462] [0:2]
tree_sizes=3211 3215 3236 3172 3091 3110 3171

Tree=0
num_leaves=31
num_cat=0
split_feature=9 9 9 11 9 9 2 9 3 9 3 2 5 3 5 9 2 0 5 5 1 5 1 1 10 5 5 2 3 9
split_gain=1.41404e+09 2.50571e+08 1.35581e+08 7.90941e+07 3.81133e+07 3.52848e+07 2.46372e+07 1.81813e+07 1.47276e+07 1.42244e+07 1.39853e+07 1.35714e+07 1.04248e+07 1.02264e+07 1.01589e+07 7.20354e+06 7.08276e+06 6.52228e+06 6.48084e+06 6.29216e+06 5.53742e+06 5.43638e+06 4.37535e+06 3.67767e+06 3.5923e+06 3.13222e+06 3.0472e+06 2.62775e+06 2.6083e+06 2.56297e+06
threshold=7.8844315983501509 2.6471813148105601 16.552334020526494 1.0000000180025095e-35 4.3109523814024522 1.3873267988285793 -74.019688999999985 0.026744864539396684 40.648626000000007 10.975314081285591 40.697798500000012 -74.019688999999985 2012.5000000000002 40.706614000000009 2012.5000000000002 0.82217558539331648 -74.019688999999985 -73.803218499999986 2012.5000000000002 2012.5000000000002 40.738930500000009 2012.5000000000002 40.759159500000003 40.735683500000007 5.2387444076692136 2012.5000000000002 2012.5000000000002 -74.019688999999985 40.817027000000003 3.368095582521375
decision_type=2 2 2 2 2 2 2 2 2 2 2 2 2 2 2 2 2 2 2 2 2 2 2 2 2 2 2 2 2 2
left_child=1 5 9 6 10 7 25 11 -6 26 20 -1 24 23 -11 -9 -10 -13 29 28 -3 -15 -19 -7 -8 -4 -2 -20 -18 -12
right_child=2 4 3 -5 8 13 12 15 16 14 18 17 -14 21 -16 -17 19 22 27 -21 -22 -23 -24 -25 -26 -27 -28 -29 -30 -31
leaf_value=42.504501658313529 19.666774258667616 14.573203764239173 46.405116406109471 14.72349944002632 25.786746015427475 11.888565249123548 34.253987440720337 7.9462452669942021 32.735334064957357 23.596097581882127 11.158597898850186 12.789764860547528 38.995727154174745 9.59449012080443 28.164981177361398 8.8928096673668495 14.402144552759545 24.787266374937857 37.523485022944065 17.053401486171051 20.51999883243349 10.685033839152005 69.827162229889851 16.039993846713131 27.072739780049677 56.754512729266182 23.009094111895777 13.354952443683629 17.781850352543145 12.448146146922786
leaf_weight=7888 289452 151601 28514 74489 62847 244904 314501 6977244 10239 517023 1507144 98755 265099 5185466 341374 6619448 1134798 12328 1903 771760 117377 3077509 984 142686 32469 21802 191491 1560518 105442 1146542
leaf_count=7888 289452 151601 28514 74489 62847 244904 314501 6977244 10239 517023 1507144 98755 265099 5185466 341374 6619448 1134798 12328 1903 771760 117377 3077509 984 142686 32469 21802 191491 1560518 105442 1146542
internal_value=0 -1.80868 25.2086 36.1032 3.62074 -3.40352 39.5775 -4.40096 7.15317 19.2147 1.97853 7.85638 37.8289 -1.82195 21.654 -4.5091 6.68464 5.03444 1.53252 6.55114 8.96967 -2.05743 25.8132 3.19826 34.2215 60.8485 14.8609 3.14831 5.15614 0.581179
internal_weight=0 2.89374e+07 2.07621e+06 736874 6.57017e+06 2.23672e+07 662385 1.37166e+07 2.08509e+06 1.33934e+06 4.48508e+06 119955 612069 8.65056e+06 858397 1.35967e+07 2.02224e+06 112067 4.21611e+06 2.012e+06 268978 8.26298e+06 13312 387590 346970 50316 480943 1.56242e+06 1.24024e+06 2.65369e+06
internal_count=31013597 28937383 2076214 736874 6570171 22367212 662385 13716647 2085086 1339340 4485085 119955 612069 8650565 858397 13596692 2022239 112067 4216107 2012000 268978 8262975 13312 387590 346970 50316 480943 1562421 1240240 2653686
shrinkage=1


Tree=1
num_leaves=31
num_cat=0
split_feature=9 9 9 11 3 1 1 9 8 1 3 3 1 1 3 2 3 3 5 10 5 5 3 2 10 10 10 3 2 8
split_gain=1.83182e+08 2.86542e+07 2.61382e+07 9.18786e+06 7.75276e+06 1.01708e+07 8.13378e+06 3.89611e+06 3.83153e+06 3.59487e+06 3.50021e+06 3.2309e+06 4.73513e+06 3.16766e+06 2.84356e+06 2.78437e+06 2.74564e+06 2.51756e+06 2.47709e+06 2.35075e+06 2.21541e+06 2.10881e+06 4.24985e+06 1.97976e+06 1.94275e+06 1.89444e+06 1.87482e+06 1.79672e+06 1.73894e+06 1.73342e+06
threshold=5.9436278218111598 2.0411605133291357 14.860821010299473 1.0000000180025095e-35 40.723631500000003 40.722833500000007 40.748167500000008 19.354887516992175 6.5000000000000009 40.694785500000002 40.807270500000008 40.724187500000006 40.747871199462899 40.722833500000007 40.672178500000008 -74.019688999999985 40.745502500000008 40.672178500000008 2011.5000000000002 12.630988883786587 2012.5000000000002 2011.5000000000002 40.855647298339854 -74.019688999999985 11.510980226936445 5.2387444076692136 25.904732236283149 40.712302500000014 -74.019688999999985 18.500000000000004
decision_type=2 2 2 2 2 2 2 2 2 2 2 2 2 2 2 2 2 2 2 2 2 2 2 2 2 2 2 2 2 2
left_child=1 11 8 7 6 9 14 -4 -2 -6 23 12 25 16 -3 27 -13 -8 -10 -5 -15 -17 -23 -7 -12 -1 -22 -9 -20 -30
right_child=2 4 3 19 5 10 17 15 18 -11 24 13 -14 20 -16 21 -18 -19 28 -21 26 22 -24 -25 -26 -27 -28 -29 29 -31
leaf_value=3.8729515930258391 2.1167217813690926 3.047675796875033 6.5684711409300354 13.261998409548045 6.5283627839776601 9.6527299614267861 7.34936294327923 13.616363155185391 3.2993118374387969 1.8127955756230394 11.925343832044872 -0.51100802019084546 2.5611029765038005 -1.2829207718228133 -0.055728337794908801 7.6583387463354731 2.1555120061893671 2.8627641801561001 15.146502284380809 0.093052338248841196 -0.79340292270832513 10.211696638581181 46.764355327403109 -0.24209542469680168 1.7757193699891967 -0.62803894773007451 16.831610328229512 30.342474939709394 5.6883111029073792 3.6315817685324565
leaf_weight=40409 461002 146448 241689 6250 74417 8555 56770 39420 604560 831398 8194 609923 237097 10168743 841612 202354 222724 763517 7153 68447 6039309 296678 1350 6209291 288760 1773129 2551 2914 491714 267219
leaf_count=40409 461002 146448 241689 6250 74417 8555 56770 39420 604560 831398 8194 609923 237097 10168743 841612 202354 222724 763517 7153 68447 6039309 296678 1350 6209291 288760 1773129 2551 2914 491714 267219
internal_value=0 -0.749089 7.88491 12.4358 0.697671 0.245219 2.55432 13.445 5.75038 3.38493 -0.191325 -1.44837 -0.262479 -1.59106 0.621925 14.9323 0.311165 4.88195 6.58917 1.83833 -1.68877 14.2734 15.965 -0.35151 3.16274 -0.811921 -1.20917 22.7195 7.78341 7.63714
internal_weight=0 2.83228e+07 2.69075e+06 859102 9.22896e+06 7.42062e+06 1.80835e+06 784405 1.83165e+06 905815 6.5148e+06 1.90939e+07 2.05064e+06 1.70432e+07 988060 542716 832647 820287 1.37065e+06 74697 1.62106e+07 500382 298028 6.21785e+06 296954 1.81354e+06 6.04186e+06 42334 766086 758933
internal_count=31013597 28322847 2690750 859102 9228962 7420615 1808347 784405 1831648 905815 6514800 19093885 2050635 17043250 988060 542716 832647 820287 1370646 74697 16210603 500382 298028 6217846 296954 1813538 6041860 42334 766086 758933
shrinkage=0.65


Tree=2
num_leaves=31
num_cat=0
split_feature=9 9 3 0 5 2 10 2 9 5 3 3 9 3 1 9 10 3 1 1 3 2 3 2 2 2 8 2 10 3
split_gain=2.57345e+07 5.52984e+06 3.90234e+06 5.2092e+06 2.63438e+06 2.45733e+06 2.89785e+06 2.22487e+06 1.88397e+06 1.82162e+06 1.79882e+06 1.69693e+06 1.66938e+06 1.66573e+06 2.15467e+06 1.29783e+06 1.28678e+06 1.21782e+06 1.6279e+06 1.52247e+06 1.19624e+06 1.47252e+06 1.07831e+06 2.57636e+06 1.31552e+06 1.0694e+06 982803 970117 907275 956493
threshold=9.3141282781141772 3.1618503417979706 40.855647298339854 -73.929911499999974 2011.5000000000002 -74.019688999999985 1.3836935456714901 -74.019688999999985 0.58538530643674469 2011.5000000000002 40.840446500000006 40.855647298339854 0.026744864539396684 40.683303000000009 40.702683500000013 0.1049323372168255 12.630988883786587 40.713699000000013 40.707657500000003 40.721499000000001 40.664331000000011 -73.860996 40.734235500000004 -73.825803499999992 -73.977562499999991 -74.019688999999985 7.5000000000000009 -73.945946869873026 21.237806813331698 40.751567500000007
decision_type=2 2 2 2 2 2 2 2 2 2 2 2 2 2 2 2 2 2 2 2 2 2 2 2 2 2 2 2 2 2
left_child=1 7 5 -4 -3 -2 22 -1 11 -10 13 15 -13 14 -6 -9 20 19 -19 -11 -8 -22 23 24 -7 -15 -20 -12 29 -28
right_child=2 4 3 -5 10 6 16 8 9 17 27 12 -14 25 -16 -17 -18 18 26 -21 21 -23 -24 -25 -26 -27 28 -29 -30 -31
leaf_value=5.1195559445659846 6.3699583033663485 -0.038945598033291069 4.9863537336221748 22.992815651296773 -2.4762741618953039 2.3019554880249009 5.3348959784872596 0.81364724533237498 -0.40993248411764477 -0.37560474716734654 24.428675837909765 28.082473500555224 2.5363429557479513 8.1787233097746768 4.0418480074539076 -0.78431220648358446 -0.23117070908991086 2.0259434490488029 -0.57082921229092465 1.7070382567180125 1.9142038669043961 -0.5670638777695387 4.414243176277675 4.0910124377171941 -1.9741065905652067 0.67166143603343398 0.97750468622002007 3.7335596101653863 0.11831052695249772 -0.48753713087962347
leaf_weight=32251 57968 2223326 36136 8358 25865 62547 38354 227239 9383154 248181 969 1680 3030 8044 124881 3903935 155535 153901 1601545 368501 904842 113755 225575 181122 59138 2415161 206485 77322 6029047 2135750
leaf_count=32251 57968 2223326 36136 8358 25865 62547 38354 227239 9383154 248181 969 1680 3030 8044 124881 3903935 155535 153901 1601545 368501 904842 113755 225575 181122 59138 2415161 206485 77322 6029047 2135750
internal_value=0 -0.228988 3.62368 12.8751 0.742929 3.39485 3.18157 -0.424037 -0.43507 -0.308751 1.41594 -1.04978 17.9205 1.27231 4.49764 -1.07141 2.32987 -0.0275953 -0.110679 1.33675 2.72505 2.51862 5.136 3.90301 0.34434 1.07166 -0.160486 6.138 -0.0231777 -0.551359
internal_weight=0 2.91703e+07 1.84333e+06 44494 4.87557e+06 1.79884e+06 1.74087e+06 2.42947e+07 2.42624e+07 2.01266e+07 2.65224e+06 4.13588e+06 4710 2.57395e+06 150746 4.13117e+06 1.21249e+06 1.07434e+07 1.01267e+07 616682 1.05695e+06 1.0186e+06 528382 302807 121685 2.4232e+06 9.97283e+06 78291 8.37128e+06 2.34224e+06
internal_count=31013597 29170267 1843330 44494 4875568 1798836 1740868 24294699 24262448 20126564 2652242 4135884 4710 2573951 150746 4131174 1212486 10743410 10126728 616682 1056951 1018597 528382 302807 121685 2423205 9972827 78291 8371282 2342235
shrinkage=0.65


Tree=3
num_leaves=31
num_cat=0
split_feature=10 3 3 1 1 3 2 0 3 8 1 9 9 0 10 8 9 3 1 1 2 8 8 3 1 0 9 1 7 1
split_gain=3.94839e+06 1.79729e+06 1.58408e+06 3.96121e+06 2.39444e+06 2.6328e+06 1.63673e+06 1.38361e+06 1.11877e+06 1.13533e+06 1.09414e+06 1.05818e+06 962251 957051 932632 930980 1.16823e+06 919689 4.26156e+06 862073 790619 751596 841496 718844 997016 710844 668074 635550 601665 580772
threshold=12.630988883786587 40.810794000000008 40.797277500000007 40.767707912353522 40.795000000000009 40.768881500000006 -73.968247499999976 -73.891134455322245 40.664331000000011 7.5000000000000009 40.733188500000004 21.07159201953284 0.026744864539396684 -73.781152499999976 22.133295617736792 19.500000000000004 1.8159543553556421 40.738119000000005 40.734900500000009 40.738643323120129 -73.973873499999982 4.5000000000000009 18.500000000000004 40.770327500000015 40.756082387106005 -73.963781499999996 2.6471813148105601 40.694785500000002 5.5000000000000009 40.78444600000001
decision_type=2 2 2 2 2 2 2 2 2 2 2 2 2 2 2 2 2 2 2 2 2 2 2 2 2 2 2 2 2 2
left_child=1 21 4 10 6 13 8 -3 27 23 -4 -9 14 -6 -5 16 -11 18 -8 -19 -12 -1 -23 -10 -25 -14 -22 -2 -18 -27
right_child=2 7 3 12 5 -7 17 11 9 15 20 -13 25 -15 -16 -17 28 19 -20 -21 26 22 -24 24 -26 29 -28 -29 -30 -31
leaf_value=-0.57963512450201693 -0.68469530474326168 0.48050744590466071 4.0312493988858735 2.9400877317501855 3.0504015013629195 0.021753886626247932 -0.87108323876501459 5.5844042044626185 -0.45355687743882589 -0.023966286191477844 12.406813015421527 23.235225561358774 -1.0063900505617824 -9.6189865978711975 20.339925171453668 -0.22645399092844645 0.54338459687265317 0.18938343224669746 2.2381812362263571 -0.61384549653767373 3.2802777203737032 1.1544668033468077 0.10074203956031008 2.224224099177539 -0.44363089675559886 1.4014851391403533 1.1170630864046411 2.6572604964420448 -0.0084361470254731442 -0.32861752708255143
leaf_weight=160023 31642 29691 97889 5121 230222 311288 527816 46217 3386780 8595220 2842 1481 366168 2547 1745 4631952 3075319 643090 287792 4621648 74393 1291534 425758 104117 137139 126512 318828 100101 1145852 232870
leaf_count=160023 31642 29691 97889 5121 230222 311288 527816 46217 3386780 8595220 2842 1481 366168 2547 1745 4631952 3075319 643090 287792 4621648 74393 1291534 425758 104117 137139 126512 318828 100101 1145852 232870
internal_value=0 1.37573 -0.0925411 1.01974 -0.141551 1.93572 -0.182966 6.09851 -0.051833 -0.0699917 3.20821 9.43454 -0.456191 4.47965 11.3266 0.0358416 0.174706 -0.640355 0.347752 -0.793432 2.4683 1.18104 1.37419 -0.578977 1.08879 -0.567693 2.34818 2.85322 0.605524 0.431422
internal_weight=0 1.9547e+06 2.90589e+07 1.22637e+06 2.78325e+07 544057 2.72885e+07 77389 2.12081e+07 2.10764e+07 493952 47698 732416 232769 6866 1.74483e+07 1.28164e+07 6.08035e+06 815608 5.26474e+06 396063 1.87732e+06 1.71729e+06 3.62804e+06 241256 725550 393221 131743 4.22117e+06 359382
internal_count=31013597 1954704 29058893 1226368 27832525 544057 27288468 77389 21208122 21076379 493952 47698 732416 232769 6866 17448343 12816391 6080346 815608 5264738 396063 1877315 1717292 3628036 241256 725550 393221 131743 4221171 359382
shrinkage=0.65


Tree=4
num_leaves=31
num_cat=0
split_feature=6 5 5 9 9 10 5 5 3 1 1 3 5 9 3 2 9 3 3 9 1 2 8 7 8 9 2 3 0 2
split_gain=1.45444e+06 1.58498e+06 1.40218e+06 1.25787e+06 864049 878615 693069 653072 606270 864495 590557 484590 445610 422481 412311 385080 384931 369990 306773 303855 309529 287050 283703 293992 424572 458022 404892 1.94806e+07 1.31695e+08 275588
threshold=8.5000000000000018 2012.5000000000002 2011.5000000000002 12.194177491689405 12.686135181741298 25.904732236283149 2012.5000000000002 2012.5000000000002 40.690906000000005 40.680138000000007 40.694785500000002 40.825723000000004 2011.5000000000002 2.6471813148105601 40.774889000000009 -73.944856999999985 1.6775109225587272 40.67786250000001 40.635073500000004 2.6471813148105601 40.761885500000005 -74.019688999999985 18.500000000000004 5.5000000000000009 6.5000000000000009 3.4093537846952358 -73.945946869873026 40.747904000000013 -73.967661499999977 -73.956159499999984
decision_type=2 2 2 2 2 2 2 2 2 2 2 2 2 2 2 2 2 2 2 2 2 2 2 2 2 2 2 2 2 2
left_child=1 12 -2 7 8 -6 -5 16 10 14 -3 15 -1 -14 -10 21 -4 -7 -12 -20 -21 -11 23 24 -23 26 -26 28 -28 -13
right_child=2 4 3 6 5 17 -8 -9 9 11 18 29 13 -15 -16 -17 -18 -19 19 20 -22 22 -24 -25 25 -27 27 -29 -30 -31
leaf_value=-0.16650557289975323 -0.035374236889524943 -0.43320981144133042 0.43440669455270259 3.5561532723657923 1.0024723443549022 20.069990483692152 1.1575228880297941 0.20854028263761604 2.7858444742960149 4.2261973399917228 4.36594471375955 11.526133986810196 -0.29572605764512844 -0.80566418592844147 11.033500972391783 -0.60120271378247148 1.0893162996137435 4.9332412952305633 2.761980044421517 0.16447874985017147 2.8838828277309534 -0.32531293578664389 -0.15428237546936588 -0.1115794490571498 0.21842247681156818 1.0436421106075102 1600.7346554533244 -0.29767124363585235 0.47313016531967939 1.4073969209722828
leaf_weight=9513636 4853844 73917 837706 75448 372128 1402 156395 2982436 26057 6951 17297 1152 2393078 962526 2840 403151 692750 1329 50953 75012 23139 510380 2110758 1539796 2907755 325635 25 7453 166 88482
leaf_count=9513636 4853844 73917 837706 75448 372128 1402 156395 2982436 26057 6951 17297 1152 2393078 962526 2840 403151 692750 1329 50953 75012 23139 510380 2110758 1539796 2907755 325635 25 7453 166 88482
internal_value=0 -0.144982 0.323465 0.710041 0.188869 1.67342 2.9817 0.593338 0.120762 0.0733444 1.68556 0.0533783 -0.366675 -0.679996 5.53296 0.0268518 1.12438 19.5445 2.73035 2.2679 1.23935 0.0786421 0.0726103 0.196262 0.347279 0.480779 0.355142 7.62355 322.971 2.3653
internal_weight=0 2.1415e+07 9.59858e+06 4.74474e+06 8.54578e+06 374859 231843 4.51289e+06 8.17092e+06 7.9306e+06 240318 7.9017e+06 1.28692e+07 3.3556e+06 28897 7.81207e+06 1.53046e+06 2731 166401 149104 98151 7.40892e+06 7.40197e+06 5.29121e+06 3.75141e+06 3.24103e+06 2.9154e+06 7644 191 89634
internal_count=31013597 21415018 9598579 4744735 8545778 374859 231843 4512892 8170919 7930601 240318 7901704 12869240 3355604 28897 7812070 1530456 2731 166401 149104 98151 7408919 7401968 5291210 3751414 3241034 2915399 7644 191 89634
shrinkage=0.65


Tree=5
num_leaves=31
num_cat=0
split_feature=1 3 2 3 1 10 2 11 5 10 0 9 2 0 3 1 3 3 0 9 2 3 2 1 10 9 3 10 9 2
split_gain=532318 1.63044e+06 1.54608e+06 1.04132e+06 577452 573924 682834 878100 624686 973055 507392 489324 467790 522743 884139 813066 475055 436186 447706 421803 692097 418955 408434 1.62229e+06 1.14295e+06 1.34796e+06 767691 436036 459535 440572
threshold=40.710875232421877 40.736907500000008 -73.825803499999992 40.68745400000001 1.0000000180025095e-35 5.2387444076692136 -73.782426499999985 1.0000000180025095e-35 2010.5000000000002 10.19659042473346 -73.803218499999986 24.984218671880203 -73.952554500000005 -73.996803499999984 40.756380500000006 40.742165500000006 40.825723000000004 1.0000000180025095e-35 -74.016177499999998 0.15481584654741049 -74.019688999999985 40.855647298339854 -73.998030808105455 40.759159500000003 22.846765137805395 1.1005899043487573 40.73882050000001 23.452143147271364 1.7065175693144192 -73.99300049999998
decision_type=2 2 2 2 2 2 2 2 2 2 2 2 2 2 2 2 2 2 2 2 2 2 2 2 2 2 2 2 2 2
left_child=1 19 4 17 -3 -5 10 8 21 -10 12 -11 13 14 -7 -16 -14 18 -2 20 -1 -8 23 -15 -24 -26 -25 28 29 -27
right_child=3 2 -4 5 -6 6 7 -9 9 11 -12 -13 16 22 15 -17 -18 -19 -20 -21 -22 -23 24 26 25 27 -28 -29 -30 -31
leaf_value=10.956466960430946 13.947995681851818 -2.4774165743581373 8.6737535998773314 -2.4905655779621982 1.0776359656320122 -0.38153491543198143 5.7849948461276268 -3.6226788137617527 3.797798939019025 11.384860449773914 -5.4370459821491828 26.824070468494057 -0.36251846674515376 -0.51124862172459917 0.70146235341738061 -0.52060375093567546 0.47114907385785942 0.85720546491208915 -2.5177317815799669 -0.29887781690762399 1.0614757348091635 -7.127967381852983 -0.017196376212174892 0.96595348443689866 0.175314817717032 -0.083816267888979487 -0.23870478518519195 2.2071547863769343 2.2226478041509181 1.0534668960736528
leaf_weight=3267 720 19865 11203 40298 683740 3257258 2872 4494 4045 1851 7353 1632 2770144 2064826 708321 340636 322403 678173 22508 889919 34784 1684 14084843 595593 3204470 207195 357757 124107 96419 471217
leaf_count=3267 720 19865 11203 40298 683740 3257258 2872 4494 4045 1851 7353 1632 2770144 2064826 708321 340636 322403 678173 22508 889919 34784 1684 14084843 595593 3204470 207195 357757 124107 96419 471217
internal_value=0 0.553959 1.68906 -0.0309842 1.50349 -0.0604358 -0.0551275 6.36089 10.7992 16.3926 -0.0588449 28.6447 -0.0567099 -0.012187 -0.329839 0.468633 -0.424011 1.17283 -3.08822 -0.320401 2.94007 1.55704 0.0523161 -0.288367 0.108849 0.573281 0.7906 1.65541 1.37668 1.08635
internal_weight=0 1.64278e+06 714808 2.93708e+07 703605 2.86694e+07 2.86291e+07 16578 12084 7528 2.86125e+07 3483 2.86052e+07 2.55126e+07 4.30622e+06 1.04896e+06 3.09255e+06 701401 23228 927970 38051 4556 2.12064e+07 3.01818e+06 1.81883e+07 4.10341e+06 953350 898938 774831 678412
internal_count=31013597 1642778 714808 29370819 703605 28669418 28629120 16578 12084 7528 28612542 3483 28605189 25512642 4306215 1048957 3092547 701401 23228 927970 38051 4556 21206427 3018176 18188251 4103408 953350 898938 774831 678412
shrinkage=0.65


Tree=6
num_leaves=31
num_cat=0
split_feature=3 1 1 3 9 1 0 10 2 8 8 7 2 1 2 10 0 2 3 9 9 3 1 1 0 2 3 1 3 1
split_gain=456436 2.5554e+06 1.64246e+06 3.01536e+06 715500 913042 640681 612524 611596 527994 662091 565448 501344 455697 435001 423884 386183 381116 561022 355171 340351 376854 3.27819e+06 2.55078e+06 965715 673474 488972 548022 479992 471153
threshold=40.788208500000003 40.77422316381837 40.782117500000005 40.767017182250989 4.3109523814024522 40.748423765014657 -73.962217500000008 22.571193157228844 -73.95940899999998 7.5000000000000009 18.500000000000004 5.5000000000000009 -73.970919499999965 40.799588500000006 -73.789978000000005 5.2387444076692136 -73.980593499999983 -73.990307499999986 40.758750457763675 2.6471813148105601 0.4096051793934497 40.753801500000009 40.747592463012701 40.756082387106005 -73.993163499999994 -73.989966500000008 40.723132500000006 40.730701500000009 40.741061000000009 40.729570500000008
decision_type=2 2 2 2 2 2 2 2 2 2 2 2 2 2 2 2 2 2 2 2 2 2 2 2 2 2 2 2 2 2
left_child=2 4 7 6 5 -2 17 9 -8 19 11 -11 -5 -14 -6 -16 -7 -4 -19 -1 -9 23 24 26 -23 28 27 -22 -25 -28
right_child=1 -3 3 12 14 16 8 20 -10 10 -12 -13 13 -15 15 -17 -18 18 -20 -21 21 22 -24 25 -26 -27 29 -29 -30 -31
leaf_value=-0.16104781720674019 3.0425503971061763 -0.41581131339931016 1.1254369419356178 -0.75882815678074578 0.32910547612312252 0.3630335211067145 0.55010498072711111 -0.27143046007252258 3.2573640073715944 0.11191727130870117 -0.30241701186848652 -0.27997207026351312 -0.052264821371982587 1.6566240031753483 15.6897103082885 2.6386046631633588 1.5418475453740581 3.2413740061437553 1.5253200198497614 -0.62698504386121545 -0.2120431695950224 0.61994238557242531 -0.36394442530285953 0.94297196422317275 1.7998604167234176 1.5551794797264793 0.023559328068565252 0.49252696762692172 0.0030050703472826712 -0.41353481798544905
leaf_weight=1324770 123032 1088032 153626 412306 467390 198505 337310 1245158 39371 6287590 4159814 2066953 450714 77225 1462 3744 287436 158457 163587 1445314 962885 757977 1453152 533451 477818 389957 1580170 904610 402871 3058910
leaf_count=1324770 123032 1088032 153626 412306 467390 198505 337310 1245158 39371 6287590 4159814 2066953 450714 77225 1462 3744 287436 158457 163587 1445314 962885 757977 1453152 533451 477818 389957 1580170 904610 402871 3058910
internal_value=0 0.442335 -0.0332718 0.893715 1.53085 2.24736 2.25591 -0.0946998 1.28165 -0.22673 -0.139286 0.0230185 -0.341144 0.304162 0.60757 9.69807 1.63124 3.02743 3.64566 -0.621776 0.0767984 0.135304 0.45831 0.0244192 1.65562 1.28839 -0.233224 0.198844 0.828512 -0.407156
internal_weight=0 2.1696e+06 2.8844e+07 1.7926e+06 1.08157e+06 608973 852351 2.70514e+07 376681 1.52844e+07 1.25144e+07 8.35454e+06 940245 527939 472596 5206 485941 475670 322044 2.77008e+06 1.1767e+07 1.05218e+07 2.68895e+06 7.83285e+06 1.2358e+06 1.32628e+06 6.50658e+06 1.8675e+06 936322 4.63908e+06
internal_count=31013597 2169601 28843996 1792596 1081569 608973 852351 27051400 376681 15284441 12514357 8354543 940245 527939 472596 5206 485941 475670 322044 2770084 11766959 10521801 2688947 7832854 1235795 1326279 6506575 1867495 936322 4639080
shrinkage=0.65


end of trees

feature importances:
dropoff_latitude=45
distance=35
pickup_latitude=34
dropoff_longitude=31
year=18
JFK_distance=17
pickup_longitude=12
hour=11
weekday=3
invalid=3
month=1

parameters:
[boosting: gbdt]
[objective: regression]
[metric: rmse]
[tree_learner: serial]
[device_type: cpu]
[data: ]
[valid: ]
[num_iterations: 100]
[learning_rate: 0.65]
[num_leaves: 31]
[num_threads: 0]
[max_depth: -1]
[min_data_in_leaf: 20]
[min_sum_hessian_in_leaf: 0.001]
[bagging_fraction: 1]
[pos_bagging_fraction: 1]
[neg_bagging_fraction: 1]
[bagging_freq: 0]
[bagging_seed: 3]
[feature_fraction: 1]
[feature_fraction_bynode: 1]
[feature_fraction_seed: 2]
[early_stopping_round: 0]
[first_metric_only: 0]
[max_delta_step: 0]
[lambda_l1: 0]
[lambda_l2: 0]
[min_gain_to_split: 0]
[drop_rate: 0.1]
[max_drop: 50]
[skip_drop: 0.5]
[xgboost_dart_mode: 0]
[uniform_drop: 0]
[drop_seed: 4]
[top_rate: 0.2]
[other_rate: 0.1]
[min_data_per_group: 100]
[max_cat_threshold: 32]
[cat_l2: 10]
[cat_smooth: 10]
[max_cat_to_onehot: 4]
[top_k: 20]
[monotone_constraints: ]
[feature_contri: ]
[forcedsplits_filename: ]
[forcedbins_filename: ]
[refit_decay_rate: 0.9]
[cegb_tradeoff: 1]
[cegb_penalty_split: 0]
[cegb_penalty_feature_lazy: ]
[cegb_penalty_feature_coupled: ]
[verbosity: -1]
[max_bin: 255]
[max_bin_by_feature: ]
[min_data_in_bin: 3]
[bin_construct_sample_cnt: 200000]
[histogram_pool_size: -1]
[data_random_seed: 1]
[output_model: LightGBM_model.txt]
[snapshot_freq: -1]
[input_model: ]
[output_result: LightGBM_predict_result.txt]
[initscore_filename: ]
[valid_data_initscores: ]
[pre_partition: 0]
[enable_bundle: 1]
[max_conflict_rate: 0]
[is_enable_sparse: 1]
[sparse_threshold: 0.8]
[use_missing: 1]
[zero_as_missing: 0]
[two_round: 0]
[save_binary: 0]
[header: 0]
[label_column: ]
[weight_column: ]
[group_column: ]
[ignore_column: ]
[categorical_feature: ]
[predict_raw_score: 0]
[predict_leaf_index: 0]
[predict_contrib: 0]
[num_iteration_predict: -1]
[pred_early_stop: 0]
[pred_early_stop_freq: 10]
[pred_early_stop_margin: 10]
[convert_model_language: ]
[convert_model: gbdt_prediction.cpp]
[num_class: 1]
[is_unbalance: 0]
[scale_pos_weight: 1]
[sigmoid: 1]
[boost_from_average: 1]
[reg_sqrt: 0]
[alpha: 0.9]
[fair_c: 1]
[poisson_max_delta_step: 0.7]
[tweedie_variance_power: 1.5]
[max_position: 20]
[lambdamart_norm: 1]
[label_gain: ]
[metric_freq: 1]
[is_provide_training_metric: 0]
[eval_at: ]
[multi_error_top_k: 1]
[num_machines: 1]
[local_listen_port: 12400]
[time_out: 120]
[machine_list_filename: ]
[machines: ]
[gpu_platform_id: -1]
[gpu_device_id: -1]
[gpu_use_dp: 0]

end of parameters

pandas_categorical:[]
