tree
version=v3
num_class=1
num_tree_per_iteration=1
label_index=0
max_feature_idx=12
objective=regression
feature_names=pickup_longitude pickup_latitude dropoff_longitude dropoff_latitude year month weekday hour distance jfk_dist ewr_dist lga_dist invalid
feature_infos=[-1641.256245:776.07169299999998] [-3447.5083420000001:74.015302000000005] [-736.33333300000004:1647.1224219999999] [-2587.6873070000001:895.08368200000018] [2009:2015] [1:12] [1:7] [0:23] [0:9732.0197161936321] [0.27307535319594489:15780.698767026808] [0.68930934960498647:15801.393771004257] [0.097208991384081941:15797.908930885989] [0:2]
tree_sizes=3215 3261 3308 3184

Tree=0
num_leaves=31
num_cat=0
split_feature=8 8 8 12 3 8 8 2 3 8 11 3 8 4 4 1 2 4 4 4 8 8 1 9 8 8 10 11 4 4
split_gain=1.56488e+09 2.70799e+08 1.50731e+08 8.72517e+07 4.28526e+07 3.99109e+07 3.37126e+07 2.78173e+07 1.65393e+07 1.58943e+07 1.48351e+07 1.47892e+07 1.16505e+07 1.15401e+07 1.12728e+07 8.26968e+06 7.65758e+06 7.27295e+06 6.9869e+06 6.37966e+06 6.32699e+06 7.66428e+06 5.99738e+06 4.99667e+06 4.71898e+06 8.93641e+06 3.6659e+06 3.58882e+06 3.48334e+06 3.33832e+06
threshold=7.8976689207101769 2.6990390648529563 16.540276471889864 1.0000000180025095e-35 40.70437350000001 4.3111737376338759 1.3777007245733335 -74.026370779052726 40.647554000000007 10.961045606339487 14.196332232420897 40.698940000000007 0.025522197181867868 2012.5000000000002 2012.5000000000002 40.724667500000002 -74.026370779052726 2012.5000000000002 2012.5000000000002 2012.5000000000002 0.025522197181867868 0.77670924451449386 40.736839500000009 8.6530523575007887 0.025522197181867868 1.0000000180025095e-35 12.850383066288385 14.196332232420897 2012.5000000000002 2012.5000000000002
decision_type=10 8 10 2 10 8 10 10 8 10 2 8 10 2 2 2 8 2 2 2 8 10 2 2 10 10 2 2 2 2
left_child=1 4 9 7 12 11 10 28 -7 29 20 22 26 23 -11 -14 -10 -13 -18 -8 -6 -22 -3 -9 25 -12 -1 -5 -4 -2
right_child=2 5 3 27 6 8 19 13 16 14 24 17 15 -15 -16 -17 18 -19 -20 -21 21 -23 -24 -25 -26 -27 -28 -29 -30 -31
leaf_value=37.209574995793837 19.675685261306008 14.50085269102135 46.685884145442962 13.191049112877357 10.951382149411232 25.920021333734447 9.6399308106355051 34.444541993458181 33.323546826967757 23.627279096885701 18.907278961483669 11.784210991643365 10.547847850011824 39.007190734888617 28.193325656486245 15.34745332771252 14.715256782159818 13.504430597746573 17.075134853186377 10.737436088200866 7.8945024967599018 8.8335200603955233 20.428968828016814 27.035313999515378 11.677778042447398 46.484453768060867 17.443864761190312 26.4494041566183 57.192204271445952 23.008857369985719
leaf_weight=4038 319377 157885 30762 72536 418416 68964 6004543 343422 10370 575530 17707 2800438 405183 296043 378799 242414 1383299 1650377 859374 3567131 6985878 7742636 132709 43305 13960 6899 217646 9790 23532 210708
leaf_count=4038 319377 157885 30762 72536 418416 68964 6004543 343422 10370 575530 17707 2800438 405183 296043 378799 242414 1383299 1650377 859374 3567131 6985878 7742636 132709 43305 13960 6899 217646 9790 23532 210708
internal_value=0 -1.77526 25.1901 36.0772 -3.28631 3.70692 -3.52863 39.5259 7.10365 19.1805 -4.45508 2.04345 3.61473 37.7935 21.6192 1.47279 6.63672 1.59217 6.51135 -2.0588 -4.50496 -4.61389 8.95531 34.1965 15.133 23.4649 9.8719 5.20082 61.3113 14.7899
internal_weight=0 3.26899e+07 2.3038e+06 819390 2.56265e+07 7.06342e+06 2.47572e+07 737064 2.32201e+06 1.48441e+06 1.51855e+07 4.74141e+06 869281 682770 954329 647597 2.25304e+06 4.45082e+06 2.24267e+06 9.57167e+06 1.51469e+07 1.47285e+07 290594 386727 38566 24606 221684 82326 54294 530085
internal_count=34993671 32689867 2303804 819390 25626451 7063416 24757170 737064 2322007 1484414 15185496 4741409 869281 682770 954329 647597 2253043 4450815 2242673 9571674 15146930 14728514 290594 386727 38566 24606 221684 82326 54294 530085
shrinkage=1


Tree=1
num_leaves=31
num_cat=0
split_feature=8 8 9 2 3 1 1 10 11 3 3 3 2 1 2 4 9 9 8 3 3 3 4 1 3 3 4 9 9 9
split_gain=2.03906e+08 3.20061e+07 3.03979e+07 1.43264e+07 9.46678e+06 1.12211e+07 8.88102e+06 7.91502e+06 7.20446e+06 6.41921e+06 5.69944e+06 5.27583e+06 4.13123e+06 3.81056e+06 3.55815e+06 3.31386e+06 3.2888e+06 3.19918e+06 3.1821e+06 3.02059e+06 2.89672e+06 2.54445e+06 1.83655e+06 1.82888e+06 2.37752e+06 1.81838e+06 1.75788e+06 1.70484e+06 1.65142e+06 1.64013e+06
threshold=5.9390034245292362 2.0309256356651075 8.6530523575007887 -74.026370779052726 40.723261500000007 40.722618051513678 40.747946000000006 26.661962321468902 1.373804483973722 40.856442000000008 40.816553500000005 40.810787500000011 -74.026370779052726 40.69339750000001 -74.01616349999999 2012.5000000000002 18.541370646783601 21.854669360671988 19.422466643939561 40.672163000000005 40.856442000000008 40.774749877929693 2011.5000000000002 40.791057500000008 40.756060500000011 40.747325500000009 2011.5000000000002 20.208563935559479 18.036238317310261 20.208563935559479
decision_type=10 8 2 8 8 2 2 2 2 10 10 10 10 2 8 2 2 2 10 10 10 10 2 2 8 10 2 2 2 2
left_child=1 7 9 -4 6 13 19 12 20 18 -10 14 -1 -6 -7 27 -8 28 21 -3 22 -2 -5 -16 -25 -15 -20 -14 -13 -17
right_child=2 4 3 8 5 11 16 -9 10 -11 -12 17 15 25 23 29 -18 -19 26 -21 -22 -23 -24 24 -26 -27 -28 -29 -30 -31
leaf_value=6.1879689913744551 5.3102020199681705 3.0689276022477605 12.927942075656734 3.886329877030859 6.5820914356391933 11.90501078044543 5.5884857384506779 2.3573174574188061 1.9696875465866974 27.882719984839685 5.8053105907857576 13.020399721724232 -0.64923783350961384 0.44540469997976756 -0.32391908888472248 0.032430057169148069 2.5870064746200643 0.79197651864266327 7.9382311053876373 0.033056675248683158 22.602810432640364 12.145853974361255 5.6777173522905535 3.5584168646634495 -0.00034127097958958953 2.4256099282829933 10.352972569960761 -1.2851497457564836 4.5079965272615565 -0.78152844649599684
leaf_weight=33959 160819 162797 72790 430989 77146 10194 197570 305344 1008832 7361 195375 10611 2115910 280589 6697953 1238998 703252 159103 210373 926595 3917 26848 550827 118989 237877 649334 322835 11260506 104043 6711935
leaf_count=33959 160819 162797 72790 430989 77146 10194 197570 305344 1008832 7361 195375 10611 2115910 280589 6697953 1238998 703252 159103 210373 926595 3917 26848 550827 118989 237877 649334 322835 11260506 104043 6711935
internal_value=0 -0.73796 7.89602 6.08745 0.70995 0.242604 2.66974 -1.42868 5.6287 13.5155 3.98768 -0.186934 -1.50095 3.37276 -0.353835 -1.51849 4.99276 4.12039 13.2155 0.748819 7.63343 9.67404 7.52515 -0.380812 1.825 2.81249 14.4619 -1.8224 8.14739 -1.00721
internal_weight=0 3.20027e+07 2.99097e+06 2.26273e+06 1.03361e+07 8.34584e+06 1.99021e+06 2.16667e+07 2.18994e+06 728236 1.20421e+06 7.33877e+06 2.13613e+07 1.00707e+06 7.06501e+06 2.13273e+07 900822 273757 720875 1.08939e+06 985733 187667 981816 7.05482e+06 356866 929923 533208 1.33764e+07 114654 7.95093e+06
internal_count=34993671 32002705 2990966 2262730 10336053 8345839 1990214 21666652 2189940 728236 1204207 7338770 21361308 1007069 7065013 21327349 900822 273757 720875 1089392 985733 187667 981816 7054819 356866 929923 533208 13376416 114654 7950933
shrinkage=0.65


Tree=2
num_leaves=31
num_cat=0
split_feature=8 8 3 9 1 8 9 11 4 12 11 8 10 4 2 8 0 7 7 9 1 3 9 3 1 1 9 3 2 2
split_gain=2.6118e+07 9.2412e+06 3.14377e+06 2.68797e+06 2.66839e+06 2.57918e+06 2.99576e+06 2.78754e+06 2.41032e+06 2.32399e+06 2.23557e+06 2.10915e+06 4.61808e+06 2.21879e+06 1.82077e+06 1.7569e+06 1.92198e+06 1.58322e+06 1.50977e+06 1.48363e+06 4.29279e+06 4.39731e+06 1.39502e+06 1.33855e+06 2.36628e+06 1.46589e+06 1.33806e+06 1.25095e+06 1.21752e+06 1.21121e+06
threshold=12.198107091276855 3.4111376454537359 40.662492500000006 1.2385248558145978 40.702156000000009 1.0232544576553697 19.941654098336119 10.251137570718919 2011.5000000000002 1.0000000180025095e-35 7.5139138623085158 21.128365944326823 22.785964247549536 2010.5000000000002 -74.026370779052726 0.10947721079298652 -74.016308499999965 6.5000000000000009 7.5000000000000009 22.433028581921043 40.779733500000013 40.777193500000003 21.133912603266669 40.727040500000008 40.727578000000001 40.739784500000006 21.350863471594206 40.777193500000003 -73.945549505615233 -74.026370779052726
decision_type=10 10 10 2 2 10 2 2 2 2 2 10 2 2 10 8 2 2 2 2 2 10 2 8 2 2 2 8 8 10
left_child=1 3 4 -1 -3 15 7 27 -4 11 -8 -2 29 -14 -10 16 -5 -16 -12 20 21 23 -23 25 -25 -20 -22 28 -7 -13
right_child=9 2 8 5 -6 6 10 -9 14 -11 18 12 13 -15 17 -17 -18 -19 19 -21 26 22 -24 24 -26 -27 -28 -29 -30 -31
leaf_value=4.5492030607782858 2.30004120024967 -2.7682049819464609 0.095891989270322817 5.9488900434019572 4.6604345346975462 1.5260860363184119 -0.7026169638196671 -0.09141999531381434 10.332604022537012 -0.68645779748691027 -0.6226946709375113 7.5305967172382156 7.528924957417324 37.593694411165899 0.078603136725725484 -0.58698303605332758 0.23339047584060202 1.2456873338958188 -0.32734796953855388 -0.92041296255380978 3.5752387938464332 3.088356110541747 0.94979457810653134 0.74699580527014919 -0.37549930127798881 1.1607527132233635 1.0595135949252847 4.5731281578641978 -0.37874631693147076 3.4944923362921587
leaf_weight=48924 952689 24093 2276097 25696 134355 830926 3188650 1203673 8806 83002 1875716 33933 1761 2523 642260 10378218 762260 2086477 487303 669037 174890 211898 328917 910571 6169162 656431 182579 48743 170937 423144
leaf_count=48924 952689 24093 2276097 25696 134355 830926 3188650 1203673 8806 83002 1875716 33933 1761 2523 642260 10378218 762260 2086477 487303 669037 174890 211898 328917 910571 6169162 656431 182579 48743 170937 423144
internal_value=0 -0.182639 1.04653 -0.407087 5.4321 -0.419901 -0.175912 0.898251 0.907932 4.08656 -0.338918 4.38842 6.14342 38.8233 1.54016 -0.793753 0.645813 1.49383 -0.136108 0.0213484 0.126772 -0.0117728 2.75032 -0.193421 -0.355581 0.81035 3.52357 2.08851 1.84782 5.83712
internal_weight=0 3.34966e+07 5.17209e+06 2.83245e+07 158448 2.82756e+07 1.71094e+07 2.25428e+06 5.01364e+06 1.49705e+06 1.48552e+07 1.41405e+06 461361 4284 2.73754e+06 1.11662e+07 787956 2.72874e+06 1.16665e+07 9.79079e+06 9.12175e+06 8.76428e+06 540815 8.22347e+06 7.07973e+06 1.14373e+06 357469 1.05061e+06 1.00186e+06 457077
internal_count=34993671 33496619 5172088 28324531 158448 28275607 17109433 2254279 5013640 1497052 14855154 1414050 461361 4284 2737543 11166174 787956 2728737 11666504 9790788 9121751 8764282 540815 8223467 7079733 1143734 357469 1050606 1001863 457077
shrinkage=0.65


Tree=3
num_leaves=31
num_cat=0
split_feature=8 4 3 2 2 4 7 7 3 11 8 11 9 3 1 3 7 7 12 8 9 2 4 11 1 8 12 6 2 9
split_gain=4.35826e+06 2.53307e+06 1.8666e+06 1.79584e+06 1.72174e+06 1.85843e+06 1.63477e+06 1.88224e+06 1.37715e+06 2.82906e+06 1.26423e+06 1.26211e+06 1.14284e+06 2.6e+06 1.85317e+06 2.20955e+06 1.00341e+06 1.25547e+06 948704 962686 940842 1.03058e+06 857282 839786 806830 1.27536e+06 778207 708160 832124 2.33672e+07
threshold=5.3323997246777006 2011.5000000000002 40.840724000000009 -74.026370779052726 -73.816391999999993 2010.5000000000002 5.5000000000000009 18.500000000000004 40.677825500000004 16.512513203206918 0.48341011794238059 6.9008956711630551 22.180841238534828 40.789026000000007 40.773955500000007 40.761914000000012 7.5000000000000009 18.500000000000004 1.0000000180025095e-35 24.888901187654735 21.880946025033683 -73.945549505615233 2010.5000000000002 6.0422689332470814 40.702156000000009 0.025522197181867868 1.0000000180025095e-35 5.5000000000000009 -73.946500999999984 18.306381069009937
decision_type=10 2 8 8 10 2 2 2 8 2 8 2 2 10 2 8 2 2 2 10 2 10 2 2 2 10 2 2 10 2
left_child=1 -1 6 -3 20 -6 23 22 24 10 -10 -12 13 14 16 -16 -13 27 19 -7 21 -4 -8 -2 25 -5 -11 28 -18 -30
right_child=2 3 4 8 5 18 7 -9 9 26 11 12 -14 -15 15 -17 17 -19 -20 -21 -22 -23 -24 -25 -26 -27 -28 -29 29 -31
leaf_value=-0.27163028932881333 -1.2005562285880653 6.150016881035226 17.45416581074624 2.0102046053406415 -0.74919386594990067 20.208254084384258 0.4609875119977655 0.0068623492085874279 -0.4455172346973495 27.690434087649194 -0.42425698514125709 -0.30764246546561241 -0.45897701833205068 2.1725886672620223 1.9871856741922134 0.049495578762048888 0.52388946575411688 -0.1118091600576268 -2.8139150694444357 46.141211767728606 0.588080626286967 3.3882838658440346 1.4700004476382285 0.31785093257174968 2.6024203055302118 -1.4091318453450972 -2.4288061691915592 0.013779624256811515 2.3584217245068215 255.35524551740221
leaf_weight=14778652 277492 20685 2254 106790 2367 2396 491725 832713 1852564 1993 1579451 1894959 1050729 289409 513303 482206 4115766 3189140 535 809 70395 93180 1286626 345505 138482 81076 443 1483088 8781 157
leaf_count=14778652 277492 20685 2254 106790 2367 2396 491725 832713 1852564 1993 1579451 1894959 1050729 289409 513303 482206 4115766 3189140 535 809 70395 93180 1286626 345505 138482 81076 443 1483088 8781 157
internal_value=0 -0.115884 1.07473 0.149644 4.28539 20.7753 0.904035 1.25132 0.138171 0.0978448 0.0928016 0.1915 0.293851 0.381578 0.30826 1.61324 0.186755 0.328938 34.6531 41.1603 3.67812 5.72384 1.83231 -0.551492 2.17235 0.822378 34.174 0.613828 0.826915 10.4653
internal_weight=0 3.15877e+07 3.406e+06 1.6809e+07 171936 6107 3.23406e+06 2.61106e+06 1.67883e+07 1.6462e+07 1.64596e+07 1.4607e+07 1.30275e+07 1.19768e+07 1.16874e+07 995509 1.06919e+07 8.79693e+06 3740 3205 165829 95434 1.77835e+06 622997 326348 187866 2436 5.60779e+06 4.1247e+06 8938
internal_count=34993671 31587674 3405997 16809022 171936 6107 3234061 2611064 16788337 16461989 16459553 14606989 13027538 11976809 11687400 995509 10691891 8796932 3740 3205 165829 95434 1778351 622997 326348 187866 2436 5607792 4124704 8938
shrinkage=0.65


end of trees

feature importances:
distance=23
dropoff_latitude=20
year=15
jfk_dist=15
pickup_latitude=12
dropoff_longitude=12
lga_dist=8
hour=6
invalid=4
ewr_dist=3
pickup_longitude=1
weekday=1

parameters:
[boosting: gbdt]
[objective: regression]
[metric: rmse]
[tree_learner: serial]
[device_type: cpu]
[data: ]
[valid: ]
[num_iterations: 100]
[learning_rate: 0.65]
[num_leaves: 31]
[num_threads: 0]
[max_depth: -1]
[min_data_in_leaf: 20]
[min_sum_hessian_in_leaf: 0.001]
[bagging_fraction: 1]
[pos_bagging_fraction: 1]
[neg_bagging_fraction: 1]
[bagging_freq: 0]
[bagging_seed: 3]
[feature_fraction: 1]
[feature_fraction_bynode: 1]
[feature_fraction_seed: 2]
[early_stopping_round: 0]
[first_metric_only: 0]
[max_delta_step: 0]
[lambda_l1: 0]
[lambda_l2: 0]
[min_gain_to_split: 0]
[drop_rate: 0.1]
[max_drop: 50]
[skip_drop: 0.5]
[xgboost_dart_mode: 0]
[uniform_drop: 0]
[drop_seed: 4]
[top_rate: 0.2]
[other_rate: 0.1]
[min_data_per_group: 100]
[max_cat_threshold: 32]
[cat_l2: 10]
[cat_smooth: 10]
[max_cat_to_onehot: 4]
[top_k: 20]
[monotone_constraints: ]
[feature_contri: ]
[forcedsplits_filename: ]
[forcedbins_filename: ]
[refit_decay_rate: 0.9]
[cegb_tradeoff: 1]
[cegb_penalty_split: 0]
[cegb_penalty_feature_lazy: ]
[cegb_penalty_feature_coupled: ]
[verbosity: -1]
[max_bin: 255]
[max_bin_by_feature: ]
[min_data_in_bin: 3]
[bin_construct_sample_cnt: 200000]
[histogram_pool_size: -1]
[data_random_seed: 1]
[output_model: LightGBM_model.txt]
[snapshot_freq: -1]
[input_model: ]
[output_result: LightGBM_predict_result.txt]
[initscore_filename: ]
[valid_data_initscores: ]
[pre_partition: 0]
[enable_bundle: 1]
[max_conflict_rate: 0]
[is_enable_sparse: 1]
[sparse_threshold: 0.8]
[use_missing: 1]
[zero_as_missing: 0]
[two_round: 0]
[save_binary: 0]
[header: 0]
[label_column: ]
[weight_column: ]
[group_column: ]
[ignore_column: ]
[categorical_feature: ]
[predict_raw_score: 0]
[predict_leaf_index: 0]
[predict_contrib: 0]
[num_iteration_predict: -1]
[pred_early_stop: 0]
[pred_early_stop_freq: 10]
[pred_early_stop_margin: 10]
[convert_model_language: ]
[convert_model: gbdt_prediction.cpp]
[num_class: 1]
[is_unbalance: 0]
[scale_pos_weight: 1]
[sigmoid: 1]
[boost_from_average: 1]
[reg_sqrt: 0]
[alpha: 0.9]
[fair_c: 1]
[poisson_max_delta_step: 0.7]
[tweedie_variance_power: 1.5]
[max_position: 20]
[lambdamart_norm: 1]
[label_gain: ]
[metric_freq: 1]
[is_provide_training_metric: 0]
[eval_at: ]
[multi_error_top_k: 1]
[num_machines: 1]
[local_listen_port: 12400]
[time_out: 120]
[machine_list_filename: ]
[machines: ]
[gpu_platform_id: -1]
[gpu_device_id: -1]
[gpu_use_dp: 0]

end of parameters

pandas_categorical:[]
