tree
version=v3
num_class=1
num_tree_per_iteration=1
label_index=0
max_feature_idx=11
objective=regression
feature_names=pickup_longitude pickup_latitude dropoff_longitude dropoff_latitude passenger_count year month weekday hour distance JFK_distance invalid
feature_infos=[-736.33333300000004:2860.6608150000002] [-74.015101999999999:2051.2572030000001] [-734.83333300000004:454.50423699999999] [-74.008480000000006:3278.7942069999999] [0:6] [2009:2015] [1:12] [1:7] [0:23] [3.0558846000365839e-05:11733.55275836402] [0.1079167742110432:15086.586439597591] [0:2]
tree_sizes=3193 3224 3197 3216 3115

Tree=0
num_leaves=31
num_cat=0
split_feature=9 9 9 11 9 9 2 9 9 3 3 2 3 5 5 9 2 0 5 5 5 1 1 10 5 1 5 2 10 3
split_gain=1.41197e+09 2.47638e+08 1.38977e+08 7.80319e+07 3.65234e+07 3.60639e+07 2.54412e+07 1.75354e+07 1.5086e+07 1.48033e+07 1.38063e+07 1.3253e+07 1.13759e+07 1.04977e+07 1.00008e+07 7.34621e+06 6.94562e+06 6.76277e+06 6.4941e+06 6.13327e+06 5.40974e+06 5.40373e+06 4.37881e+06 4.0669e+06 3.37228e+06 3.20635e+06 3.00861e+06 2.73898e+06 2.56475e+06 2.46456e+06
threshold=7.7489110074476999 2.6619564756008121 16.295946732929007 1.0000000180025095e-35 4.3060678735396953 1.3932583321510965 -74.021159999999981 0.032039119969278204 10.91395958712536 40.64880800000001 40.698098500000008 -74.021159999999981 40.704184500000018 2012.5000000000002 2012.5000000000002 0.82455904478383191 -74.021159999999981 -73.802096999999989 2012.5000000000002 2012.5000000000002 2012.5000000000002 40.738180500000006 40.762447178588872 5.668496888156314 2012.5000000000002 40.734738500000013 2012.5000000000002 -74.021159999999981 12.94319697035627 40.816510000000008
decision_type=2 2 2 2 2 2 2 2 2 2 2 2 2 2 2 2 2 2 2 2 2 2 2 2 2 2 2 2 2 2
left_child=1 5 8 6 10 7 24 11 26 -6 21 -1 25 23 -10 -9 -11 -13 -12 29 -14 -3 -19 -8 -4 -7 -2 -20 -5 -18
right_child=2 4 3 28 9 12 13 15 14 16 18 17 20 -15 -16 -17 19 22 27 -21 -22 -23 -24 -25 -26 -27 -28 -29 -30 -31
leaf_value=41.756695505850765 19.535912095698237 14.549922575619156 46.314074918351295 27.329883525966011 25.80597595376193 12.341015382656842 34.197210389854931 7.943440735344236 23.531278383190752 32.704918956934407 11.722057407182804 12.603577663253173 9.6192062225572901 38.832635632326046 28.076392334791365 8.8976575702248724 14.377938711350289 24.767976809354863 38.2540270275802 16.99986875072198 10.703337314559413 20.443380019530579 70.319263351219519 26.938117436807929 57.042582685134967 16.495306121565033 22.798287853468182 13.375783148587267 13.536295837604452 17.68223223696447
leaf_weight=7943 299992 147487 28562 6217 62403 212561 317073 6990761 515611 10027 2609490 106817 5221395 270184 339023 6652634 1128364 12691 1872 765390 3098716 118583 959 36346 21847 124454 198434 1535717 67870 104174
leaf_count=7943 299992 147487 28562 6217 62403 212561 317073 6990761 515611 10027 2609490 106817 5221395 270184 339023 6652634 1128364 12691 1872 765390 3098716 118583 959 36346 21847 124454 198434 1535717 67870 104174
internal_value=0 -1.81896 25.0293 35.9669 3.62438 -3.39246 39.3529 -4.39783 18.982 7.08961 1.99872 7.23337 -1.79312 37.6062 21.532 -4.5073 6.61822 4.62472 1.55071 6.48646 -2.02383 8.98165 25.5843 34.0188 60.962 3.90255 14.6096 3.18093 5.16202 5.10577
internal_weight=0 2.89124e+07 2.10116e+06 748099 6.48351e+06 2.24289e+07 674012 1.37718e+07 1.35306e+06 2.07036e+06 4.41315e+06 128410 8.65713e+06 623603 854634 1.36434e+07 2.00796e+06 120467 4.14708e+06 1.99793e+06 8.32011e+06 266070 13650 353419 50409 337015 498426 1.53759e+06 74087 1.23254e+06
internal_count=31013597 28912438 2101159 748099 6483507 22428931 674012 13771805 1353060 2070358 4413149 128410 8657126 623603 854634 13643395 2007955 120467 4147079 1997928 8320111 266070 13650 353419 50409 337015 498426 1537589 74087 1232538
shrinkage=1


Tree=1
num_leaves=31
num_cat=0
split_feature=9 9 10 2 3 1 1 3 10 3 9 1 3 1 1 3 3 2 3 3 5 3 10 2 10 9 8 3 1 5
split_gain=1.82213e+08 3.01794e+07 2.4514e+07 1.35674e+07 8.6185e+06 1.05563e+07 8.40182e+06 5.62349e+06 4.90341e+06 3.92675e+06 3.68598e+06 3.62225e+06 3.21693e+06 4.7996e+06 3.13301e+06 3.09843e+06 2.852e+06 2.73419e+06 2.6379e+06 2.55822e+06 2.22968e+06 2.18374e+06 2.0639e+06 2.05367e+06 1.88759e+06 1.85799e+06 1.85194e+06 1.74957e+06 1.74645e+06 1.69619e+06
threshold=6.1553542478455308 2.0309966251982834 5.668496888156314 -74.021159999999981 40.723130500000003 40.723177500000006 40.74795550000001 40.855229000000001 12.94319697035627 40.80718000000001 19.162648682725436 40.694297500000012 40.724172500000009 40.746647500000009 40.723177500000006 40.803077500000008 40.74573250000001 -73.790087499999984 40.672995667846685 40.672995667846685 2012.5000000000002 40.774757692626956 11.727283734585431 -74.021159999999981 5.668496888156314 3.4549828806555332 6.5000000000000009 40.756336000000012 40.694297500000012 2011.5000000000002
decision_type=2 2 2 2 2 2 2 2 2 2 2 2 2 2 2 2 2 2 2 2 2 2 2 2 2 2 2 2 2 2
left_child=1 12 7 -4 6 11 19 10 17 23 21 -6 13 24 16 -10 -14 26 -8 28 -16 -2 -11 -7 -1 -25 -5 -13 -3 -12
right_child=2 4 3 8 5 9 18 -9 15 22 29 27 14 -15 20 -17 -18 -19 -20 -21 -22 -23 -24 25 -26 -27 -28 -29 -30 -31
leaf_value=3.8077327988696523 4.6968167475702343 -0.89232367618403685 13.129477627033003 2.4684065872815282 6.5298643035437252 9.6877931422832351 7.3575646292461174 27.040077737398295 1.7738392872962343 11.698929395621329 7.8118127214520721 0.97109988614517184 -0.54225040983787953 2.4389730541131129 -1.2899579191029638 5.0212849392225731 2.1279350995787203 16.0267791192944 2.9524459310619298 0.022864060959171043 -0.78989809527017929 11.551829631116668 1.8384156031714649 -0.46836604489318123 -0.65812269484316199 0.30694991347359291 4.8566144140040421 2.8134463737124031 4.1326694301511466 10.254386672556116
leaf_weight=40930 135506 38867 67004 161091 75139 8812 62123 6927 601718 9241 199038 468697 639801 259155 10110587 156396 229670 8768 760940 834541 6004590 22961 304040 4474382 1736583 1844150 924450 406794 117760 302936
leaf_count=40930 135506 38867 67004 161091 75139 8812 62123 6927 601718 9241 199038 468697 639801 259155 10110587 156396 229670 8768 760940 834541 6004590 22961 304040 4474382 1736583 1844150 924450 406794 117760 302936
internal_value=0 -0.73119 8.03519 6.22 0.73409 0.266123 2.69219 13.2559 5.71436 -0.180047 12.9586 3.38285 -1.45573 -0.268132 -1.59814 3.75965 0.250887 7.06854 5.05375 0.731169 -1.6979 8.75395 3.27581 -0.351154 -0.854291 -0.37243 6.92648 2.81098 4.43956 14.286
internal_weight=0 2.84268e+07 2.5868e+06 1.91943e+06 9.40549e+06 7.59126e+06 1.81423e+06 667368 1.85242e+06 6.64062e+06 660441 950630 1.90213e+07 2.03667e+06 1.69846e+07 758114 869471 1.09431e+06 823063 991168 1.61152e+07 158467 313281 6.32734e+06 1.77751e+06 6.31853e+06 1.08554e+06 875491 156627 501974
internal_count=31013597 28426802 2586795 1919427 9405486 7591255 1814231 667368 1852423 6640625 660441 950630 19021316 2036668 16984648 758114 869471 1094309 823063 991168 16115177 158467 313281 6327344 1777513 6318532 1085541 875491 156627 501974
shrinkage=0.65


Tree=2
num_leaves=31
num_cat=0
split_feature=9 9 9 5 2 11 5 3 3 1 5 3 1 9 3 9 10 9 3 2 8 2 5 3 8 8 5 1 10 5
split_gain=2.35329e+07 4.45962e+06 3.64021e+06 2.8174e+06 2.39888e+06 2.31543e+06 2.26389e+06 1.86676e+06 1.78248e+06 1.54242e+06 1.49198e+06 1.40399e+06 1.28944e+06 1.19336e+06 1.674e+06 1.83927e+06 1.24431e+06 1.23239e+06 1.16069e+06 1.14772e+06 1.11905e+06 1.09239e+06 1.08993e+06 1.07587e+06 1.05594e+06 997129 989800 962927 948513 898676
threshold=5.5090482246924601 13.143972808959033 1.7910552503387041 2011.5000000000002 -74.021159999999981 1.0000000180025095e-35 2011.5000000000002 40.855229000000001 40.710139000000005 40.710551000000002 2011.5000000000002 40.665244000000008 40.761886298339853 0.5477096589493391 40.855229000000001 0.032039119969278204 21.34617175660053 0.1120183556231439 40.840090500000009 -74.021159999999981 7.5000000000000009 -73.946165499999992 2012.5000000000002 40.711240500000009 5.5000000000000009 18.500000000000004 2011.5000000000002 40.723688500000016 25.90528235203589 2010.5000000000002
decision_type=2 2 2 2 2 2 2 2 2 2 2 2 2 2 2 2 2 2 2 2 2 2 2 2 2 2 2 2 2 2
left_child=2 6 4 -4 22 7 -2 10 12 -10 -3 27 -5 14 17 -16 -15 -6 24 23 -11 -20 -1 -12 -13 -22 -18 -8 -7 -9
right_child=1 5 3 8 13 28 11 29 9 20 19 18 -14 16 15 -17 26 -19 21 -21 25 -23 -24 -25 -26 -27 -28 -29 -30 -31
leaf_value=4.2588030394083223 0.312718737130316 1.9785437773318422 -0.24421712209559859 1.1385294534194308 0.70349303149110742 -1.4240730009530826 0.7777359963528101 2.9333910104365302 1.905611229238606 -0.41167544673141276 6.3389570290733728 0.16079715465619587 4.0627244384668737 -0.65684956858590604 28.323495312368564 1.6584312879387799 -0.39512781405193376 -0.81986532911881604 29.048987908845355 3.3652193538819692 0.62671594286677978 3.8923681473015632 16.623122218236333 20.641488490561482 1.8080556079807366 -0.041715428625479514 0.0031883732713420955 7.6553076955541473 6.9842914174896915 12.876949065865052
leaf_weight=21575 809557 424472 4988319 498742 240011 68325 12448 5670 241922 944766 27554 215625 73042 3010722 1741 2936 4955704 3443598 737 567793 2499913 69720 3501 2417 692307 1513898 5630671 27831 6181 11899
leaf_count=21575 809557 424472 4988319 498742 240011 68325 12448 5670 241922 944766 27554 215625 73042 3010722 1741 2936 4955704 3443598 737 567793 2499913 69720 3501 2417 692307 1513898 5630671 27831 6181 11899
internal_value=0 2.69048 -0.282029 0.174712 -0.56595 4.26737 1.72937 4.65323 0.650386 0.466125 4.47757 2.72139 2.32627 -0.580129 -1.08462 17.8222 -0.443282 -1.10863 2.48318 5.49561 0.345833 6.3931 9.20778 11.5267 2.17977 0.576311 -0.281957 8.50743 -1.11772 14.8737
internal_weight=0 2.94254e+06 2.80711e+07 1.07606e+07 1.73105e+07 1.11431e+06 1.82822e+06 1.0398e+06 5.77228e+06 5.2005e+06 1.02224e+06 1.01867e+06 571784 1.72854e+07 3.68829e+06 4677 1.35971e+07 3.68361e+06 978389 597764 4.95858e+06 70457 25076 29971 907932 4.01381e+06 1.05864e+07 40279 74506 17569
internal_count=31013597 2942536 28071061 10760602 17310459 1114311 1828225 1039805 5772283 5200499 1022236 1018668 571784 17285383 3688286 4677 13597097 3683609 978389 597764 4958577 70457 25076 29971 907932 4013811 10586375 40279 74506 17569
shrinkage=0.65


Tree=3
num_leaves=31
num_cat=0
split_feature=10 9 3 2 3 9 1 3 2 2 2 11 8 10 3 3 1 3 0 1 3 3 1 3 1 1 3 1 1 3
split_gain=4.02079e+06 2.09366e+06 1.42317e+06 1.37543e+06 1.96347e+06 2.13226e+06 1.13121e+06 941481 2.35449e+06 1.25404e+06 1.02538e+06 1.06717e+06 918654 882430 1.25022e+06 875026 1.18431e+06 740712 1.51182e+06 652925 6.65341e+06 5.53027e+06 1.7685e+06 1.06597e+06 2.9062e+06 984011 786800 1.22953e+06 781938 747310
threshold=1.3954017956084941 3.3171742574781762 40.683424500000008 -73.957026499999984 40.765922273193368 7.7489110074476999 40.729006000000005 40.734238500000011 -73.828568999999987 -73.790087499999984 -73.979433499999985 1.0000000180025095e-35 7.5000000000000009 20.855591298446292 40.760420500000009 40.825412500000006 40.779455500000005 40.855229000000001 -73.932122499999991 40.764187500000006 40.757342500000007 40.775516255004895 40.775734000000007 40.758652500000018 40.742656000000004 40.747307500000005 40.766550985717778 40.779793500000004 40.75357850000001 40.712474500000006
decision_type=2 2 2 2 2 2 2 2 2 2 2 2 2 2 2 2 2 2 2 2 2 2 2 2 2 2 2 2 2 2
left_child=7 12 6 15 5 -5 -3 8 10 -9 11 -1 -2 14 -14 -4 -17 -6 -19 21 22 23 -21 29 -25 -23 27 -22 -26 -15
right_child=1 2 3 4 17 -7 -8 9 -10 -11 -12 -13 13 19 -16 16 -18 18 -20 20 26 25 -24 24 28 -27 -28 -29 -30 -31
leaf_value=0.66200874112500385 -0.39520545390322237 -0.051882859635870741 0.5202227199713072 -0.16799071758570902 0.1623498962144535 -2.4426747991316682 2.4573871322383471 2.3939621290519946 2.223692012230746 11.934151771256905 -2.8236597900201974 88.121212589134615 0.37570821882933603 0.38455201848243215 -0.4955022658310696 16.423401672664649 -6.1504999922110324 1.1162302652912166 9.3228555949025544 1.1434425218494799 -0.27646087727205015 3.3824642191481602 3.0920795528279816 1.5287303266321195 0.34719568961498293 1.4282260686570882 -0.63032820350440744 1.6244080750996388 -0.51798097863014736 -0.28602091182670497
leaf_weight=63792 4124803 114454 2973247 477308 1509393 274093 225375 240078 238136 5966 72996 59 871466 759092 3455121 3193 1418 87847 10632 695205 603987 148074 274460 569286 760591 411073 1440310 188679 1051552 9361911
leaf_count=63792 4124803 114454 2973247 477308 1509393 274093 225375 240078 238136 5966 72996 59 871466 759092 3455121 3193 1418 87847 10632 695205 603987 148074 274460 569286 760591 411073 1440310 188679 1051552 9361911
internal_value=0 -0.0514697 0.496173 0.369831 -0.200502 -1.53499 2.48041 2.51888 1.52153 4.03891 -1.78398 1.14281 -0.177258 -0.0909694 -0.492342 0.82169 14.5867 0.423137 3.08036 0.0158032 0.420434 -0.0834105 2.60769 -0.221018 0.380944 2.99346 -0.529376 0.270776 -0.23823 -0.362657
internal_weight=0 3.03926e+07 5.67696e+06 5.33713e+06 2.35927e+06 751401 339829 621027 374983 246044 136847 63851 2.47156e+07 2.05908e+07 4.32659e+06 2.97786e+06 4611 1.60787e+06 98479 1.62642e+07 3.20264e+06 1.30616e+07 969665 1.25024e+07 2.38143e+06 559147 2.23298e+06 792666 1.81214e+06 1.0121e+07
internal_count=31013597 30392570 5676960 5337131 2359273 751401 339829 621027 374983 246044 136847 63851 24715610 20590807 4326587 2977858 4611 1607872 98479 16264220 3202641 13061579 969665 12502432 2381429 559147 2232976 792666 1812143 10121003
shrinkage=0.65


Tree=4
num_leaves=31
num_cat=0
split_feature=3 1 1 2 6 5 5 3 5 9 9 10 1 0 5 0 9 2 5 11 8 3 11 9 2 9 9 3 1 1
split_gain=1.49883e+06 2.50974e+06 2.4013e+06 1.61919e+06 1.37284e+06 1.32047e+06 1.27361e+06 1.15072e+06 1.08875e+06 1.09148e+06 901175 1.26735e+06 857655 1.15666e+06 806129 789759 589463 537642 501884 482877 482545 460241 443964 589371 432178 427445 402161 387522 1.11141e+06 754980
threshold=40.795167915161137 40.774544500000012 40.797511500000006 -73.782468851562498 8.5000000000000018 2010.5000000000002 2013.5000000000002 40.773750152587894 2011.5000000000002 9.2689084707858651 0.032039119969278204 22.198287022042265 40.733066779418955 -73.980589499999994 2012.5000000000002 -73.862790999999987 2.6619564756008121 -74.021159999999981 2012.5000000000002 1.0000000180025095e-35 19.500000000000004 40.738072500000008 1.0000000180025095e-35 24.706465321874166 -73.97908649999998 2.6619564756008121 4.3060678735396953 40.726919500000008 40.735489368907508 40.729462500000004
decision_type=2 2 2 2 2 2 2 2 2 2 2 2 2 2 2 2 2 2 2 2 2 2 2 2 2 2 2 2 2 2
left_child=2 3 4 12 6 -5 20 15 -6 18 11 -3 26 -14 -11 21 -12 19 -10 -8 -1 -4 23 -7 -23 -22 -2 28 -19 -29
right_child=1 10 7 5 8 22 17 -9 9 14 16 -13 13 -15 -16 -17 -18 27 -20 -21 25 24 -24 -25 -26 -27 -28 29 -30 -31
leaf_value=-0.18153944454612406 5.3408952181653673 2.3308993371129731 4.2682939922108343 -0.63300245752710127 -0.067255829833625921 16.72698713229974 3.2069333526858301 0.33770485015611951 0.61487975114544546 3.1505861998527185 0.014546599268873871 21.849841188834127 0.2954611942511649 2.1214026291968424 0.84853928415070756 -6.9623826951880439 -1.4118341658843183 -0.18819024059647926 0.13750333939068859 29.455791864007018 -0.31570404360680093 1.1973398851883605 2.773702086536177 37.922619828092913 3.175473333047369 -0.83351549402813063 2.3740231560392373 0.7500640749988402 1.2277018554710526 -0.076267964630878052
leaf_weight=11812309 23240 6637 51944 1573 4557279 1174 18199 211189 1407813 95297 555128 1783 343366 255748 197393 3741 157036 482264 2744318 301 2386177 104182 383 1050 84521 938429 113951 540020 455418 3461734
leaf_count=11812309 23240 6637 51944 1573 4557279 1174 18199 211189 1407813 95297 555128 1783 343366 255748 197393 3741 157036 482264 2744318 301 2386177 104182 383 1050 84521 938429 113951 540020 455418 3461734
internal_value=0 0.988695 -0.0488808 2.28159 -0.0845491 21.9076 -0.229933 2.2292 0.239982 0.592124 -0.339906 9.9449 2.17017 1.65371 2.45856 3.7066 -0.461505 0.209957 0.460556 5.59078 -0.374014 3.93073 35.7136 41.1291 3.20516 -0.710562 4.42555 0.189804 0.768442 0.0542186
internal_weight=0 1.46107e+06 2.95525e+07 740485 2.9097e+07 4180 2.00949e+07 455577 9.0021e+06 4.44482e+06 720584 8420 736305 599114 292690 244388 712164 4.95794e+06 4.15213e+06 18500 1.51369e+07 240647 2607 2224 188703 3.32461e+06 137191 4.93944e+06 937682 4.00175e+06
internal_count=31013597 1461069 29552528 740485 29096951 4180 20094851 455577 9002100 4444821 720584 8420 736305 599114 292690 244388 712164 4957936 4152131 18500 15136915 240647 2607 2224 188703 3324606 137191 4939436 937682 4001754
shrinkage=0.65


end of trees

feature importances:
dropoff_latitude=35
distance=26
pickup_latitude=25
year=20
dropoff_longitude=17
JFK_distance=11
hour=6
invalid=5
pickup_longitude=4
month=1

parameters:
[boosting: gbdt]
[objective: regression]
[metric: rmse]
[tree_learner: serial]
[device_type: cpu]
[data: ]
[valid: ]
[num_iterations: 100]
[learning_rate: 0.65]
[num_leaves: 31]
[num_threads: 0]
[max_depth: -1]
[min_data_in_leaf: 20]
[min_sum_hessian_in_leaf: 0.001]
[bagging_fraction: 1]
[pos_bagging_fraction: 1]
[neg_bagging_fraction: 1]
[bagging_freq: 0]
[bagging_seed: 3]
[feature_fraction: 1]
[feature_fraction_bynode: 1]
[feature_fraction_seed: 2]
[early_stopping_round: 0]
[first_metric_only: 0]
[max_delta_step: 0]
[lambda_l1: 0]
[lambda_l2: 0]
[min_gain_to_split: 0]
[drop_rate: 0.1]
[max_drop: 50]
[skip_drop: 0.5]
[xgboost_dart_mode: 0]
[uniform_drop: 0]
[drop_seed: 4]
[top_rate: 0.2]
[other_rate: 0.1]
[min_data_per_group: 100]
[max_cat_threshold: 32]
[cat_l2: 10]
[cat_smooth: 10]
[max_cat_to_onehot: 4]
[top_k: 20]
[monotone_constraints: ]
[feature_contri: ]
[forcedsplits_filename: ]
[forcedbins_filename: ]
[refit_decay_rate: 0.9]
[cegb_tradeoff: 1]
[cegb_penalty_split: 0]
[cegb_penalty_feature_lazy: ]
[cegb_penalty_feature_coupled: ]
[verbosity: -1]
[max_bin: 255]
[max_bin_by_feature: ]
[min_data_in_bin: 3]
[bin_construct_sample_cnt: 200000]
[histogram_pool_size: -1]
[data_random_seed: 1]
[output_model: LightGBM_model.txt]
[snapshot_freq: -1]
[input_model: ]
[output_result: LightGBM_predict_result.txt]
[initscore_filename: ]
[valid_data_initscores: ]
[pre_partition: 0]
[enable_bundle: 1]
[max_conflict_rate: 0]
[is_enable_sparse: 1]
[sparse_threshold: 0.8]
[use_missing: 1]
[zero_as_missing: 0]
[two_round: 0]
[save_binary: 0]
[header: 0]
[label_column: ]
[weight_column: ]
[group_column: ]
[ignore_column: ]
[categorical_feature: ]
[predict_raw_score: 0]
[predict_leaf_index: 0]
[predict_contrib: 0]
[num_iteration_predict: -1]
[pred_early_stop: 0]
[pred_early_stop_freq: 10]
[pred_early_stop_margin: 10]
[convert_model_language: ]
[convert_model: gbdt_prediction.cpp]
[num_class: 1]
[is_unbalance: 0]
[scale_pos_weight: 1]
[sigmoid: 1]
[boost_from_average: 1]
[reg_sqrt: 0]
[alpha: 0.9]
[fair_c: 1]
[poisson_max_delta_step: 0.7]
[tweedie_variance_power: 1.5]
[max_position: 20]
[lambdamart_norm: 1]
[label_gain: ]
[metric_freq: 1]
[is_provide_training_metric: 0]
[eval_at: ]
[multi_error_top_k: 1]
[num_machines: 1]
[local_listen_port: 12400]
[time_out: 120]
[machine_list_filename: ]
[machines: ]
[gpu_platform_id: -1]
[gpu_device_id: -1]
[gpu_use_dp: 0]

end of parameters

pandas_categorical:[]
