tree
version=v3
num_class=1
num_tree_per_iteration=1
label_index=0
max_feature_idx=11
objective=regression
feature_names=pickup_longitude pickup_latitude dropoff_longitude dropoff_latitude passenger_count year month weekday hour distance JFK_distance invalid
feature_infos=[-1692.9904300000001:3439.425565] [-503.11318499999999:1989.684743] [-3394.4829679999998:383.19850200000002] [-2454.8757780000001:3375.2021650000002] [0:6] [2009:2015] [1:12] [1:7] [0:23] [3.0685545968464633e-05:8787.0718445552575] [0.046277237260966497:15085.793791299688] [0:2]
tree_sizes=3201 3195 3208

Tree=0
num_leaves=31
num_cat=0
split_feature=9 9 9 11 9 9 2 9 3 9 3 2 3 5 5 9 2 0 5 5 5 1 1 10 5 1 5 2 3 3
split_gain=1.41267e+09 2.51021e+08 1.3389e+08 7.93913e+07 3.7972e+07 3.63783e+07 2.46455e+07 1.73511e+07 1.47334e+07 1.41154e+07 1.34913e+07 1.33789e+07 1.20184e+07 1.01266e+07 1.01166e+07 7.57189e+06 7.17297e+06 6.81187e+06 6.31152e+06 6.30284e+06 5.65523e+06 5.43003e+06 4.18877e+06 3.46901e+06 3.36773e+06 3.33721e+06 3.22108e+06 2.64867e+06 2.64018e+06 2.38757e+06
threshold=7.9399908818321991 2.7035008333180515 16.785712437126964 1.0000000180025095e-35 1.4073206950978672 4.3263066935887835 -74.022706499999984 0.031333124652065843 40.648784000000006 11.125856768384258 40.698208000000015 -74.022706499999984 40.704276500000013 2012.5000000000002 2012.5000000000002 0.84249860776651642 -74.022706499999984 -73.79379299999998 2012.5000000000002 2012.5000000000002 2012.5000000000002 40.738782500000013 40.763198426269533 4.6301760213475793 2012.5000000000002 40.735956500000007 2012.5000000000002 -74.022706499999984 40.815932500000009 40.815932500000009
decision_type=2 2 2 2 2 2 2 2 2 2 2 2 2 2 2 2 2 2 2 2 2 2 2 2 2 2 2 2 2 2
left_child=1 4 9 6 7 10 24 11 -7 26 21 -1 25 23 -11 -9 -10 -13 -12 28 -14 -3 -19 -8 -4 -6 -2 -20 -18 -21
right_child=2 5 3 -5 12 8 13 15 16 14 18 17 20 -15 -16 -17 19 22 27 29 -22 -23 -24 -25 -26 -27 -28 -29 -30 -31
leaf_value=41.833779887544324 19.816692657209884 14.614320004387684 46.385088457883207 14.681717888445975 12.452092462940211 25.833547634035838 34.363575955242617 7.9595235192237457 33.086364086256097 23.70130435007605 11.776064883492287 12.594957011858535 9.6525307598562353 39.074750383940554 28.298525592005543 8.9239341843865088 14.416293207427575 25.093896503179067 38.051440546037973 16.716192168924028 10.759364491219303 20.592137060244333 70.41870758990558 27.269483559416386 57.184273799081488 16.653054094958129 23.204421811829874 13.434742416886518 17.756259153963562 20.639972023891744
leaf_weight=7967 298296 147004 27912 73797 220225 62628 308228 7224100 9987 506866 2522588 106128 5240075 261028 336513 6565706 1123987 12187 1849 694603 3106629 113980 927 32162 21675 125379 196821 1482247 109759 72344
leaf_count=7967 298296 147004 27912 73797 220225 62628 308228 7224100 9987 506866 2522588 106128 5240075 261028 336513 6565706 1123987 12187 1849 694603 3106629 113980 927 32162 21675 125379 196821 1482247 109759 72344
internal_value=0 -1.80177 25.2807 36.2277 -3.36119 3.75848 39.7514 -4.38538 7.1949 19.3529 2.08901 7.24009 -1.72137 37.9847 21.8411 -4.49262 6.72443 4.58925 1.63522 6.59099 -1.96065 9.05556 26.0906 34.3913 61.1794 4.05725 15.1146 3.27154 5.19157 8.84215
internal_weight=0 2.89503e+07 2.0633e+06 724802 2.26093e+07 6.34098e+06 651005 1.3917e+07 2.07331e+06 1.3385e+06 4.26767e+06 127209 8.69231e+06 601418 843379 1.37898e+07 2.01068e+06 119242 4.00668e+06 2.00069e+06 8.3467e+06 260984 13114 340390 49587 345604 495117 1.4841e+06 1.23375e+06 766947
internal_count=31013597 28950299 2063298 724802 22609323 6340976 651005 13917015 2073308 1338496 4267668 127209 8692308 601418 843379 13789806 2010680 119242 4006684 2000693 8346704 260984 13114 340390 49587 345604 495117 1484096 1233746 766947
shrinkage=1


Tree=1
num_leaves=31
num_cat=0
split_feature=9 9 9 11 3 1 1 8 2 1 3 1 1 3 3 3 5 3 2 5 3 10 5 2 3 10 9 10 2 8
split_gain=1.82321e+08 2.95702e+07 2.66003e+07 9.33942e+06 8.526e+06 1.04687e+07 8.10098e+06 3.93092e+06 3.67826e+06 3.57871e+06 3.1685e+06 4.70425e+06 3.06103e+06 2.86058e+06 2.7406e+06 2.62643e+06 2.54668e+06 2.72641e+06 2.94043e+06 2.471e+06 2.37691e+06 2.25188e+06 2.24911e+06 2.16017e+06 2.04151e+06 1.92371e+06 1.91377e+06 1.84991e+06 1.7429e+06 1.80927e+06
threshold=5.9636428760320461 2.0201479371215618 15.046895663281783 1.0000000180025095e-35 40.723155000000013 40.722831863037115 40.748170500000008 6.5000000000000009 -74.022706499999984 40.694753500000012 40.724165500000005 40.746575268077002 40.723318500000005 40.745287500000011 40.806950000000008 40.672430000000013 2011.5000000000002 40.854878500000005 -73.782498499999974 2011.5000000000002 40.672430000000013 16.000645384074982 2012.5000000000002 -74.022706499999984 40.711283500000008 4.6301760213475793 19.552062866630173 11.533173753365501 -74.022706499999984 18.500000000000004
decision_type=2 2 2 2 2 2 2 2 2 2 2 2 2 2 2 2 2 2 2 2 2 2 2 2 2 2 2 2 2 2
left_child=1 10 7 8 6 9 15 -2 24 -6 11 25 13 -12 23 -3 -10 26 -19 -9 -8 -5 -14 -7 -4 -1 -18 -16 -21 -30
right_child=2 4 3 21 5 14 20 19 16 -11 12 -13 22 -15 27 -17 17 18 -20 28 -22 -23 -24 -25 -26 -27 -28 -29 29 -31
leaf_value=3.9429722706259072 2.09517580165299 2.9888426097454954 12.916644535848235 12.103318183134075 6.4768948749262005 10.311355729050764 7.2813542919552878 3.3109571057151386 6.9766294949013705 1.8229011557735688 -0.58069553313203226 2.4194243674087765 -1.2957898523550075 2.0525849021001505 11.308283212242472 0.040672704345906974 7.1867091300205308 17.139216593527589 57.527930454821771 15.335958485269703 2.9540496847760864 0.0065541388267718777 -0.79257058059169094 -0.23193153843722655 27.622994196723454 -0.6622765356160818 10.206214520869263 1.5059266453225124 5.7084232039058609 3.611998016545225
leaf_weight=39191 459198 150542 46303 7203 76048 8221 57777 607326 292253 850666 638592 256273 10065506 239726 8363 840304 127771 4567 914 6917 747118 66789 5983045 6347903 4364 1730485 289897 297369 494743 268223
leaf_count=39191 459198 150542 46303 7203 76048 8221 57777 607326 292253 850666 638592 256273 10065506 239726 8363 840304 127771 4567 914 6917 747118 66789 5983045 6347903 4364 1730485 289897 297369 494743 268223
internal_value=0 -0.745153 7.88932 12.5505 0.706573 0.242898 2.666 5.75709 13.5867 3.39203 -1.46396 -0.282107 -1.60542 0.212347 -0.195169 0.751687 13.0036 14.5716 36.7298 6.60191 5.02257 1.82178 -1.7049 -0.335838 21.8205 -0.861984 14.2808 2.72932 7.7916 7.64834
internal_weight=0 2.83371e+07 2.67647e+06 840061 9.38431e+06 7.58857e+06 1.79574e+06 1.83641e+06 766069 926714 1.89528e+07 2.02595e+06 1.69269e+07 878318 6.66186e+06 990846 715402 423149 5481 1.37721e+06 804895 73992 1.60486e+07 6.35612e+06 50667 1.76968e+06 417668 305732 769883 762966
internal_count=31013597 28337129 2676468 840061 9384311 7588570 1795741 1836407 766069 926714 18952818 2025949 16926869 878318 6661856 990846 715402 423149 5481 1377209 804895 73992 16048551 6356124 50667 1769676 417668 305732 769883 762966
shrinkage=0.65


Tree=2
num_leaves=31
num_cat=0
split_feature=9 9 3 0 2 10 2 5 5 3 1 1 3 1 10 9 3 3 3 5 0 9 8 2 3 2 2 11 1 9
split_gain=2.59097e+07 7.16937e+06 3.3423e+06 4.52392e+06 2.98469e+06 2.50307e+06 2.46483e+06 2.08955e+06 1.92112e+06 1.74732e+06 1.73006e+06 1.50871e+06 1.49264e+06 2.11266e+06 1.33641e+06 1.32466e+06 1.63107e+06 1.3136e+06 1.61725e+06 1.15498e+06 1.13186e+06 1.12771e+06 1.05757e+06 1.04634e+06 1.03171e+06 2.47051e+06 1.48884e+06 1.08172e+06 980682 906233
threshold=9.4780732116753992 3.3793369124364827 40.854878500000005 -73.929751999999993 -74.022706499999984 1.3711675269541554 -74.010971999999967 2011.5000000000002 2011.5000000000002 40.711283500000008 40.707739000000011 40.721503605712904 40.683069500000009 40.726293500000004 12.642504621946868 0.54716520262110058 40.854878500000005 40.664554000000003 40.752044838867199 2012.5000000000002 -73.956162499999991 25.002641203033111 7.5000000000000009 -74.022706499999984 40.734173500000004 -73.824067499999984 -73.977569290039028 1.0000000180025095e-35 40.648755500000007 0.031333124652065843
decision_type=2 2 2 2 2 2 2 2 2 2 2 2 2 2 2 2 2 2 2 2 2 2 2 2 2 2 2 2 2 2
left_child=1 4 5 -4 19 24 21 -6 -3 11 -11 -9 13 -10 17 16 -12 -8 20 -1 -19 -7 -17 -14 25 26 27 -2 -25 -18
right_child=2 8 3 -5 7 6 14 9 12 10 15 -13 23 -15 -16 22 29 18 -20 -21 -22 -23 -24 28 -26 -27 -28 -29 -30 -31
leaf_value=4.3051407639027142 2.4802848943988391 0.15282189044166447 4.7731894396298635 21.600066295168528 -0.49027564025582365 4.5859835809812646 5.3671485853908294 -0.13884937708337344 -0.0095078429913321855 1.799235734356591 -0.72071926043578405 1.8336513361095061 8.3457466083644967 5.2045158973906318 -0.36262293889613589 -0.57609490740205349 34.44288197163462 -1.3370964402697565 2.216079847871498 14.962917297268984 1.2563198964945601 13.144426020577251 -0.016886674469590027 5.5471180495663397 4.5056369007788959 4.2054117290073165 -1.9834797689782191 101.1263556358662 0.83080242995950671 4.6496613427640634
leaf_weight=26374 64821 1941418 34905 8369 11643616 64214 41314 305473 54832 186298 1858087 353332 7942 81835 140175 1704110 847 102450 661239 5132 232357 7238 8846383 18789 221438 177721 57862 47 2164100 879
leaf_count=26374 64821 1941418 34905 8369 11643616 64214 41314 305473 54832 186298 1858087 353332 7942 81835 140175 1704110 847 102450 661239 5132 232357 7238 8846383 18789 221438 177721 57862 47 2164100 879
internal_value=0 -0.227827 3.66696 12.3499 -0.43287 3.45478 2.68626 -0.445178 0.969631 -0.17367 -0.256702 1.41392 1.58231 4.78862 2.34022 -0.302108 -1.08026 2.73183 2.50265 9.29413 0.71191 8.38914 -0.164938 1.3823 5.29399 4.08693 0.636286 3.92578 1.34061 29.6463
internal_weight=0 2.91994e+07 1.81415e+06 43274 2.49305e+07 1.77088e+06 1.24899e+06 2.4899e+07 4.26892e+06 1.32554e+07 1.25966e+07 658805 2.3275e+06 136667 1.17754e+06 1.24103e+07 1.85981e+06 1.03736e+06 996046 31506 334807 71452 1.05505e+07 2.19083e+06 521889 300451 122730 64868 2.18289e+06 1726
internal_count=31013597 29199447 1814150 43274 24930531 1770876 1248987 24899025 4268916 13255409 12596604 658805 2327498 136667 1177535 12410306 1859813 1037360 996046 31506 334807 71452 10550493 2190831 521889 300451 122730 64868 2182889 1726
shrinkage=0.65


end of trees

feature importances:
dropoff_latitude=20
distance=17
dropoff_longitude=13
year=13
pickup_latitude=12
JFK_distance=6
pickup_longitude=3
hour=3
invalid=3

parameters:
[boosting: gbdt]
[objective: regression]
[metric: rmse]
[tree_learner: serial]
[device_type: cpu]
[data: ]
[valid: ]
[num_iterations: 100]
[learning_rate: 0.65]
[num_leaves: 31]
[num_threads: 0]
[max_depth: -1]
[min_data_in_leaf: 20]
[min_sum_hessian_in_leaf: 0.001]
[bagging_fraction: 1]
[pos_bagging_fraction: 1]
[neg_bagging_fraction: 1]
[bagging_freq: 0]
[bagging_seed: 3]
[feature_fraction: 1]
[feature_fraction_bynode: 1]
[feature_fraction_seed: 2]
[early_stopping_round: 0]
[first_metric_only: 0]
[max_delta_step: 0]
[lambda_l1: 0]
[lambda_l2: 0]
[min_gain_to_split: 0]
[drop_rate: 0.1]
[max_drop: 50]
[skip_drop: 0.5]
[xgboost_dart_mode: 0]
[uniform_drop: 0]
[drop_seed: 4]
[top_rate: 0.2]
[other_rate: 0.1]
[min_data_per_group: 100]
[max_cat_threshold: 32]
[cat_l2: 10]
[cat_smooth: 10]
[max_cat_to_onehot: 4]
[top_k: 20]
[monotone_constraints: ]
[feature_contri: ]
[forcedsplits_filename: ]
[forcedbins_filename: ]
[refit_decay_rate: 0.9]
[cegb_tradeoff: 1]
[cegb_penalty_split: 0]
[cegb_penalty_feature_lazy: ]
[cegb_penalty_feature_coupled: ]
[verbosity: -1]
[max_bin: 255]
[max_bin_by_feature: ]
[min_data_in_bin: 3]
[bin_construct_sample_cnt: 200000]
[histogram_pool_size: -1]
[data_random_seed: 1]
[output_model: LightGBM_model.txt]
[snapshot_freq: -1]
[input_model: ]
[output_result: LightGBM_predict_result.txt]
[initscore_filename: ]
[valid_data_initscores: ]
[pre_partition: 0]
[enable_bundle: 1]
[max_conflict_rate: 0]
[is_enable_sparse: 1]
[sparse_threshold: 0.8]
[use_missing: 1]
[zero_as_missing: 0]
[two_round: 0]
[save_binary: 0]
[header: 0]
[label_column: ]
[weight_column: ]
[group_column: ]
[ignore_column: ]
[categorical_feature: ]
[predict_raw_score: 0]
[predict_leaf_index: 0]
[predict_contrib: 0]
[num_iteration_predict: -1]
[pred_early_stop: 0]
[pred_early_stop_freq: 10]
[pred_early_stop_margin: 10]
[convert_model_language: ]
[convert_model: gbdt_prediction.cpp]
[num_class: 1]
[is_unbalance: 0]
[scale_pos_weight: 1]
[sigmoid: 1]
[boost_from_average: 1]
[reg_sqrt: 0]
[alpha: 0.9]
[fair_c: 1]
[poisson_max_delta_step: 0.7]
[tweedie_variance_power: 1.5]
[max_position: 20]
[lambdamart_norm: 1]
[label_gain: ]
[metric_freq: 1]
[is_provide_training_metric: 0]
[eval_at: ]
[multi_error_top_k: 1]
[num_machines: 1]
[local_listen_port: 12400]
[time_out: 120]
[machine_list_filename: ]
[machines: ]
[gpu_platform_id: -1]
[gpu_device_id: -1]
[gpu_use_dp: 0]

end of parameters

pandas_categorical:[]
