tree
version=v3
num_class=1
num_tree_per_iteration=1
label_index=0
max_feature_idx=11
objective=regression
feature_names=pickup_longitude pickup_latitude dropoff_longitude dropoff_latitude passenger_count year month weekday hour distance JFK_distance invalid
feature_infos=[-1182.900408:2423.0388630000002] [-3114.312727:1619.224258] [-1538.4666669999999:3045.172622] [-74.016317000000001:2372.7429929999998] [0:6] [2009:2015] [1:12] [1:7] [0:23] [3.0639212829029271e-05:11007.714605838946] [0.10536229017073198:15086.490122378433] [0:2]
tree_sizes=3174 3181 3214 3149 3227

Tree=0
num_leaves=31
num_cat=0
split_feature=9 9 9 11 9 9 2 9 3 9 10 3 3 5 5 9 2 5 5 0 5 1 1 1 2 5 10 5 5 3
split_gain=1.41406e+09 2.51594e+08 1.33443e+08 7.9892e+07 3.7519e+07 3.69897e+07 2.47259e+07 1.85155e+07 1.49703e+07 1.41164e+07 1.37904e+07 1.37728e+07 1.26849e+07 1.0312e+07 1.00176e+07 7.29026e+06 7.09159e+06 6.50385e+06 6.29378e+06 5.674e+06 5.57148e+06 5.49433e+06 3.58067e+06 4.59182e+06 1.69216e+08 1.59109e+09 3.50336e+06 3.19313e+06 3.05119e+06 2.66926e+06
threshold=7.9662347620694804 2.6741799725707107 16.902033024577715 1.0000000180025095e-35 4.3296957679081141 1.3931275669042316 -74.024492999999993 0.026605107381926302 40.648744500000014 11.051869061415758 25.942240991325431 40.697890000000008 40.704250575195324 2012.5000000000002 2012.5000000000002 0.8289930349057909 -74.024492999999993 2012.5000000000002 2012.5000000000002 -73.791832170410146 2012.5000000000002 40.738277217651373 40.711705000000009 40.713504000000007 -74.012205500000007 2014.5000000000002 3.9893928083172718 2012.5000000000002 2012.5000000000002 40.816279500000007
decision_type=2 2 2 2 2 2 2 2 2 2 2 2 2 2 2 2 2 2 2 2 2 2 2 2 2 2 2 2 2 2
left_child=1 5 9 6 11 7 27 10 -6 28 19 21 22 -11 26 -9 -10 -13 29 -1 -14 -3 -7 24 25 -24 -8 -4 -2 -18
right_child=2 4 3 -5 8 12 14 15 16 13 -12 17 20 -15 -16 -17 18 -19 -20 -21 -22 -23 23 -25 -26 -27 -28 -29 -30 -31
leaf_value=12.70734267572438 19.802957436681844 14.57205666955306 46.603633974508782 14.676733796613252 25.922419903234129 10.54895583260026 34.466730880282043 7.9541872928517225 33.240506770492537 23.704426241566871 38.856672338735294 11.752099109790652 9.627630325042368 28.296815707465328 39.135743639988817 8.904699457802284 14.426556444854786 13.440261556763739 17.093949630550537 27.746415478083712 10.724617503473878 20.519514877320354 11.320985313597314 14.925945131543932 11.122941490717757 6120.808429585235 27.562019210573943 57.126868694030449 23.154963313286373 17.797104925270197
leaf_weight=96372 288841 148303 27868 73837 62605 89677 303884 7060458 9709 518155 10667 2597779 5248358 343550 258394 6592440 1127142 1533318 766743 11909 3118351 117719 181 246828 5069 20 34580 21645 190338 108857
leaf_count=96372 288841 148303 27868 73837 62605 89677 303884 7060458 9709 518155 10667 2597779 5248358 343550 258394 6592440 1127142 1533318 766743 11909 3118351 117719 181 246828 5069 20 34580 21645 190338 108857
internal_value=0 -1.80162 25.3077 36.2868 3.69231 -3.38335 39.8465 -4.40338 7.19716 19.4107 8.01902 2.03832 -1.77024 21.8302 38.0651 -4.51161 6.72342 1.58921 6.59272 4.63951 -2.01417 9.01262 4.2012 6.13169 35.3396 935.207 34.4855 61.3204 15.0596 5.19648
internal_weight=0 2.89525e+07 2.06109e+06 720208 6.47218e+06 2.24803e+07 646371 1.37718e+07 2.07506e+06 1.34088e+06 118948 4.39712e+06 8.70848e+06 861705 596858 1.36529e+07 2.01245e+06 4.1311e+06 2.00274e+06 108281 8.36671e+06 266022 341775 252098 5270 201 338464 49513 479179 1.236e+06
internal_count=31013597 28952505 2061092 720208 6472175 22480330 646371 13771846 2075056 1340884 118948 4397119 8708484 861705 596858 13652898 2012451 4131097 2002742 108281 8366709 266022 341775 252098 5270 201 338464 49513 479179 1235999
shrinkage=1


Tree=1
num_leaves=31
num_cat=0
split_feature=9 9 10 2 3 1 1 3 10 3 1 2 2 3 5 3 3 9 3 9 5 2 1 3 2 2 10 3 8 9
split_gain=1.83247e+08 2.9714e+07 2.67052e+07 1.37433e+07 8.81834e+06 1.05834e+07 8.49685e+06 5.92261e+06 5.22697e+06 3.61926e+06 3.50944e+06 3.43583e+06 3.03965e+06 2.96712e+06 2.89966e+06 2.47956e+06 2.44186e+06 2.43952e+06 2.34943e+06 2.55226e+06 3.62497e+07 2.86052e+08 1.21831e+09 2.33006e+06 2.25855e+06 2.2262e+06 1.88774e+06 1.81329e+06 1.73598e+06 1.68035e+06
threshold=5.9697249268908168 2.0178586395985381 3.9893928083172718 -74.024492999999993 40.723509000000007 40.722716500000011 40.747987500000008 40.855816629028332 12.603653075711385 40.807267500000009 40.693852500000006 -74.024492999999993 -74.01606649999998 40.802982500000013 2012.5000000000002 40.67811600000001 40.855816629028332 19.569199510317393 40.672733500000007 2.0375245709336212 2014.5000000000002 -74.012205500000007 40.720530500000002 40.774760599975593 -73.782280999999998 -73.819501999999972 12.603653075711385 40.664485500000005 6.5000000000000009 3.4604810321257324
decision_type=2 2 2 2 2 2 2 2 2 2 2 2 2 2 2 2 2 2 2 2 2 2 2 2 2 2 2 2 2 2
left_child=1 11 7 -4 6 10 18 17 16 12 -6 -1 -7 -10 25 -8 27 23 -3 20 -20 22 -22 -2 -18 -13 -11 -5 -29 -14
right_child=2 4 3 8 5 9 15 -9 13 26 -12 14 29 -15 -16 -17 24 -19 19 -21 21 -23 -24 -25 -26 -27 -28 28 -30 -31
leaf_value=6.7408511906002087 5.3832449705954772 2.8140558579326673 13.11650928894008 11.368156276533988 6.5727544150204045 11.570629047699315 6.7285856288353321 27.9072241050579 1.9053511673200241 11.210664754979701 1.8500599862668901 -1.1774137168080017 -0.4660291825238479 4.9110847683126426 -0.63549594865997472 2.9155817117989837 10.497927635848169 9.3363123101322731 -0.28328680935576495 -0.090454328695896508 5709.5632942859456 0.24340332432373149 -0.081058896571397782 12.180276646222651 39.171907846823935 3.842257389638978 1.7758643584175755 2.3968422380420416 4.7546414281750637 0.27607339182931273
leaf_weight=24480 138806 152505 67341 16062 72169 9195 79755 6775 707026 9243 843192 11795627 4556332 172641 7074250 746381 13144 472707 10749 834391 20 703 75 25173 1273 37447 292523 154560 901260 1797792
leaf_count=24480 138806 152505 67341 16062 72169 9195 79755 6775 707026 9243 843192 11795627 4556332 172641 7074250 746381 13144 472707 10749 834391 20 703 75 25173 1273 37447 292523 154560 901260 1797792
internal_value=0 -0.747089 7.90884 6.13199 0.705761 0.230702 2.67945 13.5236 5.65082 -0.20718 3.41909 -1.46884 -0.367653 3.83884 -1.48417 5.05183 7.11813 13.2107 0.716492 0.0651748 14.8305 220.467 1849.15 9.8872 20.0458 -1.78697 3.17669 6.94425 6.78383 -0.393944
internal_weight=0 2.83368e+07 2.67677e+06 2.03331e+06 9.40502e+06 7.58045e+06 1.82458e+06 643461 1.96597e+06 6.66508e+06 915361 1.89318e+07 6.36332e+06 879667 1.89073e+07 826136 1.0863e+06 636686 998443 845938 11547 798 95 163979 14417 1.18331e+07 301766 1.07188e+06 1.05582e+06 6.35412e+06
internal_count=31013597 28336829 2676768 2033307 9405025 7580446 1824579 643461 1965966 6665085 915361 18931804 6363319 879667 18907324 826136 1086299 636686 998443 845938 11547 798 95 163979 14417 11833074 301766 1071882 1055820 6354124
shrinkage=0.65


Tree=2
num_leaves=31
num_cat=0
split_feature=9 5 3 1 1 3 9 11 9 3 3 9 9 5 10 2 10 10 8 3 8 2 2 9 3 8 9 10 1 10
split_gain=2.32153e+07 5.6302e+06 4.13751e+06 7.26087e+06 5.80124e+06 4.83293e+06 4.01424e+06 2.24911e+06 2.09575e+06 5.17755e+06 1.97e+06 4.66852e+06 1.57859e+06 1.53152e+06 1.26954e+06 1.66427e+06 1.26182e+06 1.2541e+06 1.18758e+06 1.13183e+06 1.12959e+06 1.10799e+06 1.09319e+06 1.07174e+06 1.05996e+06 1.09172e+06 1.0191e+06 1.0178e+06 981984 979036
threshold=5.3716725986900355 2011.5000000000002 40.725405500000008 40.736480500000006 40.725864205200203 40.745571568237317 13.261056390911257 1.0000000180025095e-35 24.856369617306008 40.775962414794925 40.839722500000001 0.026605107381926302 1.7799417177866836 2011.5000000000002 15.880268831412922 -74.01606649999998 8.4629900065142234 25.942240991325431 7.5000000000000009 40.782077500000014 18.500000000000004 -73.819501999999972 -73.972013999999987 2.0178586395985381 40.637504500000013 5.5000000000000009 13.261056390911257 3.9893928083172718 40.709086500000005 21.206155647803829
decision_type=2 2 2 2 2 2 2 2 2 2 2 2 2 2 2 2 2 2 2 2 2 2 2 2 2 2 2 2 2 2
left_child=2 26 3 27 5 28 24 8 -8 16 12 21 29 -5 15 -9 -10 -16 -14 23 -20 -12 -15 -7 -3 -26 -2 -1 -4 -6
right_child=1 6 4 13 10 19 7 14 9 -11 11 -13 18 22 17 -17 -18 -19 20 -21 -22 -23 -24 -25 25 -27 -28 -29 -30 -31
leaf_value=2.3208525190975613 0.27746040411962497 6.042129881845784 1.2114241156524228 0.73600806523883955 -0.83843615163891549 2.4551291813370137 3.8486762477606624 94.470466001174955 5.4761352176474265 41.382469998003835 21.40026336644701 1.8280113595572329 -0.71682959853548422 1.6937094053481494 -2.3884026820954309 7.6575894788218877 19.45417881575996 9.852761038114112 0.17301870930805213 4.1879844777677411 -0.40874726880914647 51.316637728500304 3.8820873451354347 1.0435815649931643 0.45385793014963632 1.9907846594817868 1.4892110542396495 -0.42517238656314138 -0.51764229403457351 -0.43553444155377119
leaf_weight=58530 863083 23367 163487 830230 3329892 337402 565622 95 22771 2012 2035 85533 1329033 879964 43355 5215 3100 3850 3875195 70958 2216714 704 108316 696193 258172 801418 444128 2220898 918045 10854280
leaf_count=58530 863083 23367 163487 830230 3329892 337402 565622 95 22771 2012 2035 85533 1329033 879964 43355 5215 3100 3850 3875195 70958 2216714 704 108316 696193 258172 801418 444128 2220898 918045 10854280
internal_value=0 2.62634 -0.285018 0.643298 -0.444325 1.10834 3.8104 5.78323 6.33826 14.8018 -0.600791 4.11371 -0.620053 2.13357 -0.489444 14.1704 11.0016 -2.1385 -0.246347 2.57963 -0.0594975 44.7533 2.9747 2.3144 2.63355 2.48663 1.06024 -0.545633 -0.394265 -0.815569
internal_weight=0 3.03619e+06 2.79774e+07 4.09794e+06 2.38795e+07 2.18608e+06 1.72898e+06 646020 593505 27883 2.16934e+07 88272 2.16051e+07 1.81851e+06 52515 5310 25871 47205 7.42094e+06 1.10455e+06 6.09191e+06 2739 988280 1.0336e+06 1.08296e+06 1.05959e+06 1.30721e+06 2.27943e+06 1.08153e+06 1.41842e+07
internal_count=31013597 3036188 27977409 4097938 23879471 2186085 1728977 646020 593505 27883 21693386 88272 21605114 1818510 52515 5310 25871 47205 7420942 1104553 6091909 2739 988280 1033595 1082957 1059590 1307211 2279428 1081532 14184172
shrinkage=0.65


Tree=3
num_leaves=31
num_cat=0
split_feature=9 5 2 3 3 1 1 2 3 2 2 3 10 6 3 10 1 3 11 2 1 3 8 9 5 5 9 10 2 5
split_gain=3.32365e+06 2.166e+06 2.17938e+06 1.71894e+06 1.55644e+06 1.67582e+06 1.55394e+06 1.47225e+06 1.45819e+06 1.70148e+06 1.3353e+06 1.29756e+06 1.44265e+06 1.20071e+06 1.10908e+06 918211 802400 762234 833383 753198 1.41469e+06 724721 718562 674687 659734 641787 635510 571200 568946 3.22514e+06
threshold=9.439940806763607 2011.5000000000002 -74.024492999999993 40.644583500000003 40.706582500000003 40.702445000000004 40.721431000000003 -74.011099499999986 40.754250500000005 -73.819501999999972 -73.969409499999983 40.825028500000009 20.570189468006706 8.5000000000000018 40.637504500000013 19.225562881746608 40.774347500000012 40.718090028686525 1.0000000180025095e-35 -73.782280999999998 40.702445000000004 40.697890000000008 7.5000000000000009 0.51941877811850268 2012.5000000000002 2012.5000000000002 0.10731308896022355 10.229782673187637 -74.01372364038086 2014.5000000000002
decision_type=2 2 2 2 2 2 2 2 2 2 2 2 2 2 2 2 2 2 2 2 2 2 2 2 2 2 2 2 2 2
left_child=1 26 3 -3 6 -6 28 17 9 10 -9 13 16 22 -8 19 -13 -2 -19 -10 -21 -11 -7 -24 -15 -25 -1 -22 29 -4
right_child=7 2 4 -5 5 11 14 8 15 21 -12 12 -14 24 -16 -17 -18 18 -20 20 27 -23 23 25 -26 -27 -28 -29 -30 -31
leaf_value=1.1983032995116376 2.9085300267485623 -0.19571222452441733 -0.20217820641174469 10.53799470217163 2.3254145334359295 -0.47825878505896002 6.3968122274132302 0.25139909831967439 1.3476149583656363 1.8362857975863309 -1.7771671289200732 2.9682047740417152 20.563999031817097 0.67323174081908632 1.554181960026304 -2.9722551157768575 -0.0021782976521783951 13.314289401324 -3.7557753182478302 25.038512876123072 0.54526336762610528 -1.7615677289821128 -0.51757392683367609 -0.25945659871460081 0.12410985741740434 0.16109456722277293 -0.25646548320665452 13.775833943656853 0.098612813714936146 -28.950727655207675
leaf_weight=128077 75652 10806 12012 15129 136104 1793806 20953 370659 855336 239965 217570 88557 1728 1399730 430969 20676 67871 5894 1520 1567 5933 26241 1036620 2140961 2722099 5400170 13470807 1796 312478 1911
leaf_count=128077 75652 10806 12012 15129 136104 1793806 20953 370659 855336 239965 217570 88557 1728 1399730 430969 20676 67871 5894 1520 1567 5933 26241 1036620 2140961 2722099 5400170 13470807 1796 312478 1911
internal_value=0 -0.0818049 0.17259 9.33188 0.157329 0.0847842 1.53564 1.31004 1.11366 0.181756 -0.767558 0.0523384 2.90115 0.0212513 2.73647 2.01307 2.58371 5.42297 15.0994 2.17056 11.1234 2.27943 -0.160198 -0.0398304 0.477824 0.0641511 -0.373483 5.56873 -0.126975 -6.38163
internal_weight=0 2.91908e+07 1.55919e+07 25935 1.5566e+07 1.47876e+07 778323 1.82281e+06 1.73974e+06 854435 588229 1.46515e+07 158156 1.44934e+07 451922 885308 156428 83066 7414 864632 9296 266206 1.03716e+07 8.57775e+06 4.12183e+06 7.54113e+06 1.35989e+07 7729 326401 13923
internal_count=31013597 29190788 15591904 25935 15565969 14787646 778323 1822809 1739743 854435 588229 14651542 158156 14493386 451922 885308 156428 83066 7414 864632 9296 266206 10371557 8577751 4121829 7541131 13598884 7729 326401 13923
shrinkage=0.65


Tree=4
num_leaves=31
num_cat=0
split_feature=3 1 1 3 2 1 3 3 10 1 1 1 9 1 3 3 3 3 1 1 3 9 0 3 11 9 1 10 3 9
split_gain=1.03995e+06 4.42336e+06 3.11718e+06 2.10836e+06 1.23455e+06 1.09829e+06 5.15338e+06 5.11378e+06 1.71397e+06 1.6595e+06 1.3308e+06 975794 1.13202e+06 957694 1.00323e+06 814753 786998 823619 2.47511e+06 1.11772e+06 814472 985614 773346 725185 761446 722375 701628 653439 619197 675510
threshold=40.792296500000006 40.774347500000012 40.795423500000005 40.767936000000013 -73.970045998535127 40.764118097290044 40.760302500000009 40.768231000000007 21.571917413138291 40.754307500000003 40.773467500000002 40.738600500000011 4.3296957679081141 40.713504000000007 40.736225101700505 40.747346000000007 40.664485500000005 40.757707500000009 40.750272500000008 40.758437500000007 40.741989067871096 2.0178586395985381 -73.862727499999991 40.664485500000005 1.0000000180025095e-35 0.026605107381926302 40.728510500000006 17.334443438441209 40.719981000000011 2.0178586395985381
decision_type=2 2 2 2 2 2 2 2 2 2 2 2 2 2 2 2 2 2 2 2 2 2 2 2 2 2 2 2 2 2
left_child=2 11 4 22 5 7 8 13 -7 -9 15 -2 -13 14 -1 -10 -15 19 -19 28 21 -21 -4 24 26 -3 -6 -8 29 -18
right_child=1 25 3 -5 23 6 27 9 10 -11 -12 12 -14 16 -16 -17 17 18 -20 20 -22 -23 -24 -25 -26 -27 -28 -29 -30 -31
leaf_value=-0.099466633806843577 2.8044417206655994 5.3409423385895689 3.1667604251049939 0.34069072481901697 -0.30438412203300502 0.42036351593491239 1.184486285169428 2.1290526633861502 1.6585722636871958 0.44350872417117487 2.3374442579596262 1.8887966862806636 0.16855742821048 1.8581890899043303 1.0948931726705644 0.30769796725773996 0.40526350482889528 0.84614751695191437 -0.49524169450141625 1.7508048466350381 -0.16172058877447901 0.12419563763363528 -6.6935280775659978 -0.32645069842079821 -1.7891523904909785 -0.61683433566007395 1.6597772224883753 -0.58215219050612188 -0.42044988342352579 -0.46288299222546514
leaf_weight=702043 196966 8687 227599 267590 120636 1534567 92811 548988 349243 448322 452147 379494 281518 78465 515190 410189 868248 1115421 1213428 267354 899515 382639 3411 7261793 49368 843634 211645 1885932 8725166 671588
leaf_count=702043 196966 8687 227599 267590 120636 1534567 92811 548988 349243 448322 452147 379494 281518 78465 515190 410189 868248 1115421 1213428 267354 899515 382639 3411 7261793 49368 843634 211645 1885932 8725166 671588
internal_value=0 0.757972 -0.0442393 2.43477 -0.0871502 0.0372715 0.46218 -0.0848751 1.34869 2.10977 2.2378 2.36086 1.77872 -0.226641 0.624681 1.42912 -0.299505 -0.317027 0.226504 -0.424166 0.367498 1.22038 4.64795 -0.431618 0.911982 -0.855556 1.45643 -0.768138 -0.543668 0.040966
internal_weight=0 1.7103e+06 2.93033e+07 498600 2.88047e+07 2.11613e+07 4.72489e+06 1.64364e+07 2.74615e+06 997310 1.21158e+06 857978 661012 1.54391e+07 1.21723e+06 759432 1.42218e+07 1.41434e+07 2.32885e+06 1.18145e+07 1.54951e+06 649993 231010 7.64344e+06 381649 852321 332281 1.97874e+06 1.0265e+07 1.53984e+06
internal_count=31013597 1710299 29303298 498600 28804698 21161256 4724889 16436367 2746146 997310 1211579 857978 661012 15439057 1217233 759432 14221824 14143359 2328849 11814510 1549508 649993 231010 7643442 381649 852321 332281 1978743 10265002 1539836
shrinkage=0.65


end of trees

feature importances:
dropoff_latitude=37
distance=27
pickup_latitude=24
dropoff_longitude=19
year=16
JFK_distance=15
hour=5
invalid=4
pickup_longitude=2
month=1

parameters:
[boosting: gbdt]
[objective: regression]
[metric: rmse]
[tree_learner: serial]
[device_type: cpu]
[data: ]
[valid: ]
[num_iterations: 100]
[learning_rate: 0.65]
[num_leaves: 31]
[num_threads: 0]
[max_depth: -1]
[min_data_in_leaf: 20]
[min_sum_hessian_in_leaf: 0.001]
[bagging_fraction: 1]
[pos_bagging_fraction: 1]
[neg_bagging_fraction: 1]
[bagging_freq: 0]
[bagging_seed: 3]
[feature_fraction: 1]
[feature_fraction_bynode: 1]
[feature_fraction_seed: 2]
[early_stopping_round: 0]
[first_metric_only: 0]
[max_delta_step: 0]
[lambda_l1: 0]
[lambda_l2: 0]
[min_gain_to_split: 0]
[drop_rate: 0.1]
[max_drop: 50]
[skip_drop: 0.5]
[xgboost_dart_mode: 0]
[uniform_drop: 0]
[drop_seed: 4]
[top_rate: 0.2]
[other_rate: 0.1]
[min_data_per_group: 100]
[max_cat_threshold: 32]
[cat_l2: 10]
[cat_smooth: 10]
[max_cat_to_onehot: 4]
[top_k: 20]
[monotone_constraints: ]
[feature_contri: ]
[forcedsplits_filename: ]
[forcedbins_filename: ]
[refit_decay_rate: 0.9]
[cegb_tradeoff: 1]
[cegb_penalty_split: 0]
[cegb_penalty_feature_lazy: ]
[cegb_penalty_feature_coupled: ]
[verbosity: -1]
[max_bin: 255]
[max_bin_by_feature: ]
[min_data_in_bin: 3]
[bin_construct_sample_cnt: 200000]
[histogram_pool_size: -1]
[data_random_seed: 1]
[output_model: LightGBM_model.txt]
[snapshot_freq: -1]
[input_model: ]
[output_result: LightGBM_predict_result.txt]
[initscore_filename: ]
[valid_data_initscores: ]
[pre_partition: 0]
[enable_bundle: 1]
[max_conflict_rate: 0]
[is_enable_sparse: 1]
[sparse_threshold: 0.8]
[use_missing: 1]
[zero_as_missing: 0]
[two_round: 0]
[save_binary: 0]
[header: 0]
[label_column: ]
[weight_column: ]
[group_column: ]
[ignore_column: ]
[categorical_feature: ]
[predict_raw_score: 0]
[predict_leaf_index: 0]
[predict_contrib: 0]
[num_iteration_predict: -1]
[pred_early_stop: 0]
[pred_early_stop_freq: 10]
[pred_early_stop_margin: 10]
[convert_model_language: ]
[convert_model: gbdt_prediction.cpp]
[num_class: 1]
[is_unbalance: 0]
[scale_pos_weight: 1]
[sigmoid: 1]
[boost_from_average: 1]
[reg_sqrt: 0]
[alpha: 0.9]
[fair_c: 1]
[poisson_max_delta_step: 0.7]
[tweedie_variance_power: 1.5]
[max_position: 20]
[lambdamart_norm: 1]
[label_gain: ]
[metric_freq: 1]
[is_provide_training_metric: 0]
[eval_at: ]
[multi_error_top_k: 1]
[num_machines: 1]
[local_listen_port: 12400]
[time_out: 120]
[machine_list_filename: ]
[machines: ]
[gpu_platform_id: -1]
[gpu_device_id: -1]
[gpu_use_dp: 0]

end of parameters

pandas_categorical:[]
