tree
version=v3
num_class=1
num_tree_per_iteration=1
label_index=0
max_feature_idx=11
objective=regression
feature_names=pickup_longitude pickup_latitude dropoff_longitude dropoff_latitude passenger_count year month weekday hour distance JFK_distance invalid
feature_infos=[-2626.925037:40.836886999999997] [-3258.768947:473.97255700000005] [-1678.9995670000001:40.806310000000003] [-882.01051300000017:404.68333200000001] [0:6] [2009:2015] [1:12] [1:7] [0:23] [3.0463659068630599e-05:17799.973379060164] [0.11011147173805541:15086.633055608463] [0:2]
tree_sizes=3191 3207 3239 3206 3104 3161 3116 3033 3037 3072 2991 3071 2917

Tree=0
num_leaves=31
num_cat=0
split_feature=9 9 9 11 9 9 2 9 9 3 3 2 3 5 5 9 2 5 0 5 1 5 3 1 10 5 5 3 2 10
split_gain=1.41481e+09 2.50305e+08 1.37533e+08 7.8214e+07 3.6442e+07 3.61064e+07 2.48538e+07 1.72045e+07 1.51473e+07 1.48384e+07 1.3532e+07 1.3042e+07 1.06659e+07 1.02174e+07 1.01229e+07 7.07392e+06 6.8653e+06 6.63495e+06 6.29262e+06 6.22698e+06 5.44321e+06 5.43178e+06 3.95439e+06 3.82884e+06 3.63455e+06 3.24372e+06 3.12464e+06 2.5883e+06 2.50108e+06 2.45642e+06
threshold=7.8327748557720538 2.6715522979179203 16.76067604892329 1.0000000180025095e-35 4.3044480482961509 1.376729769885745 -74.019543499999983 0.030948347677949604 11.042438581272803 40.648766000000002 40.698907500000011 -74.019543499999983 40.706852500000018 2012.5000000000002 2012.5000000000002 0.79834562202306403 -74.019543499999983 2012.5000000000002 -73.794164999999978 2012.5000000000002 40.736702500000014 2012.5000000000002 40.754668594726574 40.735877500000008 4.5634162993499805 2012.5000000000002 2012.5000000000002 40.816753000000013 -74.019543499999983 12.620989237435376
decision_type=2 2 2 2 2 2 2 2 2 2 2 2 2 2 2 2 2 2 2 2 2 2 2 2 2 2 2 2 2 2
left_child=1 5 8 6 10 7 25 11 26 -6 20 -1 23 -10 24 -9 -11 -12 -13 27 -3 -14 -20 -7 -8 -4 -2 -18 -19 -5
right_child=2 4 3 29 9 12 14 15 13 16 17 18 21 -15 -16 -17 19 28 22 -21 -22 -23 -24 -25 -26 -27 -28 -29 -30 -31
leaf_value=41.457083609845434 19.670537680792236 14.442901687722056 46.451051634099045 27.304984918814775 25.80708983435661 11.891736519025679 34.380016843467693 7.9231493725303448 23.664064118409026 32.55059325850673 11.733833738531697 12.640766955544448 9.599327538956608 28.249373651532508 39.061091910170006 8.864998009685884 14.385741740641354 37.349024853812978 24.639772608957795 17.022791922441488 20.340826402106995 10.67648950776346 68.47609009828389 16.048314645487814 27.225939840762408 56.946563818263186 22.986317968184601 17.749132600723676 13.415455385770747 13.690589549693239
leaf_weight=7978 301218 144032 28685 6106 62719 253441 308395 6666653 514969 10111 2583221 105372 5312466 341461 260884 6811637 1138351 1847 12058 770544 122207 3151118 937 148490 33237 21970 199672 105640 1520707 67471
leaf_count=7978 301218 144032 28685 6106 62719 253441 308395 6666653 514969 10111 2583221 105372 5312466 341461 260884 6811637 1138351 1847 12058 770544 122207 3151118 937 148490 33237 21970 199672 105640 1520707 67471
internal_value=0 -1.81284 25.1645 36.2663 3.67337 -3.38993 39.7482 -4.41321 19.2202 7.1109 2.03216 7.20169 -1.81963 21.775 37.9596 -4.52209 6.64164 1.58416 4.564 6.51118 8.94096 -2.05866 25.3263 3.21362 34.3777 61.0225 14.852 5.12748 3.23998 5.3568
internal_weight=0 2.89295e+07 2.08407e+06 726748 6.45938e+06 2.24702e+07 653171 1.36046e+07 1.35732e+06 2.08736e+06 4.37201e+06 126345 8.86552e+06 856430 602516 1.34783e+07 2.02465e+06 4.10578e+06 118367 2.01454e+06 266239 8.46358e+06 12995 401931 341632 50655 500890 1.24399e+06 1.52255e+06 73577
internal_count=31013597 28929529 2084068 726748 6459379 22470150 653171 13604635 1357320 2087365 4372014 126345 8865515 856430 602516 13478290 2024646 4105775 118367 2014535 266239 8463584 12995 401931 341632 50655 500890 1243991 1522554 73577
shrinkage=1


Tree=1
num_leaves=31
num_cat=0
split_feature=9 9 9 11 3 1 1 8 2 3 1 3 1 1 3 3 9 3 5 5 3 2 5 3 2 10 10 10 2 1
split_gain=1.83059e+08 2.91789e+07 2.64989e+07 9.11958e+06 7.71465e+06 1.03514e+07 8.25301e+06 3.87497e+06 3.75211e+06 3.57886e+06 3.37191e+06 3.24211e+06 4.79275e+06 3.25191e+06 2.98487e+06 2.85175e+06 2.622e+06 2.6025e+06 2.44799e+06 2.20811e+06 2.20012e+06 2.06298e+06 2.05124e+06 3.7302e+06 2.00129e+06 1.88896e+06 1.88556e+06 1.82243e+06 1.78168e+06 1.77925e+06
threshold=5.9733738827852543 2.0614911348050158 14.919130008375694 1.0000000180025095e-35 40.724129361572274 40.722756000000011 40.748229000000016 6.5000000000000009 -74.019543499999983 40.807411596923835 40.693559776977544 40.724129361572274 40.746640500000005 40.72326850000001 40.745472500000005 40.672569730102545 19.590063771861498 40.672569730102545 2011.5000000000002 2012.5000000000002 40.711357058349613 -74.019543499999983 2011.5000000000002 40.855100500000006 -74.019543499999983 4.5634162993499805 12.620989237435376 18.94678790928776 -74.019543499999983 40.792302500000005
decision_type=2 2 2 2 2 2 2 2 2 2 2 2 2 2 2 2 2 2 2 2 2 2 2 2 2 2 2 2 2 2
left_child=1 11 7 8 6 10 15 -2 20 24 -6 12 25 14 -13 -3 -10 -8 -9 -15 -4 -5 27 -24 -7 -1 -11 -18 -20 -26
right_child=2 4 3 21 5 9 17 18 16 26 -12 13 -14 19 -16 -17 22 -19 28 -21 -22 -23 23 -25 29 -27 -28 -29 -30 -31
leaf_value=3.9097956595417291 2.1005275991258694 3.0140942187407238 12.823942266197683 18.562864723403841 6.6493963059972838 9.7981806286177733 7.3686701555426586 3.3101741894057497 6.65145847793546 11.22505791345715 1.8854185844844114 -0.55246382153381013 2.4044395946780206 -1.282469863113294 2.1153142107913867 -0.06330677844523859 7.9399246346776788 2.8612932936124107 15.286557608045888 -0.78714723807348919 27.82892489082009 0.54713728402693129 10.226930262026492 46.617943962408411 -0.31402500548611861 -0.65065487002392663 1.7943267235304428 -6.2254434847869788 4.9674308869422354 1.3492412171678805
leaf_weight=39233 455437 149850 47237 2791 67950 8409 58186 601658 240403 9245 823672 648542 266332 10209127 243810 842612 193267 774762 7136 6059422 4524 71015 288133 1195 5815566 1752275 287817 3915 755026 285050
leaf_count=39233 455437 149850 47237 2791 67950 8409 58186 601658 240403 9245 823672 648542 266332 10209127 243810 842612 193267 774762 7136 6059422 4524 71015 288133 1195 5815566 1752275 287817 3915 755026 285050
internal_value=0 -0.745937 7.91292 12.5136 0.726752 0.266842 2.5654 5.75711 13.5206 -0.177482 3.4592 -1.44502 -0.258938 -1.58725 0.271433 0.617453 12.9348 4.8864 6.60048 -1.6892 21.7468 1.88986 14.2699 15.965 -0.342303 -0.847359 3.21204 11.7826 7.79084 -0.363553
internal_weight=0 2.83419e+07 2.67174e+06 852480 9.12312e+06 7.29771e+06 1.82541e+06 1.81926e+06 778674 6.40609e+06 891622 1.92187e+07 2.05784e+06 1.71609e+07 892352 992462 726913 832948 1.36382e+06 1.62685e+07 51761 73806 486510 289328 6.10902e+06 1.79151e+06 297062 197182 762162 6.10062e+06
internal_count=31013597 28341860 2671737 852480 9123119 7297709 1825410 1819257 778674 6406087 891622 19218741 2057840 17160901 892352 992462 726913 832948 1363820 16268549 51761 73806 486510 289328 6109025 1791508 297062 197182 762162 6100616
shrinkage=0.65


Tree=2
num_leaves=31
num_cat=0
split_feature=9 9 3 0 2 5 10 2 5 9 3 3 1 3 3 1 1 8 8 10 8 5 2 3 2 2 10 2 3 1
split_gain=2.64862e+07 6.79924e+06 3.93473e+06 5.35107e+06 2.89772e+06 2.01808e+06 1.8857e+06 2.03946e+06 1.78148e+06 1.59413e+06 1.5709e+06 1.51051e+06 2.11771e+06 1.49806e+06 1.34517e+06 1.78294e+06 1.53841e+06 1.33823e+06 1.63985e+06 1.11586e+06 1.07426e+06 1.05904e+06 1.03691e+06 1.02269e+06 2.3982e+06 1.2162e+06 1.00181e+06 937255 929316 852524
threshold=9.3712099520553132 3.3713068435774445 40.855100500000006 -73.928652499999984 -74.019543499999983 2011.5000000000002 1.3645109612784132 -74.010102499999988 2011.5000000000002 0.57154439764622389 40.839519000000003 40.683551301513681 40.726667500000005 40.855100500000006 40.712799000000011 40.707577000000015 40.721466032226573 18.500000000000004 4.5000000000000009 19.802165703694538 7.5000000000000009 2011.5000000000002 -73.946056499999983 40.732084500000006 -73.825563499999987 -73.979741499999989 21.2400879064446 -74.019543499999983 40.761787707275396 40.678462083740243
decision_type=2 2 2 2 2 2 2 2 2 2 2 2 2 2 2 2 2 2 2 2 2 2 2 2 2 2 2 2 2 2
left_child=1 4 6 -4 21 -6 23 -8 -3 13 11 12 -10 -7 16 -16 -11 18 -9 29 -17 -1 -12 24 25 -2 28 -21 -22 -13
right_child=2 8 3 -5 5 9 7 17 10 14 22 19 -14 -15 15 20 -18 -19 -20 27 26 -23 -24 -25 -26 -27 -28 -29 -30 -31
leaf_value=3.3362856268478254 2.3284842883539163 0.14734196698782176 5.0252164581334462 23.360123623835893 -0.48609070761315681 -0.65242892206116487 5.0964581288444846 -0.11973328708770238 -0.077187950592756044 -0.34488824448551092 25.342085520278971 4.2784155376811484 5.0897594931394821 18.970631125472419 2.0380558399758795 -0.58382936083796555 1.7295370527391374 0.33178963343475004 2.3387604672531452 8.355088179217903 0.31179219666249552 11.271442837838952 3.5786192861597166 4.3341660899790337 4.0080450215924506 -1.8551639634864365 0.12485905897351023 1.1212947600381566 -0.59762397950025514 0.11768227332907655
leaf_weight=23229 58169 1943412 35986 8271 11635937 2081871 75517 134022 56837 250768 936 21301 81671 1645 166389 1671957 379815 267193 792170 7616 639218 10238 78232 225041 176392 59272 6201232 1188318 1845151 895791
leaf_count=23229 58169 1943412 35986 8271 11635937 2081871 75517 134022 56837 250768 936 21301 81671 1645 166389 1671957 379815 267193 792170 7616 639218 10238 78232 225041 176392 59272 6201232 1188318 1845151 895791
internal_value=0 -0.231551 3.68826 13.0027 -0.431507 -0.444018 3.45768 2.80093 0.933695 -0.176972 1.52323 1.36928 4.56845 -0.979901 -0.0269961 -0.112001 1.39167 2.48202 3.05079 1.15958 -0.16417 8.86732 5.90143 5.06374 3.83511 0.333867 -0.0228713 1.79594 -0.559438 0.329727
internal_weight=0 2.91816e+07 1.83203e+06 44257 2.49074e+07 2.4874e+07 1.78778e+06 1.2689e+06 4.27411e+06 1.3238e+07 2.3307e+06 2.25153e+06 138508 2.08352e+06 1.11545e+07 1.05239e+07 630583 1.19338e+06 926192 2.11303e+06 1.03576e+07 33467 79168 518874 293833 117441 8.6856e+06 1.19593e+06 2.48437e+06 917092
internal_count=31013597 29181564 1832033 44257 24907450 24873983 1787776 1268902 4274114 13238046 2330702 2251534 138508 2083516 11154530 10523947 630583 1193385 926192 2113026 10357558 33467 79168 518874 293833 117441 8685601 1195934 2484369 917092
shrinkage=0.65


Tree=3
num_leaves=31
num_cat=0
split_feature=10 3 3 1 9 3 1 2 1 1 3 3 1 1 3 3 1 0 1 0 10 1 3 3 9 9 5 2 2 5
split_gain=4.41809e+06 1.83153e+06 1.67895e+06 3.84928e+06 1.69199e+06 1.53558e+06 2.3189e+06 1.37712e+06 1.14569e+06 1.13937e+06 5.39267e+06 1.8476e+06 5.1253e+06 1.34765e+06 2.797e+06 1.83663e+06 4.32191e+06 1.40526e+06 1.13783e+06 1.13143e+06 1.12104e+06 1.05634e+06 1.04641e+06 975198 972121 4.41212e+06 8.50865e+07 1.96854e+08 926002 867162
threshold=12.620989237435376 40.839519000000003 40.797291901000982 40.773639339477548 0.030948347677949604 40.691204500000005 40.702401500000001 -73.967268499999975 40.733269500000013 40.781684937744153 40.767605500000009 40.774742063232431 40.759675500000007 40.764213500000004 40.754937500000004 40.757821064697275 40.74261878039551 -73.972486499999988 40.797688500000014 -73.885581499999986 22.073875839190581 40.758587500000012 40.740061500000003 40.739742639526376 3.0550476765602572 3.0206831846019138 2014.5000000000002 -73.989991499999988 -73.825563499999987 2010.5000000000002
decision_type=2 2 2 2 2 2 2 2 2 2 2 2 2 2 2 2 2 2 2 2 2 2 2 2 2 2 2 2 2 2
left_child=1 29 5 8 20 6 -2 9 -4 11 23 13 -13 15 17 21 -17 -15 -9 -3 -5 -7 -23 24 25 -11 -27 -28 -21 -1
right_child=2 19 3 4 -6 7 -8 18 -10 10 -12 12 -14 14 -16 16 -18 -19 -20 28 -22 22 -24 -25 -26 26 27 -29 -30 -31
leaf_value=0.14972623754311207 -1.1658061315527704 1.0359024896957765 3.9239194351514679 5.0276833640957479 -0.50837419208037682 -0.39546714393466148 1.4539375478473047 -0.45076932339237857 1.4893225850146488 4.6863761993279365 -0.91772979406893851 2.300368551964711 -0.34295159857493673 1.5868510471741997 -0.34978613229477268 1.4167215504238695 -0.2714245476272989 0.32138682390637524 1.4928538960652222 6.1293651641310642 24.282772798608413 0.89765564622010252 -0.21739379688226726 1.2956807463636251 2.2046319162071573 3.5006334479812424 2464.7770634527506 5.3477375220168728 16.9763872606459 1.1248688419600539
leaf_weight=536454 189361 18048 98557 5322 646203 11034655 580018 5559475 476495 38029 604149 498983 817940 674699 1572136 917754 2122792 822999 130238 23436 1681 549851 1006427 588666 126804 1129 20 44 3875 1367357
leaf_count=536454 189361 18048 98557 5322 646203 11034655 580018 5559475 476495 38029 604149 498983 817940 674699 1572136 917754 2122792 822999 130238 23436 1681 549851 1006427 588666 126804 1129 20 44 3875 1367357
internal_value=0 1.45746 -0.0977428 1.04645 -0.614569 -0.14823 1.24486 -0.187829 2.9332 -0.0714591 0.814648 -0.131608 1.01324 -0.212227 0.393525 -0.331189 0.366343 1.37149 -0.625046 7.73749 14.8457 -0.499634 0.27164 2.59705 4.73751 9.08836 68.9703 1190.65 11.7975 1.30784
internal_weight=0 1.94917e+06 2.90644e+07 1.22826e+06 653206 2.78362e+07 769379 2.70668e+07 575052 2.13771e+07 1.35884e+06 2.00182e+07 1.31692e+06 1.87013e+07 3.06983e+06 1.56315e+07 3.04055e+06 1.4977e+06 5.68971e+06 45359 7003 1.25909e+07 1.55628e+06 754692 166026 39222 1193 64 27311 1.90381e+06
internal_count=31013597 1949170 29064427 1228258 653206 27836169 769379 27066790 575052 21377077 1358841 20018236 1316923 18701313 3069834 15631479 3040546 1497698 5689713 45359 7003 12590933 1556278 754692 166026 39222 1193 64 27311 1903811
shrinkage=0.65


Tree=4
num_leaves=31
num_cat=0
split_feature=6 5 5 9 2 9 9 5 3 3 2 5 8 8 2 5 9 9 7 8 11 3 3 3 0 9 3 1 8 3
split_gain=1.46931e+06 1.41018e+06 1.22662e+06 1.07833e+06 923857 792613 695657 670800 634982 637139 709820 627983 604168 872168 602668 568278 561821 495879 471604 451023 442050 602084 394781 393281 725746 390980 379234 370274 337914 289039
threshold=8.5000000000000018 2012.5000000000002 2011.5000000000002 12.238262477208098 -74.019543499999983 0.11478012684638655 24.913817248407813 2012.5000000000002 40.664083480834968 40.825389500000007 -73.782434499999979 2012.5000000000002 19.500000000000004 7.5000000000000009 -73.956230081787098 2011.5000000000002 1.9343348578248465 2.6715522979179203 5.5000000000000009 7.5000000000000009 1.0000000180025095e-35 40.683551301513681 40.644509500000005 1.0000000180025095e-35 -74.016106325927709 1.7406022389512839 40.637260000000005 40.678462083740243 7.5000000000000009 40.637260000000005
decision_type=2 2 2 2 2 2 2 2 2 2 2 2 2 2 2 2 2 2 2 2 2 2 2 2 2 2 2 2 2 2
left_child=1 5 28 11 6 -1 -3 -5 23 12 14 25 13 -10 -11 19 -15 -17 -18 -7 22 -22 -8 24 -6 -4 27 -25 -2 -13
right_child=2 4 3 7 8 15 20 -9 9 10 -12 29 -14 16 -16 17 18 -19 -20 -21 21 -23 -24 26 -26 -27 -28 -29 -30 -31
leaf_value=1.4626159194143695 -0.37938603771350249 2.6080018854817406 0.4265275964143177 3.427870932713236 28.940952856043683 -0.46519649899123972 0.88908214145844966 1.0533151444477868 -0.28895241108705294 18.732651331074091 18.116940023630715 4.0101071409745135 -0.27578278774435266 0.11419880263476448 1.3615891447378066 -0.31811209984228128 0.78103679833038808 -0.87329508233348463 0.033471357525392369 -0.097206805515275274 63.317521771865827 11.234376082981013 16.739024648309389 0.39967577538805277 -1.1375452417752216 1.0893962158988133 1.3707365067519779 6.1549326071296591 0.063162082487904003 0.19208258414448362
leaf_weight=115758 893239 28748 863308 74205 343 1721573 1162 155791 1489583 851 1099 8401 1839227 3152616 100076 2378796 1274216 951644 495060 7705985 164 219 1549 6897 28503 665948 106894 14984 3964027 2972731
leaf_count=115758 893239 28748 863308 74205 343 1721573 1162 155791 1489583 851 1099 8401 1839227 3152616 100076 2378796 1274216 951644 495060 7705985 164 219 1549 6897 28503 665948 106894 14984 3964027 2972731
internal_value=0 -0.145712 0.325137 0.687016 0.169307 -0.354738 5.5457 2.79913 0.149191 0.111668 2.59533 0.579314 0.0809552 0.22589 2.32009 -0.378373 0.428792 -0.733463 0.879786 -0.252932 19.7933 51.5943 15.3005 2.13764 -1.19983 1.10029 2.88524 6.67823 -0.0280329 0.312065
internal_weight=0 2.14159e+07 9.59765e+06 4.74038e+06 8.54219e+06 1.28738e+07 31842 229996 8.51035e+06 8.35273e+06 102026 4.51039e+06 8.2507e+06 6.41148e+06 100927 1.2758e+07 4.92189e+06 3.33044e+06 1.76928e+06 9.42756e+06 3094 383 2711 157621 28846 1.52926e+06 128775 21881 4.85727e+06 2.98113e+06
internal_count=31013597 21415947 9597650 4740384 8542191 12873756 31842 229996 8510349 8352728 102026 4510388 8250702 6411475 100927 12757998 4921892 3330440 1769276 9427558 3094 383 2711 157621 28846 1529256 128775 21881 4857266 2981132
shrinkage=0.65


Tree=5
num_leaves=31
num_cat=0
split_feature=8 8 7 9 11 9 3 1 1 9 3 1 1 3 2 2 7 3 1 9 3 8 1 3 3 3 1 2 5 1
split_gain=858838 869648 896897 697636 478011 411355 365222 949694 452584 436079 338756 1.28835e+06 728444 552235 425880 316704 312362 294155 512693 287417 268799 276586 250398 666572 612283 282057 314462 243892 240810 235423
threshold=18.500000000000004 8.5000000000000018 5.5000000000000009 1.7109809442748201 1.0000000180025095e-35 2.6715522979179203 40.782152500000009 40.738724377441415 40.788552500000009 2.6715522979179203 40.73068609387208 40.739386500000009 40.730548429321296 40.753790500000008 -73.967646499999987 -73.789956999999987 1.5000000000000002 40.788141500000016 40.768039000000009 3.0550476765602572 40.648766000000002 7.5000000000000009 40.732947500000009 40.742095973632821 40.732576500000008 40.698907500000011 40.693559776977544 -73.987576499999989 2013.5000000000002 40.761950500000005
decision_type=2 2 2 2 2 2 2 2 2 2 2 2 2 2 2 2 2 2 2 2 2 2 2 2 2 2 2 2 2 2
left_child=1 6 3 -3 16 10 8 15 9 22 11 -2 13 -12 29 27 -5 -14 -19 -7 -11 -22 23 25 -24 -1 -27 -8 -18 -13
right_child=5 2 -4 4 -6 19 7 -9 -10 20 12 14 17 -15 -16 -17 28 18 -20 -21 21 -23 24 -25 -26 26 -28 -29 -30 -31
leaf_value=0.72026951752220891 -0.27787897167284958 0.11517150483346748 -0.10311691737565708 0.11563008098725629 -2.0269679345143041 -0.85866342501794146 16.129955652156873 -0.022553177316275274 0.85981145150107474 0.53822167522569553 0.174499050134762 0.7282027288379791 -0.30583493515262261 1.6814966582135948 4.0342581376183233 14.919319939585263 0.46189216864401983 1.6176990690568747 -0.15013602049206157 -0.28992599953337528 -0.62712375532380749 0.061737764253208018 0.52691087604444331 0.92293750859992307 -0.29775603979954585 2.2486722142906088 -0.39665708040176578 1.7609314672421077 0.86879810953592518 2.042925380490785
leaf_weight=131542 869549 6414852 4092486 871156 32745 458264 501 645136 175252 108358 445811 421515 3952577 133502 19128 784 2881196 93450 268321 2076625 1521699 293807 443927 350557 2657430 19552 655969 130194 781069 66643
leaf_count=131542 869549 6414852 4092486 871156 32745 458264 501 645136 175252 108358 445811 421515 3952577 133502 19128 784 2881196 93450 268321 2076625 1521699 293807 443927 350557 2657430 19552 655969 130194 781069 66643
internal_value=0 0.104784 0.240928 0.389842 0.688594 -0.264279 -0.182845 0.464522 -0.261919 -0.306837 -0.126855 0.311342 -0.250142 0.802746 1.57782 2.91407 0.716092 -0.391519 0.471566 -0.604221 -0.70198 -0.793298 -0.128343 0.268534 -0.276482 -0.231577 -0.492449 2.79387 0.844115 1.39644
internal_weight=0 2.22082e+07 1.50735e+07 1.0981e+07 4.56617e+06 8.80538e+06 7.13471e+06 776615 6.35809e+06 6.18284e+06 6.2705e+06 1.37684e+06 4.89366e+06 579313 507286 131479 4.53342e+06 4.31435e+06 361771 2.53489e+06 1.92386e+06 1.81551e+06 4.25898e+06 1.15762e+06 3.10136e+06 807063 675521 130695 3.66226e+06 488158
internal_count=31013597 22208212 15073504 10981018 4566166 8805385 7134708 776615 6358093 6182841 6270496 1376835 4893661 579313 507286 131479 4533421 4314348 361771 2534889 1923864 1815506 4258977 1157620 3101357 807063 675521 130695 3662265 488158
shrinkage=0.65


Tree=6
num_leaves=31
num_cat=0
split_feature=1 3 2 3 10 2 11 1 3 9 1 9 0 3 9 3 1 2 9 1 9 2 0 10 9 3 11 2 3 9
split_gain=654791 1.41473e+06 1.1003e+06 891064 759113 645193 1.11193e+06 545860 535085 567087 529294 511293 403642 360348 463210 327862 1.23191e+06 772839 630338 660174 381477 347504 401097 855308 339889 326219 309594 383801 560902 308844
threshold=40.710588500000007 40.735399000000008 -73.858997999999971 40.683551301513681 8.8324157999972872 -73.825563499999987 1.0000000180025095e-35 1.0000000180025095e-35 40.855100500000006 24.913817248407813 40.768622500000006 2.0614911348050158 -73.783590499999974 40.698907500000011 24.913817248407813 40.719730500000004 40.72752400000001 -73.966881399169907 7.8327748557720538 40.755568500000003 1.376729769885745 -73.998432499999964 -73.998938499999994 22.874620756006387 4.3044480482961509 40.683551301513681 1.0000000180025095e-35 -74.011893613037088 40.776744000000008 16.76067604892329
decision_type=2 2 2 2 2 2 2 2 2 2 2 2 2 2 2 2 2 2 2 2 2 2 2 2 2 2 2 2 2 2
left_child=1 11 7 10 -5 12 8 -3 9 -7 -2 -1 15 14 -13 16 24 20 19 -19 -18 26 -23 -24 -6 -16 27 -17 -29 -12
right_child=3 2 -4 4 5 6 -8 -9 -10 -11 29 13 -14 -15 25 21 17 18 -20 -21 -22 22 23 -25 -26 -27 -28 28 -30 -31
leaf_value=0.34418969387960424 0.47105012991745299 -2.4328619420040227 6.0693567172169622 -1.5680084618015087 -0.33707613744669013 7.3150483324552136 -3.8257867865209798 1.0492808297303871 4.1003771390793435 23.226850687354965 3.0013380211257834 -1.5110110450152643 -5.0283861167034836 -0.069024138249686673 1.2444534055567091 1.6894817896207197 1.0564920143366341 1.3101157910832244 -0.92829431843667098 3.9816098782853562 0.17697370283263564 -0.27286059214639619 -0.062553128146864853 0.26664251453179166 -1.6961283371927973 11.996911915011752 -8.6847981788118975 -0.29520564594059601 8.3886440139107528 0.79075893710687339
leaf_weight=453444 515274 19566 18214 136505 621174 2004 4194 681847 4069 1793 61941 199466 6834 229076 14873 42161 256801 125162 33384 56826 1104455 2490548 16718779 4165368 88872 1296 1843 2907745 3146 46937
leaf_count=453444 515274 19566 18214 136505 621174 2004 4194 681847 4069 1793 61941 199466 6834 229076 14873 42161 256801 125162 33384 56826 1104455 2490548 16718779 4165368 88872 1296 1843 2907745 3146 46937
internal_value=0 0.619381 1.6641 -0.0340873 -0.0597306 -0.0485157 7.26422 1.46484 14.2756 22.8136 1.148 -0.217676 -0.0515968 -0.979548 -1.90734 -0.0497617 0.31345 0.806017 2.56619 3.29891 0.527531 -0.0813059 -0.0404593 0.00477744 -0.780277 3.24046 -0.404423 -0.396337 -0.439724 3.15133
internal_weight=0 1.61778e+06 719627 2.93958e+07 2.87717e+07 2.86352e+07 12060 701413 7866 3797 624152 898155 2.86231e+07 444711 215635 2.86163e+07 2.28667e+06 1.57663e+06 215372 181988 1.36126e+06 2.63296e+07 2.33747e+07 2.08841e+07 710046 16169 2.9549e+06 2.95305e+06 2.91089e+06 108878
internal_count=31013597 1617782 719627 29395815 28771663 28635158 12060 701413 7866 3797 624152 898155 28623098 444711 215635 28616264 2286674 1576628 215372 181988 1361256 26329590 23374695 20884147 710046 16169 2954895 2953052 2910891 108878
shrinkage=0.65


Tree=7
num_leaves=31
num_cat=0
split_feature=9 9 3 10 6 8 8 3 1 4 5 9 1 9 3 3 3 1 0 9 9 10 9 10 9 10 0 7 1 3
split_gain=501978 356615 353347 284037 267150 232423 287976 219935 258484 181722 167295 163386 249089 1.25826e+07 1.29535e+08 237457 145601 249595 188669 161509 154535 143528 168296 142916 135412 133004 211837 122531 121468 174021
threshold=0.11478012684638655 0.40152051980010678 40.855100500000006 25.918610701882695 3.5000000000000004 19.500000000000004 7.5000000000000009 40.698907500000011 40.646667240234386 4.5000000000000009 2013.5000000000002 3.0206831846019138 40.792302500000005 3.0550476765602572 40.739087500000004 40.74945034179688 40.765927500000011 40.755769000000008 -73.964693499999996 1.376729769885745 2.6715522979179203 17.915172280004157 2.6715522979179203 18.270396441217034 4.3044480482961509 10.935142529993188 -73.863575999999981 2.5000000000000004 40.768622500000006 40.733393000000007
decision_type=2 2 2 2 2 2 2 2 2 2 2 2 2 2 2 2 2 2 2 2 2 2 2 2 2 2 2 2 2 2
left_child=2 23 3 -1 -3 6 16 8 -5 25 -8 -12 -13 14 -14 -16 19 18 20 -6 -18 -19 -23 -2 -20 -4 -27 -7 -21 -30
right_child=1 4 9 7 5 27 10 -9 -10 -11 11 12 13 -15 15 -17 17 21 24 28 -22 22 -24 -25 -26 26 -28 -29 29 -31
leaf_value=0.6548729408724494 0.93731121042763421 -0.093610874003026825 -4.0813716729958562 1.5653520678951915 0.060108119675849579 -0.25123970144688446 0.095489002805873316 2.2298597238684255 13.109349831683401 -11.914029446424227 0.19409302622433128 0.51410494387955963 1350.4989064162435 0.61002584537775095 -70.866558031128207 -0.73411518047962865 1.1148401134632555 0.54438972343947412 3.8755363807959782 -0.32428653990828082 0.16835007843435262 -0.057802134022400094 -0.95213112292650059 -0.31076615808624686 1.0639159446832507 7.2123143996686458 20.893600907480664 -0.015664846099079335 0.93992150679343078 -0.17687806214505092
leaf_weight=239703 39611 7692735 271 1421 1090754 1273950 9989974 11283 1936 178 1919593 540905 33 17735 22 280 96787 107173 11135 1604986 295090 341583 120179 1812353 20675 1670 670 3484106 81120 215686
leaf_count=239703 39611 7692735 271 1421 1090754 1273950 9989974 11283 1936 178 1919593 540905 33 17735 22 280 96787 107173 11135 1604986 295090 341583 120179 1812353 20675 1670 670 3484106 81120 215686
internal_value=0 -0.0116326 1.39141 1.26866 0.0156236 0.0735193 0.12981 5.54472 12.6505 12.586 0.204603 0.437152 0.912942 4.56521 196.564 -8.98939 -0.104198 0.227687 0.808765 -0.214284 0.618642 -0.205043 -0.447018 -0.437033 3.15095 14.6936 17.1225 -0.121137 -0.390222 0.197468
internal_weight=0 3.07565e+07 257132 254343 2.89045e+07 2.12118e+07 1.64537e+07 14640 3357 2789 1.24685e+07 2.47857e+06 558975 18070 335 302 3.98517e+06 992622 423687 2.99255e+06 391877 568935 461762 1.85196e+06 31810 2611 2340 4.75806e+06 1.90179e+06 296806
internal_count=31013597 30756465 257132 254343 28904501 21211766 16453710 14640 3357 2789 12468542 2478568 558975 18070 335 302 3985168 992622 423687 2992546 391877 568935 461762 1851964 31810 2611 2340 4758056 1901792 296806
shrinkage=0.65


Tree=8
num_leaves=31
num_cat=0
split_feature=4 9 9 3 1 9 2 3 3 9 1 2 2 9 9 3 9 9 9 3 2 5 1 3 0 10 3 10 0 3
split_gain=211791 178376 529774 349474 564609 307031 249950 291200 656849 301689 248265 586193 247252 235200 225227 203774 208912 319245 201200 192195 185666 281974 197090 187882 183175 180773 202016 294780 212148 170011
threshold=1.5000000000000002 4.3044480482961509 3.7788638745063934 40.816753000000013 40.783844500000008 4.7979666856992269 -73.943443999999985 40.707989369506841 40.763277500000008 7.8327748557720538 40.734631292358408 -73.825563499999987 -73.965247499999975 2.6715522979179203 2.9854706184362563 40.754096000000011 19.590063771861498 12.720539757802127 2.3919623991316175 40.664083480834968 -73.782434499999979 2010.5000000000002 40.702401500000001 40.855100500000006 -73.938072999999989 25.918610701882695 1.0000000180025095e-35 8.8324157999972872 -73.794164999999978 40.855100500000006
decision_type=2 2 2 2 2 2 2 2 2 2 2 2 2 2 2 2 2 2 2 2 2 2 2 2 2 2 2 2 2 2
left_child=1 2 3 13 12 -3 15 10 9 -9 -8 19 -5 18 -15 24 17 29 -1 -12 -10 23 -23 -22 -7 26 28 -28 -13 -17
right_child=-2 5 -4 4 -6 6 7 8 20 -11 11 25 -14 14 -16 16 -18 -19 -20 -21 21 22 -24 -25 -26 -27 27 -29 -30 -31
leaf_value=-0.030198229851231523 0.081060011414204478 -0.68815415755258313 0.55947394061134714 18.120508936444192 0.20142378123428575 0.17827561738369965 -0.55071116116625596 -0.54090279090515414 -0.17281873516255647 -1.9763478064625635 5.9334586965467082 -2.5722006463435512 3.2376152704492305 -0.50203506021819411 -0.081239426329541106 0.33216072436570071 -0.54846175898948824 1.9580307464754672 0.28451294726925574 2.2458996437778831 3.1738135816579964 12.899512091999503 3.53173658506048 -7.8715950207788916 -0.47284370991537383 11.133567718051534 0.21633035805584216 14.625594635053258 37.168922485594166 8.5317501225257448
leaf_weight=14696906 9462999 437528 659937 479 79786 381462 99876 105336 560310 149880 7320 13068 30607 841363 1487585 433953 86693 59467 911514 32418 1256 1235 4096 1350 350068 621 114753 603 57 1071
leaf_count=14696906 9462999 437528 659937 479 79786 381462 99876 105336 560310 149880 7320 13068 30607 841363 1487585 433953 86693 59467 911514 32418 1256 1235 4096 1350 350068 621 114753 603 57 1071
internal_value=0 -0.0547599 -0.0192977 -0.051476 1.71846 -0.288165 -0.147979 -0.50142 -0.796387 -2.12907 0.402487 1.14176 5.33376 -0.0624161 -0.358857 0.146084 0.58811 0.839147 -0.0181838 4.50026 -0.197843 4.60483 8.77217 -3.92015 -0.205096 0.107999 0.0257315 0.448695 -3.69171 0.542073
internal_weight=0 2.15506e+07 1.87082e+07 1.80482e+07 110872 2.84242e+06 2.40489e+06 1.09218e+06 823463 255216 268716 168840 31086 1.79374e+07 2.32895e+06 1.31271e+06 581184 494491 1.56084e+07 39738 568247 7937 5331 2606 731530 129102 128481 115356 13125 435024
internal_count=31013597 21550598 18708177 18048240 110872 2842421 2404893 1092179 823463 255216 268716 168840 31086 17937368 2328948 1312714 581184 494491 15608420 39738 568247 7937 5331 2606 731530 129102 128481 115356 13125 435024
shrinkage=0.65


Tree=9
num_leaves=31
num_cat=0
split_feature=1 3 3 9 3 1 9 1 9 9 1 9 9 9 5 9 1 10 5 1 9 2 3 1 10 10 0 0 2 9
split_gain=219251 2.56367e+06 1.36912e+06 621590 768869 582172 510313 772452 494224 355365 363799 263440 261164 527813 3.2515e+06 4.10583e+06 7.14307e+06 9.72428e+06 733953 3.82772e+06 5.09211e+06 250729 234068 531871 228023 227832 283997 241269 208551 479448
threshold=40.737067500000009 40.747240500000011 40.734203500000007 1.376729769885745 40.774742063232431 40.774609500000018 1.376729769885745 40.750416500000007 3.3713068435774445 12.720539757802127 40.81907600000001 2.6715522979179203 2.9854706184362563 3.0550476765602572 2014.5000000000002 3.0206831846019138 40.782239000000011 21.537709174866588 2013.5000000000002 40.793762500000007 3.0206831846019138 -73.990181499999977 40.805174390625005 40.781684937744153 25.918610701882695 20.344865350832922 -73.986929499999988 -73.874468999999991 -73.964382499999985 7.8327748557720538
decision_type=2 2 2 2 2 2 2 2 2 2 2 2 2 2 2 2 2 2 2 2 2 2 2 2 2 2 2 2 2 2
left_child=1 -1 5 -3 -5 6 7 -2 -6 11 -11 21 -7 14 18 -16 -17 -18 -14 -20 -21 -4 25 -24 -13 27 -27 -23 -8 -30
right_child=2 3 9 4 8 12 28 -9 -10 10 -12 24 13 -15 15 16 17 -19 19 20 -22 22 23 -25 -26 26 -28 -29 29 -31
leaf_value=-0.17800455211443231 0.32439001136018075 1.2415555453735609 -0.25616174704006195 0.24666346084998675 2.3361479187597434 2.4315221613610332 0.0069382377620142502 1.7074258693915585 0.80666024700328465 0.70309898556503092 -5.3068147159761025 -0.25964874830029849 1.5717770398416022 1.0031998375530427 2.3536100254013981 3.0216552555907605 -69.186115200010448 -654.3149796989436 -0.08797123748932946 4.1468906233185221 -336.99484974990293 -0.24183137254779152 2.0464115914912728 0.039236297453996039 -7.1555127621708063 -0.20466529363492328 0.058192834392707143 1.7261713514187453 1.226715381479855 -0.10858226356006574
leaf_weight=5169912 695844 512884 2628936 1767768 115351 57011 2016272 226047 394633 285046 4320 3890185 2839 256662 98 43 24 24 376 38 36 2540557 73828 228141 2027 2270129 7388958 26595 206586 252427
leaf_count=5169912 695844 512884 2628936 1767768 115351 57011 2016272 226047 394633 285046 4320 3890185 2839 256662 98 43 24 24 376 38 36 2540557 73828 228141 2027 2270129 7388958 26595 206586 252427
internal_value=0 0.143083 -0.0494086 0.915495 0.691543 0.506664 0.385699 1.02078 1.77324 -0.156212 0.943655 -0.172919 1.80238 1.37757 -10.8588 -138.408 -291.363 -556.539 -3.52926 -41.0506 -248.945 -0.113327 -0.0544098 0.815335 -0.404985 -0.0758911 -0.00551608 -0.340682 0.149169 0.757522
internal_weight=0 7.96055e+06 2.3053e+07 2.79064e+06 2.27775e+06 3.71433e+06 3.39718e+06 921891 509984 1.93387e+07 289366 1.90494e+07 317151 260140 3478 189 91 48 3289 450 74 1.51571e+07 1.25282e+07 301969 3.89221e+06 1.22262e+07 9.65909e+06 2.56715e+06 2.47528e+06 459013
internal_count=31013597 7960548 23053049 2790636 2277752 3714327 3397176 921891 509984 19338722 289366 19049356 317151 260140 3478 189 91 48 3289 450 74 15157144 12528208 301969 3892212 12226239 9659087 2567152 2475285 459013
shrinkage=0.65


Tree=10
num_leaves=31
num_cat=0
split_feature=7 5 7 8 9 3 5 3 9 9 9 1 3 10 1 2 3 0 11 2 9 3 1 4 9 1 2 5 6 10
split_gain=179618 174437 158846 188754 151203 338523 312314 276285 535166 357360 223566 216362 223701 201431 191362 176066 192407 163732 174763 159541 358125 270330 152690 148246 137352 131801 129708 173622 158464 137742
threshold=1.5000000000000002 2014.5000000000002 6.5000000000000009 3.5000000000000004 16.76067604892329 -1.0000000180025095e-35 2012.5000000000002 40.644509500000005 7.8327748557720538 4.3044480482961509 21.19537944392038 40.678462083740243 40.694570000000006 4.5634162993499805 40.643694500000009 -74.010850999999988 40.648766000000002 -74.016106325927709 1.0000000180025095e-35 -74.019543499999983 7.8327748557720538 40.754937500000004 40.740178500000006 4.5000000000000009 0.030948347677949604 40.778399000000007 -74.013507499999974 2011.5000000000002 8.5000000000000018 19.575650107109528
decision_type=2 2 2 2 2 2 2 2 2 2 2 2 2 2 2 2 2 2 2 2 2 2 2 2 2 2 2 2 2 2
left_child=-1 2 4 -4 7 6 -6 8 9 14 15 12 -9 -10 -2 16 -7 18 -12 20 21 23 -11 -13 -5 -22 27 -19 -29 -28
right_child=1 -3 3 24 5 10 -8 11 13 22 17 19 -14 -15 -16 -17 -18 26 -20 -21 25 -23 -24 -25 -26 -27 29 28 -30 -31
leaf_value=-0.12908089397350322 0.37405507289477641 0.20874083515389336 0.15545894741740268 1.8764689183063272 -7.5528814960862025 -10.042915632156021 28.97521621433485 -0.015288698691766104 1.2857382757647893 -2.4257416764510888 -2.5424835546679776 2.5856231033008137 1.6721464092462295 5.9601236505169268 2.8760823103762467 -0.76992005364503602 -2.3337086001378062 -0.51857751643401007 7.186857412603552 0.021472764079303177 10.387660911704458 -2.2222428555507725 0.14613467187965495 -4.2975062749562092 -0.20514326717821907 -1.6527893329616719 -0.030550228432051265 1.3090570478267525 6.018801959170152 -1.3478764352322581
leaf_weight=3971389 27265 1902249 829452 13454 145 1527 311 64306 5894 18116 1116 18802 68603 11484 24539 141304 13121 11521 2591 20634089 2381 8753 21127 1422 2928027 458 237705 8811 4591 39044
leaf_count=3971389 27265 1902249 829452 13454 145 1527 311 64306 5894 18116 1116 18802 68603 11484 24539 141304 13121 11521 2591 20634089 2381 8753 21127 1422 2928027 458 237705 8811 4591 39044
internal_value=0 0.0291641 0.00707139 -0.182152 0.0404631 -0.525536 26.7076 0.0529645 1.64512 0.674503 -0.552454 0.0446646 1.31647 6.73037 2.39883 -1.52659 -4.82672 -0.0549774 6.55049 0.0364852 2.27407 1.22392 -1.60175 3.23331 -0.300957 12.9927 -0.136147 2.04889 4.49605 -0.332923
internal_weight=0 2.70422e+07 2.514e+07 3.77093e+06 2.1369e+07 461787 456 2.09072e+07 108425 91047 461331 2.07988e+07 132909 17378 51804 155952 14648 305379 3707 2.06659e+07 31816 28977 39243 20224 2.94148e+06 2839 301672 24923 13402 276749
internal_count=31013597 27042208 25139959 3770933 21369026 461787 456 20907239 108425 91047 461331 20798814 132909 17378 51804 155952 14648 305379 3707 20665905 31816 28977 39243 20224 2941481 2839 301672 24923 13402 276749
shrinkage=0.65


Tree=11
num_leaves=31
num_cat=0
split_feature=1 3 2 10 3 0 1 2 9 9 1 3 9 9 6 3 3 0 3 9 6 5 5 9 2 0 9 9 9 0
split_gain=138354 599177 272768 209986 159889 557610 266251 196026 185594 122131 230578 386817 201499 201441 188879 165250 132935 132455 120883 115079 181459 762222 1.11836e+06 165727 161886 112626 109748 106176 311076 147165
threshold=40.805473500000012 40.780071129272464 -73.978091499999991 12.620989237435376 40.825389500000007 -73.961853513671869 40.764213500000004 -73.964813616210918 16.76067604892329 4.3044480482961509 40.704710500000012 40.717651500000009 2.0614911348050158 3.9514436568387867 9.5000000000000018 40.748491000000008 40.698907500000011 -73.863575999999981 40.648766000000002 13.230410472210087 8.5000000000000018 2010.5000000000002 2009.5000000000002 16.76067604892329 1.0000000180025095e-35 -74.003731499999986 4.3044480482961509 0.79834562202306403 0.99057778216927839 -73.994864499999991
decision_type=2 2 2 2 2 2 2 2 2 2 2 2 2 2 2 2 2 2 2 2 2 2 2 2 2 2 2 2 2 2
left_child=4 2 -2 -3 9 6 26 -7 -9 10 11 17 25 18 19 -14 -15 -1 -12 -11 24 22 -22 -24 -21 -13 -6 -20 -29 -30
right_child=1 3 -4 -5 5 7 -8 8 -10 14 13 12 15 16 -16 -17 -18 -19 27 20 21 -23 23 -25 -26 -27 -28 28 29 -31
leaf_value=-0.20432302636362223 0.68472841727977807 -3.3776863531285768 2.5642630627915883 -0.12667495025941836 3.2607642489710709 10.0373788730002 -0.97671303405055099 2.1079400397638235 -1.8146470183689623 -0.27524001938232262 1.5009539848222517 0.66627665473290687 -0.17580628539918497 -0.79039898564419231 0.14257540679881173 1.2980897944927552 0.46914017707826644 0.80290182541252242 0.058602250061423208 0.109609266341475 0.27656232139626757 0.29591130676837918 -5.5634270654700417 -10.818920952266978 10.817675006511298 2.403210141472079 0.36412631124074751 -0.25848073707835773 -0.12711723081063453 0.025579370313050808
leaf_weight=274880 75903 8744 57212 209831 5751 1249 83331 71550 5487 2153025 22322 21651 59685 37985 904362 69638 520854 69011 6596921 719456 11760 61540 4029 6837 597 58090 141448 2349456 3350897 13060095
leaf_count=274880 75903 8744 57212 209831 5751 1249 83331 71550 5487 2153025 22322 21651 59685 37985 904362 69638 520854 69011 6596921 719456 11760 61540 4029 6837 597 58090 141448 2349456 3350897 13060095
internal_value=0 0.623647 2.29622 -0.39497 -0.00715319 0.708761 -0.0742962 3.01464 2.81316 -0.014437 0.00978127 0.648755 1.72146 -0.00384032 -0.18058 0.950552 0.590043 -0.00337878 -0.0169171 -0.302882 0.0198873 -1.36948 -6.33251 -13.6465 0.182288 2.9717 0.734303 -0.0189647 -0.0573364 -0.00861409
internal_weight=0 351690 133115 218575 3.06619e+07 308816 230530 78286 77037 3.03531e+07 2.64915e+07 552955 209064 2.59385e+07 3.86161e+06 129323 558839 343891 2.53797e+07 2.95724e+06 804219 84166 22626 10866 720053 79741 147199 2.53574e+07 1.87604e+07 1.6411e+07
internal_count=31013597 351690 133115 218575 30661907 308816 230530 78286 77037 30353091 26491485 552955 209064 25938530 3861606 129323 558839 343891 25379691 2957244 804219 84166 22626 10866 720053 79741 147199 25357369 18760448 16410992
shrinkage=0.65


Tree=12
num_leaves=31
num_cat=0
split_feature=10 9 10 3 10 5 0 11 2 3 2 10 1 9 11 2 3 2 3 2 2 9 5 3 1 1 2 1 9 5
split_gain=110305 139687 198561 252708 194323 172135 205621 236400 153251 130729 288864 264226 156539 189935 129791 629202 205471 412473 147090 141605 117114 108493 129413 128100 168426 304514 124936 118262 114495 112829
threshold=22.563884902502391 24.913817248407813 17.915172280004157 40.778925500000007 4.5634162993499805 2010.5000000000002 -73.938072999999989 1.0000000180025095e-35 -74.019543499999983 40.637260000000005 -74.015845999999982 14.31141052287545 40.756620500000004 5.9733738827852543 1.0000000180025095e-35 -74.013507499999974 40.648766000000002 -74.019543499999983 40.637260000000005 -74.019543499999983 -73.782434499999979 4.3044480482961509 2010.5000000000002 40.704274000000005 40.735877500000008 40.716900500000008 -73.976537499999992 40.687031396118172 1.376729769885745 2012.5000000000002
decision_type=2 2 2 2 2 2 2 2 2 2 2 2 2 2 2 2 2 2 2 2 2 2 2 2 2 2 2 2 2 2
left_child=1 9 3 4 14 -5 -7 20 -6 10 11 -1 -12 -14 16 18 19 -18 -16 -3 -8 23 -23 24 25 -2 27 -25 -27 -26
right_child=21 2 -4 5 8 6 7 -9 -10 -11 12 -13 13 -15 15 -17 17 -19 -20 -21 -22 22 -24 26 29 28 -28 -29 -30 -31
leaf_value=-11.853024022580557 0.06697467190134479 -5.5791680219921016 -0.52450495661210095 -0.28191965962953092 10.640802785798419 1.5314968337404131 12.236886435457315 1.2007810408254262 2.8092314786319768 -0.037805521261473012 0.73150515085079137 -1.3256524247831611 0.35286663446337974 5.1598708693622113 82.305011379718778 3.0793631876735565 13.006405915986232 0.70367076383497507 21.634382965326314 -0.62471431570333824 25.929657924709097 -1.7563555633995636 -0.19067715718957071 1.353296888695148 -0.63887252243158088 2.2581453092610801 5.4151916279325212 0.037795645802433157 0.98249684956595462 0.56348439560259478
leaf_weight=1202 157506 3234 28535 893 1188 732 473 391 9478 18849528 53695 6219 5962 8318 52 2919 1230 18013 25 9894 597 29001 96602 28946 87176 43939 1828 11421079 91906 53036
leaf_count=1202 157506 3234 28535 893 1188 732 473 391 9478 18849528 53695 6219 5962 8318 52 2919 1230 18013 25 9894 597 29001 96602 28946 87176 43939 1828 11421079 91906 53036
internal_value=0 -0.0474138 1.29105 2.50984 1.92256 11.2702 16.0361 22.8901 5.66389 -0.0529059 1.26124 -4.66277 1.90798 4.85064 0.794244 7.09119 0.21145 2.29239 96.3181 -2.83879 30.5795 0.0750132 -0.849513 0.0847834 0.618338 1.04924 0.0645832 0.0632635 2.14631 -0.283191
internal_weight=0 1.90026e+07 77654 49119 46033 3086 2193 1461 10666 1.89249e+07 75396 7421 67975 14280 35367 2996 32371 19243 77 13128 1070 1.2011e+07 125603 1.18854e+07 433563 293351 1.14519e+07 1.145e+07 135845 140212
internal_count=31013597 19002578 77654 49119 46033 3086 2193 1461 10666 18924924 75396 7421 67975 14280 35367 2996 32371 19243 77 13128 1070 12011019 125603 11885416 433563 293351 11451853 11450025 135845 140212
shrinkage=0.65


end of trees

feature importances:
dropoff_latitude=85
distance=81
pickup_latitude=60
dropoff_longitude=47
year=33
JFK_distance=28
pickup_longitude=19
hour=14
invalid=9
weekday=6
month=5
passenger_count=3

parameters:
[boosting: gbdt]
[objective: regression]
[metric: rmse]
[tree_learner: serial]
[device_type: cpu]
[data: ]
[valid: ]
[num_iterations: 100]
[learning_rate: 0.65]
[num_leaves: 31]
[num_threads: 0]
[max_depth: -1]
[min_data_in_leaf: 20]
[min_sum_hessian_in_leaf: 0.001]
[bagging_fraction: 1]
[pos_bagging_fraction: 1]
[neg_bagging_fraction: 1]
[bagging_freq: 0]
[bagging_seed: 3]
[feature_fraction: 1]
[feature_fraction_bynode: 1]
[feature_fraction_seed: 2]
[early_stopping_round: 0]
[first_metric_only: 0]
[max_delta_step: 0]
[lambda_l1: 0]
[lambda_l2: 0]
[min_gain_to_split: 0]
[drop_rate: 0.1]
[max_drop: 50]
[skip_drop: 0.5]
[xgboost_dart_mode: 0]
[uniform_drop: 0]
[drop_seed: 4]
[top_rate: 0.2]
[other_rate: 0.1]
[min_data_per_group: 100]
[max_cat_threshold: 32]
[cat_l2: 10]
[cat_smooth: 10]
[max_cat_to_onehot: 4]
[top_k: 20]
[monotone_constraints: ]
[feature_contri: ]
[forcedsplits_filename: ]
[forcedbins_filename: ]
[refit_decay_rate: 0.9]
[cegb_tradeoff: 1]
[cegb_penalty_split: 0]
[cegb_penalty_feature_lazy: ]
[cegb_penalty_feature_coupled: ]
[verbosity: -1]
[max_bin: 255]
[max_bin_by_feature: ]
[min_data_in_bin: 3]
[bin_construct_sample_cnt: 200000]
[histogram_pool_size: -1]
[data_random_seed: 1]
[output_model: LightGBM_model.txt]
[snapshot_freq: -1]
[input_model: ]
[output_result: LightGBM_predict_result.txt]
[initscore_filename: ]
[valid_data_initscores: ]
[pre_partition: 0]
[enable_bundle: 1]
[max_conflict_rate: 0]
[is_enable_sparse: 1]
[sparse_threshold: 0.8]
[use_missing: 1]
[zero_as_missing: 0]
[two_round: 0]
[save_binary: 0]
[header: 0]
[label_column: ]
[weight_column: ]
[group_column: ]
[ignore_column: ]
[categorical_feature: ]
[predict_raw_score: 0]
[predict_leaf_index: 0]
[predict_contrib: 0]
[num_iteration_predict: -1]
[pred_early_stop: 0]
[pred_early_stop_freq: 10]
[pred_early_stop_margin: 10]
[convert_model_language: ]
[convert_model: gbdt_prediction.cpp]
[num_class: 1]
[is_unbalance: 0]
[scale_pos_weight: 1]
[sigmoid: 1]
[boost_from_average: 1]
[reg_sqrt: 0]
[alpha: 0.9]
[fair_c: 1]
[poisson_max_delta_step: 0.7]
[tweedie_variance_power: 1.5]
[max_position: 20]
[lambdamart_norm: 1]
[label_gain: ]
[metric_freq: 1]
[is_provide_training_metric: 0]
[eval_at: ]
[multi_error_top_k: 1]
[num_machines: 1]
[local_listen_port: 12400]
[time_out: 120]
[machine_list_filename: ]
[machines: ]
[gpu_platform_id: -1]
[gpu_device_id: -1]
[gpu_use_dp: 0]

end of parameters

pandas_categorical:[]
