tree
version=v3
num_class=1
num_tree_per_iteration=1
label_index=0
max_feature_idx=12
objective=regression
feature_names=pickup_longitude pickup_latitude dropoff_longitude dropoff_latitude year month weekday hour distance jfk_dist ewr_dist lga_dist invalid
feature_infos=[-1183.35816:2432.845472] [-74.015480000000025:3361.2663020000005] [-2983.4263249999999:40.855685000000001] [-74.064435000000003:3316.537542] [2009:2015] [1:12] [1:7] [0:23] [0:17779.615828558755] [0.34529577851684878:15066.07120046574] [0.67672423821922845:15083.338274842738] [0.13190127673931773:15083.180356397621] [0:2]
tree_sizes=3202 3177 3325

Tree=0
num_leaves=31
num_cat=0
split_feature=8 8 8 12 3 8 8 2 3 8 3 11 4 4 8 1 4 4 4 1 8 8 8 8 9 2 10 4 4 11
split_gain=1.56141e+09 2.7459e+08 1.46481e+08 8.84557e+07 4.27295e+07 3.92017e+07 3.50948e+07 2.75872e+07 1.57621e+07 1.5193e+07 1.49512e+07 1.45266e+07 1.14118e+07 1.11776e+07 1.04843e+07 8.43776e+06 7.81432e+06 6.93609e+06 6.41393e+06 6.13338e+06 6.10224e+06 7.84038e+06 5.53602e+06 8.40392e+06 4.84091e+06 4.54716e+06 3.74751e+06 3.51196e+06 3.45417e+06 3.44863e+06
threshold=8.0037406911435287 2.7302981881992818 16.872053718171522 1.0000000180025095e-35 40.702147000000004 4.4297533592345664 1.38184818956954 -74.028543999999968 40.64704600000001 11.092146446531101 40.697533000000014 14.189804163252694 2012.5000000000002 2012.5000000000002 0.032212604133605868 40.721797500000008 2012.5000000000002 2012.5000000000002 2012.5000000000002 40.738831500000011 0.032212604133605868 0.77962879542449492 0.032212604133605868 1.0000000180025095e-35 8.2718243505482629 -74.028543999999968 12.856857651133675 2012.5000000000002 2012.5000000000002 14.189804163252694
decision_type=2 2 2 2 2 2 2 2 2 2 2 2 2 2 2 2 2 2 2 2 2 2 2 2 2 2 2 2 2 2
left_child=1 4 9 7 14 10 11 27 -7 28 19 20 -11 24 26 -16 -12 -10 -8 -3 -6 -22 23 -13 -9 -19 -1 -4 -2 -5
right_child=2 5 3 29 6 8 18 13 17 12 16 22 -14 -15 15 -17 -18 25 -20 -21 21 -23 -24 -25 -26 -27 -28 -29 -30 -31
leaf_value=37.583733496852012 19.867846438085479 14.720907295197037 46.797871682480711 13.186649458712346 10.870713017316815 26.118529966376766 9.6669846778896424 34.540457781593062 14.922152318286356 23.717301615396224 11.875612084771001 18.983226099729297 28.324345435226761 39.116469241209749 10.383848583721059 15.471027007147125 13.649651013825919 39.990225546230192 10.759810980573583 20.717910104368485 7.8932080340642017 8.8403759778578035 11.134048474395605 44.892392285900748 26.943590900928172 17.254339265398372 17.410914725956104 57.440564223177581 23.251069896132918 26.201827907861343
leaf_weight=3962 321069 165972 29953 72629 431229 65240 6094638 336788 1283863 571095 2824269 18043 377202 288871 332503 235189 1668948 3734 3614942 127334 7036730 7769144 15922 7483 39607 796354 216437 23283 211481 9757
leaf_count=3962 321069 165972 29953 72629 431229 65240 6094638 336788 1283863 571095 2824269 18043 377202 288871 332503 235189 1668948 3734 3614942 127334 7036730 7769144 15922 7483 39607 796354 216437 23283 211481 9757
internal_value=0 -1.76418 25.2921 36.1871 -3.26707 3.82121 -3.49572 39.7458 7.36917 19.3997 2.22814 -4.44046 21.8001 37.9929 3.98285 1.71021 1.77658 6.89001 -2.00912 9.14559 -4.49132 -4.59932 14.2552 23.3827 34.402 9.20103 9.83658 61.6503 15.1255 5.15118
internal_weight=0 3.27119e+07 2.28174e+06 800888 2.57762e+07 6.93571e+06 2.49881e+07 718502 2.14919e+06 1.48085e+06 4.78652e+06 1.52786e+07 948297 665266 788091 567692 4.49322e+06 2.08395e+06 9.70958e+06 293306 1.52371e+07 1.48059e+07 41448 25526 376395 800088 220399 53236 532550 82386
internal_count=34993671 32711936 2281735 800888 25776222 6935714 24988131 718502 2149191 1480847 4786523 15278551 948297 665266 788091 567692 4493217 2083951 9709580 293306 15237103 14805874 41448 25526 376395 800088 220399 53236 532550 82386
shrinkage=1


Tree=1
num_leaves=31
num_cat=0
split_feature=8 8 9 2 3 1 1 10 11 3 3 3 2 1 2 4 3 3 9 9 8 3 1 3 3 4 8 4 4 9
split_gain=2.03059e+08 3.25624e+07 3.01007e+07 1.53407e+07 8.89163e+06 1.08341e+07 8.93336e+06 7.9432e+06 7.16287e+06 6.57609e+06 5.58621e+06 5.35383e+06 5.0715e+06 3.774e+06 3.71306e+06 3.39079e+06 3.20694e+06 3.09104e+06 3.00548e+06 2.99353e+06 2.67634e+06 2.51405e+06 2.05723e+06 3.27679e+06 1.5426e+07 3.26516e+08 8.0493e+08 1.85188e+06 1.71337e+06 1.70643e+06
threshold=6.00710561989876 2.0920862296509637 8.2718243505482629 -74.028543999999968 40.723137500000007 40.722642500000006 40.747803500000011 24.206585378081602 1.3746967883330072 40.85646400000001 40.817353000000004 40.817353000000004 -74.01612999999999 40.693491000000002 -74.028543999999968 2012.5000000000002 40.670927000000013 40.85646400000001 21.916995781759692 18.526311959089771 19.514405614114583 40.774570500000003 40.791073500000003 40.73918050000001 40.738799500000006 2014.5000000000002 3.2149198439566784 2011.5000000000002 2011.5000000000002 20.207084255365121
decision_type=2 2 2 2 2 2 2 2 2 2 2 2 2 2 2 2 2 2 2 2 2 2 2 2 2 2 2 2 2 2
left_child=1 7 9 -4 6 13 16 14 17 20 -10 12 -7 -6 -1 29 -3 27 -13 -8 21 -2 -14 24 -24 -26 -27 -5 -22 -16
right_child=2 4 3 8 5 11 19 -9 10 -11 -12 18 22 -15 15 -17 -18 -19 -20 -21 28 -23 23 -25 25 26 -28 -29 -30 -31
leaf_value=6.0586916627426897 5.507369726884134 3.2463300735249785 13.405048188261199 3.8837780822993873 6.6145966173028716 14.24525456224719 5.5088675295232994 2.1015261961987317 1.9673457337600955 28.13418490539431 5.8163226984228 5.9537626900296434 -0.28838231529588648 1.8519103700720827 -0.6393155973395398 -0.64206523824004735 -0.0015556666035411875 23.348482529312239 1.0108836547753672 2.6331611692522756 7.9202343536899606 12.14388104769408 4.4728636675033533 0.63704296222775303 3.5138393600296824 4927.8958572793008 4.4874524777874036 5.6806465314630694 10.326790359275819 -1.272420265389399
leaf_weight=31755 159091 149979 70688 431710 76203 10277 196340 362878 985137 7372 190048 91063 6447012 906683 2132877 8098106 894572 3849 121077 691895 206678 28426 36461 312438 1329 20 47 552415 316257 11480988
leaf_count=31755 159091 149979 70688 431710 76203 10277 196340 362878 985137 7372 190048 91063 6447012 906683 2132877 8098106 894572 3849 121077 691895 206678 28426 36461 312438 1329 20 47 552415 316257 11480988
internal_value=0 -0.731123 7.93673 6.12649 0.772597 0.307681 2.69756 -1.40694 5.65277 13.5702 3.9843 -0.127702 -0.281868 3.41717 -1.48438 -1.50018 0.715051 7.6374 4.81948 5.02896 13.2618 10.0206 -0.315429 2.0447 10.8312 113.995 2267.94 7.52678 14.4241 -1.80497
internal_weight=0 3.2042e+07 2.95167e+06 2.23385e+06 9.9354e+06 8.00261e+06 1.93279e+06 2.21066e+07 2.16316e+06 717824 1.17518e+06 7.01972e+06 6.80758e+06 982886 2.17437e+07 2.1712e+07 1.04455e+06 987974 212140 888235 710452 187517 6.79731e+06 350295 37857 1396 67 984125 522935 1.36139e+07
internal_count=34993671 32042000 2951671 2233847 9935396 8002610 1932786 22106604 2163159 717824 1175185 7019724 6807584 982886 21743726 21711971 1044551 987974 212140 888235 710452 187517 6797307 350295 37857 1396 67 984125 522935 13613865
shrinkage=0.65


Tree=2
num_leaves=31
num_cat=0
split_feature=8 8 9 11 3 12 1 11 7 10 8 9 4 8 4 3 9 3 1 8 2 2 1 3 1 3 1 1 1 3
split_gain=2.63854e+07 9.99374e+06 3.37774e+06 3.01633e+06 3.01073e+06 2.72248e+06 2.72168e+06 2.65552e+06 2.53906e+06 2.2531e+06 2.81061e+06 2.22166e+06 2.04035e+06 1.94762e+06 1.88363e+06 1.80386e+06 1.78052e+06 7.29109e+06 7.74671e+06 2.96357e+06 2.25287e+06 1.67819e+06 1.64883e+06 2.20736e+06 3.17559e+06 1.51542e+06 2.53682e+06 1.67268e+06 1.5456e+06 1.44569e+06
threshold=3.6238830988634296 13.29384545887819 19.936032774510497 7.4837757343764855 40.660949500000008 1.0000000180025095e-35 40.702346500000012 10.253350895887573 6.5000000000000009 24.206585378081602 21.188146139536059 1.2387474932143516 2011.5000000000002 1.0643911268377009 2010.5000000000002 40.779065500000009 21.884304672435224 40.777361000000006 40.776587000000006 0.11148348458633449 -74.012284162597624 -73.980297499999992 40.766050500000006 40.75870050000001 40.748371500000012 40.725517500000009 40.738541324707036 40.723142500000009 40.756040500000019 40.79123950000001
decision_type=2 2 2 2 2 2 2 2 2 2 2 2 2 2 2 2 2 2 2 2 2 2 2 2 2 2 2 2 2 2
left_child=2 4 7 -4 6 9 -2 13 29 -3 -11 -9 -10 -1 -12 -15 17 18 21 20 -18 22 23 25 -25 26 -5 -27 -29 -6
right_child=1 5 3 16 8 -7 -8 11 12 10 14 -13 -14 15 -16 -17 19 -19 -20 -21 -22 -23 -24 24 -26 27 -28 28 -30 -31
leaf_value=-0.1634972839090845 -2.8679023360196583 3.0509150694949758 -0.81437471832387709 -0.46621939779977911 -0.49603508451829381 -0.6846980964662398 4.8996351501911759 4.3037382350207949 0.45468887203226521 6.166553442507781 8.2569550388003243 -0.30091304044242334 1.4351958302637273 1.2669508154137856 37.049748591239556 5.3616502511894293 7.173506912852373 1.9930761725514974 2.03287459976021 -0.82221649946278164 0.72683740436435862 -0.63394205060078213 1.0461829570817665 1.7162994997170009 -0.33798300755713945 0.42000532578795097 1.0132469627417671 -0.75186427733768635 0.0095404409944219934 1.3820332164633908
leaf_weight=448286 22498 1099716 4621020 1152358 895563 82916 124679 45425 1639862 16029 1608 1741215 1978485 1054479 2382 47503 24722 647972 615681 3406422 311280 4890084 447031 569250 720120 786587 851504 5087608 1446701 214685
leaf_count=448286 22498 1099716 4621020 1152358 895563 82916 124679 45425 1639862 16029 1608 1741215 1978485 1054479 2382 47503 24722 647972 615681 3406422 311280 4890084 447031 569250 720120 786587 851504 5087608 1446701 214685
internal_value=0 1.89389 -0.398124 -0.521573 1.25707 4.47568 5.71117 0.548143 1.11844 4.8851 15.3987 -0.282832 1.52434 1.50582 39.1477 2.22071 -0.360321 -0.224418 -0.353125 -0.985467 1.84794 -0.487469 -0.271803 -0.351037 0.875341 -0.520613 0.249927 -0.731524 -0.897367 -0.20443
internal_weight=0 6.07842e+06 2.89152e+07 2.55783e+07 4.87577e+06 1.20265e+06 147177 3.33691e+06 4.7286e+06 1.11974e+06 20019 1.78664e+06 3.61835e+06 1.55027e+06 3990 1.10198e+06 2.09573e+07 1.72149e+07 1.65669e+07 3.74242e+06 336002 1.59512e+07 1.10612e+07 1.06141e+07 1.28937e+06 9.32476e+06 2.00386e+06 7.3209e+06 6.53431e+06 1.11025e+06
internal_count=34993671 6078423 28915248 25578340 4875772 1202651 147177 3336908 4728595 1119735 20019 1786640 3618347 1550268 3990 1101982 20957320 17214896 16566924 3742424 336002 15951243 11061159 10614128 1289370 9324758 2003862 7320896 6534309 1110248
shrinkage=0.65


end of trees

feature importances:
distance=20
dropoff_latitude=18
pickup_latitude=13
year=13
jfk_dist=8
dropoff_longitude=7
lga_dist=5
ewr_dist=3
invalid=2
hour=1

parameters:
[boosting: gbdt]
[objective: regression]
[metric: rmse]
[tree_learner: serial]
[device_type: cpu]
[data: ]
[valid: ]
[num_iterations: 100]
[learning_rate: 0.65]
[num_leaves: 31]
[num_threads: 0]
[max_depth: -1]
[min_data_in_leaf: 20]
[min_sum_hessian_in_leaf: 0.001]
[bagging_fraction: 1]
[pos_bagging_fraction: 1]
[neg_bagging_fraction: 1]
[bagging_freq: 0]
[bagging_seed: 3]
[feature_fraction: 1]
[feature_fraction_bynode: 1]
[feature_fraction_seed: 2]
[early_stopping_round: 0]
[first_metric_only: 0]
[max_delta_step: 0]
[lambda_l1: 0]
[lambda_l2: 0]
[min_gain_to_split: 0]
[drop_rate: 0.1]
[max_drop: 50]
[skip_drop: 0.5]
[xgboost_dart_mode: 0]
[uniform_drop: 0]
[drop_seed: 4]
[top_rate: 0.2]
[other_rate: 0.1]
[min_data_per_group: 100]
[max_cat_threshold: 32]
[cat_l2: 10]
[cat_smooth: 10]
[max_cat_to_onehot: 4]
[top_k: 20]
[monotone_constraints: ]
[feature_contri: ]
[forcedsplits_filename: ]
[forcedbins_filename: ]
[refit_decay_rate: 0.9]
[cegb_tradeoff: 1]
[cegb_penalty_split: 0]
[cegb_penalty_feature_lazy: ]
[cegb_penalty_feature_coupled: ]
[verbosity: -1]
[max_bin: 255]
[max_bin_by_feature: ]
[min_data_in_bin: 3]
[bin_construct_sample_cnt: 200000]
[histogram_pool_size: -1]
[data_random_seed: 1]
[output_model: LightGBM_model.txt]
[snapshot_freq: -1]
[input_model: ]
[output_result: LightGBM_predict_result.txt]
[initscore_filename: ]
[valid_data_initscores: ]
[pre_partition: 0]
[enable_bundle: 1]
[max_conflict_rate: 0]
[is_enable_sparse: 1]
[sparse_threshold: 0.8]
[use_missing: 1]
[zero_as_missing: 0]
[two_round: 0]
[save_binary: 0]
[header: 0]
[label_column: ]
[weight_column: ]
[group_column: ]
[ignore_column: ]
[categorical_feature: ]
[predict_raw_score: 0]
[predict_leaf_index: 0]
[predict_contrib: 0]
[num_iteration_predict: -1]
[pred_early_stop: 0]
[pred_early_stop_freq: 10]
[pred_early_stop_margin: 10]
[convert_model_language: ]
[convert_model: gbdt_prediction.cpp]
[num_class: 1]
[is_unbalance: 0]
[scale_pos_weight: 1]
[sigmoid: 1]
[boost_from_average: 1]
[reg_sqrt: 0]
[alpha: 0.9]
[fair_c: 1]
[poisson_max_delta_step: 0.7]
[tweedie_variance_power: 1.5]
[max_position: 20]
[lambdamart_norm: 1]
[label_gain: ]
[metric_freq: 1]
[is_provide_training_metric: 0]
[eval_at: ]
[multi_error_top_k: 1]
[num_machines: 1]
[local_listen_port: 12400]
[time_out: 120]
[machine_list_filename: ]
[machines: ]
[gpu_platform_id: -1]
[gpu_device_id: -1]
[gpu_use_dp: 0]

end of parameters

pandas_categorical:[]
