tree
version=v3
num_class=1
num_tree_per_iteration=1
label_index=0
max_feature_idx=12
objective=regression
feature_names=pickup_longitude pickup_latitude dropoff_longitude dropoff_latitude year month weekday hour distance jfk_dist ewr_dist lga_dist invalid
feature_infos=[-2972.2632979999998:40.825227000000012] [-3401.3914970000001:2150.6170320000001] [-1235.828608:112.435502] [-2164.0528850000001:2052.598622] [2009:2015] [1:12] [1:7] [0:23] [0:13978.231721851893] [0.49302499535647354:15066.083373752723] [0.69096041379684991:15083.337853714498] [0.22333731689701897:15083.191698787527] [0:2]
tree_sizes=3205 3243 3265 3300

Tree=0
num_leaves=31
num_cat=0
split_feature=8 8 8 12 3 8 8 2 8 3 11 3 4 8 4 1 2 4 4 4 8 8 1 9 8 8 10 11 4 4
split_gain=1.56435e+09 2.67485e+08 1.52288e+08 8.73957e+07 4.28464e+07 3.96732e+07 3.3717e+07 2.84494e+07 1.6465e+07 1.62847e+07 1.49301e+07 1.47568e+07 1.15681e+07 1.15211e+07 1.1222e+07 8.12658e+06 7.71068e+06 6.97007e+06 6.96445e+06 6.44396e+06 6.00389e+06 7.28461e+06 5.90424e+06 5.26865e+06 4.82016e+06 8.4868e+06 3.79338e+06 3.5694e+06 3.4332e+06 3.37354e+06
threshold=7.8263275047877405 2.695324825726674 16.455956035390177 1.0000000180025095e-35 40.704188500000008 4.2968899667983509 1.3546137493947208 -74.027302999999989 10.976187111680513 40.648226500000007 14.169639332331352 40.697914376464851 2012.5000000000002 0.025377058895294281 2012.5000000000002 40.72193450000001 -74.027302999999989 2012.5000000000002 2012.5000000000002 2012.5000000000002 0.025377058895294281 0.75760562713733792 40.736932500000009 8.8113646700444139 0.025377058895294281 1.0000000180025095e-35 12.849654882243195 14.169639332331352 2012.5000000000002 2012.5000000000002
decision_type=10 8 10 2 10 8 8 10 10 8 2 8 2 10 2 2 8 2 2 2 8 8 2 2 10 10 2 2 2 2
left_child=1 4 8 7 13 11 10 29 28 -7 20 22 23 26 -10 -15 -11 -18 -13 -8 -6 -22 -3 -9 25 -12 -1 -5 -2 -4
right_child=2 5 3 27 6 9 19 12 14 16 24 18 -14 15 -16 -17 17 -19 -20 -21 21 -23 -24 -25 -26 -27 -28 -29 -30 -31
leaf_value=37.813738035039002 19.622435057059967 14.507773811383313 46.849775465621988 13.117734336307434 10.8646490064381 25.814226268075732 9.6180835682803831 34.428660195895439 23.605614809501454 33.607979570588952 18.996245313596759 11.767569509218106 38.950225907377252 10.388325743340358 28.172422580155747 15.087785730560581 14.678676927396554 17.032134224697231 13.452849883090309 10.707089083207979 7.8741141899328682 8.7987104777607961 20.436012837292505 26.963083377761492 11.774280596050604 45.57723357081025 17.43267240475625 26.332183590798284 22.948761161166004 57.17589254216238
leaf_weight=3928 329542 155900 30798 72451 419167 68770 6166038 344539 571392 10069 17724 2798010 296603 371715 377552 267237 1387601 861952 1645189 3657460 6722524 7751487 130310 45176 14756 7111 217542 9805 217705 23618
leaf_count=3928 329542 155900 30798 72451 419167 68770 6166038 344539 571392 10069 17724 2798010 296603 371715 377552 267237 1387601 861952 1645189 3657460 6722524 7751487 130310 45176 14756 7111 217542 9805 217705 23618
internal_value=0 -1.78129 25.0962 36.0223 -3.28311 3.66966 -3.52422 39.4563 19.0863 7.04867 -4.47077 2.0061 37.7112 3.65406 21.6055 1.49972 6.58731 6.46372 1.55778 -2.08536 -4.52233 -4.63038 8.96592 34.1296 14.9227 23.4279 9.86943 5.09829 14.718 61.4655
internal_weight=0 3.26745e+07 2.31918e+06 822990 2.56167e+07 7.0578e+06 2.47563e+07 740734 1.49619e+06 2.32839e+06 1.49328e+07 4.72941e+06 686318 860422 948944 638952 2.25962e+06 2.24955e+06 4.4432e+06 9.8235e+06 1.48932e+07 1.4474e+07 286210 389715 39591 24835 221470 82256 547247 54416
internal_count=34993671 32674490 2319181 822990 25616689 7057801 24756267 740734 1496191 2328392 14932769 4729409 686318 860422 948944 638952 2259622 2249553 4443199 9823498 14893178 14474011 286210 389715 39591 24835 221470 82256 547247 54416
shrinkage=1


Tree=1
num_leaves=31
num_cat=0
split_feature=8 8 9 2 3 1 1 10 11 3 3 3 2 1 2 8 9 4 3 9 3 3 4 3 4 11 9 9 4 8
split_gain=2.03581e+08 3.2196e+07 3.0158e+07 1.47001e+07 9.58395e+06 1.11666e+07 8.94447e+06 8.10424e+06 7.5145e+06 6.40037e+06 5.77796e+06 5.22451e+06 4.06474e+06 3.86251e+06 3.51856e+06 3.33971e+06 3.24004e+06 3.18809e+06 3.09471e+06 3.00835e+06 2.93727e+06 2.64861e+06 1.876e+06 1.83535e+06 1.79124e+06 1.70758e+06 1.65866e+06 1.63127e+06 1.97673e+06 1.59593e+06
threshold=5.9302903944411982 2.0286631468063203 8.8113646700444139 -74.027302999999989 40.723102284790045 40.722813500000008 40.747890236206068 26.639556124147017 1.389413723598925 40.857005000000008 40.817536000000011 40.817536000000011 -74.027302999999989 40.693841500000005 -74.016169499999961 19.405567974067633 18.599562957239055 2012.5000000000002 40.857005000000008 21.970910728791562 40.671389500000011 40.774773500000009 2011.5000000000002 40.747373000000003 2011.5000000000002 14.169639332331352 20.213943792803651 1.2502748546010078 2011.5000000000002 3.462130296243465
decision_type=10 8 2 10 10 2 2 2 2 10 8 10 10 2 8 10 2 2 10 2 10 10 2 10 2 2 2 2 2 10
left_child=1 7 9 -4 6 13 20 12 18 15 -10 14 -1 -6 -7 21 -8 26 22 -13 -3 -2 -5 -15 -17 -11 -14 -9 -29 -16
right_child=2 4 3 8 5 11 16 27 10 25 -12 19 17 23 29 24 -18 -19 -20 -21 -22 -23 -24 -25 -26 -27 -28 28 -30 -31
leaf_value=6.2011231615299156 5.2120306811536228 3.107573511812078 13.05851563485103 3.8901286333832834 6.5090275966974342 11.845285577326958 5.5801332399826862 6.3223058296882817 1.9244887083373785 22.081230150697149 5.8016651655305846 5.903526136779397 -0.65827821660439945 0.43123220882818347 -0.42723380178951403 7.9300755729037169 2.6084029741016956 -0.66291442996021865 23.631426281274798 0.9270130283985909 0.054361067625086662 12.161738305814769 5.6874955900265061 2.4043770692266073 10.365596633071744 44.836768249501134 -1.2827497150743499 0.13545346250090631 3.6664101251046062 0.25231069309653992
leaf_weight=33269 160718 155459 72546 437244 80006 10207 199411 38813 1000709 5224 193852 90536 2139171 286133 5074161 211217 696160 7939415 3740 118491 926591 27072 559047 655339 322216 1900 11236288 140897 127699 2050140
leaf_count=33269 160718 155459 72546 437244 80006 10207 199411 38813 1000709 5224 193852 90536 2139171 286133 5074161 211217 696160 7939415 3740 118491 926591 27072 559047 655339 322216 1900 11236288 140897 127699 2050140
internal_value=0 -0.737981 7.88322 6.08477 0.713486 0.245433 2.69327 -1.4312 5.6218 13.4813 3.92873 -0.18548 -1.50461 3.34332 -0.329854 13.1867 5.03092 -1.52185 7.64422 4.7423 0.75849 9.55986 7.53643 2.77646 14.4634 43.308 -1.81981 3.66672 2.79105 -0.356436
internal_weight=0 3.19982e+07 2.99548e+06 2.26714e+06 1.03426e+07 8.36501e+06 1.97762e+06 2.16556e+07 2.19459e+06 728347 1.19456e+06 7.34354e+06 2.13481e+07 1.02148e+06 7.13451e+06 721223 895571 2.13149e+07 1.00003e+06 209027 1.08205e+06 187790 996291 941472 533433 7124 1.33755e+07 307409 268596 7.1243e+06
internal_count=34993671 31998186 2995485 2267138 10342634 8365013 1977621 21655552 2194592 728347 1194561 7343535 21348143 1021478 7134508 721223 895571 21314874 1000031 209027 1082050 187790 996291 941472 533433 7124 13375459 307409 268596 7124301
shrinkage=0.65


Tree=2
num_leaves=31
num_cat=0
split_feature=8 8 4 3 1 8 12 2 10 8 4 8 9 11 1 3 7 0 7 11 10 8 3 3 3 3 8 9 11 7
split_gain=2.59558e+07 6.33556e+06 3.91984e+06 3.07041e+06 3.29376e+06 2.88923e+06 2.81168e+06 2.64236e+06 2.1532e+06 2.81529e+06 2.15807e+06 1.92229e+06 2.34656e+06 2.16376e+06 4.73685e+06 4.58736e+06 1.77921e+06 1.77567e+06 1.57753e+06 1.47469e+06 1.67926e+06 1.3089e+06 1.30191e+06 1.17501e+06 1.15945e+06 1.22675e+06 1.15176e+06 1.12078e+06 2.29401e+06 2.84867e+07
threshold=9.3186540948669521 1.7578769717717371 2011.5000000000002 40.683099327026376 40.702418640502934 13.803222841765427 1.0000000180025095e-35 -74.027302999999989 24.011043826873554 21.071692217822942 2010.5000000000002 0.10869054456592975 22.042460397260097 7.787148147271898 40.773265500000008 40.772704000000012 7.5000000000000009 -74.016280500000008 18.500000000000004 12.092163285122355 15.808553055227842 3.3679491060452409 40.634411000000007 40.790162500000008 40.634411000000007 40.75230744592286 0.44524632842714734 19.179630912571366 12.423458754479725 8.5000000000000018
decision_type=10 10 2 10 2 10 2 10 2 10 2 8 2 2 2 10 2 2 2 2 2 10 10 10 10 10 10 2 2 2
left_child=1 11 -3 4 -4 24 8 -5 19 -10 -11 17 13 -13 15 26 23 -1 21 -7 -21 27 -6 -9 -2 -26 -15 -18 -29 -30
right_child=5 2 3 7 22 6 -8 16 9 10 -12 12 -14 14 -16 -17 18 -19 -20 20 -22 -23 -24 -25 25 -27 -28 28 29 -31
leaf_value=5.926196162160136 9.0055827347512363 -0.1751411493718166 -1.7763990536143537 11.175443892668554 7.6063867062850177 3.4387359914782305 -0.67980841194242514 -0.42491648459024706 6.0008551148217766 6.5411284414910718 37.156925532969844 -0.83706521100214337 -1.0660599680139775 -0.87846969530471319 1.7039001211802183 1.5564355013231486 2.6664387303093338 0.43026650721781678 0.16361815330531473 2.7600364155920984 -2.1750648683537541 1.5010676713629831 3.1617471930032477 1.3211346987417605 0.19606966479024915 1.8259006937075293 -0.30440869941689608 0.48874419970913802 213.74252953102325 0.62209110891089292
leaf_weight=25651 8433 6221011 55403 9683 32952 862660 82630 1286570 15324 1596 2491 2994562 2101475 1710196 516550 537498 107284 783091 2134709 86175 44007 1000775 179635 186433 275597 668167 10812254 2246967 286 3606
leaf_count=25651 8433 6221011 55403 9683 32952 862660 82630 1286570 15324 1596 2491 2994562 2101475 1710196 516550 537498 107284 783091 2134709 86175 44007 1000775 179635 186433 275597 668167 10812254 2246967 286 3606
internal_value=0 -0.214676 0.312781 0.812768 4.13442 3.4551 4.563 0.685169 5.02085 15.4516 38.7712 -0.579251 -0.644625 -0.518384 -0.348676 -0.466148 0.662225 0.930126 0.923907 4.81692 1.67964 1.3511 5.92413 -0.31373 2.18117 2.07686 -0.588936 0.944441 0.79393 25.0508
internal_weight=0 3.29466e+07 1.34653e+07 7.2443e+06 267990 2.04708e+06 1.09488e+06 6.97631e+06 1.01225e+06 19411 4087 1.94813e+07 1.86725e+07 1.65711e+07 1.35765e+07 1.30599e+07 6.96663e+06 808742 5.49363e+06 992842 130182 3.35892e+06 212587 1.473e+06 952197 943764 1.25224e+07 2.35814e+06 2.25086e+06 3892
internal_count=34993671 32946591 13465314 7244303 267990 2047080 1094883 6976313 1012253 19411 4087 19481277 18672535 16571060 13576498 13059948 6966630 808742 5493627 992842 130182 3358918 212587 1473003 952197 943764 12522450 2358143 2250859 3892
shrinkage=0.65


Tree=3
num_leaves=31
num_cat=0
split_feature=9 3 1 10 3 2 3 9 3 11 1 8 11 11 1 9 3 9 3 1 9 8 2 2 1 3 2 7 7 11
split_gain=4.73774e+06 4.76746e+06 3.07e+06 2.69248e+06 2.25615e+06 2.21424e+06 1.81758e+06 1.69605e+06 1.68862e+06 3.75776e+06 3.35227e+06 1.6856e+06 1.6854e+06 1.64782e+06 1.36194e+06 3.64011e+06 1.58271e+06 2.75444e+06 1.34151e+06 1.73371e+06 1.30724e+06 1.29719e+06 1.28072e+06 1.27289e+06 1.27184e+06 2.04238e+06 1.29173e+06 1.20523e+06 1.11742e+06 1.0827e+06
threshold=19.952924113644873 40.787479700317398 40.774505500000011 14.089347431044905 40.662043500000003 -74.027302999999989 40.805247500000007 22.36587218319367 40.747373000000003 6.7110647608844998 40.735658500000007 24.815095517336164 7.2116702626290063 6.795555385753139 40.786727000000006 22.321402630318271 40.782227500000012 21.380150805589341 40.726904500000011 40.745147500000009 15.965805774991482 5.9302903944411982 -73.916454499999986 -73.968187499999985 40.729901500000004 40.745576000000007 -73.980169499999974 7.5000000000000009 6.5000000000000009 3.9115914272002263
decision_type=2 8 2 2 10 8 10 2 10 2 2 10 2 2 2 2 10 2 8 2 2 8 8 10 2 8 10 2 2 2
left_child=1 2 4 21 -1 20 12 23 10 28 -7 22 -5 -12 16 -16 18 -18 19 -14 -6 -2 -3 -8 25 -20 -27 -26 -10 -4
right_child=3 11 29 6 5 8 7 -9 9 -11 13 -13 14 -15 15 -17 17 -19 24 -21 -22 -23 -24 -25 27 26 -28 -29 -30 -31
leaf_value=1.6929411585441907 0.38240428472015053 2.7935085822782835 0.74900909115235847 -0.56967027773281598 29.049715328305844 -0.53504581803510576 15.199535296402072 -0.15076334147733034 -1.0246168932824307 2.1061832151651787 -0.31341616365702113 22.87140656331945 -0.14144713687881869 1.1666822387052174 2.1794145092745434 -0.4047847758261518 2.2318682620607553 -0.058770560446434354 -0.45248530201113374 1.3874620945599121 6.7485350489884306 2.1130165227724369 7.3128171019905075 1.5945465944704569 -0.75344149103645719 1.8597992999429822 0.095489435503265691 -0.24274830762143607 0.41628882459599836 3.5274722053358332
leaf_weight=463930 2408002 129948 89960 4533423 1600 2372256 2926 428643 292342 560291 459896 1964 874722 1028573 382572 578597 309779 780876 717931 488274 3630 198042 33278 414598 2290302 406888 308077 13235267 1023475 173609
leaf_count=463930 2408002 129948 89960 4533423 1600 2372256 2926 428643 292342 560291 459896 1964 874722 1028573 382572 578597 309779 780876 717931 488274 3630 198042 33278 414598 2290302 406888 308077 13235267 1023475 173609
internal_value=0 0.760718 0.625266 -0.177975 0.483303 0.311919 -0.275994 1.16534 0.293169 1.07145 -0.0850325 6.06561 -0.324961 1.09134 -0.202252 0.95969 -0.259784 0.910523 -0.329451 0.62502 20.8786 0.790645 5.71522 2.59983 -0.406165 0.49528 1.69163 -0.489361 0.147931 3.96791
internal_weight=0 6.63475e+06 6.46956e+06 2.83589e+07 6.20599e+06 5.74206e+06 2.57529e+07 846167 5.73683e+06 1.87611e+06 3.86072e+06 165190 2.49067e+07 1.48847e+06 2.03733e+07 961169 1.94121e+07 1.09066e+06 1.83215e+07 1.363e+06 5230 2.60604e+06 163226 417524 1.69585e+07 1.4329e+06 714965 1.55256e+07 1.31582e+06 263569
internal_count=34993671 6634752 6469562 28358919 6205993 5742063 25752875 846167 5736833 1876108 3860725 165190 24906708 1488469 20373285 961169 19412116 1090655 18321461 1362996 5230 2606044 163226 417524 16958465 1432896 714965 15525569 1315817 263569
shrinkage=0.65


end of trees

feature importances:
dropoff_latitude=24
distance=24
year=13
jfk_dist=13
pickup_latitude=12
lga_dist=11
dropoff_longitude=10
hour=5
ewr_dist=5
invalid=2
pickup_longitude=1

parameters:
[boosting: gbdt]
[objective: regression]
[metric: rmse]
[tree_learner: serial]
[device_type: cpu]
[data: ]
[valid: ]
[num_iterations: 100]
[learning_rate: 0.65]
[num_leaves: 31]
[num_threads: 0]
[max_depth: -1]
[min_data_in_leaf: 20]
[min_sum_hessian_in_leaf: 0.001]
[bagging_fraction: 1]
[pos_bagging_fraction: 1]
[neg_bagging_fraction: 1]
[bagging_freq: 0]
[bagging_seed: 3]
[feature_fraction: 1]
[feature_fraction_bynode: 1]
[feature_fraction_seed: 2]
[early_stopping_round: 0]
[first_metric_only: 0]
[max_delta_step: 0]
[lambda_l1: 0]
[lambda_l2: 0]
[min_gain_to_split: 0]
[drop_rate: 0.1]
[max_drop: 50]
[skip_drop: 0.5]
[xgboost_dart_mode: 0]
[uniform_drop: 0]
[drop_seed: 4]
[top_rate: 0.2]
[other_rate: 0.1]
[min_data_per_group: 100]
[max_cat_threshold: 32]
[cat_l2: 10]
[cat_smooth: 10]
[max_cat_to_onehot: 4]
[top_k: 20]
[monotone_constraints: ]
[feature_contri: ]
[forcedsplits_filename: ]
[forcedbins_filename: ]
[refit_decay_rate: 0.9]
[cegb_tradeoff: 1]
[cegb_penalty_split: 0]
[cegb_penalty_feature_lazy: ]
[cegb_penalty_feature_coupled: ]
[verbosity: -1]
[max_bin: 255]
[max_bin_by_feature: ]
[min_data_in_bin: 3]
[bin_construct_sample_cnt: 200000]
[histogram_pool_size: -1]
[data_random_seed: 1]
[output_model: LightGBM_model.txt]
[snapshot_freq: -1]
[input_model: ]
[output_result: LightGBM_predict_result.txt]
[initscore_filename: ]
[valid_data_initscores: ]
[pre_partition: 0]
[enable_bundle: 1]
[max_conflict_rate: 0]
[is_enable_sparse: 1]
[sparse_threshold: 0.8]
[use_missing: 1]
[zero_as_missing: 0]
[two_round: 0]
[save_binary: 0]
[header: 0]
[label_column: ]
[weight_column: ]
[group_column: ]
[ignore_column: ]
[categorical_feature: ]
[predict_raw_score: 0]
[predict_leaf_index: 0]
[predict_contrib: 0]
[num_iteration_predict: -1]
[pred_early_stop: 0]
[pred_early_stop_freq: 10]
[pred_early_stop_margin: 10]
[convert_model_language: ]
[convert_model: gbdt_prediction.cpp]
[num_class: 1]
[is_unbalance: 0]
[scale_pos_weight: 1]
[sigmoid: 1]
[boost_from_average: 1]
[reg_sqrt: 0]
[alpha: 0.9]
[fair_c: 1]
[poisson_max_delta_step: 0.7]
[tweedie_variance_power: 1.5]
[max_position: 20]
[lambdamart_norm: 1]
[label_gain: ]
[metric_freq: 1]
[is_provide_training_metric: 0]
[eval_at: ]
[multi_error_top_k: 1]
[num_machines: 1]
[local_listen_port: 12400]
[time_out: 120]
[machine_list_filename: ]
[machines: ]
[gpu_platform_id: -1]
[gpu_device_id: -1]
[gpu_use_dp: 0]

end of parameters

pandas_categorical:[]
