tree
version=v3
num_class=1
num_tree_per_iteration=1
label_index=0
max_feature_idx=12
objective=regression
feature_names=pickup_longitude pickup_latitude dropoff_longitude dropoff_latitude year month weekday hour distance jfk_dist ewr_dist lga_dist invalid
feature_infos=[-1295.9029829999999:73.973627000000022] [-3488.0311799999995:291.00004200000001] [-1241.410948:436.32745199999999] [-3257.337528:469.60000000000002] [2009:2015] [1:12] [1:7] [0:23] [0:10936.09969774156] [0.42456117414094285:15065.562788086774] [0.68418814303738307:15082.814671899589] [0.18485947578163808:15082.670940795413] [0:2]
tree_sizes=3205 3251 3297 3195 3211

Tree=0
num_leaves=31
num_cat=0
split_feature=8 8 8 12 3 8 8 2 3 3 11 4 4 8 1 4 4 4 1 8 8 8 9 8 2 8 8 10 4 11
split_gain=1.56306e+09 2.79458e+08 1.40602e+08 8.58364e+07 4.36919e+07 4.09791e+07 3.53253e+07 2.90469e+07 1.55847e+07 1.49067e+07 1.48432e+07 1.37293e+07 1.20434e+07 1.13187e+07 8.67588e+06 7.5562e+06 7.07708e+06 6.41046e+06 6.27278e+06 6.24214e+06 6.20713e+06 7.87076e+06 5.97357e+06 5.59063e+06 4.8246e+06 4.71581e+06 8.35148e+06 3.8441e+06 3.61615e+06 3.50317e+06
threshold=8.2826522077898819 2.7503876829061924 16.178681241731933 1.0000000180025095e-35 40.704140500000008 4.4630986205523504 1.3893656393266134 -74.027224000000004 40.648660376220711 40.697648954711923 14.201555291533191 2012.5000000000002 2012.5000000000002 0.029361331806918495 40.724976500000004 2012.5000000000002 2012.5000000000002 2012.5000000000002 40.738823000000004 10.767710358261178 0.029361331806918495 0.78674705522577681 9.125268826018738 10.767710358261178 -74.027224000000004 0.029361331806918495 1.0000000180025095e-35 12.851148318413559 2012.5000000000002 14.201555291533191
decision_type=10 8 10 2 10 8 8 10 8 10 2 2 2 10 2 2 2 2 2 10 8 10 2 10 8 10 10 2 2 2
left_child=1 4 11 7 13 9 10 28 -7 18 20 23 22 27 -15 -11 -10 -8 -3 -13 -6 -22 -9 -2 -18 26 -12 -1 -4 -5
right_child=2 5 3 29 6 8 17 12 16 15 25 19 -14 14 -16 -17 24 -19 -20 -21 21 -23 -24 -25 -26 -27 -28 -29 -30 -31
leaf_value=37.741263580387866 19.82718568515503 14.722859932089879 46.648421175422293 13.19418134105327 10.914737249999328 26.020829352551353 9.6742812057253555 34.32926299836258 15.016975927333448 11.910879494551239 19.207843362569285 23.231381664349662 38.800572150189645 10.595169779653592 15.496343638531977 13.664661168055609 40.199957266413719 10.768708243964721 20.795049380060426 27.985528663329063 7.9000403031333395 8.847088468268888 26.791701535777456 23.473587214017066 17.366554595021192 11.637554894911947 45.903510688920136 17.431465211925339 57.315729955241466 26.354774108684573
leaf_weight=4010 255550 166232 31039 72686 424265 67172 6071330 348998 1285413 2800354 17814 167733 303440 409430 243257 1649258 3929 3603203 126634 383403 7119142 7737183 50901 582749 796995 13842 6857 217506 23662 9684
leaf_count=4010 255550 166232 31039 72686 424265 67172 6071330 348998 1285413 2800354 17814 167733 303440 409430 243257 1649258 3929 3603203 126634 383403 7119142 7737183 50901 582749 796995 13842 6857 217506 23662 9684
internal_value=0 -1.74354 25.6184 35.8286 -3.25146 3.91289 -3.49452 39.16 7.53042 2.27021 -4.43929 19.4427 37.4337 3.69764 1.60139 1.81536 7.04772 -1.99853 9.18079 23.3196 -4.48871 -4.59642 33.8291 16.894 9.38097 15.1678 23.4564 9.87414 61.3567 5.17
internal_weight=0 3.27638e+07 2.22984e+06 840410 2.58678e+07 6.89599e+06 2.49936e+07 758040 2.15351e+06 4.74248e+06 1.53191e+07 1.38944e+06 703339 874203 652687 4.44961e+06 2.08634e+06 9.67453e+06 292866 551136 1.52806e+07 1.48563e+07 399899 838299 800924 38513 24671 221516 54701 82370
internal_count=34993671 32763826 2229845 840410 25867839 6895987 24993636 758040 2153509 4742478 15319103 1389435 703339 874203 652687 4449612 2086337 9674533 292866 551136 15280590 14856325 399899 838299 800924 38513 24671 221516 54701 82370
shrinkage=1


Tree=1
num_leaves=31
num_cat=0
split_feature=8 8 9 2 3 1 1 10 11 3 3 3 2 2 8 1 4 3 9 9 3 3 3 4 11 4 1 3 9 1
split_gain=2.04707e+08 3.30346e+07 2.89652e+07 1.49659e+07 9.58136e+06 1.13122e+07 8.93871e+06 7.90841e+06 7.14723e+06 6.385e+06 6.01737e+06 5.53308e+06 4.96614e+06 4.22346e+06 3.99287e+06 3.89611e+06 3.33388e+06 3.19734e+06 3.15039e+06 3.05038e+06 2.95245e+06 2.55918e+06 1.88885e+06 1.86623e+06 1.84402e+06 1.83628e+06 1.75625e+06 2.44894e+06 1.67925e+06 1.60466e+06
threshold=6.0843984434824074 2.023724276024347 9.125268826018738 -74.027224000000004 40.723154000000008 40.723077500000009 40.748007500000007 26.635416851643949 1.4362098964298451 40.85530450000001 40.816651000000007 40.816651000000007 -74.016168499999978 -74.027224000000004 19.15784744309617 40.693639000000012 2012.5000000000002 40.671921000000005 18.631300401288208 21.969162006717131 40.85530450000001 40.774721119140629 40.747546500000006 2011.5000000000002 14.201555291533191 2011.5000000000002 40.791098500000011 40.756217478271488 20.21486723443277 40.693639000000012
decision_type=10 8 2 10 10 2 2 2 2 10 8 10 8 10 10 2 2 8 2 2 10 10 10 2 2 2 2 10 2 2
left_child=1 7 9 -4 6 15 17 13 20 14 -10 12 -7 -1 21 -6 28 29 -8 -13 25 -2 -17 -16 -11 -5 -14 -28 -15 -3
right_child=2 4 3 8 5 11 18 -9 10 24 -12 19 26 16 23 22 -18 -19 -20 -21 -22 -23 -24 -25 -26 -27 27 -29 -30 -31
leaf_value=6.3390852938046489 4.9146689677690452 -0.35956534217586017 13.261705974039403 3.8928033522156871 6.5390548566836042 13.919420526944775 5.5150096073918098 2.3451861841804971 1.8646070494581186 21.524794664647843 5.9130311713303083 5.7696289668001777 -0.30720085148372939 -0.66160843407970371 7.9423315784855397 0.43788745832855042 -0.65738517936414653 0.044370637610259424 2.6096421039740876 0.9465692397823432 22.803435780207579 12.149891392738084 2.4090425141763032 10.395381277421498 44.677541117253746 5.6588844420398274 3.5464626820021774 -0.023713015377871835 -1.2901655170792756 4.3399152293980805
leaf_weight=33262 154474 40984 71729 441878 79617 10492 203052 306611 903877 5733 187253 98678 6798756 2138463 217029 295248 7934168 939717 705748 126334 3901 23843 674868 330688 1947 569086 121004 246623 11206294 122314
leaf_count=33262 154474 40984 71729 441878 79617 10492 203052 306611 903877 5733 187253 98678 6798756 2138463 217029 295248 7934168 939717 705748 126334 3901 23843 674868 330688 1947 569086 121004 246623 11206294 122314
internal_value=0 -0.728607 8.02879 6.19797 0.729975 0.263101 2.69131 -1.43456 5.71416 13.4628 3.9375 -0.172583 -0.325673 -1.5071 13.1594 3.33519 -1.5247 0.777996 5.01351 4.71031 7.62434 9.04938 2.78329 14.4975 42.1452 7.51839 -0.357502 1.77139 -1.82991 4.86224
internal_weight=0 3.20822e+07 2.91144e+06 2.17772e+06 1.04634e+07 8.45162e+06 2.01182e+06 2.16188e+07 2.106e+06 733714 1.09113e+06 7.40189e+06 7.17688e+06 2.13122e+07 726034 1.04973e+06 2.12789e+07 1.10302e+06 908800 225012 1.01486e+06 178317 970116 547717 7680 1.01096e+06 7.16638e+06 367627 1.33448e+07 163298
internal_count=34993671 32082233 2911438 2177724 10463435 8451620 2011815 21618798 2105995 733714 1091130 7401887 7176875 21312187 726034 1049733 21278925 1103015 908800 225012 1014865 178317 970116 547717 7680 1010964 7166383 367627 13344757 163298
shrinkage=0.65


Tree=2
num_leaves=31
num_cat=0
split_feature=8 8 8 9 11 1 3 9 12 10 8 3 1 4 9 3 1 8 2 7 4 2 1 3 1 8 11 1 1 3
split_gain=2.59964e+07 5.51784e+06 4.60551e+06 3.46847e+06 2.79724e+06 2.60278e+06 4.4444e+06 2.97944e+06 2.50209e+06 2.189e+06 2.85705e+06 1.98722e+06 2.05528e+06 1.89212e+06 1.6674e+06 7.01622e+06 7.3742e+06 2.67952e+06 2.27306e+06 1.65302e+06 1.60859e+06 1.5851e+06 1.64895e+06 2.08653e+06 2.58206e+06 1.46975e+06 1.88385e+06 1.37427e+06 1.2589e+06 1.26479e+06
threshold=5.4524491625507379 13.098155551396934 3.4097393986125413 19.955024212730681 7.5050946609227482 40.747088000000012 40.747887500000012 1.2463206908437303 1.0000000180025095e-35 23.935166231959613 21.03704811279631 40.671921000000005 40.734726000000002 2010.5000000000002 21.882543122401543 40.777152500000014 40.776584000000007 0.10746860599758275 -74.012348999999986 6.5000000000000009 2011.5000000000002 -73.980091499999986 40.766037500000003 40.760512500000011 40.750476418579105 21.03704811279631 11.793521278783258 40.757644826660162 40.758577500000008 40.737972500000005
decision_type=10 10 10 2 2 2 8 2 2 2 10 10 2 2 2 10 2 10 8 2 2 8 2 10 2 10 2 2 2 10
left_child=2 11 3 5 -5 6 7 -1 9 25 -11 12 -2 -12 15 16 21 18 -16 -13 -4 22 23 28 -25 26 -3 -17 -6 -30
right_child=1 8 20 4 14 -7 -8 -9 -10 10 13 19 -14 -15 17 27 -18 -19 -20 -21 -22 -23 -24 24 -26 -27 -28 -29 29 -31
leaf_value=4.6821892190610397 0.1413653671155114 2.6069325345512198 0.050172469735706618 -0.812507656754059 -0.42771281676469974 1.4066179123117857 2.2084186707988906 -0.41443848015120838 -0.64256685970842831 5.9069045948960115 8.1905380159378964 -0.039433589729862918 6.3462699272177749 36.462007705738536 7.119987009873725 2.9086376102573093 2.0064702469242954 -0.81534945348955645 0.63658877182114915 1.3018533663054053 0.95252260915078513 -0.64636474217012907 1.0527908904025263 1.7050882388730397 -0.39745006399570093 3.8198889070648447 -1.7849197702069202 0.98419035182584658 1.2781285004537604 -0.16468021447154416
leaf_weight=49581 36511 635736 1543166 4513237 8303627 768912 345586 2145858 82832 17692 1694 532559 59002 2442 24674 322207 593159 3374964 308589 1432198 1818042 4651570 431003 494104 493008 466648 44129 305361 373190 822390
leaf_count=49581 36511 635736 1543166 4513237 8303627 768912 345586 2145858 82832 17692 1694 532559 59002 2442 24674 322207 593159 3374964 308589 1432198 1818042 4651570 431003 494104 493008 466648 44129 305361 373190 822390
internal_value=0 2.666 -0.278652 -0.41 -0.537309 0.551991 0.0641898 -0.46052 4.32246 4.69899 14.6192 1.66006 6.11442 38.2811 -0.380385 -0.246347 -0.373731 -0.987265 1.71785 1.44352 0.828068 -0.505577 -0.297299 -0.37609 1.00767 4.51013 3.5721 3.03422 -0.519884 0.439508
internal_weight=0 3.31144e+06 3.16822e+07 2.8321e+07 2.50111e+07 3.30994e+06 2.54102e+06 2.19544e+06 1.25117e+06 1.16834e+06 21828 2.06027e+06 95513 4136 2.04978e+07 1.67896e+07 1.61621e+07 3.70823e+06 333263 1.96476e+06 3.36121e+06 1.55689e+07 1.09173e+07 1.04863e+07 987112 1.14651e+06 679865 627568 9.49921e+06 1.19558e+06
internal_count=34993671 3311443 31682228 28321020 25011083 3309937 2541025 2195439 1251173 1168341 21828 2060270 95513 4136 20497846 16789619 16162051 3708227 333263 1964757 3361208 15568892 10917322 10486319 987112 1146513 679865 627568 9499207 1195580
shrinkage=0.65


Tree=3
num_leaves=31
num_cat=0
split_feature=4 2 3 3 2 7 8 7 2 12 10 9 3 0 6 9 12 9 12 3 9 7 11 8 5 4 2 1 3 1
split_gain=4.24407e+06 5.4838e+06 3.66508e+06 3.75004e+06 3.54583e+06 2.19565e+06 2.50254e+06 2.81231e+06 1.7305e+06 1.48705e+06 1.24131e+06 1.2636e+06 1.20928e+06 1.49291e+06 1.13992e+06 1.0332e+06 1.00953e+06 972626 867432 855326 1.41241e+06 899613 783037 1.14464e+06 760802 1.07228e+06 750608 1.10968e+06 1.04844e+06 989581
threshold=2011.5000000000002 -74.027224000000004 40.662902500000008 40.839977000000012 -73.782248725341773 7.5000000000000009 1.8054005768728654 18.500000000000004 -73.945899499999982 1.0000000180025095e-35 14.686635163519615 17.198214620642219 40.644314500000007 -73.92881505981444 5.5000000000000009 19.923951490299821 1.0000000180025095e-35 21.15517845189391 1.0000000180025095e-35 40.797199500000005 21.362409855909437 7.5000000000000009 11.626015748504061 19.15784744309617 8.5000000000000018 2012.5000000000002 -73.969804500000009 40.767977500000008 40.758121500000009 40.742728000000007
decision_type=2 8 8 10 10 2 10 2 8 2 2 2 10 2 2 2 2 2 2 8 2 2 2 10 2 2 8 2 8 2
left_child=18 10 22 5 8 -4 17 14 -5 -6 12 16 -2 -14 24 -10 -12 26 19 21 -21 -1 23 -3 25 -8 27 28 -7 -30
right_child=1 2 3 4 9 6 7 -9 15 -11 11 -13 13 -15 -16 -17 -18 -19 -20 20 -22 -23 -24 -25 -26 -27 -28 -29 29 -31
leaf_value=-0.59721652989049578 -0.12171860890822107 4.9930382718716038 -0.35979285914136361 20.526538489184155 34.654787581400342 0.11231700366920218 0.15130622476148112 -0.014885733679186473 7.2441044070483276 -1.5497766952563838 30.068113475624234 11.263068792458196 6.0032579263546388 23.711042991125044 0.32195765260444265 2.0116584589735247 99.19853837677077 -0.26136252441984376 -2.0602736388771068 1.9176688400140942 -0.12481245279195233 -0.18886096056917098 1.268283010215163 1.7622980752869433 1.6691538135154504 1.212262638603145 -0.26670472920326593 1.9452655459144601 2.6287701169487128 0.57105245009290873
leaf_weight=2779417 13806 77166 3298544 2337 2136 3328416 568778 2331085 18330 618 714 5390 43965 2108 1059035 122493 102 3507337 110244 203062 483970 12667900 224625 115960 759538 1376525 1213026 169344 134234 373466
leaf_count=2779417 13806 77166 3298544 2337 2136 3328416 568778 2331085 18330 618 714 5390 43965 2108 1059035 122493 102 3507337 110244 203062 483970 12667900 224625 115960 759538 1376525 1213026 169344 134234 373466
internal_value=0 0.324161 0.291996 0.225013 5.27428 0.184352 0.348576 0.840245 4.59055 40.8161 9.41749 22.8798 8.02222 10.4822 1.37482 4.14266 59.5529 0.00514645 -0.374138 -0.355037 0.736726 -0.403594 3.22068 4.6972 1.71917 1.38778 0.278854 0.487564 0.376975 1.71555
internal_weight=0 1.87491e+07 1.8683e+07 1.82652e+07 145914 1.81193e+07 1.48208e+07 6.09496e+06 143160 2754 66085 6206 59879 46073 3.76388e+06 140823 816 8.72582e+06 1.62446e+07 1.61343e+07 687032 1.54473e+07 417751 193126 2.70484e+06 1.9453e+06 5.21849e+06 4.00546e+06 3.83612e+06 507700
internal_count=34993671 18749078 18682993 18265242 145914 18119328 14820784 6094961 143160 2754 66085 6206 59879 46073 3763876 140823 816 8725823 16244593 16134349 687032 15447317 417751 193126 2704841 1945303 5218486 4005460 3836116 507700
shrinkage=0.65


Tree=4
num_leaves=31
num_cat=0
split_feature=10 9 3 1 2 11 3 3 1 1 3 2 8 3 3 8 0 8 5 10 3 2 1 3 2 1 11 1 3 2
split_gain=1.74181e+06 1.52192e+06 2.01257e+06 1.99824e+06 1.19116e+06 2.32725e+06 1.31106e+06 1.15826e+06 2.30332e+06 1.24615e+06 2.33042e+06 1.00285e+06 951657 884424 1.02119e+06 1.06599e+06 868872 867249 806376 804433 784944 1.19031e+06 774207 757993 676824 644743 616624 605447 958354 627759
threshold=14.075782969782777 19.513958481102815 40.783167500000012 40.776141500000008 -73.952051499999982 12.601745552865301 40.662902500000008 40.72601550000001 40.738517500000007 40.729357500000013 40.739687500000009 -73.909286999999992 24.797051296223461 40.736407500000006 40.634673628784192 2.7503876829061924 -73.893420000000006 2.023724276024347 8.5000000000000018 23.935166231959613 40.786487500000007 -73.977286499999977 40.741899000000011 40.767200500000008 -73.985492500000007 40.75029150000001 3.3170355186316689 40.737105661621101 40.734636000000002 -74.016168499999978
decision_type=2 2 8 2 10 2 8 8 2 2 8 8 10 8 10 10 2 10 2 2 8 10 2 10 10 2 2 2 8 8
left_child=27 2 3 4 5 13 -6 8 -3 10 -9 16 23 14 -2 -16 -4 25 -11 -7 21 -12 -15 -8 -18 -10 -5 28 -1 -30
right_child=1 7 11 26 6 19 12 9 17 18 20 -13 -14 22 15 -17 24 -19 -20 -21 -22 -23 -24 -25 -26 -27 -28 -29 29 -31
leaf_value=-0.076302706153442326 4.1038782135370147 -0.32164597327211075 4.3998546015791815 0.67948077944311736 1.0283498136768279 -1.5056529460898087 -0.81067864700708137 -0.63567839742201504 1.1753601100978979 -0.26262731645211046 1.1571243790235981 5.7905851123132033 5.7008845398680901 1.7831117080776679 0.74329208904456934 -0.40409260215700965 16.830672768768093 0.43134691135682657 -0.0012315752310025109 47.431541068893928 2.6688183422347147 -0.19287145846404394 0.56422417165247696 0.13668909547030605 0.51049032515273229 2.7386938104532175 3.1079329071944786 0.91225374445202045 7.9040643625033891 0.78397925293862292
leaf_weight=1256956 29235 900798 37219 68074 286532 246905 1144372 673152 306260 16156564 834798 32007 10471 411809 752667 627172 1086 380545 7211866 142 92959 412200 473115 518496 94217 175229 125838 922711 5266 805010
leaf_count=1256956 29235 900798 37219 68074 286532 246905 1144372 673152 306260 16156564 834798 32007 10471 411809 752667 627172 1086 380545 7211866 142 92959 412200 473115 518496 94217 175229 125838 922711 5266 805010
internal_value=0 -0.0681926 0.447209 0.326734 0.191319 0.643115 -0.39445 -0.160459 0.623362 -0.214898 0.540034 3.88496 -0.732898 0.957171 0.465109 0.341195 2.67164 1.79185 -0.279933 -2.27311 1.30263 1.09366 1.74069 -0.792741 1.07148 2.68355 3.46986 0.729919 0.429281 1.27731
internal_weight=0 3.20037e+07 4.85936e+06 4.69483e+06 4.50092e+06 2.54104e+06 1.95987e+06 2.71444e+07 1.76283e+06 2.53815e+07 2.01311e+06 164529 1.67334e+06 2.294e+06 1.40907e+06 1.37984e+06 132522 862034 2.33684e+07 247047 1.33996e+06 1.247e+06 884924 1.66287e+06 95303 481489 193912 2.98994e+06 2.06723e+06 810276
internal_count=34993671 32003728 4859357 4694828 4500916 2541045 1959871 27144371 1762832 25381539 2013109 164529 1673339 2293998 1409074 1379839 132522 862034 23368430 247047 1339957 1246998 884924 1662868 95303 481489 193912 2989943 2067232 810276
shrinkage=0.65


end of trees

feature importances:
dropoff_latitude=31
distance=26
pickup_latitude=22
dropoff_longitude=16
year=13
jfk_dist=13
lga_dist=9
ewr_dist=6
invalid=5
hour=4
pickup_longitude=2
month=2
weekday=1

parameters:
[boosting: gbdt]
[objective: regression]
[metric: rmse]
[tree_learner: serial]
[device_type: cpu]
[data: ]
[valid: ]
[num_iterations: 100]
[learning_rate: 0.65]
[num_leaves: 31]
[num_threads: 0]
[max_depth: -1]
[min_data_in_leaf: 20]
[min_sum_hessian_in_leaf: 0.001]
[bagging_fraction: 1]
[pos_bagging_fraction: 1]
[neg_bagging_fraction: 1]
[bagging_freq: 0]
[bagging_seed: 3]
[feature_fraction: 1]
[feature_fraction_bynode: 1]
[feature_fraction_seed: 2]
[early_stopping_round: 0]
[first_metric_only: 0]
[max_delta_step: 0]
[lambda_l1: 0]
[lambda_l2: 0]
[min_gain_to_split: 0]
[drop_rate: 0.1]
[max_drop: 50]
[skip_drop: 0.5]
[xgboost_dart_mode: 0]
[uniform_drop: 0]
[drop_seed: 4]
[top_rate: 0.2]
[other_rate: 0.1]
[min_data_per_group: 100]
[max_cat_threshold: 32]
[cat_l2: 10]
[cat_smooth: 10]
[max_cat_to_onehot: 4]
[top_k: 20]
[monotone_constraints: ]
[feature_contri: ]
[forcedsplits_filename: ]
[forcedbins_filename: ]
[refit_decay_rate: 0.9]
[cegb_tradeoff: 1]
[cegb_penalty_split: 0]
[cegb_penalty_feature_lazy: ]
[cegb_penalty_feature_coupled: ]
[verbosity: -1]
[max_bin: 255]
[max_bin_by_feature: ]
[min_data_in_bin: 3]
[bin_construct_sample_cnt: 200000]
[histogram_pool_size: -1]
[data_random_seed: 1]
[output_model: LightGBM_model.txt]
[snapshot_freq: -1]
[input_model: ]
[output_result: LightGBM_predict_result.txt]
[initscore_filename: ]
[valid_data_initscores: ]
[pre_partition: 0]
[enable_bundle: 1]
[max_conflict_rate: 0]
[is_enable_sparse: 1]
[sparse_threshold: 0.8]
[use_missing: 1]
[zero_as_missing: 0]
[two_round: 0]
[save_binary: 0]
[header: 0]
[label_column: ]
[weight_column: ]
[group_column: ]
[ignore_column: ]
[categorical_feature: ]
[predict_raw_score: 0]
[predict_leaf_index: 0]
[predict_contrib: 0]
[num_iteration_predict: -1]
[pred_early_stop: 0]
[pred_early_stop_freq: 10]
[pred_early_stop_margin: 10]
[convert_model_language: ]
[convert_model: gbdt_prediction.cpp]
[num_class: 1]
[is_unbalance: 0]
[scale_pos_weight: 1]
[sigmoid: 1]
[boost_from_average: 1]
[reg_sqrt: 0]
[alpha: 0.9]
[fair_c: 1]
[poisson_max_delta_step: 0.7]
[tweedie_variance_power: 1.5]
[max_position: 20]
[lambdamart_norm: 1]
[label_gain: ]
[metric_freq: 1]
[is_provide_training_metric: 0]
[eval_at: ]
[multi_error_top_k: 1]
[num_machines: 1]
[local_listen_port: 12400]
[time_out: 120]
[machine_list_filename: ]
[machines: ]
[gpu_platform_id: -1]
[gpu_device_id: -1]
[gpu_use_dp: 0]

end of parameters

pandas_categorical:[]
