tree
version=v3
num_class=1
num_tree_per_iteration=1
label_index=0
max_feature_idx=12
objective=regression
feature_names=pickup_longitude pickup_latitude dropoff_longitude dropoff_latitude year month weekday hour distance jfk_dist ewr_dist lga_dist invalid
feature_infos=[-740:2228.7220480000001] [-74.013444999999976:404.21666699999997] [-740.39999999999998:40.846367000000001] [-74.010036999999997:73.974928000000006] [2009:2015] [1:12] [1:7] [0:23] [0:8788.3710719958708] [0.1508390463988456:15067.559021987752] [0.68992733442950038:15084.848405430967] [0.11132854589111837:15084.669644002379] [0:2]
tree_sizes=3223 3230

Tree=0
num_leaves=31
num_cat=0
split_feature=8 8 8 12 3 8 8 2 8 3 3 11 4 4 8 1 9 2 4 4 8 8 1 4 8 8 9 10 4 11
split_gain=1.56274e+09 2.68204e+08 1.52686e+08 8.72522e+07 4.24061e+07 3.84207e+07 3.52454e+07 2.81924e+07 1.65991e+07 1.65028e+07 1.45451e+07 1.38618e+07 1.16554e+07 1.14563e+07 1.06832e+07 8.32014e+06 7.44322e+06 7.39327e+06 7.21839e+06 6.86101e+06 6.21456e+06 7.88979e+06 5.85298e+06 5.76679e+06 5.53697e+06 8.08223e+06 5.41162e+06 3.72982e+06 3.48126e+06 3.44257e+06
threshold=7.7997085032266087 2.7170594915168 16.501709875550745 1.0000000180025095e-35 40.702214000000005 4.3165126250135728 1.3855632202777182 -74.027487999999991 10.878611049763407 40.647943500000018 40.697661000000004 14.17985775781152 2012.5000000000002 2012.5000000000002 0.029574181323689604 40.72184450000001 19.287470712381914 -74.027487999999991 2012.5000000000002 2012.5000000000002 0.029574181323689604 0.78336233326393978 40.738795500000009 2012.5000000000002 0.029574181323689604 1.0000000180025095e-35 8.6524449625030204 12.851432208479235 2012.5000000000002 14.17985775781152
decision_type=10 8 10 2 8 8 10 10 10 8 10 2 2 2 10 2 2 8 2 2 10 10 2 2 10 10 2 2 2 2
left_child=1 4 8 7 14 10 11 28 -2 -7 22 20 26 -10 27 -16 -8 -11 -12 -19 -6 -22 -3 -18 25 -13 -9 -1 -4 -5
right_child=2 5 3 29 6 9 16 12 13 17 18 24 -14 -15 15 -17 23 19 -20 -21 21 -23 -24 -25 -26 -27 -28 -29 -30 -31
leaf_value=37.797506430532891 20.877775965925132 14.657962962990069 46.715745074519063 13.145007126813447 10.909278153030105 25.914080851069151 12.960273129915356 34.440428200868872 23.571988960146584 33.265590824232504 11.803423014582457 18.935038504185982 38.983835454803632 28.141668284582337 10.378276442354995 15.441764755108213 9.5751344850719349 14.697030242850351 13.530598197139298 17.052314487225857 7.8977244131704083 8.8460781186907145 20.623144570729352 10.637792125027277 11.029626326558542 44.518484487822434 26.824468948412687 17.433870475421923 57.195846387367709 26.260158167352984
leaf_weight=3868 535319 159675 30792 72295 426596 68630 365568 342961 583093 10055 2756723 18058 295675 384734 333650 232750 5808881 1362886 1624955 847491 7096963 7758022 123051 3432603 16489 7337 44538 216739 23698 9576
leaf_count=3868 535319 159675 30792 72295 426596 68630 365568 342961 583093 10055 2756723 18058 295675 384734 333650 232750 5808881 1362886 1624955 847491 7096963 7758022 123051 3432603 16489 7337 44538 216739 23698 9576
internal_value=0 -1.78182 25.0631 36.0436 -3.27165 3.72836 -3.4998 39.4811 19.0764 7.08381 2.08167 -4.44126 37.7352 21.5479 3.95565 1.65627 -1.99815 6.61176 1.63311 6.48869 -4.49105 -4.59912 9.03348 -2.17321 13.7261 22.9908 34.1271 9.85921 61.371 5.07167
internal_weight=0 3.2671e+07 2.32268e+06 819535 2.57175e+07 6.95347e+06 2.49305e+07 737664 1.50315e+06 2.28906e+06 4.6644e+06 1.53235e+07 683174 967827 787007 566400 9.60705e+06 2.22043e+06 4.38168e+06 2.21038e+06 1.52816e+07 1.4855e+07 282726 9.24148e+06 41884 25395 387499 220607 54490 81871
internal_count=34993671 32670990 2322681 819535 25717524 6953466 24930517 737664 1503146 2289062 4664404 15323465 683174 967827 787007 566400 9607052 2220432 4381678 2210377 15281581 14854985 282726 9241484 41884 25395 387499 220607 54490 81871
shrinkage=1


Tree=1
num_leaves=31
num_cat=0
split_feature=8 8 9 2 3 1 1 10 11 3 3 3 2 4 2 8 3 1 9 3 3 4 3 4 3 1 3 4 10 8
split_gain=2.02874e+08 3.19794e+07 3.03773e+07 1.49007e+07 8.13571e+06 9.69869e+06 9.1484e+06 7.70448e+06 7.51328e+06 6.45116e+06 5.64342e+06 5.02467e+06 4.2663e+06 3.5294e+06 3.51471e+06 3.21645e+06 3.06785e+06 2.97742e+06 2.92045e+06 2.869e+06 2.85038e+06 2.59464e+06 2.54877e+06 1.7609e+06 1.7223e+06 1.71793e+06 2.14942e+06 1.64071e+06 1.61547e+06 1.59528e+06
threshold=5.9332462603219653 2.1183163458736769 8.6524449625030204 -74.027487999999991 40.723132500000006 40.723162500000008 40.745418274292 26.658820421889008 1.3806873564976265 40.856478500000001 40.816325500000012 40.816325500000012 -74.027487999999991 2012.5000000000002 -74.016206499999996 19.299452763715145 40.67195250000001 40.693677500000007 21.97962837952408 40.67195250000001 40.856478500000001 2011.5000000000002 40.774602500000007 2011.5000000000002 40.747532500000005 40.792169000000008 40.756002500000008 2011.5000000000002 18.354026630390447 1.0579207587328978
decision_type=10 8 2 8 10 2 2 2 2 10 8 10 8 2 10 10 10 2 2 8 10 2 10 2 10 2 10 2 2 8
left_child=1 7 9 27 6 17 16 12 20 15 -10 14 -1 29 -7 22 -3 -6 -13 -8 21 -5 -2 -17 -19 -16 -27 -4 -15 -14
right_child=2 4 3 8 5 11 19 -9 10 -11 -12 18 13 28 25 23 -18 24 -20 -21 -22 -23 -24 -25 -26 26 -28 -29 -30 -31
leaf_value=6.4357810794936796 5.2110854999819676 3.0131229774724395 9.5956403461741804 3.7085817274058019 6.0430755722144163 11.968203246189187 7.2255148224224248 2.3192440463925919 1.9283706131956764 27.889141561297006 5.7490424314227724 5.7362982078760121 -1.3775927724942105 -0.48087511781387704 -0.25759781674326576 7.9265259753723392 -0.18638693824945127 0.40659857280256967 0.90029546888158984 2.8449156652261198 22.750204706289839 5.8293456010236895 12.20013291476992 10.331102844919094 2.3617672012170994 3.6600484781655496 0.088472947802059637 15.826812027208423 -1.2024196385046293 -0.93483857553049188
leaf_weight=32971 154711 149894 31668 434770 75174 10073 68146 308349 1005464 7387 195020 94504 7144716 6540918 6272748 213088 815389 269381 119442 864547 3793 554710 25709 324804 648891 107213 211891 40926 1639619 6627755
leaf_count=32971 154711 149894 31668 434770 75174 10073 68146 308349 1005464 7387 195020 94504 7144716 6540918 6272748 213088 815389 269381 119442 864547 3793 554710 25709 324804 648891 107213 211891 40926 1639619 6627755
internal_value=0 -0.736235 7.87444 6.0714 0.778711 0.327388 2.6357 -1.39587 5.60496 13.5053 3.9216 -0.0980749 -1.46548 -1.48256 -0.252639 13.203 0.477614 3.24642 4.67146 4.8692 7.6395 7.53461 9.54922 14.4285 2.75109 -0.281162 1.98224 20.167 -0.962298 -1.79158
internal_weight=0 3.20016e+07 2.99205e+06 2.26635e+06 9.70729e+06 7.80932e+06 1.89798e+06 2.22943e+07 2.19376e+06 725699 1.20048e+06 6.81587e+06 2.1986e+07 2.1953e+07 6.60192e+06 718312 965283 993446 213946 932693 993273 989480 180420 537892 918272 6.59185e+06 319104 72594 8.18054e+06 1.37725e+07
internal_count=34993671 32001621 2992050 2266351 9707293 7809317 1897976 22294328 2193757 725699 1200484 6815871 21985979 21953008 6601925 718312 965283 993446 213946 932693 993273 989480 180420 537892 918272 6591852 319104 72594 8180537 13772471
shrinkage=0.65


end of trees

feature importances:
distance=15
dropoff_latitude=13
year=10
pickup_latitude=6
dropoff_longitude=5
jfk_dist=4
ewr_dist=3
lga_dist=3
invalid=1

parameters:
[boosting: gbdt]
[objective: regression]
[metric: rmse]
[tree_learner: serial]
[device_type: cpu]
[data: ]
[valid: ]
[num_iterations: 100]
[learning_rate: 0.65]
[num_leaves: 31]
[num_threads: 0]
[max_depth: -1]
[min_data_in_leaf: 20]
[min_sum_hessian_in_leaf: 0.001]
[bagging_fraction: 1]
[pos_bagging_fraction: 1]
[neg_bagging_fraction: 1]
[bagging_freq: 0]
[bagging_seed: 3]
[feature_fraction: 1]
[feature_fraction_bynode: 1]
[feature_fraction_seed: 2]
[early_stopping_round: 0]
[first_metric_only: 0]
[max_delta_step: 0]
[lambda_l1: 0]
[lambda_l2: 0]
[min_gain_to_split: 0]
[drop_rate: 0.1]
[max_drop: 50]
[skip_drop: 0.5]
[xgboost_dart_mode: 0]
[uniform_drop: 0]
[drop_seed: 4]
[top_rate: 0.2]
[other_rate: 0.1]
[min_data_per_group: 100]
[max_cat_threshold: 32]
[cat_l2: 10]
[cat_smooth: 10]
[max_cat_to_onehot: 4]
[top_k: 20]
[monotone_constraints: ]
[feature_contri: ]
[forcedsplits_filename: ]
[forcedbins_filename: ]
[refit_decay_rate: 0.9]
[cegb_tradeoff: 1]
[cegb_penalty_split: 0]
[cegb_penalty_feature_lazy: ]
[cegb_penalty_feature_coupled: ]
[verbosity: -1]
[max_bin: 255]
[max_bin_by_feature: ]
[min_data_in_bin: 3]
[bin_construct_sample_cnt: 200000]
[histogram_pool_size: -1]
[data_random_seed: 1]
[output_model: LightGBM_model.txt]
[snapshot_freq: -1]
[input_model: ]
[output_result: LightGBM_predict_result.txt]
[initscore_filename: ]
[valid_data_initscores: ]
[pre_partition: 0]
[enable_bundle: 1]
[max_conflict_rate: 0]
[is_enable_sparse: 1]
[sparse_threshold: 0.8]
[use_missing: 1]
[zero_as_missing: 0]
[two_round: 0]
[save_binary: 0]
[header: 0]
[label_column: ]
[weight_column: ]
[group_column: ]
[ignore_column: ]
[categorical_feature: ]
[predict_raw_score: 0]
[predict_leaf_index: 0]
[predict_contrib: 0]
[num_iteration_predict: -1]
[pred_early_stop: 0]
[pred_early_stop_freq: 10]
[pred_early_stop_margin: 10]
[convert_model_language: ]
[convert_model: gbdt_prediction.cpp]
[num_class: 1]
[is_unbalance: 0]
[scale_pos_weight: 1]
[sigmoid: 1]
[boost_from_average: 1]
[reg_sqrt: 0]
[alpha: 0.9]
[fair_c: 1]
[poisson_max_delta_step: 0.7]
[tweedie_variance_power: 1.5]
[max_position: 20]
[lambdamart_norm: 1]
[label_gain: ]
[metric_freq: 1]
[is_provide_training_metric: 0]
[eval_at: ]
[multi_error_top_k: 1]
[num_machines: 1]
[local_listen_port: 12400]
[time_out: 120]
[machine_list_filename: ]
[machines: ]
[gpu_platform_id: -1]
[gpu_device_id: -1]
[gpu_use_dp: 0]

end of parameters

pandas_categorical:[]
