tree
version=v3
num_class=1
num_tree_per_iteration=1
label_index=0
max_feature_idx=12
objective=regression
feature_names=pickup_longitude pickup_latitude dropoff_longitude dropoff_latitude year month weekday hour distance jfk_dist ewr_dist lga_dist invalid
feature_infos=[-844.36350199999981:1733.7337719999996] [-74.016469999999998:3270.3240300000002] [-736.64999999999998:1152.1361850000001] [-424.79869200000002:405.11666700000001] [2009:2015] [1:12] [1:7] [0:23] [0:16828.874437003462] [0.17652651246540157:15965.8558716957] [0.66721182457355133:15980.412891408167] [0.005862961618983949:15982.720869248469] [0:2]
tree_sizes=3220 3251 3269 3194 3200 3222 3159 3104 3117 3058 3108 2981 3010 3133 3159 3023 3093 3111 2946 3159 2996 3049 2950

Tree=0
num_leaves=31
num_cat=0
split_feature=8 8 8 12 3 8 8 2 8 3 3 2 4 4 8 1 8 8 2 4 4 4 1 9 8 11 8 10 11 4
split_gain=1.56423e+09 2.67622e+08 1.53289e+08 8.61402e+07 4.18373e+07 3.95689e+07 3.40068e+07 2.81373e+07 1.65693e+07 1.64981e+07 1.49093e+07 1.30677e+07 1.16549e+07 1.12068e+07 1.05589e+07 8.05422e+06 7.5907e+06 7.57414e+06 7.47196e+06 7.10675e+06 6.93659e+06 6.46197e+06 5.89034e+06 5.39068e+06 4.75941e+06 4.07055e+06 5.68888e+06 3.76069e+06 3.64147e+06 3.52647e+06
threshold=7.7888152879124322 2.6911266220184058 16.397450652625569 1.0000000180025095e-35 40.702095500000006 4.3073750407463267 1.366321679363192 -74.02649049999998 10.920475928309962 40.648213000000005 40.697516500000013 -74.02649049999998 2012.5000000000002 2012.5000000000002 0.028125254791526836 40.721832637695321 0.028125254791526836 0.7864560814194651 -74.02649049999998 2012.5000000000002 2012.5000000000002 2012.5000000000002 40.738917500000007 8.7913985615680783 0.028125254791526836 14.148348776682313 1.0000000180025095e-35 12.850201251496713 14.148348776682313 2012.5000000000002
decision_type=10 8 10 2 8 8 10 10 10 8 10 10 2 2 10 2 10 10 8 2 2 2 2 2 10 2 10 2 2 2
left_child=1 4 8 7 14 10 11 29 -2 -7 22 24 23 -10 27 -16 25 -18 -11 -12 -20 -8 -3 -9 -6 -13 -27 -1 -5 -4
right_child=2 5 3 28 6 9 21 12 13 18 19 16 -14 -15 15 -17 17 -19 20 -21 -22 -23 -24 -25 -26 26 -28 -29 -30 -31
leaf_value=37.804769761592439 20.895369808289985 14.647795984675458 46.621568319457694 13.207069487956991 31.46875899067722 25.897329642907167 9.6338463436973178 34.414492092789857 23.576191755013646 33.211931001952479 11.770001080367395 10.759348158164247 38.926039034937901 28.126597510519019 10.380355357192105 15.407409435530646 7.9004323642847325 8.8356381566972253 14.679765406686261 13.464474891203418 17.040174674844959 10.730524260754349 20.596187204755587 26.949190799612786 12.951776747980364 15.67677785545953 48.530892889029602 17.39254379706167 26.441368365144477 57.152672388503674
leaf_weight=3882 545464 161545 31057 72198 13855 68601 6096510 343880 574874 10205 2821277 420787 297921 379704 329848 227548 7142221 7502047 1374080 1661678 852277 3616734 124571 46379 10169 12139 2727 215816 10001 23676
leaf_count=3882 545464 161545 31057 72198 13855 68601 6096510 343880 574874 10205 2821277 420787 297921 379704 329848 227548 7142221 7502047 1374080 1661678 852277 3616734 124571 46379 10169 12139 2727 215816 10001 23676
internal_value=0 -1.78368 25.0608 36.0085 -3.28843 3.66044 -3.51467 39.4072 19.0389 7.0622 2.01618 -4.45341 37.6716 21.5512 3.93677 1.62255 -4.49053 -4.61291 6.59366 1.56949 6.46992 -2.05495 9.01497 34.076 18.8506 -0.377096 15.8855 9.80817 5.29131 61.2294
internal_weight=0 3.26685e+07 2.32515e+06 825112 2.55943e+07 7.07423e+06 2.48172e+07 742913 1.50004e+06 2.30516e+06 4.76907e+06 1.51039e+07 688180 954578 777094 557396 1.50799e+07 1.46443e+07 2.23656e+06 4.48296e+06 2.22636e+06 9.71324e+06 286116 390259 24024 435653 14866 219698 82199 54733
internal_count=34993671 32668517 2325154 825112 25594283 7074234 24817189 742913 1500042 2305163 4769071 15103945 688180 954578 777094 557396 15079921 14644268 2236562 4482955 2226357 9713244 286116 390259 24024 435653 14866 219698 82199 54733
shrinkage=1


Tree=1
num_leaves=31
num_cat=0
split_feature=8 8 9 2 3 1 1 10 11 3 3 3 1 8 2 9 3 9 9 3 4 2 1 3 3 4 3 4 4 3
split_gain=2.03169e+08 3.16654e+07 3.01943e+07 1.48998e+07 9.08872e+06 1.08656e+07 8.98899e+06 8.25702e+06 7.81919e+06 6.27296e+06 5.84899e+06 5.15255e+06 3.7747e+06 3.42207e+06 3.42163e+06 3.38912e+06 3.2386e+06 3.13589e+06 3.07826e+06 2.92073e+06 2.73663e+06 2.88906e+06 2.72943e+06 3.85705e+06 2.63027e+06 2.60849e+06 2.03636e+06 1.75812e+06 1.7352e+06 1.7291e+06
threshold=5.9141591538891012 2.083870898335594 8.7913985615680783 -74.02649049999998 40.723143500000006 40.722676161743173 40.747906500000006 26.637396896078105 1.4180266584015253 40.857231500000005 40.816329000000003 40.810676194702154 40.693714000000007 19.333783412444188 -74.016058937744134 19.969019815611819 40.857231500000005 21.84863781052934 18.531657281090077 40.671772001586923 2012.5000000000002 -74.02649049999998 40.747017500000005 40.746888500000004 40.775070500000005 2011.5000000000002 40.728460500000004 2011.5000000000002 2011.5000000000002 40.747256000000007
decision_type=10 8 2 8 10 2 2 2 2 10 8 10 2 10 8 2 10 2 2 8 2 10 2 10 10 2 10 2 2 10
left_child=1 7 9 28 6 12 19 15 16 13 -10 14 -6 24 -7 22 25 -13 -8 -3 -17 -22 23 -1 -2 -5 -24 -15 -4 -14
right_child=2 4 3 8 5 11 18 -9 10 -11 -12 17 29 27 -16 20 -18 -19 -20 -21 21 -23 26 -25 -26 -27 -28 -29 -30 -31
leaf_value=-0.96374686922752861 5.1541919389222288 3.066237665199226 9.4736839084842011 3.7148848078908765 6.5672263158857884 11.717324735218753 5.5587062840604151 2.4301150484303902 1.8719842077960145 28.018235058388012 5.7463565038866014 5.2979089391482059 0.44638397160239957 7.9403702123026969 -0.23418140413988153 -1.2385254069807772 24.109316690813017 0.80891811293206606 2.6313571846341088 0.0072924231616073058 14.004636543629758 -0.74513019311327 2.794292363935325 1.6595306796460596 12.191184739293394 5.8230975168926973 0.038924531879008906 10.347871592971096 15.835347964717499 2.4132186627190064
leaf_weight=1588830 158356 154796 32267 440986 77138 10136 194673 307568 994276 7073 197296 112574 268327 211842 6747555 12178815 3722 158071 688641 890785 5615 7223632 194029 278283 26147 566503 272452 324417 41302 637564
leaf_count=1588830 158356 154796 32267 440986 77138 10136 194673 307568 994276 7073 197296 112574 268327 211842 6747555 12178815 3722 158071 688641 890785 5615 7223632 194029 278283 26147 566503 272452 324417 41302 637564
internal_value=0 -0.738403 7.86274 6.07008 0.743388 0.274193 2.69212 -1.40643 5.60253 13.4694 3.8669 -0.161349 3.38818 13.1786 -0.3327 -1.47921 7.64772 4.11708 5.04079 0.707943 -1.61612 -1.12873 -0.340598 -0.881172 9.46376 7.53895 1.82307 14.4566 20.0695 2.81637
internal_weight=0 3.19895e+07 3.00419e+06 2.27635e+06 9.94026e+06 8.01136e+06 1.9289e+06 2.20492e+07 2.20278e+06 727835 1.19157e+06 7.02834e+06 983029 720762 6.75769e+06 2.17417e+07 1.01121e+06 270645 883314 1.04558e+06 1.94081e+07 7.22925e+06 2.33359e+06 1.86711e+06 184503 1.00749e+06 466481 536259 73569 905891
internal_count=34993671 31989484 3004187 2276352 9940260 8011365 1928895 22049224 2202783 727835 1191572 7028336 983029 720762 6757691 21741656 1011211 270645 883314 1045581 19408062 7229247 2333594 1867113 184503 1007489 466481 536259 73569 905891
shrinkage=0.65


Tree=2
num_leaves=31
num_cat=0
split_feature=8 8 8 11 9 12 3 4 1 10 8 4 4 2 8 4 10 9 1 3 1 11 10 9 8 9 1 8 3 7
split_gain=2.61079e+07 6.06438e+06 4.57896e+06 2.92058e+06 2.57677e+06 2.47654e+06 2.43683e+06 2.28351e+06 2.18026e+06 2.08228e+06 3.16634e+06 2.02098e+06 2.01065e+06 1.89199e+06 1.6957e+06 1.67048e+06 1.41611e+06 1.83671e+06 3.07455e+06 2.72461e+06 1.82918e+06 1.27719e+06 1.69366e+06 1.18645e+06 1.15769e+06 1.12627e+06 1.08502e+06 1.18088e+06 1.04279e+06 1.03584e+06
threshold=5.3278240695210464 13.191370235825962 3.3202299008303737 7.7654935053893084 1.2507595440956087 1.0000000180025095e-35 40.671772001586923 2011.5000000000002 40.734786493652351 23.931048458858157 21.038778055685608 2010.5000000000002 2012.5000000000002 -74.02649049999998 1.7862616096823054 2011.5000000000002 31.267575729712132 21.876888810377832 40.773285456054694 40.772977500000003 40.777577500000014 12.090077484294802 15.854871497033347 19.291447064409166 21.038778055685608 20.222838957676426 40.81877200000001 24.930154255606691 40.840610000000005 6.5000000000000009
decision_type=10 8 10 2 2 2 8 2 2 2 10 2 2 8 10 2 2 2 2 10 2 2 2 2 10 2 2 8 8 2
left_child=2 6 3 25 -5 9 8 -6 -2 21 -11 -12 29 -9 16 -4 17 18 19 -15 -18 24 -23 -16 -3 -1 27 -26 -14 -8
right_child=1 5 15 4 7 -7 12 13 -10 10 11 -13 28 14 23 -17 20 -19 -20 -21 -22 22 -24 -25 26 -27 -28 -29 -30 -31
leaf_value=0.14878084321117929 0.35942962668274558 2.6969714112529046 0.02787768665512632 4.5571405254371999 -0.39751664524167574 -0.57041378347768423 -0.57660570830525681 7.679737275728125 6.5730128113031441 5.6287158152242691 7.9584685270867688 37.541665964013539 1.5023724204165521 -0.18962238058944145 1.5459839176523791 0.92430852589684009 1.8097721292540312 -0.82950171648520454 2.2494960512172586 1.9955817909759956 20.004371966037766 2.7452538676829237 -2.2050474910194473 0.27900563139416612 3.9849452583120044 -0.78251984425685983 -8.5798533614677144 9.4789177612301074 4.393392934805858 0.75076137089716788
leaf_weight=613756 38799 617697 1624290 48709 10415611 82690 339743 13609 61961 17277 1620 2453 758222 6600766 351895 1912291 104247 1462311 241596 250210 2388 87034 43944 2773531 354854 5171588 2810 17337 56652 923780
leaf_count=613756 38799 617697 1624290 48709 10415611 82690 339743 13609 61961 17277 1620 2453 758222 6600766 351895 1912291 104247 1462311 241596 250210 2388 87034 43944 2773531 354854 5171588 2810 17337 56652 923780
internal_value=0 2.63006 -0.283672 -0.418865 -0.254382 4.40757 1.62863 -0.270312 6.43137 4.78924 14.5725 39.6542 1.3958 0.0308908 0.0172851 0.788605 -0.210556 -0.255699 -0.0453062 -0.168946 3.41111 4.60336 1.6683 0.648702 4.99061 -1.05188 6.3766 6.5244 2.62056 0.605926
internal_weight=0 3.40687e+06 3.15868e+07 2.80502e+07 2.22649e+07 1.22772e+06 2.17916e+06 2.22162e+07 100760 1.14503e+06 21350 4073 2.0784e+06 1.18006e+07 1.17869e+07 3.53658e+06 8.66152e+06 8.55488e+06 7.09257e+06 6.85098e+06 106635 1.12368e+06 130978 3.12543e+06 992698 5.78534e+06 375001 372191 814874 1.26352e+06
internal_count=34993671 3406873 31586798 28050217 22264873 1227716 2179157 22216164 100760 1145026 21350 4073 2078397 11800553 11786944 3536581 8661518 8554883 7092572 6850976 106635 1123676 130978 3125426 992698 5785344 375001 372191 814874 1263523
shrinkage=0.65


Tree=3
num_leaves=31
num_cat=0
split_feature=8 7 8 7 3 9 2 6 4 10 9 10 1 11 9 1 3 1 3 3 3 2 3 1 1 1 8 8 9 8
split_gain=3.61658e+06 2.43013e+06 2.52424e+06 2.41372e+06 1.4588e+06 1.67801e+06 1.24177e+06 1.232e+06 1.02387e+06 1.01555e+06 1.00347e+06 1.00726e+06 972963 930206 917004 2.96745e+06 3.57184e+06 1.06176e+06 1.0137e+06 890306 877212 911844 917516 1.28158e+06 1.09016e+06 880785 860664 1.16261e+06 2.86543e+06 880248
threshold=12.139582034214737 7.5000000000000009 1.6947597794964417 18.500000000000004 40.788133000000009 20.428525513210968 -74.010968500000004 5.5000000000000009 2012.5000000000002 14.656711997181358 17.135178155979272 17.331539537434093 40.795514500000003 8.5455793791766599 21.241585375048484 40.760312500000005 40.759247500000008 40.746341852661139 40.746888500000004 40.857231500000005 40.662676500000011 -74.02649049999998 40.788133000000009 40.739830008544928 40.788670200439462 40.693714000000007 0.10696614333723227 1.0000000180025095e-35 24.348844436223313 0.028125254791526836
decision_type=10 2 10 2 8 2 10 2 2 2 2 2 2 2 2 2 10 2 10 10 10 10 10 2 2 2 8 10 2 10
left_child=1 4 13 7 12 -6 9 8 -4 -2 11 -11 -1 -3 15 16 -15 -18 -17 -8 25 -22 24 -24 -23 -5 27 -16 -29 -30
right_child=6 2 3 20 5 -7 19 -9 -10 10 -12 -13 -14 14 26 18 17 -19 -20 -21 21 22 23 -25 -26 -27 -28 28 29 -31
leaf_value=-0.54507368217264085 2.744648935589304 -0.37541977199245607 0.45585427819609947 -2.6199647271585897 3.6101150168831553 0.17008923933527939 0.77178588215417743 0.068039972514117364 1.0624935224609906 10.215059542754627 5.8442772012920008 40.096487858730114 1.6336652256856512 -0.16627234698919319 0.064402752053755424 2.4577479822279993 2.4626535576835549 0.71921039067658599 0.72775737631278747 4.8777340525589397 6.4545538000102827 -0.3206726290357686 3.0783930777582906 0.211959709325094 1.5805004204728643 3.0938096226566363 -0.34046402259321779 1.586183596335581 18.263289640176065 3.2053961856289863
leaf_weight=5544321 81493 4591873 3206803 13896 68426 481358 1401439 1931413 1855681 1057 4318 868 87973 5761258 221189 267457 268712 327402 307781 22673 8836 3768516 80302 367451 131891 63423 4052109 65293 6233 2226
leaf_count=5544321 81493 4591873 3206803 13896 68426 481358 1401439 1931413 1855681 1057 4318 868 87973 5761258 221189 267457 268712 327402 307781 22673 8836 3768516 80302 367451 131891 63423 4052109 65293 6233 2226
internal_value=0 -0.0683131 0.0598898 0.418239 -0.634451 0.92036 1.51288 0.784178 1.04342 5.1642 17.4563 36.4444 -0.78622 -0.198138 -0.0436737 0.182107 -0.0146946 2.31555 2.3571 1.28793 -0.158927 -0.218177 -0.2388 1.11698 -0.394439 3.17987 -0.403745 1.24553 4.68383 22.0012
internal_weight=0 3.34818e+07 2.72997e+07 1.14282e+07 6.18208e+06 549784 1.51185e+06 6.9939e+06 5.06248e+06 87736 6243 1925 5.63229e+06 1.58715e+07 1.12797e+07 6.93261e+06 6.35737e+06 596114 575238 1.42411e+06 4.43432e+06 4.357e+06 4.34816e+06 447753 3.90041e+06 77319 4.34705e+06 294941 73752 8459
internal_count=34993671 33481823 27299745 11428212 6182078 549784 1511848 6993897 5062484 87736 6243 1925 5632294 15871533 11279660 6932610 6357372 596114 575238 1424112 4434315 4356996 4348160 447753 3900407 77319 4347050 294941 73752 8459
shrinkage=0.65


Tree=4
num_leaves=31
num_cat=0
split_feature=5 4 8 4 4 3 10 9 3 1 3 2 4 1 9 3 9 10 2 9 3 2 8 11 3 11 0 3 1 9
split_gain=1.73618e+06 1.48659e+06 1.45481e+06 1.33923e+06 1.31142e+06 1.08885e+06 1.0593e+06 750969 1.59003e+06 1.93564e+06 1.00389e+06 897521 688169 632549 612773 581513 537255 525594 720717 534245 637027 614595 505386 456146 446862 746629 442816 549873 517718 513679
threshold=8.5000000000000018 2011.5000000000002 5.1733083150064063 2013.5000000000002 2012.5000000000002 40.682832500000011 31.267575729712132 22.429371194261211 40.791080237426769 40.785922500000005 40.767884000000016 -73.980140343017567 2012.5000000000002 40.702424500000006 21.183340186868431 40.662676500000011 21.026667930336171 14.029769336125938 -74.010968500000004 19.943197260973559 40.805075000000009 -73.782307499999987 22.976865297679513 16.189798186359504 40.782077500000014 7.6975203437335677 -73.980854500000007 40.768188238281262 40.765756000000003 21.019919418018425
decision_type=2 2 10 2 2 8 2 2 10 2 8 10 2 2 2 8 2 2 8 2 10 10 10 2 10 2 2 10 2 2
left_child=3 -2 12 7 -4 13 17 8 9 11 16 26 -3 -5 -10 -13 -11 -7 -19 20 -20 -21 -22 -8 -17 -26 27 28 29 -1
right_child=1 2 4 5 -6 6 23 -9 14 10 -12 15 -14 -15 -16 24 -18 18 19 21 22 -23 -24 -25 25 -27 -28 -29 -30 -31
leaf_value=0.10151960130442259 -0.021173775810178125 0.6858098017872386 2.8164576247437543 0.14073591592833032 0.74396743007132149 0.75901891168556557 5.9018732762836299 -0.69149726607242057 1.6055258493187294 2.7677941192941149 -0.038862259143455549 0.65847071270638335 0.16404562856341348 2.4469165506435329 0.29965899352823022 -0.47992538544604635 1.0394394954109931 12.938661129363023 0.41804478723530514 -0.054753448502499601 4.2517080945783672 30.563604726899399 45.58301586991265 19.976813329497986 -0.36627796800505663 1.2754454154229473 -0.30270767288020939 0.97734961339662918 0.8142265323478356 -0.30221442881390148
leaf_weight=3052076 5489913 1619885 192854 79314 389595 480118 4257 1155610 271498 134379 214766 213149 3134826 137128 344414 6414337 174873 1832 924461 4310837 15666 277 126 1261 389403 167333 2786976 238933 291794 2361780
leaf_count=3052076 5489913 1619885 192854 79314 389595 480118 4257 1155610 271498 134379 214766 213149 3134826 137128 344414 6414337 174873 1832 924461 4310837 15666 277 126 1261 389403 167333 2786976 238933 291794 2361780
internal_value=0 0.332778 0.708587 -0.14909 2.20029 0.26257 0.179529 -0.283707 -0.230849 -0.289948 1.60111 -0.35221 0.525855 2.46435 1.34661 -0.614007 2.75455 0.1662 0.0746661 0.0677479 0.750726 -0.0812094 7.04843 14.0282 -0.663756 0.19563 -0.136807 0.0173886 -0.0448495 -0.114782
internal_weight=0 1.08271e+07 5.33716e+06 2.41666e+07 582449 5.95528e+06 5.73884e+06 1.82113e+07 1.70557e+07 1.64398e+07 524018 1.59158e+07 4.75471e+06 216442 615912 7.18422e+06 309252 5.73332e+06 5.2532e+06 5.25137e+06 940253 4.31111e+06 15792 5518 6.97107e+06 556736 8.73156e+06 5.94458e+06 5.70565e+06 5.41386e+06
internal_count=34993671 10827073 5337160 24166598 582449 5955277 5738835 18211321 17055711 16439799 524018 15915781 4754711 216442 615912 7184222 309252 5733317 5253199 5251367 940253 4311114 15792 5518 6971073 556736 8731559 5944583 5705650 5413856
shrinkage=0.65


Tree=5
num_leaves=31
num_cat=0
split_feature=10 11 3 9 1 3 2 3 1 3 3 9 9 3 1 1 3 8 8 8 2 8 3 0 3 3 1 3 2 3
split_gain=1.0329e+06 994596 1.34539e+06 1.05429e+06 2.74725e+06 3.87751e+06 987646 886986 769514 4.20169e+06 2.74283e+06 1.47765e+06 967859 927240 1.6892e+06 976431 1.54946e+06 1.07639e+06 844487 749374 730027 704580 693332 660857 753621 658211 645631 987438 655160 591128
threshold=13.958470471437353 6.8417839434336356 40.840610000000005 19.525527342965585 40.735151000000009 40.734650000000009 -73.863355499999969 40.633811123901374 40.775341516967778 40.767172500000008 40.778930332031258 21.012865274058868 20.90436348623593 40.725509821777351 40.736864500000003 40.726692500000006 40.739088500000008 2.6911266220184058 2.6911266220184058 4.3073750407463267 -73.989854499999993 0.10696614333723227 40.648213000000005 -73.95680849999998 40.758851500000013 40.755547500000006 40.736074000000009 40.735061500000008 -74.016058937744134 40.747588500000013
decision_type=2 2 8 2 2 8 8 8 2 10 10 2 2 8 2 2 8 10 10 10 8 10 8 2 8 10 2 8 10 10
left_child=26 2 23 4 5 19 -7 -6 10 12 13 -12 -10 14 -5 16 -15 25 -16 22 -13 -11 -3 24 -2 -18 27 -1 -29 -9
right_child=1 3 -4 8 7 6 -8 29 9 21 11 20 -14 15 18 -17 17 -19 -20 -21 -22 -23 -24 -25 -26 -27 -28 28 -30 -31
leaf_value=-0.21103757576131746 -1.7336263608880107 1.6959005777061924 3.8807736295801307 -0.32959322737253627 5.0879024596086548 1.3773197397739465 7.1575275857104277 1.1054830233138924 2.0487704406303791 1.5695462332500336 1.6078715523435883 9.2515547333504742 0.81204325165712354 -0.58030107953782728 1.3513197297297828 -0.23744868984963477 0.81811136418345765 -0.41826086777937621 -0.22919772472813663 -1.308062235543094 0.29025271565861616 -0.3953833414585145 -0.42124701363524042 -0.13605393959302442 -0.48095874417445772 2.2060289617153113 0.84135625185586094 8.5782978075381067 0.71002614755305438 4.2331796138901057
leaf_weight=1140466 231167 69896 32163 835076 25428 482866 12821 884867 364639 80144 521262 3852 1002120 517028 622591 16204571 497850 223235 185353 419338 1322895 2031000 1005482 2781326 1660118 203326 880658 4499 721345 26289
leaf_count=1140466 231167 69896 32163 835076 25428 482866 12821 884867 364639 80144 521262 3852 1002120 517028 622591 16204571 497850 223235 185353 419338 1322895 2031000 1005482 2781326 1660118 203326 880658 4499 721345 26289
internal_value=0 -0.0501439 -0.475065 0.0224421 0.589819 -0.0747528 2.34896 2.00215 -0.0450251 0.39086 -0.116746 1.04706 1.75691 -0.228246 0.490281 -0.295148 0.493564 1.26895 1.52112 -0.87852 0.48657 -0.493523 -0.436368 -0.519431 -0.975491 1.87781 0.58864 0.255615 1.16738 1.83958
internal_weight=0 3.22467e+07 4.70477e+06 2.75419e+07 2.92699e+06 1.9904e+06 495687 936584 2.46149e+07 3.4779e+06 2.1137e+07 1.84801e+06 1.36676e+06 1.9289e+07 1.64302e+06 1.7646e+07 1.44144e+06 924411 807944 1.49472e+06 1.32675e+06 2.11114e+06 1.07538e+06 4.67261e+06 1.89128e+06 701176 2.74697e+06 1.86631e+06 725844 911156
internal_count=34993671 32246703 4704774 27541929 2926987 1990403 495687 936584 24614942 3477903 21137039 1848009 1366759 19289030 1643020 17646010 1441439 924411 807944 1494716 1326747 2111144 1075378 4672611 1891285 701176 2746968 1866310 725844 911156
shrinkage=0.65


Tree=6
num_leaves=31
num_cat=0
split_feature=7 7 9 8 8 0 7 10 1 3 3 1 1 4 8 2 8 9 11 9 8 3 10 11 3 0 3 0 1 3
split_gain=802811 1.12295e+06 741246 583560 545705 632846 485852 440342 647697 1.59e+06 1.25694e+06 1.15903e+06 856856 440258 434614 417248 413157 396758 385343 404979 365379 351076 338170 328285 363837 315675 306446 319638 289239 278503
threshold=19.500000000000004 8.5000000000000018 19.291447064409166 24.930154255606691 0.10696614333723227 -74.016245999999981 5.5000000000000009 17.964851394654154 40.764167392822273 40.759678500000007 40.754222500000004 40.751307500000003 40.755530500000006 2012.5000000000002 7.7888152879124322 -73.976360499999984 2.6911266220184058 20.90436348623593 9.3466720121504565 20.867564357586371 1.0000000180025095e-35 40.780505567016611 13.649794693784289 7.1878767493381179 40.738063000000004 -73.987399499999981 40.857231500000005 -74.016245999999981 40.774963689453131 40.825435000000006
decision_type=2 2 2 10 8 2 2 2 2 8 10 2 2 2 10 10 10 2 2 2 10 10 2 2 10 2 8 2 2 10
left_child=1 4 13 7 5 6 22 8 10 23 12 15 25 -3 -2 17 -9 -12 -14 -20 -7 -17 -1 -10 -25 -4 27 -5 29 -15
right_child=14 2 3 26 -6 20 -8 16 9 -11 11 -13 18 28 -16 21 -18 -19 19 -21 -22 -23 -24 24 -26 -27 -28 -29 -30 -31
leaf_value=6.1075137772361776 -0.14692089476084638 0.26545580635628035 -0.087973004101835534 5.9136065164983336 -0.17902386476036378 0.023778053103102728 -1.9614194619438625 -0.025639195904167935 0.34261603277206715 -0.23770244118755765 1.5423854230551919 -0.012766154911730981 0.11555640279862751 0.75929672118831137 -0.81226030667338323 0.24043564130388206 -0.81668447781179843 0.70711317639799087 1.8943402158193696 0.51313505348850974 1.8498738897402516 1.1943812667984852 16.422974699485223 1.700144625611135 0.83862210507153279 -0.42692710775575454 -11.214503256936647 -2.3636522225886472 2.7577566722759599 4.5176583692522181
leaf_weight=4455 7301847 1254989 3584282 2074 7850308 136545 2213 3956267 368914 855049 362496 1725459 807981 764799 439789 881194 300120 712576 118166 372181 70040 199990 1922 274270 845793 1716965 1566 39736 33263 8422
leaf_count=4455 7301847 1254989 3584282 2074 7850308 136545 2213 3956267 368914 855049 362496 1725459 807981 764799 439789 881194 300120 712576 118166 372181 70040 199990 1922 274270 845793 1716965 1566 39736 33263 8422
internal_value=0 0.0807289 0.212341 0.144146 -0.232357 1.33877 9.74896 0.153448 0.245943 0.721145 0.139669 0.591209 -0.125916 0.778855 -0.284181 1.08002 -0.125256 1.52116 0.602186 1.30151 0.989065 0.641369 14.1793 1.34527 1.61474 -0.304236 -3.51911 -3.0047 1.35534 1.23113
internal_weight=0 2.7252e+07 1.91866e+07 1.71251e+07 8.06548e+06 215175 8590 1.70817e+07 1.28253e+07 2.34403e+06 1.04813e+07 3.88172e+06 6.59958e+06 2.06147e+06 7.74164e+06 2.15626e+06 4.25639e+06 1.07507e+06 1.29833e+06 490347 206585 1.08118e+06 6377 1.48898e+06 1.12006e+06 5.30125e+06 43376 41810 806484 773221
internal_count=34993671 27252035 19186552 17125079 8065483 215175 8590 17081703 12825316 2344026 10481290 3881715 6599575 2061473 7741636 2156256 4256387 1075072 1298328 490347 206585 1081184 6377 1488977 1120063 5301247 43376 41810 806484 773221
shrinkage=0.65


Tree=7
num_leaves=31
num_cat=0
split_feature=8 8 3 9 1 9 3 1 1 5 4 8 3 2 12 2 0 2 2 7 8 8 9 8 9 10 0 11 1 3
split_gain=557786 1.06559e+06 402613 609706 482703 550374 450486 2.31162e+06 1.26399e+06 356081 344482 377930 347646 338705 547280 538524 373353 322576 305471 299240 277228 470292 425245 1.99379e+06 1.74226e+07 6.50815e+07 1.05357e+08 297321 312173 1.00856e+06
threshold=2.6911266220184058 3.0781450841932387 40.805075000000009 22.037249614923642 40.802919240234388 21.967294419724283 40.721201000000015 40.709099000000009 40.728978000000005 9.5000000000000018 2012.5000000000002 16.397450652625569 40.633811123901374 -1.0000000180025095e-35 1.0000000180025095e-35 -74.02649049999998 -74.016245999999981 -74.02649049999998 -73.96900188500976 6.5000000000000009 2.4527890444539371 1.366321679363192 18.531657281090077 2.476032482020956 18.29740820619535 18.41336526921285 -73.972799499999994 10.177576502166945 40.737233500000009 40.762782500000007
decision_type=8 8 8 2 2 2 8 2 2 2 2 10 8 10 2 10 2 10 10 2 10 10 2 10 2 2 2 2 2 10
left_child=2 -2 4 -4 6 -6 8 -8 -1 10 11 -3 13 14 17 -16 -15 -12 -10 -14 21 -9 23 24 -22 26 -26 28 29 -23
right_child=1 9 3 -5 5 -7 7 20 18 -11 12 -13 19 16 15 -17 -18 -19 -20 -21 22 27 -24 -25 25 -27 -28 -29 -30 -31
leaf_value=-0.086701428042778347 -0.61336207612260218 -0.1712279455365914 2.1362419452245351 0.23387924666379634 2.4528736072759041 0.26266191425652108 1.9993493416429424 0.036812477314600363 0.78281335938452878 0.21707949308328264 -1.1954978242244232 -0.88893928950938861 -0.40763244084736322 19.305942741328593 50.143848977230704 1.897014424151751 -0.53425848105805562 3.9263605180131056 2.4116913288323518 0.16061070846201358 1.0706322871467315 -0.149213282706672 0.26208408962589447 1.2149406401440594 3.4707636009454728 0.39424359730816122 2005.0221203526157 -0.43870775071124452 -0.15583021286930784 1.667792757812063
leaf_weight=1457671 1629257 3209662 95493 279576 73441 142591 242369 13817682 927585 1812423 6646 343121 496306 408 206 186 22495 23799 51335 1854879 1503 510546 959209 15642 25 148 20 1372201 5474510 172736
leaf_count=1457671 1629257 3209662 95493 279576 73441 142591 242369 13817682 927585 1812423 6646 343121 496306 408 206 186 22495 23799 51335 1854879 1503 510546 959209 15642 25 148 20 1372201 5474510 172736
internal_value=0 -0.208334 0.0765099 1.10496 0.0612144 1.54959 0.0483546 0.00424821 0.456848 -0.0541552 -0.172228 -0.370066 0.120037 2.63489 4.79846 41.925 -0.278185 4.32044 1.33574 0.0625563 -0.0291003 -0.0529345 0.491925 5.40022 37.9669 320.81 1373.92 -0.253996 -0.160194 0.477126
internal_weight=0 9.39939e+06 2.55943e+07 375069 2.52192e+07 216032 2.50032e+07 2.25666e+07 2.43659e+06 7.77013e+06 5.95771e+06 3.55278e+06 2.40492e+06 53740 30837 392 22903 30445 978920 2.35118e+06 2.23242e+07 2.13477e+07 976547 17338 1696 193 45 7.52999e+06 6.15779e+06 683282
internal_count=34993671 9399388 25594283 375069 25219214 216032 25003182 22566591 2436591 7770131 5957708 3552783 2404925 53740 30837 392 22903 30445 978920 2351185 22324222 21347675 976547 17338 1696 193 45 7529993 6157792 683282
shrinkage=0.65


Tree=8
num_leaves=31
num_cat=0
split_feature=6 6 7 7 11 11 1 9 1 3 7 2 3 2 3 10 3 8 9 4 11 7 3 3 8 8 8 1 4 3
split_gain=360784 357626 474158 561461 531707 337089 262224 262157 468754 270565 217651 211726 281851 199631 299325 189080 183569 170777 265168 174926 168720 167115 165178 164027 161452 160652 172265 203463 237119 176664
threshold=1.5000000000000002 5.5000000000000009 6.5000000000000009 17.500000000000004 1.4180266584015253 8.3726260615070505 40.731017500000007 22.070105373877521 40.789796500000008 40.789022500000009 2.5000000000000004 -73.967612499999987 40.752796500000009 -74.016058937744134 40.71201150000001 15.835258095517528 40.687100000000008 0.4246464932878648 1.2507595440956087 2012.5000000000002 6.9952841230578118 12.500000000000002 40.702095500000006 40.778506500000006 24.930154255606691 0.028125254791526836 1.0000000180025095e-35 1.0000000180025095e-35 2009.5000000000002 40.702095500000006
decision_type=2 2 2 2 2 2 2 2 2 10 2 10 8 8 8 2 10 10 2 2 2 2 10 10 10 8 10 2 2 10
left_child=-1 2 13 4 11 6 -3 8 9 17 -7 12 -4 14 15 -2 -8 18 -6 -19 -11 -12 -20 -10 -13 26 27 28 -5 -29
right_child=1 5 3 25 7 10 16 -9 23 20 21 24 -14 -15 -16 -17 -18 19 22 -21 -22 -23 -24 -25 -26 -27 -28 29 -30 -31
leaf_value=-0.17214926933147651 -0.21829451708562861 0.36009051761362831 0.57344742197770049 -2.5275497443126054 3.5831313924703312 0.26561586723151182 1.0873486680528113 -0.14270373496505687 1.5297662930098959 0.2579902414150369 -0.20927955157387718 0.50306246415450351 2.2304138632410013 -0.21993741081534279 4.7635017580438701 13.039345398745121 -0.31708832928297526 0.12448976817648456 -2.1465513899889395 0.32250945441252415 1.3587924382512264 0.03439659568547819 -0.104557047568317 0.15460840526875785 7.5825773185979557 -0.040817666573896419 2.2986444385931795 -3.4149504499836127 2.7252816378222442 0.10073530490078052
leaf_weight=4484416 18427 278296 81109 4330 8133 1154717 39838 996700 150525 105793 1766769 266588 93225 2340649 8446 466 3028506 5129112 17087 2979781 132509 3636730 816301 48440 1368 7283862 23220 6616 22486 69226
leaf_count=4484416 18427 278296 81109 4330 8133 1154717 39838 996700 150525 105793 1766769 266588 93225 2340649 8446 466 3028506 5129112 17087 2979781 132509 3636730 816301 48440 1368 7283862 23220 6616 22486 69226
internal_value=0 0.0389284 0.113994 0.168658 0.313817 -0.117226 -0.375474 0.268082 0.319854 0.286972 0.0145569 1.38762 2.2454 -0.306986 2.3796 0.167243 -0.459775 0.258973 -0.169814 0.303471 1.33861 -0.0696579 -0.225268 1.83842 0.829547 -0.0434395 1.07664 0.520272 2.88785 -0.316849
internal_weight=0 3.05093e+07 2.06044e+07 1.82364e+07 1.08267e+07 9.90486e+06 3.34664e+06 1.03844e+07 9.38768e+06 9.18872e+06 6.55822e+06 442290 174334 2.36799e+06 27339 18893 3.06834e+06 8.95041e+06 841521 8.10889e+06 238302 5.4035e+06 833388 198965 267956 7.40974e+06 125878 102658 26816 75842
internal_count=34993671 30509255 20604399 18236411 10826671 9904856 3346640 10384381 9387681 9188716 6558216 442290 174334 2367988 27339 18893 3068344 8950414 841521 8108893 238302 5403499 833388 198965 267956 7409740 125878 102658 26816 75842
shrinkage=0.65


Tree=9
num_leaves=31
num_cat=0
split_feature=8 8 9 11 2 0 10 11 3 8 10 1 2 0 8 8 8 8 8 1 2 1 2 2 3 8 2 1 9 8
split_gain=292514 413726 529939 410925 371944 349679 433817 271614 547617 592512 499380 469539 330228 364730 328299 298126 288422 694424 691216 401535 355976 275274 274288 268946 252365 453771 409484 298705 269076 266788
threshold=0.10696614333723227 1.0000000180025095e-35 24.348844436223313 16.189798186359504 -74.02649049999998 -1.0000000180025095e-35 18.486440557278865 12.819513462975772 40.682832500000011 19.333783412444188 14.232829992060855 40.774587500000003 -74.02649049999998 -73.888002170654275 9.2495448507101425 7.2358244136362675 4.3073750407463267 4.7901826389525564 3.8243245148810772 40.687503500000012 -74.02649049999998 40.693714000000007 -74.02649049999998 1.0000000180025095e-35 40.755547500000006 7.7888152879124322 -74.003462499999983 40.648795000000007 8.7913985615680783 9.2495448507101425
decision_type=8 10 2 2 10 2 2 2 8 8 2 2 8 2 10 8 8 8 10 2 8 2 8 10 10 8 8 2 2 10
left_child=1 4 -3 -4 -1 6 -5 8 9 11 -9 12 13 14 -2 -12 18 -18 19 -10 -20 -14 -21 -17 25 -19 -27 -28 -29 -26
right_child=7 2 3 5 -6 -7 -8 10 16 -11 15 -13 21 -15 -16 23 17 24 20 22 -22 -23 -24 -25 29 26 27 28 -30 -31
leaf_value=-3.56935657912108 -3.0095588408130949 0.82906069890053302 1.5317412002495063 5.1762792540000619 0.13816447392244038 -13.063296137813257 15.91401107057002 0.059220628749954082 1.4038699230358633 -0.31851567237970996 -1.434324818433542 3.612484728010545 -1.3021144832746596 -17.076100243971503 4.0995902144837206 -0.18304661848684495 -0.79084870326820633 0.12062076642079791 11.686582252856022 6.553464152100303 0.55323485452191623 1.0613148685589044 -0.012866677850702659 7.3516680147983813 -0.14465095352850227 0.50927029495813647 -0.055915913671830554 -2.9991588828834046 -0.9481331313304413 0.33695601994735203
leaf_weight=11688 12201 254152 7430 3964 522757 304 2654 416519 84857 213623 220225 27147 21967 654 3541 82956 649575 685958 1215 2688 907643 399190 27753893 2051 973519 117174 164454 28749 450563 970360
leaf_count=11688 12201 254152 7430 3964 522757 304 2654 416519 84857 213623 220225 27147 21967 654 3541 82956 649575 685958 1215 2688 907643 399190 27753893 2051 973519 117174 164454 28749 450563 970360
internal_value=0 0.596607 1.60932 7.52124 0.0878202 13.065 14.5883 -0.014011 -0.000922332 0.88843 -0.620956 1.52211 1.27173 -3.13123 -2.16989 -1.59264 -0.0193199 -0.269499 0.0158384 -0.0121765 0.874028 1.44314 -0.0188166 -0.00192824 -0.0880442 -0.404258 -0.935966 -1.24893 -1.64793 0.147325
internal_weight=0 802949 268504 14352 534445 6922 6618 3.41907e+07 3.3469e+07 678323 721751 464700 437553 16396 15742 305232 3.27906e+07 4.04035e+06 2.87503e+07 2.78414e+07 908858 421157 2.77566e+07 85007 3.39078e+06 1.4469e+06 760940 643766 479312 1.94388e+06
internal_count=34993671 802949 268504 14352 534445 6922 6618 34190722 33468971 678323 721751 464700 437553 16396 15742 305232 32790648 4040352 28750296 27841438 908858 421157 27756581 85007 3390777 1446898 760940 643766 479312 1943879
shrinkage=0.65


Tree=10
num_leaves=31
num_cat=0
split_feature=5 2 1 3 3 8 3 0 10 0 9 3 1 1 2 3 9 4 12 1 3 3 3 12 8 8 10 1 2 1
split_gain=262780 207229 320648 733342 558691 484464 363555 288723 369449 765919 348981 800756 548041 227458 220272 368012 205337 181809 168460 155264 244859 171032 154874 160352 149930 149305 256342 146102 143093 135353
threshold=3.5000000000000004 -73.981961499999983 40.758523500000003 40.757782500000012 40.741241727539069 2.6911266220184058 40.787312276977545 -73.983933499999964 12.850201251496713 -73.917963499999985 20.736732885830751 40.744247218261727 40.743621913085953 40.750421500000009 -74.02649049999998 40.648213000000005 17.566023477290216 2012.5000000000002 1.0000000180025095e-35 40.721832637695321 40.719476500000013 40.732214000000006 40.756116000000013 1.0000000180025095e-35 2.083870898335594 0.028125254791526836 21.450494732626279 40.768572500000012 -73.986262499999981 40.779187500000006
decision_type=2 10 2 10 10 10 8 2 2 2 2 8 2 2 10 10 2 2 2 2 10 10 10 2 8 10 2 2 10 2
left_child=-1 2 3 7 5 27 13 10 9 -9 11 12 19 24 15 -11 -6 18 -8 21 -21 -2 -18 25 -5 26 -24 -4 -14 -7
right_child=1 -3 4 6 16 29 17 8 -10 14 -12 -13 28 -15 -16 -17 22 -19 -20 20 -22 -23 23 -25 -26 -27 -28 -29 -30 -31
leaf_value=-0.093299775597568246 0.042260361473775584 -0.020370926320879924 0.97328177806565552 0.93619408873353172 0.95858327022864009 0.16975871806181722 6.0058671462670485 0.87334577696340088 -0.28226937295253579 4.0334927556100393 -0.11564005295144597 1.2704543292006745 1.2018490416768304 0.10804773861481799 -0.52180938265928944 23.497522498767697 0.22178146813518096 14.229741215423104 -13.646903764132109 0.32593008426639619 -0.3481858379706641 0.86152386938497494 0.95421908040817971 -8.1621170598157704 0.26775887797965869 -0.15945732617282424 11.385989214976027 1.8972925130151816 0.19973950042800112 0.8544977091779955
leaf_weight=9347420 531074 13743261 348926 479556 105392 606168 1558 9901 1920463 612 3011150 270074 207921 374780 358 1246 968168 1133 209 302354 921437 135035 28699 1049 201280 1144793 1031 91194 84738 152691
leaf_count=9347420 531074 13743261 348926 479556 105392 606168 1558 9901 1920463 612 3011150 270074 207921 374780 358 1246 968168 1133 209 302354 921437 135035 28699 1049 201280 1144793 1031 91194 84738 152691
internal_value=0 0.0523161 0.148906 0.0440908 0.405915 0.957227 0.822593 -0.0673231 -0.399531 5.10492 0.0501812 0.330211 0.129213 0.791876 21.9103 26.2867 0.112019 12.0038 5.66361 -0.0679774 -0.279441 0.320528 0.0450242 -0.1989 1.13628 -0.187862 2.02458 1.79191 1.4026 0.473132
internal_weight=0 2.56463e+07 1.1903e+07 8.45488e+06 3.44811e+06 1.19898e+06 1.05852e+06 7.39636e+06 1.93258e+06 12117 5.46378e+06 2.45263e+06 2.18256e+06 1.05562e+06 2216 1858 2.24913e+06 2900 1767 1.8899e+06 1.22379e+06 666109 2.14374e+06 1.17557e+06 680836 1.17452e+06 29730 440120 292659 758859
internal_count=34993671 25646251 11902990 8454879 3448111 1198979 1058516 7396363 1932580 12117 5463783 2452633 2182559 1055616 2216 1858 2249132 2900 1767 1889900 1223791 666109 2143740 1175572 680836 1174523 29730 440120 292659 758859
shrinkage=0.65


Tree=11
num_leaves=31
num_cat=0
split_feature=3 1 0 9 2 4 2 3 8 3 8 3 12 8 8 9 8 10 2 9 11 11 11 0 9 1 3 11 11 2
split_gain=153965 294749 309739 282939 823042 1.16428e+06 587925 450813 706319 412006 273244 338536 242500 313595 202285 448632 440092 222536 190728 178317 171160 205299 171003 183711 165040 631098 260478 321157 259147 208381
threshold=40.797116500000008 40.805495500000013 -73.77999149999998 22.368743034314136 -73.789820500000005 2010.5000000000002 -73.947508999999982 40.840610000000005 16.397450652625569 40.857231500000005 24.930154255606691 40.857231500000005 1.0000000180025095e-35 24.930154255606691 16.397450652625569 19.291447064409166 5.9141591538891012 26.637396896078105 -73.881883499999986 17.566023477290216 1.4180266584015253 9.144879862745567 14.148348776682313 -73.79396947094726 21.38885531004129 40.780329000000002 40.783174500000008 8.0546701364803166 7.4364729176871096 -73.984430499999988
decision_type=8 2 2 2 10 2 8 10 10 10 10 10 2 10 10 2 10 2 10 2 2 2 2 2 2 2 10 2 2 10
left_child=1 24 -3 4 6 10 7 -2 -9 -7 -6 -12 13 -11 15 16 19 -16 -17 -8 -18 -22 23 -23 25 26 29 -28 -27 -1
right_child=3 2 -4 -5 5 9 14 8 -10 12 11 -13 -14 -15 17 18 20 -19 -20 -21 21 22 -24 -25 -26 28 27 -29 -30 -31
leaf_value=0.049878247765140556 0.93605771845080654 0.8645533747120161 -4.7654163508198835 -0.10926083412896075 5.5611631721565571 7.3702380708035387 5.6538662034207574 16.838179428085976 -2.2429205936243752 17.578780895205288 17.765819656848908 -13.397426045448057 -0.80019494090331056 35.331656627955311 -1.5807285412263754 -0.12129087060558479 -1.2044303768695575 -9.6332636418052466 -1.8690432819808471 1.4229513947560632 3.9936736323682887 4.3588668293133086 7.4534764849540007 -4.6427354862049706 -0.097859117913217677 0.28976312705022839 0.10809578769481713 1.1071305404203899 0.99766796301728322 -0.072860991746229301
leaf_weight=10138015 373362 208694 4212 680084 850 1452 12882 1882 1452 1158 169 1146 183 660 12399 365582 15652 1642 28432 6251 8328 1273 867 3870 7647701 684480 482728 189250 320924 13798091
leaf_count=10138015 373362 208694 4212 680084 850 1452 12882 1882 1452 1158 169 1146 183 660 12399 365582 15652 1642 28432 6251 8328 1273 867 3870 7647701 684480 482728 189250 320924 13798091
internal_value=0 -0.0141326 1.15873 0.311322 0.699703 12.7629 0.618431 1.54347 13.1202 24.1619 -5.41769 -14.4499 33.4669 36.9596 -0.14376 -0.025355 2.82428 -3.88064 -0.380628 6.57165 0.433539 2.92959 -1.52474 -3.71485 -0.0216402 0.0168506 -0.0148776 0.599162 0.793424 -0.032116
internal_weight=0 3.34741e+07 212906 1.51958e+06 839492 5618 833874 376696 3334 3453 2165 1315 2001 1818 457178 443137 49123 14041 394014 19133 29990 14338 6010 5143 3.32612e+07 2.56135e+07 2.46081e+07 671978 1.0054e+06 2.39361e+07
internal_count=34993671 33474095 212906 1519576 839492 5618 833874 376696 3334 3453 2165 1315 2001 1818 457178 443137 49123 14041 394014 19133 29990 14338 6010 5143 33261189 25613488 24608084 671978 1005404 23936106
shrinkage=0.65


Tree=12
num_leaves=31
num_cat=0
split_feature=8 4 8 10 2 0 2 9 1 9 1 8 10 9 11 1 0 1 8 2 8 10 1 2 3 2 3 1 11 11
split_gain=189199 295838 274690 294035 315270 194076 190744 244826 181013 175428 427325 472404 260462 239867 298154 383013 313064 608968 390089 2.66154e+06 276050 257826 298556 280357 467677 232284 207830 188354 188669 7.14049e+06
threshold=1.366321679363192 2012.5000000000002 1.1022432593732667 23.931048458858157 -74.02649049999998 -73.953037499999979 -73.978911499999981 24.348844436223313 -1.0000000180025095e-35 19.291447064409166 40.774587500000003 7.7888152879124322 12.850201251496713 17.301470741380864 10.151655945603736 40.742447500000004 -73.953875499999981 40.737959500000009 2.476032482020956 -73.972675499999994 2.083870898335594 26.637396896078105 40.7074335 -74.02649049999998 40.756489400024421 -74.02649049999998 40.648213000000005 40.768842500000005 6.9533243239515476 6.9745598054900011
decision_type=10 2 10 2 8 2 8 2 2 2 2 10 2 2 2 2 2 2 10 10 8 2 2 10 10 10 10 2 2 2
left_child=1 -1 3 4 -3 -5 7 -6 -7 10 12 -12 25 21 15 16 -15 -18 19 -19 -16 -14 23 24 -23 26 -2 28 -17 -30
right_child=9 2 -4 5 6 8 -8 -9 -10 -11 11 -13 13 14 20 27 17 18 -20 -21 -22 22 -24 -25 -26 -27 -28 -29 29 -31
leaf_value=-0.015389579814818803 -0.27573227558525115 -4.9722405348962777 0.44296939869924778 11.145506421116327 0.17992721152855082 -3.7810360514436909 -0.093598708353925308 9.8136384201078215 1.2668363142963852 -0.075079988378164875 2.1129351070160225 0.10454697138972688 -0.12072969436541788 1.0345701621291734 0.43718829666929748 -0.40982843600208119 0.82745100310348096 -232.35116560343829 15.781100858101237 8.046516420479934 -0.62195132703368705 66.02014660396074 -0.51422011826904079 1.5119728247402937 0.74868375677771926 -0.25206216114603752 9.3613087184996342 1.1159214535131678 82.845086469310573 0.29234175454955708
leaf_weight=9768921 1311 5230 1228381 821 2726864 3097 1698607 1115 97196 15260137 89425 110780 2741475 255659 185357 218816 4652 21 2417 265 236790 76 45055 81256 119 3621 3391 73261 444 149111
leaf_count=9768921 1311 5230 1228381 821 2726864 3097 1698607 1115 97196 15260137 89425 110780 2741475 255659 185357 218816 4652 21 2417 265 236790 76 45055 81256 119 3621 3391 73261 444 149111
internal_value=0 0.0823163 0.262038 0.14837 0.1099 1.83452 0.119068 0.282869 1.70917 -0.0656817 0.115212 1.54097 0.0439065 0.0322634 0.423199 0.821347 1.7767 8.209 20.1462 -14.777 -0.241389 -0.12133 1.27443 2.417 40.289 5.63221 10.2682 0.252389 -0.0388506 0.826808
internal_weight=0 1.55302e+07 5.76131e+06 4.53293e+06 4.43182e+06 101114 4.42659e+06 2.72798e+06 100293 1.94634e+07 4.2033e+06 200205 4.0031e+06 3.99477e+06 1.12679e+06 704646 263014 7355 2703 286 422147 2.86798e+06 126506 81451 195 8323 4702 441632 368371 149555
internal_count=34993671 15530232 5761311 4532930 4431816 101114 4426586 2727979 100293 19463439 4203302 200205 4003097 3994774 1126793 704646 263014 7355 2703 286 422147 2867981 126506 81451 195 8323 4702 441632 368371 149555
shrinkage=0.65


Tree=13
num_leaves=31
num_cat=0
split_feature=3 1 1 8 3 8 2 2 10 9 3 8 9 2 3 1 1 8 8 2 10 8 2 9 3 9 1 8 10 11
split_gain=151135 1.03786e+06 998340 497005 554358 274074 273588 329359 270316 245823 240088 252149 245699 239296 228308 379068 300446 216275 300030 206935 218048 203557 203488 678872 288707 203363 252548 197870 192453 186989
threshold=40.747588500000013 40.741693500000004 40.750421500000009 2.083870898335594 40.73647900000001 1.366321679363192 -74.02649049999998 -74.010193435546867 13.958470471437353 19.969019815611819 40.77472550000001 4.3073750407463267 17.772288639641008 -73.969347499999984 40.71201150000001 40.716821000000003 40.706014000000003 12.139582034214737 2.6911266220184058 -73.820716499999975 15.394907260457327 2.083870898335594 -74.02649049999998 24.348844436223313 40.728947500000011 19.969019815611819 40.735582500000007 0.7864560814194651 19.780718924124177 6.1529342067268349
decision_type=8 2 2 10 8 8 8 8 2 2 10 10 2 10 10 2 2 10 10 8 2 10 8 2 10 2 2 8 2 2
left_child=2 5 14 4 9 25 -3 8 -8 13 28 12 -12 -4 15 -1 21 18 -9 20 -13 -16 23 24 -18 -2 -27 -24 -7 -5
right_child=1 6 3 29 -6 10 7 17 -10 -11 11 19 -14 -15 16 -17 22 -19 -20 -21 -22 -23 27 -25 -26 26 -28 -29 -30 -31
leaf_value=-0.28356922947196528 -0.10990374975435381 -2.4296524345726476 0.08820424079689182 -0.3944142269607378 0.17870247950109536 0.11580415141795164 12.183894256009197 -0.0036344820674771815 2.3666935843466823 1.1659092715050572 4.1100236932987784 0.60492872963144251 0.90329017097711783 2.30479496541599 0.95775049069019036 0.26810054705375586 7.5236837636132856 0.45966261480835896 -0.22702063216569823 4.127262534851889 -0.35664176404290882 -0.024630034190443972 -0.11172141033652666 -3.5530738500853425 1.5183604409126825 1.1861104987831603 0.44170978324002247 -0.34756847852705697 1.4809582923939764 0.088762996110727771
leaf_weight=981390 129329 20140 189779 395727 1159632 2357466 1403 13568514 7627 487041 10447 225207 299556 23080 138344 1134685 6596 365986 3125395 5689 178693 250435 2256740 6706 6942 344536 436523 4499661 44453 2335949
leaf_count=981390 129329 20140 189779 395727 1159632 2357466 1403 13568514 7627 487041 10447 225207 299556 23080 138344 1134685 6596 365986 3125395 5689 178693 250435 2256740 6706 6942 344536 436523 4499661 44453 2335949
internal_value=0 0.0532613 -0.0810894 0.300331 0.699108 0.50963 -0.0544119 -0.0500657 5.98769 1.40191 0.368828 0.875514 1.55593 0.505455 -0.269764 0.0188431 -0.354994 -0.0532615 -0.0699328 0.360529 0.276172 0.499912 -0.404041 2.76167 6.83736 0.992409 1.18473 -0.413526 0.21703 0.0288724
internal_weight=0 2.1121e+07 1.38727e+07 4.59121e+06 1.85953e+06 4.0319e+06 1.70891e+07 1.70689e+07 9030 699900 3.12151e+06 719592 310003 212859 9.2815e+06 2.11608e+06 7.16542e+06 1.70599e+07 1.66939e+07 409589 403900 388779 6.77664e+06 20244 13538 910388 781059 6.7564e+06 2.40192e+06 2.73168e+06
internal_count=34993671 21120964 13872707 4591208 1859532 4031899 17089065 17068925 9030 699900 3121511 719592 310003 212859 9281499 2116075 7165424 17059895 16693909 409589 403900 388779 6776645 20244 13538 910388 781059 6756401 2401919 2731676
shrinkage=0.65


Tree=14
num_leaves=31
num_cat=0
split_feature=6 8 6 7 10 3 1 1 2 7 4 9 9 3 1 1 8 7 4 7 7 3 3 5 1 1 8 3 10 10
split_gain=127066 139290 133630 153816 140166 150153 311374 232980 187450 132537 125187 118016 114826 146961 342232 122110 108136 106940 105450 99108.7 95171.5 91849.8 88385.4 87446.4 136956 85346 128668 80203.6 70530.5 71389
threshold=6.5000000000000009 0.028125254791526836 2.5000000000000004 18.500000000000004 18.330841314411533 40.764236000000004 40.762791500000006 40.759621500000009 -73.959155999999993 4.5000000000000009 2013.5000000000002 17.772288639641008 23.483767699453882 40.716541645141611 40.687503500000012 40.736074000000009 1.0000000180025095e-35 10.500000000000002 2013.5000000000002 3.5000000000000004 6.5000000000000009 40.662676500000011 40.765870500000005 9.5000000000000018 40.785922500000005 40.678843500000006 4.3073750407463267 40.644211500000004 15.942127847715865 18.41336526921285
decision_type=2 10 2 2 2 8 2 2 10 2 2 2 2 10 2 2 8 2 2 2 2 10 8 2 2 2 10 10 2 2
left_child=2 16 3 20 5 6 12 8 10 -3 -7 -9 17 14 -14 -15 -2 21 23 -18 -1 25 -11 24 -8 -4 27 -27 -22 -30
right_child=1 9 4 -5 -6 7 18 11 -10 22 -12 -13 13 15 -16 -17 19 -19 -20 -21 28 -23 -24 -25 -26 26 -28 -29 29 -31
leaf_value=-0.1910430958663846 0.32371202866450421 0.078832380407837785 -1.2820581501013404 -0.18164137139835149 -0.068493719168385675 0.39332586269491676 0.1570368781661392 0.87304965208495444 0.10885224908064599 -0.24883108380942934 0.9205532751040989 -0.056786763341341806 -1.2260225225917365 -2.6172362511864304 8.437940133076868 2.1106213210442846 -0.78739420675126714 0.03264026825305396 0.48275350168423287 2.7964448167994096 -0.065531549634446684 -0.11959893279854546 -0.019732474931438745 0.39491891893381759 -0.46929737239102287 3.6570495657593316 0.24138483060194069 1.1377495388299466 0.14402357068599192 -0.049311020146932998
leaf_weight=921319 72152 1103141 9526 2657968 3825688 905431 1455363 60310 908724 2384414 240906 1317805 2767 3976 3515 5502 4127 7350439 573545 15522 1986191 3564156 1014063 543282 164137 8508 55116 14334 2664217 1157527
leaf_count=921319 72152 1103141 9526 2657968 3825688 905431 1455363 60310 908724 2384414 240906 1317805 2767 3976 3515 5502 4127 7350439 573545 15522 1986191 3564156 1014063 543282 164137 8508 55116 14334 2664217 1157527
internal_value=0 -0.155021 0.0234234 -0.0757717 0.0677371 0.10627 0.0595722 0.293351 0.506676 -0.179889 0.775576 -0.024761 -0.0154102 2.68191 6.43278 0.195839 1.0644 -0.019274 0.36149 3.14417 0.00467794 -0.159151 -0.277648 0.260397 0.143935 0.853149 1.19841 3.19403 0.0520437 0.131487
internal_weight=0 4.59342e+06 3.04003e+07 9.38722e+06 2.1013e+07 1.71873e+07 1.37542e+07 3.43318e+06 2.05506e+06 4.50162e+06 1.14634e+06 1.37812e+06 1.10178e+07 15760 6282 9478 91801 1.10021e+07 2.73633e+06 19649 6.72925e+06 3.65164e+06 3.39848e+06 2.16278e+06 1.6195e+06 87484 77958 22842 5.80794e+06 3.82174e+06
internal_count=34993671 4593419 30400252 9387222 21013030 17187342 13754166 3433176 2055061 4501618 1146337 1378115 11017839 15760 6282 9478 91801 11002079 2736327 19649 6729254 3651640 3398477 2162782 1619500 87484 77958 22842 5807935 3821744
shrinkage=0.65


Tree=15
num_leaves=31
num_cat=0
split_feature=8 8 11 8 3 8 2 9 1 8 9 9 3 4 0 5 10 9 2 3 0 9 8 1 8 1 3 1 3 2
split_gain=130926 179820 173105 171709 143358 276710 230771 246331 140947 140908 225310 140212 695942 128682 128775 138152 127765 200660 229805 123344 121603 119477 303975 446390 182060 249305 208576 205210 168695 223875
threshold=0.7864560814194651 0.54460558536406867 0.38447183193104745 0.9630462500457867 40.825435000000006 5.9141591538891012 -73.957473377441389 24.348844436223313 40.81877200000001 10.920475928309962 24.348844436223313 0.61826517842858342 40.644211500000004 2012.5000000000002 -73.917963499999985 9.5000000000000018 21.450494732626279 15.432358766846859 -73.975726499999993 40.779323288940432 -74.016245999999981 14.858195041771049 16.397450652625569 40.725125500000011 2.6911266220184058 40.720469000000001 40.677185529296885 40.693714000000007 40.708743524536139 -73.970311499999966
decision_type=8 10 2 8 10 10 10 2 2 10 2 2 10 2 2 2 2 2 8 8 2 2 10 2 8 2 10 2 10 10
left_child=1 2 -1 -2 8 6 7 -6 16 -10 -11 12 -4 -12 -15 -16 21 18 -18 -19 -7 22 23 -5 25 26 27 -23 -25 -30
right_child=3 -3 11 4 5 20 -8 -9 9 10 13 -13 -14 14 15 -17 17 19 -20 -21 -22 24 -24 28 -26 -27 -28 -29 29 -31
leaf_value=5.3893484881049716 -0.18532822892411599 0.18939812538862782 9.4311907372524484 -0.26508583464035013 12.731535555751902 -7.6345955788187609 0.87718720013635243 2.1014894769243626 1.1879317425578115 -3.0914050027926736 1.9995782545042313 -0.016373963047792636 -4.5465945646652122 9.3519417956688748 25.142280013518164 85.322856892347346 23.377871883392668 -1.3515053846163012 0.013898451078156765 -0.29707068125176583 -0.091326323420625397 0.55015400061387898 -0.031103186322221324 2.0030050926750458 -0.097284852278841843 0.0013552822502086678 0.25765826753361259 3.1214991987132117 4.9780033104102417 0.48472542603342306
leaf_weight=2508 2457475 3300096 3327 108934 1423 907 170566 2611 66512 6725 640 4604987 2748 240 83 20 178 102020 236537 86707 201085 33540 630608 94131 7836451 13887558 1047401 21531 4972 81150
leaf_count=2508 2457475 3300096 3327 108934 1423 907 170566 2611 66512 6725 640 4604987 2748 240 83 20 178 102020 236537 86707 201085 33540 630608 94131 7836451 13887558 1047401 21531 4972 81150
internal_value=0 0.11315 -0.0143396 -0.0330661 -0.00790962 0.60434 1.52632 9.00193 -0.0174192 1.35853 -2.68896 -0.0188571 4.78215 11.4523 27.0811 56.6582 -0.0216441 -0.564806 0.0484111 -1.33395 -0.192612 -0.0119127 0.341448 1.19036 -0.0261514 0.0384208 0.496134 2.39303 2.15621 1.14482
internal_weight=0 7.91367e+06 4.61357e+06 2.708e+07 2.46225e+07 376592 174600 4034 2.42459e+07 74220 7708 4.61106e+06 6075 983 343 103 2.41717e+07 425442 236715 188727 201992 2.37463e+07 919795 289187 2.28265e+07 1.499e+07 1.10247e+06 55071 180253 86122
internal_count=34993671 7913666 4613570 27080005 24622530 376592 174600 4034 24245938 74220 7708 4611062 6075 983 343 103 24171718 425442 236715 188727 201992 23746276 919795 289187 22826481 14990030 1102472 55071 180253 86122
shrinkage=0.65


Tree=16
num_leaves=31
num_cat=0
split_feature=9 1 3 10 8 8 11 2 8 4 3 3 2 3 0 8 8 12 3 3 8 3 2 1 1 8 3 8 4 2
split_gain=91002.7 226096 171514 194536 156547 164992 150734 151894 150314 128875 129182 125569 216654 121221 145486 141084 169394 125704 163301 112440 248049 208272 167353 123192 211515 146426 142546 126852 122879 209877
threshold=20.706538447747167 40.764342630859382 40.768677500000003 18.37150518397468 3.0781450841932387 24.930154255606691 7.281976637623802 -73.820716499999975 24.930154255606691 2009.5000000000002 40.857231500000005 40.633811123901374 -74.02649049999998 40.711013500000007 -73.917963499999985 0.028125254791526836 1.0000000180025095e-35 1.0000000180025095e-35 40.857231500000005 40.702095500000006 0.028125254791526836 40.687100000000008 -74.02649049999998 40.735151000000009 40.702424500000006 21.038778055685608 40.633811123901374 2.6911266220184058 2012.5000000000002 -73.941569499999986
decision_type=2 2 8 2 8 10 2 10 8 2 10 8 10 8 2 8 10 2 10 8 10 8 10 2 2 10 8 10 2 10
left_child=1 2 3 19 -4 -6 8 -8 11 10 -7 12 -3 -2 15 16 17 18 -15 20 -1 22 -22 24 25 27 -26 -24 29 -25
right_child=13 6 4 -5 5 9 7 -9 -10 -11 -12 -13 -14 14 -16 -17 -18 -19 -20 -21 21 -23 23 28 26 -27 -28 -29 -30 -31
leaf_value=-2.8575413774853589 0.24778294209670443 -6.7624473644996996 0.46557738908120611 -0.34941822283408969 0.0058059746700122265 4.8571074905352933 0.56722478665212694 -0.70718958575536106 3.6311738460223628 5.7117090406055091 -14.977124226049943 0.10519251939530466 3.9988846539436862 0.093607219827521904 -1.0541803347987744 -0.042617097810293589 1.2748817574835392 -15.375314942703527 8.4084303875317747 0.019854857243752265 -2.4367159765467998 -0.54235136530770478 -0.11114011743967228 -1.1732229326379728 2.2880235227287731 1.1836326446104481 0.5072855076669136 -1.4075581044636292 0.25268209767411465 0.25033983809142973
leaf_weight=14580 643995 895 599861 737402 798043 280 592311 42338 5147 3402 275 2186794 6765 198297 59455 18532708 73101 221 1003 9331598 11378 396586 99548 106219 20486 24727 260520 46918 124410 74408
leaf_count=14580 643995 895 599861 737402 798043 280 592311 42338 5147 3402 275 2186794 6765 198297 59455 18532708 73101 221 1003 9331598 11378 396586 99548 106219 20486 24727 260520 46918 124410 74408
internal_value=0 0.0572392 4.45221e-05 -0.0410604 0.329878 0.0408708 0.312527 0.741858 0.188652 6.48219 -7.64718 0.175992 4.21773 -0.045433 -0.0599973 -0.0550595 0.659086 0.181957 0.208388 -0.00622913 -0.297105 -0.245814 0.0578754 0.115073 0.446347 -0.429887 0.980162 -0.809887 -0.37602 -0.902764
internal_weight=0 1.54849e+07 1.26506e+07 1.12488e+07 1.40186e+06 802000 2.83425e+06 634649 2.1996e+06 3957 555 2.19445e+06 7660 1.95088e+07 1.88648e+07 1.88053e+07 272622 199521 199300 1.05114e+07 1.17978e+06 1.1652e+06 768614 757236 452199 171193 281006 146466 305037 180627
internal_count=34993671 15484891 12650641 11248780 1401861 802000 2834250 634649 2199601 3957 555 2194454 7660 19508780 18864785 18805330 272622 199521 199300 10511378 1179780 1165200 768614 757236 452199 171193 281006 146466 305037 180627
shrinkage=0.65


Tree=17
num_leaves=31
num_cat=0
split_feature=11 8 2 10 10 8 3 3 12 8 7 5 7 11 2 7 4 7 1 1 2 3 8 8 8 7 7 3 8 8
split_gain=81017.2 131040 111697 92100.7 117274 94969.2 114186 89562.3 82375.1 78573.7 77522 75154.4 102871 150310 124601 109860 96257.1 73781.3 70531.7 82977 93506.6 89132.8 72763.6 71772.6 66767.9 77559.8 83152.4 66000.8 106137 200340
threshold=0.55567167938715534 4.2297774006365279 -73.820716499999975 13.606151820352393 16.940300558406282 9.2495448507101425 40.702095500000006 40.765593741210949 1.5000000000000002 0.028125254791526836 20.500000000000004 1.5000000000000002 10.500000000000002 1.245182005576835 -73.969982499999986 1.0000000180025095e-35 2014.5000000000002 5.5000000000000009 1.0000000180025095e-35 40.678843500000006 -73.820716499999975 40.690435500000007 7.7888152879124322 2.083870898335594 0.028125254791526836 1.5000000000000002 6.5000000000000009 40.662676500000011 7.7888152879124322 6.8001011950299626
decision_type=2 10 8 2 2 10 10 10 2 10 2 2 2 2 10 2 2 2 2 2 8 10 10 8 10 2 2 8 8 8
left_child=1 -1 3 -3 -5 6 -6 -8 10 -10 11 -2 13 14 17 -15 -14 -13 -17 20 21 -20 -23 -21 25 -22 -27 -25 29 -29
right_child=8 2 -4 4 5 -7 7 -9 9 -11 -12 12 16 15 -16 18 -18 -19 19 23 24 22 -24 27 -26 26 -28 28 -30 -31
leaf_value=1.2034574452605571 -0.087565291663108447 1.162664105911817 -2.1514010750101495 -0.76358545061551775 2.0105949632523981 0.091536721780142799 -2.2116765685448936 -0.53153694617847158 -9.6954297943577306 -1.5785010333165046 -0.06550010277967408 -1.3808797425213295 0.047674191355348602 0.14923627779215426 0.17053213718551158 -0.71550375972535551 0.25341843087030108 1.8363461887612944 -0.57170170538616327 -0.013999060683034893 -6.3818974365607257 1.7318997611628788 0.28030460711617372 0.30371869536881213 0.9244238245644032 6.642602408927849 1.8569035130574056 -0.15134968485055 -0.5518498022197792 0.83335341150648035
leaf_weight=25164 2591192 18383 13628 166824 5882 257802 18174 51082 545 6677 5605878 3257 15059491 1250835 65077 68117 1026204 39986 42003 5357536 327 18297 72009 137447 16118 2663 3618 2716671 262592 90192
leaf_count=25164 2591192 18383 13628 166824 5882 257802 18174 51082 545 6677 5605878 3257 15059491 1250835 65077 68117 1026204 39986 42003 5357536 327 18297 72009 137447 16118 2663 3618 2716671 262592 90192
internal_value=0 -0.378356 -0.483874 -0.409546 -0.490406 -0.147508 -1.13679 -1.49605 0.00611909 -3.37082 0.00682744 0.0277538 0.0438023 -0.0350444 1.13664 -0.0476875 0.0935383 2.45235 -0.0871561 -0.0792376 0.645813 0.323948 0.883714 -0.0923626 2.51968 5.19665 5.97835 -0.210686 -0.241043 -0.184167
internal_weight=0 556939 531775 518147 499764 332940 75138 69256 3.44367e+07 7222 3.44295e+07 2.88236e+07 2.62324e+07 1.01467e+07 108320 1.00384e+07 1.60857e+07 43243 8.78759e+06 8.71947e+06 155035 132309 90306 8.56444e+06 22726 6608 6281 3.2069e+06 3.06946e+06 2.80686e+06
internal_count=34993671 556939 531775 518147 499764 332940 75138 69256 34436732 7222 34429510 28823632 26232440 10146745 108320 10038425 16085695 43243 8787590 8719473 155035 132309 90306 8564438 22726 6608 6281 3206902 3069455 2806863
shrinkage=0.65


Tree=18
num_leaves=31
num_cat=0
split_feature=1 10 7 9 4 2 8 12 8 9 0 3 9 0 2 11 0 0 4 5 2 11 4 11 0 3 9 2 8 8
split_gain=58152.2 104039 115428 105659 95529.3 272099 395938 339857 209375 130347 93481.7 90998.3 182877 129324 128725 117214 90358.8 85119.4 82652.4 86847.7 75899.9 85547 72524.3 79421.5 67889.2 128256 183390 136696 188905 224405
threshold=40.795514500000003 26.637396896078105 7.5000000000000009 21.601569363144947 2010.5000000000002 -73.782307499999987 0.028125254791526836 1.0000000180025095e-35 1.0000000180025095e-35 24.348844436223313 -73.97626249999999 40.857231500000005 1.2507595440956087 -73.862718499999986 -73.872400999999996 11.312167933824506 -73.77999149999998 -1.0000000180025095e-35 2013.5000000000002 8.5000000000000018 -1.0000000180025095e-35 1.4180266584015253 2013.5000000000002 13.155021833870638 -73.991226598144507 40.760527500000009 22.182446165737925 -73.985667499999991 24.930154255606691 16.397450652625569
decision_type=2 2 2 2 2 10 10 2 10 2 2 10 2 2 10 2 2 2 2 2 10 2 2 2 2 10 2 8 8 10
left_child=11 2 -2 10 16 -6 7 8 9 -7 -4 24 15 -14 17 -13 -3 -15 19 -12 21 -16 -8 -24 25 27 -27 28 29 -1
right_child=1 4 3 -5 5 6 22 -9 -10 -11 18 12 13 14 20 -17 -18 -19 -20 -21 -22 -23 23 -25 -26 26 -28 -29 -30 -31
leaf_value=0.066077245631080278 -0.25636455023780252 -0.43405847268468006 -5.8753089480981844 0.17217646028966482 -0.93683476202456928 7.7485382475390816 -0.98510327587482116 -13.15181362053878 12.683015027504556 39.171238875314209 0.21712730054150023 -6.189296055031436 0.74792416615628032 -1.600240237266628 1.0619546988533319 -0.50771870480036985 -3.1998060031451039 15.079926507299145 1.6838676200592668 1.2534825459269361 -14.548627167794763 17.95163184188516 -5.1997076919154521 23.890359197153114 -0.024562579367333436 0.26497398673126055 -0.28568497796564235 -0.12591068170546835 6.5021009563764816 -2.3764753059378894
leaf_weight=5139656 185843 9588 899 545111 14325 69 1663 142 511 291 101763 2519 90522 754 163 3924 10409 156 34109 51430 41 569 63 107 24300127 1745899 299338 2435816 1923 15941
leaf_count=5139656 185843 9588 899 545111 14325 69 1663 142 511 291 101763 2519 90522 754 163 3924 10409 156 34109 51430 41 569 63 107 24300127 1745899 299338 2435816 1923 15941
internal_value=0 0.2432 0.309527 0.487924 -1.39704 0.333052 9.26396 25.1301 32.5258 50.9978 1.13394 -0.00683302 0.952219 1.31214 9.99769 -4.1985 -2.88263 1.93726 1.18276 0.869312 19.4867 21.8318 0.495581 20.1691 -0.00962066 0.0613944 0.283662 0.00152749 0.0937345 0.0900383
internal_weight=0 956323 919155 733312 37168 17171 2846 1013 871 360 188201 3.40373e+07 98648 92205 1683 6443 19997 910 187302 153193 773 732 1833 170 3.39387e+07 9.63857e+06 2.04524e+06 7.59334e+06 5.15752e+06 5.1556e+06
internal_count=34993671 956323 919155 733312 37168 17171 2846 1013 871 360 188201 34037348 98648 92205 1683 6443 19997 910 187302 153193 773 732 1833 170 33938700 9638573 2045237 7593336 5157520 5155597
shrinkage=0.65


Tree=19
num_leaves=31
num_cat=0
split_feature=9 1 11 11 2 8 3 3 4 4 8 11 4 8 8 9 2 8 8 10 3 7 7 6 3 1 2 11 1 1
split_gain=73919.2 124519 103732 124766 121474 88177.7 203846 131533 133815 118741 222521 118150 301074 253826 114958 113669 109484 104463 94151.6 101462 81933.9 79321.3 108184 123545 84677 196655 81967.7 78253.2 77776.9 74291.5
threshold=20.401147863039952 40.774277500000018 6.3156384888080099 4.8477274337088447 -73.920593630859358 4.3073750407463267 40.707652500000009 40.792366513916022 2011.5000000000002 2009.5000000000002 0.028125254791526836 16.189798186359504 2012.5000000000002 8.4970169547074814 0.028125254791526836 23.042121772939353 -74.02649049999998 2.083870898335594 5.4951302488125426 18.069517329193236 40.816329000000003 7.5000000000000009 15.500000000000002 5.5000000000000009 40.745470500000017 40.740082500000007 -73.998191916748041 9.1751677085211458 40.748975500000007 40.780747500000011
decision_type=2 2 2 2 10 10 8 8 2 2 10 2 2 10 10 2 10 8 10 2 10 2 2 2 10 2 8 2 2 2
left_child=1 -1 3 4 -2 6 9 8 14 10 -4 18 16 -14 -8 17 -13 20 -7 -20 29 -10 23 24 28 -26 -27 -16 -23 -9
right_child=2 -3 5 -5 -6 11 7 15 21 -11 -12 12 13 -15 27 -17 -18 -19 19 -21 -22 22 -24 -25 25 26 -28 -29 -30 -31
leaf_value=0.030480509843958382 4.616065170006979 0.37476811956204231 -1.9058573579012985 -0.30023714723304007 0.23269252115201539 -0.30669715608801879 0.60578610008354661 0.78201814958376725 -0.20687886578705275 0.54818724882153047 0.49224535963912852 -8.7794500703063481 -2.9547051462817087 6.1861498580494647 0.078522692818285694 -0.025537145232055865 -3.0648071448936078 0.10666644779642748 0.12634583833620699 -0.77929877645222645 2.0640253969585389 -0.25375494528054182 -0.1195149378039377 -0.16544147079826202 0.63413698087209491 -0.50069180884359643 0.099206031764098798 -0.03896282242632116 0.14435357944132426 0.12876425145709747
leaf_weight=9985622 4256 464479 25356 693925 7173 761546 145264 214574 1590531 413313 46016 2485 2751 2406 5086660 522800 3294 307679 537654 57893 16013 527874 4730208 1154140 297754 100412 2311117 4527111 341448 111917
leaf_count=9985622 4256 464479 25356 693925 7173 761546 145264 214574 1590531 413313 46016 2485 2751 2406 5086660 522800 3294 307679 537654 57893 16013 527874 4730208 1154140 297754 100412 2311117 4527111 341448 111917
internal_value=0 0.0704356 -0.0299899 -0.407928 2.86923 -0.018807 -0.00380027 -0.0179422 -0.0363047 0.637684 -0.553412 -0.265296 -3.53904 2.01533 0.049032 0.307869 -8.49559 0.587011 -0.238915 0.0589359 0.966919 -0.111648 -0.076918 0.0299758 0.121731 0.208865 0.114196 0.0356907 -0.149827 0.858601
internal_weight=0 1.04501e+07 2.45436e+07 705354 11429 2.38382e+07 2.24702e+07 2.19855e+07 2.08125e+07 484685 71372 1.36803e+06 10936 5157 9.75904e+06 1.17298e+06 5779 650183 1.35709e+06 595547 342504 1.10535e+07 9.46295e+06 4.73274e+06 3.5786e+06 2.70928e+06 2.41153e+06 9.61377e+06 869322 326491
internal_count=34993671 10450101 24543570 705354 11429 23838216 22470187 21985502 20812519 484685 71372 1368029 10936 5157 9759035 1172983 5779 650183 1357093 595547 342504 11053484 9462953 4732745 3578605 2709283 2411529 9613771 869322 326491
shrinkage=0.65


Tree=20
num_leaves=31
num_cat=0
split_feature=10 3 9 1 3 4 8 1 3 1 8 3 8 1 9 11 11 9 8 1 8 9 10 2 2 11 1 8 9 9
split_gain=34405 82925.6 125942 193677 163545 132286 148730 113449 109045 106796 157128 81964 117700 173107 95810.7 102009 93469.3 94805.8 92154.3 74534.5 69091.8 67545 166417 144990 83353 67277.8 67213.2 66919.5 62426.4 66525.4
threshold=14.787179026195872 40.723143500000006 24.348844436223313 40.687503500000012 40.697516500000013 2013.5000000000002 0.028125254791526836 40.745164500000008 40.731722500000011 40.725552500000013 2.083870898335594 40.737244000000011 2.083870898335594 40.723169000000006 23.708606782547864 13.155021833870638 12.282592948162755 22.429371194261211 0.028125254791526836 40.739574716186532 0.10696614333723227 14.02780670302448 12.850201251496713 -74.02649049999998 -74.02649049999998 7.8376861644593125 40.648795000000007 1.0000000180025095e-35 21.674058934840428 23.483767699453882
decision_type=2 8 2 2 10 2 10 2 10 2 10 8 10 2 2 2 2 2 10 2 10 2 2 10 10 2 2 10 2 2
left_child=1 2 9 20 5 -5 -7 11 -9 21 19 14 13 -13 15 -3 25 -18 -16 -11 26 22 24 -24 -1 -14 -4 -6 -17 -30
right_child=-2 7 3 4 27 6 -8 8 -10 10 -12 12 16 -15 18 28 17 -19 -20 -21 -22 -23 23 -25 -26 -27 -28 -29 29 -31
leaf_value=8.5146147655462432 -0.009874589415445334 -0.079878404994979377 -9.5091969740651763 8.45890998586483 -5.8037706014119257 -6.8557222633076051 12.076761222138366 0.66783842668303317 0.12071882398943165 0.12626969732571974 -0.10048469701369801 0.75782528545234729 0.29939365951285479 0.11072868171544463 -5.2964132491088822 8.4233489483525705 4.1978175939413012 -6.218768206623059 0.65071246345586531 0.59329915881738893 0.45829012199537128 -0.26364732481666869 -5.2825513496054581 0.41994652296220708 0.16886859849690997 -0.067356033065967894 0.32759343342561476 2.1251618039336395 -1.4518596168070241 6.473351022783187
leaf_weight=1578 28341015 1181039 723 3477 638 547 258 269737 358430 361907 1099708 265826 263221 509318 2880 875 3626 411 1782 240199 2493 949144 1949 56312 744 1071960 494 1524 1103 753
leaf_count=1578 28341015 1181039 723 3477 638 547 258 269737 358430 361907 1099708 265826 263221 509318 2880 875 3626 411 1782 240199 2493 949144 1949 56312 744 1071960 494 1524 1103 753
internal_value=0 0.0647181 -0.0694583 3.44578 6.75961 10.3393 -1.21218 0.157618 0.54716 -0.0826219 0.0702453 0.0835305 0.201636 0.511758 -0.126592 -0.108774 0.0221359 4.82665 -4.65106 0.480896 -2.3101 -0.340268 0.683463 0.352587 8.98542 0.00760914 -8.48659 -0.330221 5.99581 2.71306
internal_weight=0 6.65266e+06 2.7217e+06 10154 6444 4282 805 3.93096e+06 628167 2.71154e+06 1.70181e+06 3.30279e+06 2.11436e+06 775144 1.18843e+06 1.18377e+06 1.33922e+06 4037 4662 602106 3710 1.00973e+06 60583 58261 2322 1.33518e+06 1217 2162 2731 1856
internal_count=34993671 6652656 2721695 10154 6444 4282 805 3930961 628167 2711541 1701814 3302794 2114362 775144 1188432 1183770 1339218 4037 4662 602106 3710 1009727 60583 58261 2322 1335181 1217 2162 2731 1856
shrinkage=0.65


Tree=21
num_leaves=31
num_cat=0
split_feature=8 8 4 8 4 8 4 8 8 2 8 7 10 3 3 2 3 1 9 8 8 2 8 3 4 7 3 2 3 9
split_gain=43714.6 462005 203912 162281 119611 88280.2 390098 189552 146947 114096 105680 68547.6 63935.9 63664.8 63602.9 56217.5 89609.1 80562.3 70056.4 96599.3 66705.1 137641 126141 108074 69992.7 69609.5 91250.1 63532.5 125253 81192.2
threshold=10.920475928309962 10.047663428257307 2012.5000000000002 11.61576219094289 2012.5000000000002 7.7888152879124322 2012.5000000000002 7.2358244136362675 8.4970169547074814 -74.02649049999998 8.4970169547074814 5.5000000000000009 12.850201251496713 40.633811123901374 40.648213000000005 -73.996067500000009 40.722207500000003 -1.0000000180025095e-35 15.952051208219107 16.397450652625569 16.397450652625569 -74.02649049999998 22.052987993321377 40.697516500000013 2012.5000000000002 17.500000000000004 40.765870500000005 -73.971479499999987 40.662676500000011 8.7913985615680783
decision_type=10 10 2 10 2 10 2 10 10 10 10 2 2 8 10 8 10 2 2 10 10 10 10 10 2 2 10 10 8 2
left_child=1 5 -3 4 -2 7 8 -1 -7 -9 14 -5 -12 -10 -8 20 17 -17 19 -19 21 -13 24 -24 -22 -23 -27 -21 -29 -30
right_child=3 2 -4 11 -6 6 10 9 13 -11 12 15 -14 -15 -16 16 -18 18 -20 27 22 25 23 -25 -26 26 -28 28 29 -31
leaf_value=0.00088401849605577369 -0.28972729787117896 0.55567144496448373 2.1632726995622811 -0.40851848529294005 -1.5246988569301501 -1.5334625194966631 3.5238670982982985 -3.9561330315073842 2.6930003937252747 0.84920997685417954 7.8769867688813884 5.5268813436309534 0.81879961585950389 -0.5158469137103292 -0.38281877718602664 6.6512411322843255 0.068998698268340916 0.86836403055506384 -0.9548741175210046 0.59903516591156158 -0.1852162454793719 1.1771839769820687 1.5909456113201719 -0.039962814344595782 -1.9710359215861781 -0.19656901878190011 21.517843905236663 -0.20730029143195122 -1.740192055882035 0.75676864591745441
leaf_weight=32533816 84602 85384 54687 190643 54467 81545 1821 2121 2656 132580 545 2534 106769 158880 53177 701 887299 32188 61926 28482 21872 42694 25778 51390 16097 28450 82 204430 39667 6388
leaf_count=32533816 84602 85384 54687 190643 54467 81545 1821 2121 2656 132580 545 2534 106769 158880 53177 701 887299 32188 61926 28482 21872 42694 25778 51390 16097 28450 82 204430 39667 6388
internal_value=0 0.00818145 1.82049 -0.152689 -1.18986 0.000506168 -0.463278 0.00626139 -1.26486 1.19007 0.737186 -0.0647716 1.31484 -0.712441 -0.38995 0.00934603 -0.0668612 -0.477567 -0.497691 -0.304373 0.518107 1.26055 0.0424764 0.776681 -1.44972 1.00289 -0.206404 -0.493638 -0.65456 -2.14439
internal_weight=0 3.3214e+07 140071 1.77969e+06 139069 3.30739e+07 405393 3.26685e+07 243081 134701 162312 1.64062e+06 107314 161536 54998 1.44998e+06 1.26108e+06 373782 373081 311155 188897 73760 115137 77168 37969 71226 28532 278967 250485 46055
internal_count=34993671 33213981 140071 1779690 139069 33073910 405393 32668517 243081 134701 162312 1640621 107314 161536 54998 1449978 1261081 373782 373081 311155 188897 73760 115137 77168 37969 71226 28532 278967 250485 46055
shrinkage=0.65


Tree=22
num_leaves=31
num_cat=0
split_feature=1 11 11 4 9 10 3 8 8 3 8 7 10 0 1 2 11 11 1 1 3 11 11 9 9 7 3 10 11 1
split_gain=38215.5 82849.7 120268 58869.9 54085.2 52910.6 75888.2 155537 133704 68675.3 95710.6 57456 46428.2 45867.5 80204.2 157238 210998 269310 225205 156441 159175 99103.1 93792.2 105815 147094 78859.2 74475.5 122623 71004.4 65471.1
threshold=40.711644000000007 6.8641951986471375 1.4180266584015253 2011.5000000000002 0.66173884558356766 17.530349465247809 40.644211500000004 0.15731895248443553 0.10696614333723227 40.69368450000001 5.9141591538891012 19.500000000000004 14.232829992060855 -73.949416999999997 40.741693500000004 -73.970600999999988 8.0546701364803166 6.0752752115804887 40.724688500000006 40.765479000000006 40.77472550000001 6.8417839434336356 16.189798186359504 18.8617259814595 18.29740820619535 12.500000000000002 40.633811123901374 15.854871497033347 7.0123359664947076 40.738275500000007
decision_type=2 2 2 2 2 2 10 10 10 10 10 2 2 2 2 10 2 2 2 2 10 2 2 2 2 2 10 2 2 2
left_child=1 2 -1 -4 5 -3 8 11 -7 -9 -11 -8 -5 -2 15 16 17 25 -19 20 21 -16 -17 24 -24 -15 27 -21 29 -20
right_child=13 4 3 12 -6 6 7 9 -10 10 -12 -13 -14 14 19 22 -18 18 28 26 -22 -23 23 -25 -26 -27 -28 -29 -30 -31
leaf_value=-0.50439614827064727 0.00070357797963704926 0.14116886494175357 0.35712651681146446 0.31392004023622794 0.084888692547504738 4.0911878467649476 -3.2037565819422662 -1.5226734572558827 -0.31861909784731801 1.856547604859879 -0.55252250769454647 -8.6223067022469042 1.6994746300548205 -1.2301170611544823 -0.60656499507510775 -0.04788226623745602 -0.32910095518584986 1.759287920752004 12.832576951462993 -3.0043561990426828 1.0147633942119325 -2.2584859098488215 8.483987793105717 0.5938924636331937 40.644044025007048 3.5674080359019671 -0.060398512835079389 2.9962228741079899 6.0992792665626334 1.2839714276297998
leaf_weight=32250 30853350 72036 41891 13367 1829501 3799 3917 24616 12343 8017 53234 1048 43372 3683 257534 74279 9308 2427 2296 1794 24798 16316 287 493 76 2385 1596294 7268 1464 228
leaf_count=32250 30853350 72036 41891 13367 1829501 3799 3917 24616 12343 8017 53234 1048 43372 3683 257534 74279 9308 2427 2296 1794 24798 16316 287 493 76 2385 1596294 7268 1464 228
internal_value=0 0.129502 0.900407 1.44856 0.0792676 -0.445334 -0.891471 -1.24654 1.1065 -0.931874 -0.364931 -6.68845 2.11239 -0.00843285 -0.155154 0.732199 3.09725 5.78426 10.3017 -0.200326 -0.864905 -1.08459 0.0462756 10.4541 23.4111 1.00851 -0.0766924 2.78199 14.9239 18.1375
internal_weight=0 2.13939e+06 130880 98630 2.00851e+06 179010 106974 90832 16142 85867 61251 4965 56739 3.28543e+07 2.00093e+06 96926 21791 12483 6415 1.904e+06 298648 273850 75135 856 363 6068 1.60536e+06 9062 3988 2524
internal_count=34993671 2139391 130880 98630 2008511 179010 106974 90832 16142 85867 61251 4965 56739 32854280 2000930 96926 21791 12483 6415 1904004 298648 273850 75135 856 363 6068 1605356 9062 3988 2524
shrinkage=0.65


end of trees

feature importances:
distance=132
dropoff_latitude=122
pickup_latitude=90
dropoff_longitude=70
jfk_dist=70
lga_dist=47
year=44
ewr_dist=40
hour=29
pickup_longitude=24
invalid=9
month=7
weekday=6

parameters:
[boosting: gbdt]
[objective: regression]
[metric: rmse]
[tree_learner: serial]
[device_type: cpu]
[data: ]
[valid: ]
[num_iterations: 100]
[learning_rate: 0.65]
[num_leaves: 31]
[num_threads: 0]
[max_depth: -1]
[min_data_in_leaf: 20]
[min_sum_hessian_in_leaf: 0.001]
[bagging_fraction: 1]
[pos_bagging_fraction: 1]
[neg_bagging_fraction: 1]
[bagging_freq: 0]
[bagging_seed: 3]
[feature_fraction: 1]
[feature_fraction_bynode: 1]
[feature_fraction_seed: 2]
[early_stopping_round: 0]
[first_metric_only: 0]
[max_delta_step: 0]
[lambda_l1: 0]
[lambda_l2: 0]
[min_gain_to_split: 0]
[drop_rate: 0.1]
[max_drop: 50]
[skip_drop: 0.5]
[xgboost_dart_mode: 0]
[uniform_drop: 0]
[drop_seed: 4]
[top_rate: 0.2]
[other_rate: 0.1]
[min_data_per_group: 100]
[max_cat_threshold: 32]
[cat_l2: 10]
[cat_smooth: 10]
[max_cat_to_onehot: 4]
[top_k: 20]
[monotone_constraints: ]
[feature_contri: ]
[forcedsplits_filename: ]
[forcedbins_filename: ]
[refit_decay_rate: 0.9]
[cegb_tradeoff: 1]
[cegb_penalty_split: 0]
[cegb_penalty_feature_lazy: ]
[cegb_penalty_feature_coupled: ]
[verbosity: -1]
[max_bin: 255]
[max_bin_by_feature: ]
[min_data_in_bin: 3]
[bin_construct_sample_cnt: 200000]
[histogram_pool_size: -1]
[data_random_seed: 1]
[output_model: LightGBM_model.txt]
[snapshot_freq: -1]
[input_model: ]
[output_result: LightGBM_predict_result.txt]
[initscore_filename: ]
[valid_data_initscores: ]
[pre_partition: 0]
[enable_bundle: 1]
[max_conflict_rate: 0]
[is_enable_sparse: 1]
[sparse_threshold: 0.8]
[use_missing: 1]
[zero_as_missing: 0]
[two_round: 0]
[save_binary: 0]
[header: 0]
[label_column: ]
[weight_column: ]
[group_column: ]
[ignore_column: ]
[categorical_feature: ]
[predict_raw_score: 0]
[predict_leaf_index: 0]
[predict_contrib: 0]
[num_iteration_predict: -1]
[pred_early_stop: 0]
[pred_early_stop_freq: 10]
[pred_early_stop_margin: 10]
[convert_model_language: ]
[convert_model: gbdt_prediction.cpp]
[num_class: 1]
[is_unbalance: 0]
[scale_pos_weight: 1]
[sigmoid: 1]
[boost_from_average: 1]
[reg_sqrt: 0]
[alpha: 0.9]
[fair_c: 1]
[poisson_max_delta_step: 0.7]
[tweedie_variance_power: 1.5]
[max_position: 20]
[lambdamart_norm: 1]
[label_gain: ]
[metric_freq: 1]
[is_provide_training_metric: 0]
[eval_at: ]
[multi_error_top_k: 1]
[num_machines: 1]
[local_listen_port: 12400]
[time_out: 120]
[machine_list_filename: ]
[machines: ]
[gpu_platform_id: -1]
[gpu_device_id: -1]
[gpu_use_dp: 0]

end of parameters

pandas_categorical:[]
